201 128
105 -0.16490826 0.006412412 0.067404635 0.0011438177 0.4286051 -0.05598426 0.10717399 -0.1374745 0.08372642 0.3175063 0.33788672 0.44637898 -0.056725767 0.06397627 0.24080993 -0.24093904 -0.09318611 -0.16204171 -0.21812625 0.38870916 0.06943928 -0.19533315 -0.28317642 -0.54413605 -0.3626789 0.03651551 -0.31096542 -0.48797593 0.58240604 -0.26236373 -0.02225417 0.20191817 0.1542287 -0.5282925 -0.062087536 0.26549867 0.13984148 -0.35532954 0.20723836 0.2499441 -0.3907273 0.40897408 -0.34335047 -0.093499824 0.75255644 -0.017065244 -0.8465609 -0.114144616 0.13276947 0.08086975 0.5277367 0.11423941 0.25232723 0.25806558 0.26891583 0.53972733 0.55945987 0.39029545 0.16069208 -0.014074582 -0.20027176 0.1689909 0.47523585 0.08194076 0.54939806 0.40951943 0.6053053 0.13189627 0.117737345 -0.36176527 0.3180542 -0.29274556 -0.036140077 -0.37762254 -0.12974735 0.13347462 0.0695546 -0.096460775 -0.010410812 0.71866584 -0.17929307 0.1122933 -0.13070865 0.012810798 -0.17127143 -0.45556054 0.307808 -0.31906086 0.099110715 0.42628306 0.06374543 -0.36103177 -0.036238477 -1.0695139 0.05728031 -0.09417316 0.060530607 -0.14313486 -0.2971547 0.0017323269 0.14293167 0.1798467 -0.21951006 -0.33898488 -0.24046221 0.35407332 -0.488562 -0.5141297 -0.046440862 -0.14108236 0.17046466 -0.39676788 0.016765075 0.09955187 0.3381312 -0.16043268 0.27618816 -0.08649159 -0.17684929 0.09514265 -0.2657973 -0.26756108 -0.37466267 0.06400332 0.16033654 -0.03867291 -0.35774055 -0.0114650475
29 -0.116802715 0.09731854 0.061887972 -0.18951496 0.46148363 0.013238036 0.10996464 -0.12599987 0.07494653 0.35608163 0.34725255 0.5557282 0.010837715 0.08776016 0.2507395 -0.40663895 -0.18070382 -0.06999283 -0.18473786 0.41803983 -0.03697007 -0.20594442 -0.17136835 -0.49870527 -0.4169785 0.11715754 -0.23233733 -0.40195364 0.62919295 -0.1567892 -0.0002974025 0.27277467 0.11368763 -0.43176067 -0.23206997 0.2492313 0.16078389 -0.29230985 0.19895418 0.23198198 -0.33067808 0.4483009 -0.27314013 -0.017951358 0.6195988 0.04266466 -0.7819335 -0.13537577 0.07511135 0.0069163535 0.53356737 0.06932117 0.21337207 0.18857294 0.19769403 0.53017306 0.58351344 0.3903195 0.22194932 -0.09100432 -0.2363224 0.04916465 0.5046861 0.01578047 0.55571836 0.30953988 0.6425994 0.09760846 0.2037496 -0.39727908 0.32393625 -0.27761847 -0.124486186 -0.4013722 -0.13574608 0.09413162 0.15503253 -0.12635556 0.025934093 0.8440032 -0.1818634 -0.026400443 -0.18963464 0.04207068 -0.18516938 -0.41926166 0.37921676 -0.35913906 0.07162557 0.35601324 -0.043068018 -0.40287095 -0.08391088 -1.1959733 0.12121134 -0.19501635 0.038721398 -0.09268514 -0.29681885 0.06047174 0.200352 0.22872348 -0.112418234 -0.37390193 -0.35229647 0.4361935 -0.5184649 -0.43168378 -0.10380411 -0.04346355 0.2129765 -0.3892895 -0.028306333 -0.046355095 0.24962184 -0.10670016 0.21103238 -0.061274502 -0.17649207 0.12864783 -0.30552647 -0.27863663 -0.3616911 0.04350721 0.06377631 -0.07250869 -0.38829598 -0.107214175
188 -0.15054485 0.110674486 0.02648776 -0.16844364 0.49480188 -0.07231061 0.09506135 -0.19495623 0.030757504 0.2962065 0.3891294 0.51463467 -0.08542879 0.13925241 0.34431237 -0.28437188 -0.07740113 -0.15409565 -0.1772685 0.44672152 0.04331661 -0.24490832 -0.24513403 -0.45698023 -0.35984433 0.08535641 -0.31633553 -0.395533 0.6268494 -0.26825398 -0.032463867 0.108660676 0.2065721 -0.53468263 -0.10606413 0.23995999 0.1844257 -0.29941934 0.25432667 0.34286472 -0.30301446 0.33149302 -0.15648937 -0.05184938 0.62065667 0.13666019 -0.746248 -0.14409922 0.12735485 0.05874748 0.52262515 0.1420262 0.32483754 0.11497895 0.21962595 0.53894025 0.6200884 0.40749884 0.2889235 -0.081063844 -0.2172653 0.13393536 0.4705715 0.05447152 0.52136195 0.35616457 0.6132022 0.16811457 0.06268644 -0.34855226 0.267535 -0.17817132 -0.022775711 -0.35273597 -0.09777591 0.05868554 0.04790992 -0.120861426 -0.031906866 0.6986611 -0.0806403 -0.007525268 -0.26662752 -0.039947353 -0.22110203 -0.42169294 0.34190303 -0.30814952 0.09715706 0.30993152 0.0346815 -0.387228 -0.078178875 -1.0667092 0.005750721 -0.024166012 -0.00080024346 -0.08532554 -0.32142666 0.04984821 0.17078939 0.16936858 -0.15749043 -0.34949577 -0.27251992 0.42192298 -0.39469042 -0.43768147 -0.03987668 -0.0027735508 0.11980104 -0.29487965 -0.043439534 -0.07166788 0.33566576 -0.15899743 0.23409882 -0.10484653 -0.19334115 0.042789303 -0.2882144 -0.151444 -0.38623476 0.032141995 0.10603004 -0.07884162 -0.21467721 -0.036023196
49 -0.13506001 0.0015420101 0.07851219 -0.21337609 0.3992831 -0.15924506 0.09277726 -0.21309382 -0.017741116 0.30022475 0.42869866 0.4985428 -0.079795 -0.00553971 0.2297433 -0.3203855 -0.05248927 -0.13342102 -0.20301002 0.38761547 0.060446028 -0.19691223 -0.2175319 -0.57051224 -0.4176344 0.08358409 -0.35685256 -0.41566056 0.46245074 -0.22272827 -0.09551351 0.13317227 0.102768935 -0.3799133 -0.16221103 0.22753148 0.1368228 -0.28233296 0.33385688 0.30593473 -0.377141 0.37610653 -0.2282803 -0.11980174 0.607065 0.08463976 -0.78524864 -0.1542138 0.08998768 0.015118391 0.49456447 0.10970213 0.2769782 0.34510732 0.26404634 0.47205183 0.6721052 0.3327483 0.16966729 -0.013135171 -0.24005377 0.06252447 0.49035442 0.05158423 0.53224236 0.37965453 0.6318129 0.15530819 0.11960172 -0.34377345 0.31304514 -0.23419948 -0.1208353 -0.47821248 -0.107571006 0.108780794 0.06876872 -0.15491411 -0.01858028 0.7099805 -0.14282084 0.017258812 -0.14203088 0.09792489 -0.23099297 -0.47112125 0.23505849 -0.281673 0.048918914 0.33026344 -0.059849862 -0.40870264 -0.08015373 -1.0234866 0.13596015 -0.11482874 0.011918262 -0.10509518 -0.30317453 -0.0028610264 0.07216944 0.15651767 -0.15632166 -0.29945147 -0.29050374 0.38230938 -0.3682363 -0.3826997 -0.09847124 -0.24606943 0.10651853 -0.30166358 -0.0133281695 0.030367585 0.38081524 -0.121189475 0.19907838 -0.06838295 -0.14696208 0.007958923 -0.4437266 -0.31486186 -0.32857725 0.08768143 0.11409479 -0.18337251 -0.26007143 -0.0494351
143 -0.1455652 0.10499387 -0.066115 -0.12345454 0.461517 -0.13221638 0.14576317 -0.26457587 0.06391689 0.3855286 0.40185142 0.5637928 0.012739138 0.1004525 0.34423995 -0.37369296 -0.0070710205 -0.16763392 -0.15052763 0.37021163 -0.029570382 -0.2117773 -0.22162436 -0.46682885 -0.25441098 0.098280124 -0.20130719 -0.43116388 0.6658467 -0.33344063 -0.039226223 0.16970894 0.12859878 -0.512849 -0.16106635 0.19317889 0.08869959 -0.34429625 0.19416256 0.21342129 -0.37361652 0.38367838 -0.29277 -0.06252064 0.61228234 0.07273945 -0.80753064 -0.123619474 0.10499763 0.08575249 0.4665216 0.14726762 0.34225363 0.2305331 0.15028013 0.518052 0.49832305 0.43353269 0.22835356 -0.08663425 -0.16862002 0.12950525 0.44600588 0.06569544 0.5009317 0.398396 0.54818505 0.10187039 0.010540974 -0.34677914 0.20965663 -0.24318032 -0.037474412 -0.385248 -0.12837629 0.11620924 0.09032583 -0.10140633 0.01766633 0.7737533 -0.17965764 0.044069767 -0.17426392 0.037275113 -0.20081532 -0.52747774 0.31008613 -0.31469777 0.14343648 0.33799213 0.030009136 -0.38549617 -0.06387281 -0.962878 0.045145206 -0.11796044 0.15859051 -0.11753416 -0.25879392 -0.009534296 0.028818997 0.14832576 -0.20374079 -0.26308227 -0.28844437 0.3460589 -0.43641856 -0.48922536 -0.022279462 -0.15573774 0.200565 -0.29997995 -0.0027016464 0.04368953 0.34709468 -0.13451661 0.31253278 -0.084121175 -0.121650636 0.09399644 -0.32134897 -0.19449574 -0.34684908 0.06496762 0.13027135 -0.07659778 -0.3277116 -0.07626113
197 -0.030199956 0.06756519 0.04884207 -0.15069339 0.47092083 0.03272573 0.051874537 -0.24503908 0.05325975 0.3749154 0.36704084 0.4638211 -0.12712917 0.16714092 0.20940582 -0.32146466 -0.12639491 -0.2998282 -0.24373023 0.45280406 -0.03964646 -0.23335847 -0.23991314 -0.4914375 -0.32507 0.13693276 -0.32308003 -0.4321013 0.5564988 -0.2934442 0.01879603 0.17513147 0.14723288 -0.48034966 -0.15183549 0.14038827 0.16957293 -0.31434575 0.1732056 0.34121457 -0.30680373 0.26346314 -0.2001641 -0.04215002 0.59535956 0.04878766 -0.76637214 -0.053194884 0.049395133 0.084300585 0.5057177 0.15900378 0.22922824 0.22162786 0.22402303 0.49494544 0.5400437 0.3188463 0.198182 -0.033515066 -0.24806263 0.0839672 0.45886162 0.08926684 0.5330731 0.39823076 0.66475475 0.17089707 0.00810198 -0.3642444 0.27651432 -0.20987631 -0.07403969 -0.4305903 -0.12281071 0.115499765 0.08580635 -0.1852537 -0.014433688 0.7068995 -0.17968746 0.07887453 -0.13311563 -0.0045610764 -0.27725032 -0.48582152 0.35070986 -0.25164208 0.107815996 0.4948031 0.03258916 -0.35583594 -0.11064951 -1.128848 0.07331998 -0.016510177 0.04081119 -0.12830302 -0.31762803 0.024831971 0.13143973 0.07941592 -0.13911156 -0.289702 -0.24348305 0.40440986 -0.507328 -0.5207662 -0.06685085 -0.094286695 0.14695445 -0.3078736 0.10357231 -0.059810948 0.28452876 -0.05914313 0.2445809 -0.017690627 -0.21461216 0.14529577 -0.24767797 -0.24469905 -0.35116202 0.06600493 0.1820988 -0.031004224 -0.3393616 0.02967536
9 0.023400517 0.30233642 0.30939266 0.20529228 0.12897843 -0.34918743 -0.11925046 0.28104722 0.21951279 -0.14718017 0.41098192 0.24792394 0.136351 -0.42684546 -0.17758352 -0.48069513 0.13399582 -0.14519161 0.09531248 0.26950917 0.35118237 -0.11167162 0.39947063 -0.20011261 0.06987025 0.14044772 0.58186126 -0.7253867 0.43149662 -0.33909583 -0.062895834 0.18648343 -0.6876474 0.3567835 0.007887267 0.7124222 0.14403309 -0.026308358 -0.4495671 0.39623037 0.43670177 -0.20405465 -0.47048795 0.20501716 0.47067752 0.3176565 -0.25740683 -0.63836503 -0.54484016 -0.24761206 -0.13849622 0.23621991 -0.08042678 0.63639164 0.8783935 0.2516448 -0.0035522613 0.23918147 0.08158272 -0.60636395 0.085692756 -0.13787663 0.56315166 -0.20856261 0.057706185 0.32883522 0.16594926 0.46412382 -0.11048703 0.230058 0.33160937 -0.43029517 -0.35727987 0.035875585 0.23014094 -0.025800994 -0.27984455 -1.0519646 -0.2718371 -0.33200157 -0.2496016 0.061633606 -0.09922391 0.2553891 -0.047445267 -0.61149186 0.35077015 -0.044236954 0.6630351 0.50818884 -0.08377963 -0.30089632 0.16942017 0.03329377 -0.13250074 0.10924865 -0.18549359 0.20044266 -0.54123145 0.32614917 0.13687673 0.47192654 0.10240183 -0.3405084 0.45626327 0.18779086 -0.38205522 -0.6351691 -0.46877506 -0.75132424 0.19074701 -0.33034003 0.14323069 -0.32752916 1.0576254 0.24509667 0.7248508 -0.12246544 -0.50605714 0.109779775 -0.0100906165 -0.3223477 0.18889344 -0.59119457 -0.2874191 -0.3429553 0.3046843 -0.019693762
169 0.017355066 0.32148635 0.27693573 0.17640501 0.11995816 -0.4150757 -0.14501126 0.30066162 0.24995264 -0.07964097 0.4030821 0.17314371 0.27549043 -0.4779466 -0.122268796 -0.4839927 0.16292225 -0.08811381 -0.002616852 0.28004944 0.19073988 -0.15793617 0.4577813 -0.07346228 0.034671318 0.060373683 0.4487407 -0.5664335 0.45907918 -0.25806636 -0.21828395 0.16324297 -0.72517556 0.26219758 -0.027888881 0.7626415 0.13428745 -0.027640207 -0.4851061 0.24245992 0.38397548 -0.14695878 -0.49331132 0.28947082 0.44370797 0.36196852 -0.34016538 -0.67957914 -0.5720651 -0.15570931 -0.10555253 0.22596714 -0.03385289 0.56333643 0.82407343 0.12955967 0.019595254 0.31830445 0.009758685 -0.6172345 -0.07152943 -0.09846131 0.5026432 -0.20352286 0.020150123 0.3070409 0.31420305 0.5286351 -0.092274584 0.19464229 0.32689813 -0.46225548 -0.42773005 0.11866969 0.28208232 -0.04733358 -0.35288578 -1.0808728 -0.2632781 -0.31054673 -0.26351073 0.029721692 -0.029797558 0.21728173 -0.017668063 -0.6334324 0.33181936 -0.15074538 0.6539035 0.3524943 -0.06925447 -0.32293725 0.19332345 -0.024007378 -0.21207209 -0.052403763 -0.100239895 0.26632524 -0.616923 0.28187904 0.21752211 0.54161763 0.11389336 -0.29751062 0.35841516 0.18265215 -0.29670843 -0.66416246 -0.5735238 -0.7666015 0.28049597 -0.26119286 0.16676882 -0.31261653 1.0758295 0.20224461 0.7274173 -0.1726584 -0.5897944 0.064227514 -0.0695111 -0.34412777 0.2255894 -0.67376184 -0.24616666 -0.4141232 0.36636284 -0.05267033
174 0.15834305 0.45695254 -0.4210697 0.1549871 0.39507806 -0.085946776 -0.27646858 0.29036343 0.47592506 0.3630245 0.41622666 0.21822129 0.13251913 -0.08295867 -0.3304702 0.12484359 -0.10842955 0.12119908 -0.67388165 0.64858764 -0.051676337 -0.10870209 0.012506762 0.21049185 -0.35417467 0.34076583 -0.44335604 -0.6963114 0.22856602 0.13956228 0.43006182 0.28761715 -0.43779597 -0.08115037 0.14555249 0.5492494 -0.044981968 0.067263454 0.25042593 0.3125071 -0.4744845 0.00061057694 -0.2088119 0.18546595 0.16023988 -0.12686662 -0.9614922 -0.16410688 -0.38623276 -0.03243812 -0.0072184084 0.2944772 -0.41502154 0.09777658 0.34937146 0.26257846 -0.036243595 0.5499715 0.08877869 -0.69578946 -0.48855546 -0.078051046 -0.33550167 0.040922508 0.34251136 0.23794028 0.41096756 0.07203523 0.17586175 -0.14263393 0.23880869 -0.5151112 0.33319968 -0.05811457 0.36854744 0.17610984 0.33207843 -0.2702213 -0.09889816 0.01980168 -0.11009582 -0.115611024 0.15917377 0.37376758 0.023319455 -0.4574249 0.41317585 0.23287235 0.29704288 0.40519497 0.056352578 0.0325015 -0.011660195 -0.8682609 0.2126419 0.25223967 -0.16273177 -0.29132354 -0.118281804 0.22491471 0.38545546 -0.15766771 -0.16126795 0.08828421 0.19812329 -0.16715968 -0.033602938 -0.31123126 -0.6032867 -0.54779994 0.27382916 0.12760372 -0.42840257 -0.24703498 0.26744553 0.28673822 -0.23820785 -0.1880881 -0.44773063 0.3634437 -0.08447928 -0.3608337 0.6850405 -0.47489268 -0.07600161 -0.12271146 0.34153867 -0.16391608
113 0.15641667 0.50508004 -0.4307187 0.14122953 0.47380888 -0.031375013 -0.27069658 0.36298245 0.47213906 0.29196718 0.4616221 0.18331258 0.14304107 -0.0129316235 -0.35204428 0.08322538 -0.11691814 0.18959549 -0.71812236 0.6030773 -0.04107034 -0.20613402 0.08483197 0.1525884 -0.3993617 0.3925906 -0.39882922 -0.74324393 0.25515828 0.17898887 0.36288503 0.24315809 -0.3743069 -0.10768371 0.07942363 0.45692736 0.039829865 0.06658928 0.34805676 0.30368677 -0.49792466 0.018749464 -0.19159237 0.14740968 0.16121633 -0.1376499 -1.02949 -0.21603948 -0.4230342 -0.16252005 -0.037600033 0.14777735 -0.32656538 0.21217619 0.44042557 0.2769197 0.090148285 0.5632619 0.08227772 -0.63393605 -0.47720066 -0.09454906 -0.29074582 -0.08679242 0.3137602 0.38804394 0.49989274 0.029393915 0.17542665 -0.11404413 0.2453503 -0.4149255 0.33444655 -0.047007386 0.3607396 0.15448922 0.36591843 -0.23888913 -0.13290036 0.07960975 -0.0810694 -0.14493494 0.122615956 0.2647123 -0.0017906966 -0.49959028 0.41021383 0.2526108 0.23324652 0.4791108 -0.015439914 -0.01490234 -0.048937943 -0.83990854 0.1797025 0.16013214 -0.23519875 -0.21519731 -0.096079744 0.23464492 0.42885023 -0.09203354 -0.11375856 0.06648314 0.23018096 -0.25790912 0.014607731 -0.3403309 -0.54686964 -0.4343866 0.24462584 0.12056639 -0.3958039 -0.19940391 0.31126755 0.35758898 -0.106542945 -0.2020074 -0.44437292 0.30425265 -0.09030721 -0.2918267 0.7119522 -0.36236188 -0.018305652 -0.24369372 0.25924808 -0.17341796
120 -0.09646925 0.23726542 -0.025985094 0.64316577 0.020432258 0.039078943 0.15760201 0.046101026 0.07820918 0.18092552 0.026173312 -0.1168661 0.18558484 -0.027855853 -0.07354944 0.46110466 -0.14595735 0.309488 0.23218703 0.12801072 -0.071686104 0.17921464 -0.48625967 -0.4165968 -0.20627697 -0.48563364 -0.10078863 -0.5366397 -0.25312334 0.032755975 0.2352542 0.16528925 0.08840916 0.25197968 0.07879998 0.087195106 0.06506249 -0.12600881 -0.29643884 0.08019017 0.08230844 -0.08722422 0.23836362 -0.08567248 0.33395976 -0.046568923 -0.3831744 -0.563374 -0.087389395 0.050315984 0.11221765 0.48694474 0.09904834 -0.15319365 0.11983405 0.24153213 0.51719725 0.56404644 -0.09465911 0.05760113 -0.36524513 -0.019818654 -0.17879958 -0.25834277 0.2700428 -0.1811668 -0.19162075 -0.45271274 -0.0077312114 0.29556206 -0.13482322 0.13303947 -0.6657303 0.2435448 0.01715921 -0.4292446 0.06996476 -0.22853655 -0.05105044 0.45857984 0.20020266 -0.17590699 -0.019214183 0.442162 0.691918 -0.009918439 0.11550796 -0.028538594 -0.025715971 0.35762045 0.014141868 -0.10726704 0.15118882 0.027647616 0.080909766 0.20423278 -0.28858796 0.18007264 -0.59614193 -0.17970999 0.3084123 -0.268593 -0.2634225 -0.14648464 0.09819933 -0.06836774 0.083391346 0.18274362 -0.40373778 -0.16002883 0.31893864 -0.16823515 0.21036747 0.34666324 0.04816112 -0.2077487 0.25262338 0.120589264 -0.47803482 0.35373306 -0.20496634 -0.29616153 -0.10921626 -0.4385792 0.3440536 -0.03466855 0.59059465 -0.25916657
93 -0.10598918 0.21995258 0.012660667 0.6727063 0.0077161123 0.08397766 0.09763207 0.040577028 0.04841292 0.3526359 0.05994486 -0.14873856 0.22239748 -0.04797164 -0.042547423 0.46653557 -0.20600623 0.23421933 0.18575372 0.103640705 0.010316495 0.29009846 -0.5630265 -0.46332777 -0.18562697 -0.4299426 -0.03283537 -0.4040218 -0.26085055 0.11861762 0.23087598 0.119267374 0.17122222 0.25926042 0.12001375 0.02682869 0.09973311 -0.103111446 -0.2513483 0.044188477 0.13670874 -0.18918154 0.24998371 -0.1394983 0.31341022 -0.11685589 -0.4339457 -0.5976588 -0.09630641 0.055765875 0.069201924 0.4327625 -0.038343135 -0.1937367 0.10811443 0.3003317 0.5380972 0.6420987 -0.10764167 0.059397776 -0.3872439 0.023662478 -0.19588119 -0.26059335 0.25488535 -0.16911824 -0.14518408 -0.46231008 0.043312415 0.24799886 -0.13268588 0.08603037 -0.69454116 0.2610939 0.046079367 -0.43591234 0.11155776 -0.23689419 -0.087080136 0.41381517 0.23699994 -0.22099616 -0.0790802 0.4962614 0.6483998 0.0624744 0.09695058 0.00057425164 -0.07178522 0.390775 0.0032825298 -0.0014817283 0.109068684 -0.04152057 0.076454856 0.17560813 -0.24000308 0.17032203 -0.69181854 -0.18520963 0.37137297 -0.23614897 -0.25258175 -0.12519151 0.028693331 0.014214617 0.12050205 0.16109869 -0.5490474 -0.11807937 0.29714224 -0.19921263 0.21499346 0.34653106 0.031695355 -0.21240598 0.2007933 0.12603162 -0.54099023 0.40162802 -0.29467157 -0.3094075 -0.16282901 -0.5339133 0.36251107 0.060865514 0.5365027 -0.33591273
75 -0.13469361 -0.07877326 0.009868863 -0.017047156 0.1748279 -0.11125858 0.27612194 -0.1525804 -0.020403476 0.16816467 0.27388787 -0.08247377 -0.015123392 0.055346973 -0.15390204 0.006964982 -0.23369457 -0.32474634 -0.13762002 -0.24923953 0.32448304 0.057721972 0.07186459 0.10265293 -0.0988554 0.24437097 0.13495594 0.03405946 0.3161201 -0.3149345 0.17218068 0.16675419 0.09953632 0.12822473 0.05374719 -0.011174923 -0.015989365 -0.11591479 -0.426107 -0.09886866 -0.016658423 0.08072327 -0.05808227 -0.053812914 -0.036700856 -0.057699077 -0.07344575 -0.13712998 0.23036468 -0.02174286 0.07094141 0.36644033 -0.020502675 -0.034292765 0.03574871 -0.08158113 0.11189747 -0.19760793 -0.26030958 -0.051573448 -0.14203899 0.2740348 -0.10473969 -0.015934942 0.025657913 -0.16417296 -0.11612612 0.25171155 0.09772899 0.05890051 -0.045439124 0.11505584 -0.14014712 -0.14335322 -0.14799 0.23992555 -0.031051237 -0.028422164 -0.04573396 -0.1587818 0.006439218 -0.0005691942 0.0371011 0.108405605 0.121986546 -0.044755545 -0.077500045 -0.09367008 0.12588398 0.0027454395 -0.1533493 0.13885333 0.13654228 0.0030433568 0.17705491 0.31021217 -0.044314258 0.11937138 0.015893932 0.047661632 -0.0056817173 0.04201237 0.092829645 -0.106479526 0.14576188 -0.020977253 0.14188422 0.26761386 -0.054420203 0.26551563 0.18862271 -0.0032087907 -0.110725366 -0.10122346 -0.0017309141 0.31753024 0.07702569 -0.042740367 0.047689445 0.07993218 -0.18857267 0.020967802 0.1046737 -0.42716643 -0.07744996 -0.39530784 0.10608908 -0.14522831
31 -0.14736658 -0.036275655 0.018435642 -0.03149525 0.14705993 -0.1747568 0.2564827 -0.16150682 -0.055550415 0.18374704 0.35127422 0.020222751 0.03750106 0.05772464 -0.16970414 -0.0046167765 -0.25494552 -0.24825065 -0.15499412 -0.23379645 0.2806188 0.08303651 0.035066575 0.07857468 -0.08045347 0.26170287 0.042298276 0.07688631 0.35282728 -0.28216583 0.15231986 0.20590177 0.05442083 0.05556642 0.09251864 -0.029871808 0.03502694 -0.12039279 -0.37463418 -0.06868692 0.026561772 0.10639724 -0.03962743 -0.09149334 -0.04509028 -0.034768708 -0.08707891 -0.15391663 0.21652298 -0.019958079 0.059543382 0.37148914 -0.040624566 -0.027698481 0.052199364 -0.10501601 0.04307537 -0.17193896 -0.2514184 0.0044375123 -0.076591104 0.16450064 -0.08549542 -0.037521992 0.036776625 -0.12707973 -0.0219921 0.19534975 0.13653657 0.046739776 -0.025556568 0.082078815 -0.24720742 -0.2352394 -0.14042158 0.23984359 -0.096948706 -0.0031763238 -0.05798428 -0.03224778 -0.021121468 -0.0072454326 0.041320585 0.18765526 0.13321628 -0.031019444 -0.06199606 -0.07378813 0.12783407 -0.033612374 -0.09872393 0.11860016 0.1450526 0.0677602 0.20444961 0.24790925 0.03752175 0.06306531 0.0056049554 0.029610466 -0.02173542 0.058761794 0.07239487 -0.0752387 0.098917626 -0.056636173 0.19593625 0.28656653 0.04745951 0.25898033 0.14820884 0.029525608 -0.14235014 -0.08696674 -0.051921595 0.34946558 -0.026121065 -0.05618844 -0.0036643276 0.12203906 -0.20250465 0.047266975 0.17871805 -0.39386338 -0.19328254 -0.35368285 0.098569475 -0.18265113
199 -0.05943266 -0.07656747 0.0027047305 -0.035644222 0.14631356 -0.12794618 0.3146896 -0.12411305 -0.088848375 0.24774416 0.30449384 -0.041495577 0.071755305 0.08266991 -0.16326262 -0.048311245 -0.21971773 -0.27962852 -0.11532672 -0.23756827 0.24821253 0.09679721 0.06317831 0.06583945 -0.06237875 0.28424066 0.12021989 0.019565348 0.34004813 -0.32605258 0.1985729 0.16744448 0.10073518 0.05862633 -0.022052627 0.030287884 0.107690185 -0.13813084 -0.4335128 -0.034253333 0.060819138 0.07880482 -0.0077451756 0.022299115 -0.009497953 -0.011482527 -0.053664204 -0.03318009 0.238259 -0.07513901 0.054908305 0.3963905 0.0106226485 -0.01139355 0.079070374 -0.036067247 0.01334673 -0.27529582 -0.29087585 0.053135328 -0.1617788 0.25263053 -0.20510873 0.024842784 0.027392918 -0.18945542 -0.041188225 0.18986908 0.16213538 0.059042487 0.042717896 0.101281665 -0.27496198 -0.16444416 -0.2604887 0.26155794 -0.08458468 -0.05431861 0.009804849 -0.024671208 -0.10594665 -0.057109598 0.104560494 0.1878214 0.19792342 -0.030816037 -0.06524893 -0.12833397 0.19365273 0.012339282 -0.1266943 0.111545786 0.1971612 0.12749061 0.19816858 0.32201007 0.030452391 0.068821535 0.043851078 0.104766145 -0.030657174 -0.018935047 0.13200553 -0.01982825 0.16426131 -0.022737289 0.18690234 0.22909805 -0.060368795 0.21486983 0.1642093 0.056202963 -0.13944177 -0.08598726 -0.06977718 0.32224163 0.018066835 -0.06904307 -0.009539879 0.06903796 -0.21484797 0.026799204 0.12850367 -0.40611827 -0.14336337 -0.33418435 0.13876747 -0.17877573
28 -0.045310564 -0.06192873 0.07505854 -0.0692233 0.24484926 -0.10679981 0.33193368 -0.13721487 -0.16305657 0.18898499 0.2929838 -0.13164982 0.07452076 0.12361885 -0.17957327 -0.038443685 -0.25195476 -0.3165817 -0.16584428 -0.2886179 0.28731284 0.1377732 0.11670687 0.036341663 -0.008007322 0.25033033 0.16192348 0.026116842 0.30515411 -0.31375632 0.16753975 0.27314192 0.11505216 0.115345515 0.051475853 -0.049140852 0.07954527 -0.108176224 -0.3787666 -0.0072127436 0.0042864056 0.095955744 0.019026455 0.00090033 -0.087404944 -0.028664578 -0.08916281 -0.07523073 0.25455952 -0.028750055 0.046315167 0.3499333 -0.06874741 -0.039043963 0.08903288 -0.03896151 0.09269852 -0.2172196 -0.25574175 -0.0011980123 -0.14833984 0.20138606 -0.17329805 -0.047869597 0.06059923 -0.23515964 -0.045952465 0.22123852 0.08085666 -4.0321247e-06 -0.022869285 0.09167317 -0.21021578 -0.1865519 -0.14952269 0.18971813 0.04432558 -0.08242225 0.038249962 -0.14210889 -0.023874633 -0.04299008 0.08619797 0.2155189 0.10741394 0.006534778 0.0057596876 -0.0030780132 0.17534783 0.04787435 -0.18297364 0.07854559 0.13285898 0.021392914 0.19521928 0.30195484 -0.065193824 0.07773724 -0.013922165 0.12181943 -0.07607206 0.010483718 0.09594276 -0.05357147 0.16158345 -0.045223147 0.17688441 0.31006253 -0.045954753 0.18666962 0.25760275 0.032236587 -0.12106446 -0.16828127 -0.006706423 0.438452 0.018368142 -0.02486801 -0.0038353235 0.044862382 -0.18080966 0.0594363 0.19457287 -0.35418764 -0.1501185 -0.2863204 0.082760274 -0.22301356
44 -0.13535911 -0.08655524 0.0046928157 -0.052114345 0.10974821 -0.10768238 0.33989024 -0.15427047 0.0014819263 0.0919675 0.29436943 -0.03470113 0.054112595 0.044050824 -0.12882032 -0.08203091 -0.26681644 -0.24234796 -0.079435445 -0.21755517 0.24542792 0.055269986 0.04309118 0.04600664 -0.099436305 0.27089703 0.0972708 -0.05216351 0.3465208 -0.32238245 0.19249585 0.14998403 0.048771735 0.047947843 0.05653147 0.08634633 0.04679645 -0.14846179 -0.35958177 -0.10258769 0.041574094 0.11199878 -0.06937561 -0.058762725 -0.036169346 -0.017057704 -0.10562606 -0.17787045 0.23202282 -0.041816026 0.1277483 0.26277006 -0.013127283 -0.005454958 0.10191132 0.0064980574 0.12566528 -0.24187712 -0.21632628 -0.07863042 -0.14631218 0.24035515 -0.09894402 -0.0058677886 0.04517364 -0.097945206 -0.02360632 0.21092659 0.21312258 0.059165016 -0.022756094 0.08556287 -0.23375669 -0.1555168 -0.11322691 0.26018348 -0.07544399 0.03125448 -0.031582363 -0.11710069 -0.025515974 0.008638325 0.076454245 0.10516381 0.104932144 -0.028390015 -0.0354877 -0.0902843 0.122531004 -0.023895076 -0.13100839 0.118373744 0.11716605 0.061091118 0.18820406 0.29388702 -0.047216415 0.15781713 0.075704895 0.06844936 -0.031774037 0.072248586 0.054788336 -0.09823617 0.103233434 0.08262555 0.14869274 0.33858812 -0.031360995 0.2631718 0.18090506 -0.03396171 -0.16106218 -0.09625956 -0.0717274 0.3267794 0.004873435 -0.062355492 0.035865672 0.10279576 -0.14436541 0.028790452 0.1581472 -0.41481844 -0.14684428 -0.32873538 0.15990038 -0.09288143
48 -0.113203555 0.030349433 0.103444 -0.0511173 0.21328147 -0.14837486 0.30192378 -0.15701525 -0.09635391 0.081251785 0.27327275 -0.11306175 -0.051844075 0.032720637 -0.17844352 -0.037244678 -0.21637934 -0.29527068 -0.09034243 -0.2445876 0.3100594 0.022971103 0.17058773 0.024483748 -0.048109286 0.26792073 0.1133409 -0.012596409 0.34118864 -0.26895776 0.18217734 0.20461184 0.041847043 0.12904304 0.0940567 0.0225991 0.012111214 -0.10018696 -0.38987097 -0.058397602 0.02883012 0.13844642 -0.01950204 -0.0629657 -0.027318833 -0.051943798 -0.052920777 -0.19358814 0.21537533 -0.038741373 0.07755009 0.27586 -0.023957813 -0.027583802 0.12363188 -0.0820403 0.0897558 -0.20597562 -0.3000711 -0.07323217 -0.089446716 0.22370791 -0.15976478 -0.13304362 0.044837635 -0.20495658 -0.06407891 0.15093309 0.07922182 0.054919764 -0.034882147 0.035514355 -0.20461819 -0.1664266 -0.13917126 0.32845783 -0.0903353 -0.10187043 -0.06573846 -0.13179272 -0.03146171 -0.041299906 0.11955091 0.14114492 0.14276572 -0.026613444 -0.04871702 -0.027261293 0.051078193 -0.08355305 -0.19072056 0.04679249 0.14977385 0.025761297 0.18361706 0.25981662 0.0040248986 0.16274984 0.017195499 -0.016581133 -0.044444058 -0.049558356 0.058919895 -0.011235821 0.19042677 -0.040995244 0.13877882 0.33519682 -0.08592344 0.18712185 0.23968542 0.022292076 -0.03861996 -0.13871416 0.0062614083 0.30853477 0.08962257 -0.024376987 -0.0778318 0.04096573 -0.2432785 0.060382944 0.1544139 -0.45641384 -0.10084205 -0.3163175 0.11094882 -0.16338077
10 -0.1607351 0.0517305 -0.009637226 -0.050647236 0.21562491 -0.11184132 0.37004802 -0.15233211 -0.058746632 0.22978504 0.29490507 -0.033801693 0.051330443 0.04013732 -0.22416419 -0.04375689 -0.23383993 -0.18494332 -0.1360715 -0.24868505 0.25621212 0.066327535 0.10026049 0.067720436 0.015541475 0.22731787 0.1226383 0.0058588595 0.29855725 -0.3066981 0.17975326 0.20816098 -0.004646109 0.092077434 0.09076037 0.00823881 0.045686517 -0.05991254 -0.4053092 -0.118356645 0.002121495 0.145499 -0.052667733 -0.039357025 -0.09139603 0.011762178 0.014980367 -0.13915047 0.24520424 -0.07682896 -0.0050296956 0.3809575 -0.038956396 -0.029416861 0.06372495 -0.07269075 0.14163749 -0.21651049 -0.30147368 -0.062674694 -0.17314512 0.23054704 -0.21236485 -0.014780776 0.03959607 -0.21492293 -0.11584109 0.17355627 0.19633357 0.034691934 0.036359772 0.11585286 -0.20906428 -0.13220562 -0.1238059 0.20659351 0.0030736283 -0.09845473 -0.044976365 -0.108460076 0.04386321 -0.092405386 0.008091465 0.19085942 0.14283383 0.059319712 -0.11311726 0.022867482 0.10066302 0.006637414 -0.17178099 0.10296545 0.13362534 0.023929019 0.2335681 0.29989734 -0.014462162 0.18326224 0.012469081 0.0393998 0.01013279 0.038051546 0.050278332 0.009429844 0.17466536 -0.02520704 0.21428104 0.32225305 -0.025702259 0.21899445 0.22130284 -0.0031077669 -0.19127566 -0.035895146 -3.5931887e-05 0.3195546 -0.012432617 -0.04908187 -0.003144848 0.08195723 -0.23916598 0.036976755 0.19701691 -0.36056536 -0.16251408 -0.38996586 0.038063373 -0.23732589
103 -0.06736591 -0.010029098 0.035770282 -0.0030326429 0.1402082 -0.10531172 0.24786672 -0.12428817 -0.03749503 0.0877114 0.3429088 -0.0351484 0.029099049 0.052369744 -0.174308 -0.045323856 -0.2628671 -0.31401193 -0.11493959 -0.22863789 0.22303298 0.032650564 0.113570526 0.07732632 -0.07860447 0.2739071 0.12512541 0.035800815 0.35466558 -0.26917794 0.17590609 0.19784465 0.17716959 0.027414134 0.011131395 -0.0018036801 0.079643466 -0.17030035 -0.41527477 -0.039821196 0.03293382 0.13658537 0.018016608 -0.05130171 -0.10468872 0.08881357 -0.060045104 -0.13984151 0.24042307 0.024766931 0.10444003 0.3394601 -0.06400993 -0.028044153 0.10850131 -0.099357195 0.016294306 -0.21745966 -0.22527339 -0.09620303 -0.14446679 0.22839734 -0.14186624 -0.08153003 0.0997428 -0.22812463 -0.020848513 0.20035885 0.07535914 -0.012392783 -0.00033690518 0.12413473 -0.23453206 -0.18556859 -0.1533462 0.29138952 -0.08271338 -0.02861659 -0.10062546 -0.113644175 -0.054149777 -0.042203337 0.08094722 0.20591167 0.10182213 -0.010175082 -0.0072742645 -0.061692245 0.1090819 0.023019474 -0.12070776 0.102797784 0.20570146 0.10529511 0.2178872 0.3429188 0.02195433 0.11565588 0.031789962 0.06137999 -0.050504982 0.029283356 0.06994953 -0.038729988 0.11465707 0.03969778 0.14403608 0.280262 -0.11091766 0.23640846 0.2047877 0.0005384028 -0.048563726 -0.10308763 -0.01955015 0.37516385 -0.014657093 -0.09400515 -0.06388779 0.065136485 -0.22468749 0.05978031 0.2479917 -0.44083756 -0.16645287 -0.38142675 0.15962166 -0.21799853
100 -0.06901071 -0.008375579 0.080818914 -0.037412625 0.14789146 -0.12334232 0.29785767 -0.14093092 -0.07202513 0.13276824 0.33238468 -0.06189919 0.011418826 0.055117797 -0.099299155 -0.065153256 -0.2227977 -0.24173835 -0.12100194 -0.2512505 0.31846282 0.14583541 0.01172008 0.078201085 -0.05120749 0.23940699 0.10027602 0.0327726 0.3166327 -0.29946393 0.1829048 0.12821189 0.11107642 0.08261781 0.04709336 0.0026237834 0.055696703 -0.07606887 -0.29989842 -0.072110415 0.053426985 -0.00049264013 -0.08822428 -0.082350895 0.04414522 0.04670302 -0.06319794 -0.12135134 0.18498987 -0.071867876 0.16718973 0.3089203 -0.051938098 0.010455027 0.05316232 -0.058025584 0.062152587 -0.2257141 -0.27326462 -0.05179522 -0.07590469 0.17569947 -0.10849869 -0.03668488 0.07404202 -0.12889975 -0.122280374 0.22353442 0.043352615 0.031799585 -0.052551962 0.11553761 -0.16865522 -0.15554635 -0.20715603 0.26054642 -0.05543101 -0.058271393 -0.049407043 -0.09228917 -0.0067681726 0.07926951 0.08941731 0.047950286 0.08926304 -0.008949942 -0.13311128 -0.11263929 0.14122778 0.062957436 -0.13015214 0.1130261 0.16522978 0.081567906 0.09901159 0.3799964 -0.0063699386 0.12331369 0.091535464 0.033257674 -0.0009852283 0.030486492 0.12949362 -0.08742269 0.15903328 -0.0010059014 0.16571836 0.24409905 -0.055397976 0.29128608 0.17254072 -0.029898247 -0.11693947 -0.056615766 0.0050926325 0.32669023 0.02206271 -0.070691876 0.0069750906 0.12361875 -0.2714481 0.030803269 0.21627334 -0.34303164 -0.12583882 -0.3380514 0.10819681 -0.17313336
111 -0.11416627 0.03172245 0.04222412 -0.07864295 0.09152175 -0.12641741 0.26541212 -0.11563477 -0.03911448 0.18418062 0.31093577 -0.030531874 0.050637268 0.01630287 -0.13971522 -0.09969087 -0.20514205 -0.3272009 -0.09130911 -0.31914803 0.229298 0.10203095 0.0461675 0.046262622 -0.07886219 0.25725886 0.07174754 0.09850304 0.3173113 -0.22368199 0.1385547 0.22443192 0.032366678 0.071239196 0.050437286 0.0327474 0.03251603 -0.08276757 -0.4368696 -0.20629463 0.06472339 0.15932539 -0.061841767 -0.0404847 -0.04645096 -0.04514014 -0.07572096 -0.14922632 0.22457004 -0.01155102 0.0821703 0.34193483 -0.07329779 0.008334648 0.1095871 -0.12543109 0.13403991 -0.19615854 -0.22968164 -0.039219886 -0.2161818 0.18311279 -0.14159125 -0.08154238 0.015008942 -0.11692953 -0.042666715 0.18118918 0.14183088 0.031163456 0.0013982162 0.0698177 -0.19354202 -0.16408478 -0.17710862 0.25758034 -0.054747786 -0.027726848 -0.03848656 0.005798391 0.030341523 0.0367581 0.11264808 0.15179601 0.13761851 0.015041572 -0.048844133 -0.056231566 0.09903564 -0.015581923 -0.20293264 0.06534897 0.19063911 0.05957371 0.17387082 0.2385952 -0.012887302 0.107377276 0.045057174 0.052414168 -0.07128855 0.11620347 0.071903504 -0.083089314 0.13897747 -0.017178858 0.20304827 0.28533307 -0.116645254 0.226769 0.21757463 0.045321543 -0.13614583 -0.098807275 -0.066349104 0.34192201 0.021463266 -0.047823884 0.033359367 0.10036052 -0.13729498 -0.02727316 0.21215117 -0.3817785 -0.21487729 -0.3636217 0.08953277 -0.17100175
139 -0.0931534 -0.07298818 -0.07640692 -0.09954623 0.109851964 -0.10646419 0.31753162 -0.1529974 -0.08596648 0.21445322 0.34616676 -0.007379221 -0.004435489 0.03276931 -0.13309263 -0.06527026 -0.20208193 -0.21490495 -0.14354146 -0.26894182 0.29214174 0.14663523 0.06089034 0.025088768 -0.01031724 0.2572701 0.16479185 0.027494688 0.39744762 -0.26327318 0.13840152 0.18331476 0.0037360515 0.0964098 0.045273915 0.031848162 -0.03286216 -0.084850475 -0.2992565 -0.0990371 0.080419995 0.122079834 -0.10177119 -0.0210899 -0.04817524 -0.031972814 -0.019942582 -0.08422206 0.20037876 -0.12089512 0.099241845 0.20072156 -0.032507807 0.027961953 0.09382452 -0.051236503 0.15360126 -0.19158252 -0.2403539 -0.12208827 -0.14994687 0.21826415 -0.13990843 0.03741571 0.03798799 -0.19215685 -0.056828815 0.26636535 0.16398929 -0.019208612 0.05671674 0.098761655 -0.16845338 -0.14029005 -0.14299901 0.19307248 -0.012490548 -0.10074167 -0.048316266 -0.12131047 0.025841776 -0.054145884 0.053019267 0.25227064 0.10112213 -0.027737388 -0.084641516 0.00057836843 0.14152212 -0.027293466 -0.15378219 0.08431745 0.08931328 0.1024881 0.28901714 0.30424508 -0.051994305 0.14313512 0.042743903 -0.0017658501 0.0063188556 0.022257924 0.06722387 0.036041055 0.17923969 -0.011770244 0.17131813 0.30134296 -0.08241558 0.2040927 0.21670984 0.0778653 -0.14003208 -0.053836472 -0.04964365 0.28615844 0.10275534 -0.056553636 -0.0041003395 0.07595926 -0.17146644 0.06251864 0.16034314 -0.36923084 -0.098621964 -0.26614404 -0.0021814655 -0.1598501
20 -0.05374731 0.024919085 -0.05994463 -0.091500655 0.1281946 -0.16507432 0.31206965 -0.17124742 -0.0488074 0.18486924 0.37858257 -0.043272942 0.050083835 0.05356723 -0.23079191 -0.022020604 -0.31269023 -0.2961457 -0.15505004 -0.26026738 0.2798559 0.10527551 0.07943202 0.08581101 -0.02028896 0.2695324 0.12671272 0.0944609 0.3950795 -0.26265842 0.18458101 0.22567603 0.08432215 0.060554054 0.08626466 0.030926315 0.036726236 -0.062353168 -0.37074637 -0.053397518 0.102466896 0.16535102 -0.07902718 -0.010017969 -0.085930906 -0.046256043 -0.11532083 -0.14017242 0.29649857 -0.0590987 0.04931416 0.23300074 -0.032364525 -0.013479765 0.15115975 -0.07344381 0.06556293 -0.24280807 -0.2463927 -0.06575105 -0.14504579 0.23460639 -0.12642 -0.009691486 0.10656753 -0.1456381 -0.02748971 0.22356038 0.2053469 0.0010305793 0.06513885 0.0073857126 -0.18010762 -0.22989032 -0.11664405 0.23946926 -0.08048588 -0.15708196 -0.14455545 -0.08065949 0.025479527 -0.09220972 -0.019609235 0.10356458 0.075972855 -0.0123863965 -0.030648902 -0.098455675 0.12807155 0.044936985 -0.20777307 0.13478215 0.14118725 0.07179702 0.22338368 0.31578922 -0.1548198 0.10516654 0.016968163 0.048655592 0.026856588 0.05986762 0.041000806 -0.07987244 0.06884586 0.08312403 0.17438278 0.3630508 -0.020251859 0.3259691 0.21689484 0.052796 -0.07630945 -0.064313315 -0.09738778 0.29319072 0.059052482 -0.07489928 0.007458285 0.08401988 -0.16104259 0.046782665 0.20315388 -0.38822976 -0.086799346 -0.3336389 0.059099715 -0.16891131
8 -0.098373756 0.08669144 0.010804814 -0.11264341 0.124500796 -0.14216904 0.38634935 -0.27289405 -0.093879394 0.11233908 0.422589 0.02001328 -0.01409575 0.09836956 -0.16192801 -0.01836142 -0.2066317 -0.27785727 -0.13449986 -0.30995354 0.23605345 0.03674921 0.09430781 -0.037990093 -0.0787342 0.23461582 0.12243567 -0.036053486 0.28506136 -0.26574928 0.19622487 0.17130968 0.091722734 0.08725941 0.048309118 0.07429657 0.027173799 -0.0950492 -0.44372678 -0.071547195 0.0839422 0.12783577 -0.0054671676 -0.07283653 -0.087096594 -0.026078513 -0.018480895 -0.119509935 0.27195358 -0.023954034 0.058765344 0.34372032 -0.055707555 0.038381144 0.094421566 -0.09251485 0.1333226 -0.17532921 -0.23258924 -0.04910326 -0.21291596 0.16076899 -0.08278152 -0.062452354 0.115577854 -0.10426248 -0.027295021 0.085793845 0.08200241 0.06688789 -0.019125558 0.0798828 -0.11096973 -0.18566059 -0.109093286 0.22264065 0.054569297 -0.087719955 -0.050385855 -0.039715353 0.008288695 -0.03397995 0.052890375 0.16464826 0.08433717 -0.03399194 -0.07413008 -0.036762413 0.1244359 0.02958168 -0.2636916 0.13780466 0.107736394 -0.010834338 0.23121658 0.30151582 -0.107428186 0.08136697 0.008107311 0.061430473 -0.03986671 0.009897644 0.13767304 -0.012345298 0.14938357 -0.0013419505 0.18913206 0.3633464 -0.04501587 0.18762222 0.28006542 0.030469159 -0.18316793 -0.16762015 0.008335809 0.3889656 -0.0114925895 -0.0497187 0.044009678 0.07338102 -0.15546456 0.032034192 0.1786163 -0.3905473 -0.15299414 -0.26165748 -0.0502555 -0.13458444
173 -0.0557318 0.016515657 -0.011378061 -0.079986565 0.12436701 -0.103615455 0.3627082 -0.1083489 -0.084611565 0.17163478 0.38251743 -0.035187658 0.058955044 0.020580504 -0.1523871 0.0015050545 -0.28047767 -0.3219621 -0.08183092 -0.33679977 0.19236945 0.18435094 0.077835254 0.042944424 -0.028044652 0.15927956 0.11701557 0.011885846 0.27499935 -0.32304803 0.19137453 0.1462992 0.08582614 0.1569255 0.04276966 0.09843734 0.05065734 -0.12017712 -0.46090427 -0.09344831 0.07664102 0.095064886 -0.0312729 0.070405185 0.029672531 -0.055730384 -0.068222575 -0.077432185 0.18756248 0.0011286964 0.108483784 0.22616096 0.02465233 -0.06953594 0.14569576 -0.03200264 0.076255225 -0.32482636 -0.2367267 -0.06347807 -0.12577645 0.18593617 -0.12802245 -0.11400456 0.11035783 -0.20229991 0.038156193 0.21260378 0.18920046 -0.028034465 0.09929671 -0.015008804 -0.19287628 -0.22748995 -0.21926716 0.22560316 -0.11115444 -0.061956856 -0.06711452 -0.08164115 -0.060360037 -0.12470269 0.15052375 0.10724205 0.046790056 0.06673826 0.015706748 -0.17645118 0.18815516 -0.001215835 -0.22796828 0.035978884 0.132694 -0.04373136 0.14913182 0.2487787 -0.0020755131 0.15020852 0.07732518 0.03376006 0.010986415 0.007713784 0.14015704 -0.032883856 0.09768236 0.071791604 0.078491025 0.36106563 -0.07251112 0.24193117 0.21175094 0.09738196 -0.11264859 -0.20995975 -0.12594166 0.24441113 0.015076412 -0.0554817 -0.05349877 0.10876651 -0.2029899 0.027271483 0.108390234 -0.3909836 -0.16798803 -0.32718846 0.11514782 -0.20040318
165 -0.08020477 0.02503671 0.018395394 -0.07793586 0.15075795 -0.2581923 0.31369823 -0.20757109 -0.116115525 0.12443756 0.39099565 -0.02153817 0.055004146 -0.012392172 -0.16327116 0.0039314413 -0.18569453 -0.20274715 -0.09593013 -0.26501817 0.28084305 0.07897154 0.041581422 0.07966221 -0.11435539 0.227188 0.09503174 -0.013790539 0.2956407 -0.27616793 0.19869365 0.19526735 0.10324869 0.14084116 -0.020843172 0.040439993 -0.039887168 -0.17968683 -0.44732317 -0.05043193 0.038145415 0.14457814 -0.07903892 -0.10018966 -0.03053387 -0.059891038 -0.0794517 -0.19280481 0.18458068 -0.051131025 0.07291548 0.31587085 -0.042783767 -0.049191702 0.13507996 -0.097761154 0.0473839 -0.21069984 -0.23480004 -0.035118032 -0.088605635 0.22690961 -0.13555369 -0.010539533 0.056543432 -0.11755054 -0.056668982 0.11780796 0.13915712 0.03802883 -0.013263514 0.09803109 -0.16185644 -0.23223254 -0.1777147 0.261164 -0.020603627 -0.00037378198 -0.10014324 -0.108661644 -0.036687523 -0.059832968 0.03618057 0.08972701 0.1413859 0.01482721 -0.03163376 -0.12226746 0.14235003 -0.011428931 -0.25113887 0.13670732 0.101736404 0.0471929 0.15333228 0.25614083 0.014932458 0.074001096 -0.027356468 0.07458331 -0.013075697 -0.052437734 0.055700153 -0.04330217 0.14509946 0.021835923 0.1335083 0.33463225 -0.039814863 0.256745 0.17677718 0.054763462 -0.08618998 -0.11437835 -0.008932088 0.27007115 -0.03978473 -0.11032846 -0.03280807 0.11211674 -0.23890531 0.0019599264 0.11706205 -0.40738824 -0.11966065 -0.33367047 0.20145014 -0.21021031
12 -0.09531336 0.056420445 0.020790052 -0.056213535 0.13902026 -0.09718327 0.3354484 -0.18132386 -0.0914821 0.11140174 0.33482406 0.02596626 -0.06481087 0.090095535 -0.18208723 0.029004173 -0.23297304 -0.24736954 -0.104058735 -0.27811515 0.28312796 0.094472766 0.074496105 0.04900947 -0.022412406 0.31191385 0.09888515 0.017184157 0.32865563 -0.22255039 0.17935856 0.17371553 0.09041798 0.10767642 0.10165936 -0.00622806 0.00032796618 -0.08038002 -0.35641274 -0.06121841 0.043480136 0.08125158 -0.020200282 -0.05709423 -0.06627048 -0.046565473 0.0705278 -0.14330673 0.17514883 -0.10100489 0.05910611 0.21672642 0.0072695045 -0.059105515 0.07696525 -0.053497996 0.10699151 -0.17183083 -0.23918046 -0.09014532 -0.07888094 0.14898382 -0.14537135 -0.08940641 0.06309605 -0.11878181 -0.08509192 0.1352207 0.08512575 0.04277582 -0.005273995 0.03594332 -0.13051505 -0.16557002 -0.13637108 0.29072148 -0.081316665 -0.110496044 -0.07214638 -0.00814353 0.01411253 -0.024347862 -0.008616911 0.16889334 0.08736667 -0.02340883 -0.05269573 -0.095746234 0.13860229 0.1017063 -0.14179268 0.06738228 0.18687876 0.027021127 0.188686 0.3093819 -0.07449821 0.116723016 0.06976904 -0.029550847 -0.0101198135 9.0110276e-05 0.06308209 -0.055824935 0.13126962 -0.0063555613 0.1300844 0.33044335 0.017295798 0.2621623 0.20153348 -0.059768934 -0.17362271 -0.054524764 -0.055518992 0.31451532 0.010353254 -0.05725753 -0.05951466 0.12814394 -0.2446246 0.0521323 0.20943755 -0.418213 -0.13235882 -0.2708619 0.07677436 -0.23125128
56 -0.06837336 0.092676975 -0.0032342472 -0.07510686 0.14625427 -0.09528253 0.3564056 -0.19947276 -0.08974815 0.11771763 0.33557063 -0.017263964 0.00488525 0.09042701 -0.14534323 -0.013139231 -0.2760825 -0.2879413 -0.15022802 -0.23720007 0.29072085 0.048726976 0.053320974 -0.026136588 -0.12181691 0.20536107 0.14713845 -0.056726266 0.35089594 -0.25083962 0.21592686 0.20923983 0.1534186 0.15464199 0.008915612 0.0455588 0.03247194 -0.1130555 -0.45593295 -0.020846318 0.06354996 0.10378385 0.036324408 -0.10620518 -0.030825477 -0.04223417 -0.015768431 -0.1514339 0.24037445 -0.08908271 0.06648993 0.34569588 -0.087389424 0.0018217803 0.1414174 -0.079557195 0.045358088 -0.21486126 -0.22609907 -0.054162465 -0.13356316 0.16829969 -0.14856988 -0.0563533 0.09210597 -0.12557553 -0.055067547 0.12155244 0.065646656 0.048715528 0.0035324304 0.07329239 -0.16972499 -0.17736724 -0.1390045 0.26358712 -0.008045957 -0.050625466 -0.034984592 -0.11609505 -0.053109013 -0.045655027 0.09316289 0.16818438 0.092535675 0.008645143 -0.02425724 -0.06983754 0.15452118 -0.012002922 -0.26553538 0.0851108 0.07558247 -0.0032158261 0.20268944 0.33635998 -0.06108101 0.09652629 0.018458802 0.024974162 -0.023751104 0.008074463 0.12751487 -0.048593283 0.13520876 0.08315068 0.1564642 0.30239183 -0.017976241 0.2648783 0.2276433 0.12001849 -0.16136156 -0.19676565 -0.039735064 0.37603134 -0.023604162 -0.07091609 -0.03775251 0.12801763 -0.19910903 0.1082446 0.17617653 -0.35108197 -0.13418907 -0.21822536 0.08834279 -0.19175538
0 -0.04840422 0.046775647 -0.012367207 0.013423005 0.220566 -0.10893156 0.36357787 -0.20857272 -0.080902815 0.15871495 0.37719262 0.010200868 -0.02301311 0.052953016 -0.14306483 0.0134646045 -0.14749037 -0.24119455 -0.13363095 -0.25456995 0.24870154 -0.028901463 0.130125 0.026799023 -0.08963442 0.28064075 0.08281864 0.05247447 0.30877817 -0.24072063 0.1943922 0.08766203 0.06477761 0.09943099 0.059971407 0.0035902574 0.030855002 -0.16063866 -0.38498116 -0.026174927 0.031764537 0.054078907 0.018147117 -0.11415238 -0.028078295 -0.023536943 -0.07814084 -0.078396454 0.2404297 -0.0005348724 0.08378149 0.3647655 -0.0058808485 0.065361015 0.016835252 -0.031008955 0.026244378 -0.17023964 -0.21321285 -0.027017364 -0.106938615 0.22005157 -0.051692653 -0.03892695 0.03393728 -0.16481057 -0.035788093 0.17526732 0.1548808 0.06976469 -0.0060400954 0.1105276 -0.18383089 -0.17775708 -0.15035217 0.30240664 -0.047922228 -0.04466392 -0.08773873 -0.06541446 0.016889445 -0.049487997 0.06690691 0.19249822 0.06915423 -0.049455345 0.040638845 -0.12112225 0.124736026 0.0010654109 -0.14418659 0.13128501 0.11168136 0.0965894 0.18243113 0.26373607 0.006961198 -0.003650207 0.09478821 0.11920153 -0.05359454 -0.016100692 0.093071 -0.14921214 0.06367507 0.011519556 0.16925693 0.27547318 -0.030148953 0.24468431 0.17784895 0.058096617 -0.092532635 -0.1378725 -0.023258172 0.3117914 0.040155448 -0.13201459 0.007080655 0.049494058 -0.22206165 0.007435391 0.19112341 -0.4147921 -0.17218636 -0.33551386 0.05955821 -0.09365453
158 -0.13458586 -0.070554994 0.13240726 -0.08926908 0.14562725 -0.12335044 0.3048896 -0.13470617 -0.059414674 0.15632637 0.29082114 -0.061922126 0.040690053 0.051478773 -0.14404473 0.0024030153 -0.2107891 -0.24514124 -0.061111454 -0.23375067 0.3042089 0.116803974 0.047537364 0.06356875 -0.051696613 0.26062655 0.106133424 -0.018120991 0.2861134 -0.28036454 0.25142613 0.14336467 0.028076505 0.09365987 0.04698178 0.004221754 0.06857722 -0.16293402 -0.2989004 -0.029118644 0.06182903 0.012184719 -0.020787543 -0.13450634 -0.012207246 -0.036641013 -0.041523654 -0.16365643 0.25510058 -0.06444107 0.07471608 0.28101024 -0.02863846 -0.04076608 0.07736305 -0.027283436 0.081962466 -0.20845836 -0.27301708 0.014669793 -0.07896259 0.24129282 -0.15817268 0.008436059 0.080287114 -0.13129455 -0.09684622 0.1795067 0.1722646 0.10646654 -0.008077768 0.044349764 -0.23017937 -0.22404414 -0.15656154 0.33426812 -0.04598061 -0.078598246 -0.046629984 -0.023711076 -0.070654735 -0.027900515 0.045629714 0.13412216 0.20463437 -0.027683565 -0.069054276 -0.11393545 0.15300988 0.06793117 -0.16197023 0.116404705 0.14178781 0.029999992 0.15315703 0.3091358 -0.036484294 0.083760604 0.048312377 0.05323032 0.04091113 -0.0353275 0.10852584 -0.07483829 0.12339126 -0.031177292 0.15268864 0.35526526 0.028677728 0.20827064 0.20815669 -0.03536374 -0.17063352 -0.14365779 -0.005219463 0.3160261 -0.048474345 -0.031978954 0.0026710876 0.07707099 -0.28449956 0.039202776 0.18689923 -0.3792947 -0.116671264 -0.30716825 0.12919648 -0.15929127
153 -0.1630521 -0.016878044 -0.03638652 0.01913607 0.12631701 -0.12913913 0.38939053 -0.14617445 -0.048593007 0.192013 0.31519273 0.021334602 0.024115067 0.039825965 -0.037274558 -0.08228995 -0.16559975 -0.29711547 -0.07500911 -0.2813419 0.284718 0.109152816 0.081715405 0.07731229 -0.058579236 0.20062166 0.06564417 0.059027027 0.28995436 -0.29416868 0.1994015 0.15308559 -0.02118871 0.04406136 0.05261104 0.033050824 0.06483266 -0.11423503 -0.38420698 -0.078157194 0.042662982 0.1022817 -0.08860427 -0.024168205 -0.03886246 -0.093548246 0.048186336 -0.07445182 0.28169107 -0.06710709 0.0024620595 0.3391613 -0.031945825 -0.009229931 0.09532469 -0.10046228 0.10493253 -0.25067255 -0.25578865 0.023217592 -0.17308794 0.1968247 -0.069738954 -0.047362633 0.039100684 -0.11300827 -0.029206144 0.18944204 0.20104256 0.0166306 0.029620312 0.06477849 -0.17015553 -0.21275333 -0.14893933 0.20573343 -0.11702707 -0.087523594 -0.039749328 -0.09796392 0.004650098 -0.07499348 0.029478842 0.20650081 0.09391396 -0.011163746 -0.01101005 -0.049436513 0.13419284 -0.051577866 -0.18509014 0.084636055 0.10545313 0.0017878396 0.17687614 0.23203656 -0.0300574 0.0679498 0.02019745 0.16268955 0.043813623 0.11214135 0.05384621 -0.09000099 0.12423773 0.03796928 0.15391177 0.31000727 -0.027890094 0.1623408 0.1606274 0.042495936 -0.14084037 -0.10445669 -0.032064807 0.27770665 0.02123309 -0.09401088 -0.0019387288 0.06341338 -0.14381145 0.021698114 0.12661691 -0.34180447 -0.20630312 -0.3029237 0.14703614 -0.074457586
159 -0.032285143 -0.0034987542 0.089684516 -0.13183795 0.17012982 -0.14014454 0.34838197 -0.11684271 -0.10636299 0.10948816 0.3514511 -0.03932584 -0.01947099 0.0975147 -0.23779406 -0.03183579 -0.19201316 -0.28910923 -0.16108756 -0.2540933 0.24275252 0.025452038 0.15647954 0.048241753 -0.11272983 0.32232723 0.07221179 -0.030322526 0.38152826 -0.29433206 0.25170335 0.2444298 0.020517733 0.106423154 0.021602113 0.0048624985 0.01592987 -0.16016299 -0.39095896 -0.025988558 0.041458044 0.034193963 -0.03497837 -0.07328015 -0.10435903 -0.052481193 -0.055007417 -0.11076549 0.20637631 -0.064705245 -0.0040079295 0.3519521 0.0054514366 0.002474288 0.092140764 -0.09572942 0.11370214 -0.15635142 -0.17578188 -0.08459807 -0.13615018 0.15324971 -0.14267406 -0.072172076 0.057034656 -0.099462 -0.09597785 0.16783807 0.15066905 0.109063774 0.031368364 0.051144376 -0.15660985 -0.23463415 -0.11167315 0.34392586 -0.03888882 -0.1482844 -0.09937568 -0.033136506 0.017686116 -0.058459096 0.101028584 0.110726885 0.12629868 -0.00377193 0.020858327 -0.048902743 0.139443 0.057619892 -0.1941406 0.09210678 0.12960854 0.006671335 0.1505824 0.28686762 -0.079982854 0.15651359 0.053705588 0.12079878 -0.029120184 0.039510936 0.053792827 -0.045113705 0.1415697 0.051477525 0.118719615 0.35120457 -0.024075415 0.19492827 0.2054192 0.029149638 -0.18729442 -0.12302761 -0.00965678 0.34311417 -0.051230133 -0.128021 0.059627105 0.04127568 -0.28360644 -0.043180898 0.3279791 -0.37556693 -0.14037237 -0.26364186 0.13838732 -0.18797894
133 -0.11034574 0.012005151 0.0010927753 -0.07711155 0.18477409 -0.04744841 0.31723833 -0.1487518 -0.080703564 0.18753907 0.34169796 0.0032593617 0.041300565 0.09363701 -0.2236023 -0.047378216 -0.19842133 -0.23020284 -0.1406328 -0.26011428 0.27060688 0.010478331 0.059683777 -0.010822883 -0.030143598 0.31001168 0.104794614 0.0075337635 0.3575131 -0.27512547 0.15700074 0.22428729 0.022575082 0.10690294 0.06647283 0.026905695 -0.021361548 -0.094157904 -0.36327326 -0.09057689 0.048313558 0.14861605 -0.00882454 -0.08195456 -0.056266237 -0.021226231 -0.09727809 -0.1160676 0.27798587 -0.0147658335 0.078081615 0.29881456 0.01920243 0.015600527 0.034237996 -0.09325118 0.12071242 -0.12563078 -0.21231204 -0.07387698 -0.19608814 0.2677217 -0.15313937 0.019598735 0.03491285 -0.22157027 -0.05326082 0.25343034 0.21541834 -0.018910468 0.033563577 0.07840836 -0.20155449 -0.17443235 -0.12366762 0.27649036 0.016929485 -0.11554481 -0.12937228 -0.15572937 0.0627441 -0.0942067 0.030799558 0.18714157 0.12693399 -0.008277521 0.02058177 -0.046679683 0.14282238 -0.012293719 -0.14506519 0.07856047 0.0571347 0.1026571 0.18146998 0.21934119 -0.029074362 0.14207064 0.05659941 0.02322585 -0.009666557 -0.017069355 0.08121268 -0.054955937 0.1324165 0.059411887 0.18502128 0.33016676 -0.013334943 0.25953096 0.20733432 0.058107298 -0.14553285 -0.16757725 -0.0111957155 0.31896743 0.0064994595 -0.06298107 0.024816046 0.08892898 -0.10810835 0.03307749 0.22463116 -0.4125707 -0.17783454 -0.37651917 0.004167304 -0.1677783
192 -0.12210875 -0.0024925927 0.079286955 -0.054364435 0.16256414 -0.17329101 0.30269694 -0.20696525 -0.062662765 0.12786001 0.35133502 0.037175406 0.048765514 0.06663448 -0.10415875 -0.073327884 -0.2588902 -0.28967494 -0.063888244 -0.22783536 0.23165658 0.050177947 0.090540744 0.04561243 -0.11764985 0.24985193 0.0814741 0.06434379 0.3423448 -0.24051134 0.13679823 0.22027166 0.13454242 0.036460258 0.061396662 0.031895444 0.05697252 -0.1770499 -0.45365834 -0.09925273 0.03743215 0.057948444 -0.05496022 -0.0013176408 -0.08577614 0.011536354 -0.03220259 -0.19294041 0.19186431 0.05251814 0.085291356 0.28111807 -0.04250779 -0.05069875 0.079071365 -0.07015464 0.091134116 -0.17301086 -0.18079783 -0.070019774 -0.16141285 0.17530571 -0.027952943 -0.07142644 0.010558045 -0.10982355 -0.038296375 0.14846985 0.08929907 0.10019747 -0.0023304212 -0.027643798 -0.2656986 -0.15871787 -0.11362595 0.24790923 -0.12470032 -0.07692035 -0.058848966 -0.031577755 -0.017602704 -0.007617575 0.115514025 0.111390926 0.09289064 -0.023341695 -0.023775673 -0.15452811 0.083056115 -0.09918139 -0.21158437 0.0835853 0.12206675 0.032395605 0.1423684 0.21413007 0.03141384 0.1423982 0.05190033 0.042299293 -0.071922004 0.076341525 0.037917063 -0.06969004 0.07873584 0.04799528 0.09991524 0.37053275 -0.073845 0.21609963 0.2029296 0.031024182 -0.08557425 -0.15319206 -0.011561401 0.32218906 -0.053460013 -0.10789075 0.001069993 0.019056207 -0.18065603 0.02777028 0.17676798 -0.43149257 -0.17490199 -0.2901049 0.027369145 -0.07355362
148 -0.09707109 0.046264987 0.008256985 0.003305189 0.19151974 -0.16686231 0.32767004 -0.16043618 -0.115397565 0.12833902 0.30876514 -0.006429166 -0.00801846 0.029319132 -0.09482271 -0.036771365 -0.22542909 -0.34983122 -0.072557196 -0.31490853 0.27370194 0.031060195 0.049948476 0.008914406 -0.119670704 0.260017 0.079718284 0.054317757 0.30502886 -0.18904537 0.23094027 0.16270113 0.11564437 0.1359228 0.06905944 0.0055851107 0.01082474 -0.1361321 -0.4114244 -0.06346199 0.039937343 0.11507557 -0.09731736 -0.024508527 -0.07887684 -0.051485166 -0.035661746 -0.10995464 0.1671628 -0.08744181 0.101331055 0.31843793 -0.03182223 -0.067808375 0.12243016 -0.033685092 0.11131467 -0.18080021 -0.21336694 -0.067640014 -0.13968432 0.21122375 -0.10801962 -0.13260438 0.012948174 -0.11670946 -0.0033420245 0.10136768 0.18340605 0.042663366 -0.06111166 0.12282028 -0.11635174 -0.15904394 -0.17074507 0.28977004 -0.06688322 -0.04536678 -0.0702485 -0.15189902 -0.010060587 -0.0017620991 0.07948066 0.17857103 0.091487706 0.017054137 -0.038319923 -0.006306157 0.035706278 -0.11023362 -0.17220318 0.03704552 0.14354849 0.045513194 0.11776106 0.2947949 -0.0005678119 0.08623978 0.057580717 0.054145154 -0.0111502 -0.059529867 0.09399042 -0.08118425 0.19079648 -0.04133339 0.1509897 0.40096515 -0.042158008 0.21915288 0.22919254 0.044935986 -0.19729792 -0.16184016 -0.035846777 0.3794961 0.018377079 -0.09208992 -0.12255482 0.18072282 -0.2357669 0.037566148 0.2307653 -0.4640671 -0.19392389 -0.30319443 0.13516659 -0.12745592
58 -0.14209053 0.011005987 -0.027263427 -0.010082752 0.14990263 -0.10380705 0.33455327 -0.20048551 -0.10513126 0.14666258 0.3047265 0.03453581 -0.010925678 0.13026482 -0.18119547 -0.013482183 -0.15539551 -0.2941271 -0.16115104 -0.2732469 0.3107666 0.03301727 0.11210887 0.06463674 -0.06581163 0.24242315 0.12676828 0.033495937 0.31156662 -0.2517011 0.15983099 0.13763672 0.063567206 0.12178485 -0.0119564505 0.033284195 -0.024411947 -0.08246881 -0.3903678 -0.12148915 0.105519965 0.08239251 -0.059499603 -0.07325246 -0.05796807 -0.04969868 -0.008226169 -0.15954967 0.20870754 -0.06980809 0.16066292 0.2720595 -0.04170463 -0.027716246 0.08542849 -0.073708415 0.16894726 -0.22604732 -0.2952872 -0.10144189 -0.1396677 0.2374378 -0.1569827 -0.07395819 0.02452322 -0.15565771 -0.09055242 0.19646372 0.16489588 0.068073824 0.071936324 0.11850957 -0.18499364 -0.110503525 -0.1190784 0.25366053 0.029094907 -0.05048237 0.015116434 -0.09554356 -0.022472853 0.03148378 0.077136554 0.08887279 0.14610332 -0.078052565 -0.07877733 -0.07986573 0.115331694 -0.026713775 -0.15255672 0.074333236 0.14024533 0.05459782 0.19654466 0.2507879 0.019314973 0.104158655 0.02736358 -0.020433657 0.02618364 -0.011772832 0.03707096 -0.017786235 0.16528514 -0.039488845 0.13577422 0.25472403 -0.010518679 0.24127135 0.21372737 0.061611515 -0.18892215 -0.09896863 0.019021869 0.3472111 0.0725017 -0.0928829 -0.03480605 0.08726789 -0.22571243 0.052674066 0.16158167 -0.42710695 -0.077132 -0.37539333 -0.0095199365 -0.15811326
108 -0.06470421 -0.013424852 0.02869411 -0.095965795 0.18937422 -0.053010732 0.31536993 -0.14699501 -0.13275394 0.14942558 0.30906153 -0.0055869645 -0.06739028 0.019820184 -0.24181576 -0.030141843 -0.25674167 -0.34486988 -0.054082472 -0.2664051 0.22939894 0.010106317 0.08517432 -0.02899407 -0.04969609 0.31398198 0.124506995 0.035296775 0.31620088 -0.2361658 0.13989082 0.16395563 0.08413086 0.049791556 0.12559977 0.00979344 -0.017311672 -0.099572316 -0.3115245 -0.035706874 0.112421826 0.057369903 -0.0065186075 -0.06004673 0.025110226 -0.093498275 -0.07716145 -0.08870607 0.24589868 -0.053111903 0.12736163 0.23898949 -0.091214 -0.02044223 0.095898814 -0.03242629 0.03370045 -0.2396715 -0.20365435 -0.035824712 -0.11379118 0.23439756 -0.16420615 -0.06584341 0.012273523 -0.14569539 -0.06683472 0.23633446 0.13601236 0.07159033 0.009586478 -0.016133584 -0.20403212 -0.18221076 -0.11734959 0.26384848 -0.10069189 -0.090529285 -0.027859576 -0.10948426 -0.041120823 -0.054963745 0.10870691 0.14344451 0.14406149 0.031840973 -0.039632067 -0.06427593 0.17258748 0.022675823 -0.14435075 0.12148553 0.10559739 -0.027006257 0.15290491 0.3114483 -0.02595516 0.09496926 0.07592401 0.037062813 0.068398006 0.0050631072 0.073082745 -0.05365949 0.12498058 0.03210014 0.06509607 0.39254302 -0.068824045 0.24828082 0.29472825 0.002579763 -0.09584335 -0.071687356 -0.07964741 0.30495593 0.05280151 -0.07725735 -0.0018720103 0.097862914 -0.22513767 0.022218835 0.18707165 -0.46534398 -0.11852757 -0.2047945 0.07501055 -0.08318122
22 -0.07410681 -0.032311887 -0.038683843 -0.052742306 0.15318315 -0.20113415 0.31594846 -0.13235243 -0.06553402 0.16520306 0.3567938 0.041643303 0.039628606 0.021453572 -0.058128588 -0.03747633 -0.1704493 -0.20338209 -0.10478888 -0.22436416 0.33039284 0.10461399 0.039530963 0.08169148 -0.121274136 0.19859062 0.057835843 0.026010392 0.29188734 -0.22259974 0.16347258 0.15051392 0.06663279 0.103735864 0.11763293 0.028883306 -0.05234101 -0.06173114 -0.32230246 0.0012141075 0.053032152 0.05960341 -0.0922113 -0.052079946 -0.0038508615 -0.04122769 -0.08723878 -0.071468696 0.14448431 -0.037815575 0.077288106 0.32670438 -0.081214316 0.0047446233 0.075468235 -0.04040998 0.06396446 -0.164678 -0.15301539 -0.044121753 -0.10854686 0.22415346 -0.09725676 -0.048250098 0.057320666 -0.12774047 -0.11398847 0.19095024 0.19058125 0.032660503 0.007084764 0.124046504 -0.100995064 -0.15921406 -0.16649108 0.2844719 -0.098815285 0.019345243 -0.082302354 -0.13876879 -0.014853471 -0.059495393 0.02036152 0.12557274 0.07323988 -0.00082940725 -0.0420374 -0.10934415 0.05402417 -0.0515249 -0.18320236 0.061832882 0.09127355 0.064175755 0.11092609 0.2872979 0.020724433 0.031081203 0.05082925 0.085748956 -0.0006952374 0.031932283 0.113546506 -0.06873362 0.10927889 0.03309047 0.16445193 0.27973235 -0.09855939 0.21972075 0.13922241 0.06307929 -0.10583089 -0.10484178 0.0030291271 0.27315086 0.068199106 -0.14173487 -0.03216227 0.18721503 -0.24062873 -0.037060328 0.12801391 -0.37055656 -0.15969206 -0.315742 0.08838193 -0.13715822
88 -0.19964036 0.026983183 0.040544424 -0.081210494 0.11118666 -0.13338633 0.31768456 -0.20835587 -0.12638904 0.14061597 0.34367886 0.02070965 -0.056354612 0.061442606 -0.1250726 0.0084515745 -0.14108004 -0.27911314 -0.1278628 -0.23015295 0.2962275 0.12442294 0.09602648 0.025884539 -0.116668165 0.35660958 0.13026667 0.011806628 0.28931034 -0.2963949 0.16503252 0.1745104 0.016954716 0.10657205 0.094816044 0.05015846 -0.07416677 -0.19240023 -0.4642466 -0.13881642 0.08484884 0.030382812 -0.060301367 -0.040444564 -0.09177104 -0.05807591 0.08470406 -0.14834465 0.17173073 -0.089288376 0.0846393 0.26551116 -0.0044778576 -0.0052699037 0.08209002 -0.07592779 0.14592344 -0.14609899 -0.22361347 -0.054061014 -0.14564377 0.19018131 -0.123711586 -0.086614646 0.04894735 -0.14440724 -0.12439743 0.13026322 0.11430167 0.051112503 0.064676695 0.03360797 -0.11997172 -0.19330367 -0.15061551 0.25887683 -0.0828847 -0.04476945 -0.08589605 -0.019383138 0.004225653 0.038179748 0.073783174 0.16253926 0.12269263 -0.08794732 -0.092387944 -0.056483813 0.13653329 0.006798878 -0.19184668 0.11831642 0.18820271 0.047074955 0.21114416 0.25158 0.054266192 0.16183996 0.009990052 0.0032322484 -0.069741465 0.08226843 0.102627076 0.0006996087 0.1850129 -0.11284217 0.14711857 0.32219437 -0.09020617 0.17218204 0.16740757 0.04311437 -0.14111228 -0.09225408 -0.015032965 0.31609634 0.055654958 -0.02812117 -0.007738666 0.052260432 -0.22610842 -0.07066953 0.15205242 -0.39821264 -0.2064494 -0.3129607 0.10395002 -0.18186942
78 -0.12126564 -0.08022574 0.040770337 -0.07107419 0.16543561 -0.14474082 0.23926458 -0.10053385 -0.03784518 0.102501206 0.28817287 -0.012394312 0.08473338 0.100957885 -0.19546342 -0.059551515 -0.20502496 -0.25949055 -0.13507353 -0.2530107 0.24717376 0.046091266 0.057460286 0.027218303 -0.06614685 0.2061439 0.15267773 -0.009038687 0.3712099 -0.3206837 0.1191069 0.25177118 0.052161086 0.049201693 0.01925125 0.023641376 0.02104638 -0.14349832 -0.4311685 -0.048311826 0.038214475 0.18395445 -0.0741371 -0.031802017 -0.07449374 -0.03135918 -0.10084957 -0.19976671 0.29547828 -0.05508481 0.09245865 0.38880402 -0.023082027 -0.015151422 0.079834364 -0.07997097 0.11807254 -0.19158532 -0.2389738 -0.073061295 -0.126907 0.2964985 -0.11904092 0.007445982 0.07065224 -0.17902394 -0.08690567 0.26163608 0.18766828 0.058640413 0.05335737 0.08473472 -0.27132052 -0.22864199 -0.09364826 0.28064793 -0.022944817 -0.12762769 0.0098688705 -0.11204068 -0.013304657 -0.081860445 0.042337116 0.17022748 0.14083706 0.013799207 -0.037108473 -0.06326576 0.10354882 -0.0737245 -0.17373873 0.16379799 0.13957743 0.0979173 0.23300843 0.325023 -0.06450962 0.10539007 0.02622777 0.062399857 -0.023357494 0.07706255 0.10237796 -0.046345204 0.16498315 0.004798628 0.10431597 0.27754647 -0.00223383 0.26415613 0.20876157 -0.00061351585 -0.18472864 -0.11767511 -0.00016637529 0.2795021 0.052423727 -0.10266893 0.039734904 0.12197355 -0.09492459 0.045393113 0.19042616 -0.42774606 -0.08159806 -0.31264114 0.11085456 -0.10681683
72 -0.18163143 0.067410715 0.045878395 -0.05855602 0.14309596 -0.11208968 0.34281433 -0.20707203 -0.13800824 0.1967291 0.39371738 0.0373656 0.022642227 0.099895485 -0.13722935 -0.0735865 -0.1015658 -0.24810646 -0.07187136 -0.17476352 0.28370926 0.021195132 0.019767946 0.040497188 -0.09897098 0.3097703 0.09755385 0.035803698 0.27255598 -0.31732476 0.22265938 0.2081516 0.087651394 -0.0069762855 0.02872592 0.026902486 -0.032776065 -0.12698989 -0.37915298 -0.050899625 0.09913651 0.02175946 -0.05732715 -0.07407799 0.026288688 -0.083696745 0.04668113 -0.07193451 0.20606504 -0.009847255 0.1314779 0.2259447 -0.10509149 -0.01893057 0.06441032 -0.07667815 0.1327434 -0.17653325 -0.30357894 0.041492507 -0.14911847 0.2471399 -0.14511552 -0.04019384 0.061570354 -0.16116211 -0.024061894 0.14634496 0.07721011 0.075015016 0.055009227 0.10093024 -0.12253204 -0.1325376 -0.14011607 0.28716266 -0.009000372 -0.020007027 -0.0013208477 -0.10170694 -0.02304854 -0.043685887 0.017449725 0.10336332 0.12432186 0.032596104 -0.14575122 -0.07239256 0.068933055 -0.027716996 -0.15236041 0.15425129 0.17144725 0.04339847 0.087316796 0.32233697 0.016157083 0.12187778 0.036733024 0.012150904 0.02827343 -0.0777944 0.0558418 0.023840781 0.19368996 -0.038348094 0.17910255 0.35098654 -0.04079208 0.26593128 0.16169246 -0.0313053 -0.16297561 -0.07156912 -0.012561057 0.29610214 -0.011332512 -0.043828767 -0.11942624 0.124552816 -0.20525795 -0.024630118 0.13918656 -0.5507377 -0.11879949 -0.34372398 -0.001080512 -0.16038528
95 -0.12569259 -0.012698468 0.0068828035 -0.103849895 0.18919608 -0.17501536 0.35718971 -0.19819245 -0.12852849 0.09586702 0.30976424 -0.095641084 0.09877244 0.06320076 -0.110461146 -0.07989279 -0.21245594 -0.24351904 -0.11903266 -0.26517227 0.18455072 0.047586404 0.071849406 0.02185413 -0.07053376 0.2813884 0.16339085 0.014805257 0.29955283 -0.32121605 0.19872856 0.1735508 0.043644775 0.13383734 0.07011957 0.050347608 0.02407443 -0.14584997 -0.44652772 -0.13898338 0.025082659 0.08003176 -0.09078765 -0.013869779 0.005634782 -0.017906485 -0.059045512 -0.07480329 0.2505731 -0.05325927 0.06017138 0.34515086 0.0035606984 0.07855504 0.075002894 -0.005030287 0.11040593 -0.21215662 -0.19905296 0.016843302 -0.19795804 0.29518765 -0.07038726 -0.0472969 0.065307625 -0.09649744 -0.035579834 0.15989886 0.21413328 0.08767855 0.019188132 0.109261826 -0.17204714 -0.1985517 -0.1588125 0.24549907 -0.0284049 -0.007357629 -0.09454771 -0.111187205 -0.048895627 -0.0869607 0.07880435 0.15403013 0.08958707 0.0102357315 -0.10645852 -0.008950503 0.08920414 -0.04983467 -0.21348724 0.10902447 0.1051382 -0.011517108 0.17119259 0.33546025 0.017619677 0.17724827 0.03585529 0.07080175 -0.039807975 0.014520848 0.14952184 -0.03456934 0.18228029 -0.010656575 0.16136277 0.408968 -0.09303057 0.2697012 0.21328452 0.042203166 -0.1946435 -0.115542844 -0.053264245 0.32053718 0.028890857 -0.051421914 -0.028359296 0.13949662 -0.22129773 -0.01254753 0.14646576 -0.47087774 -0.21144071 -0.34067646 0.07962694 -0.15500861
141 -0.09505853 0.009158774 0.024626827 -0.04573973 0.14987572 -0.14045905 0.30630386 -0.13696578 -0.061466314 0.17275894 0.36603445 -0.015989123 0.013687211 0.060046133 -0.121116504 -0.1608898 -0.21220052 -0.3360516 -0.13197754 -0.26232773 0.3578172 0.0591049 0.06258576 0.036447514 -0.110122815 0.21155743 0.06541256 0.07443942 0.27823642 -0.22617976 0.195187 0.118788265 0.14795986 0.12010912 0.06575009 0.043080352 0.14376278 -0.09696313 -0.45987448 -0.106077604 0.070157155 0.18254788 -0.028102523 -0.045017667 -0.025277497 -0.05897049 -0.0265106 -0.10080561 0.18890661 0.050738215 0.08014952 0.34974363 -0.08078834 -0.007292663 0.073511854 0.00024397067 0.15435725 -0.268716 -0.27221394 0.008575635 -0.15116297 0.24313141 -0.10780098 -0.0564037 0.008377357 -0.14537576 -0.018242428 0.1762595 0.19224647 0.048428174 -0.036557186 0.14007431 -0.13922004 -0.036946468 -0.18352027 0.24958794 -0.000102057864 -0.023871165 -0.059979063 -0.11126334 -0.026528418 0.025440188 0.05939008 0.18091112 0.029077202 -0.027283533 -0.082119584 -0.11302428 0.07753679 -0.030214673 -0.21674265 0.15641817 0.21147615 0.033863474 0.187487 0.23084067 -0.04881698 0.09729062 0.014013299 0.039877623 0.0018658371 -0.02404958 0.06514607 -0.10922749 0.19074123 0.008597091 0.18135028 0.3125477 -0.035430826 0.21100123 0.20530891 0.025150396 -0.1440301 -0.05895553 -0.10468318 0.29059452 0.052533038 -0.12148622 -0.042898145 0.06236661 -0.26502916 -0.04536827 0.10244684 -0.41615114 -0.18576059 -0.30670518 0.012301512 -0.10652257
18 -0.06538941 -0.044585597 -0.006759662 -0.11550806 0.11884484 -0.1266029 0.28037098 -0.17818718 -0.11140448 0.12087066 0.4396598 0.064460635 -0.041142616 0.022067072 -0.21787953 -0.06477614 -0.23226705 -0.20568928 -0.09241058 -0.306141 0.30779025 0.016917117 0.08280517 0.09147744 -0.059677333 0.32718933 0.1299166 0.076562285 0.29430732 -0.22719875 0.13192844 0.14105444 0.13003913 0.03620464 0.094231926 0.039501365 0.078397706 -0.08166304 -0.35701853 -0.023734389 0.03910409 0.15111388 -0.015390228 -0.034254644 -0.06912919 -0.062668465 -0.09408417 -0.08078191 0.21633016 -0.0150710335 0.08992266 0.28275198 -0.047236934 -0.013582342 0.006216922 0.050118692 0.03376245 -0.24880716 -0.17443933 -0.019008597 -0.12390504 0.2437587 -0.09405291 -0.018224388 -0.0021530734 -0.14140251 -0.06444351 0.19471169 0.15787734 0.074820735 -0.015352682 0.086048655 -0.1814349 -0.070408024 -0.14932804 0.20777543 -0.0868406 -0.1117717 -0.089096084 -0.034510907 0.06564795 -0.078476764 -0.04232638 0.25814152 0.14144942 -0.02545532 -0.043462314 -0.12918177 0.13658804 0.0065584052 -0.08279204 0.1612954 0.22854422 0.061479498 0.20496292 0.27890572 -0.0475785 0.052633785 -0.0028407972 0.09006098 0.10868331 0.02506792 0.032061543 -0.12125649 0.10258584 0.03312619 0.16156597 0.37381637 -0.09325827 0.21544775 0.22174719 -0.05755163 -0.101011924 -0.007829055 -0.02115223 0.26563558 0.018929012 -0.1518061 -0.017752854 0.072105154 -0.18922932 -0.05731561 0.17240019 -0.42799374 -0.16892838 -0.24219029 0.15375215 -0.09684914
185 -0.0666492 -0.0025980931 0.013367292 -0.02893503 0.07524002 -0.038749613 0.28525826 -0.15683377 -0.06867764 0.1127656 0.2850965 0.046020344 0.04078211 0.026893007 -0.1731423 -0.11122597 -0.21195012 -0.28703272 -0.09517326 -0.21796079 0.3021363 0.054573372 0.057199866 -0.032827646 -0.047463648 0.22099417 0.16141735 -0.0411589 0.41098723 -0.33894977 0.18460414 0.26731107 0.025532208 0.1015519 0.060989715 0.034272656 0.006663128 -0.104634255 -0.4421073 -0.0521538 0.10159753 0.16099454 0.0059650973 -0.0601939 -0.0708037 0.0055470625 -0.12644564 -0.15774249 0.26189855 -0.0455287 0.085513815 0.35801214 -0.022125965 0.01995169 0.08737676 -0.06761635 0.07251558 -0.22439417 -0.2119333 -0.13480608 -0.15382236 0.19178729 -0.14857036 -0.0066637862 0.10523209 -0.26401198 -0.0829189 0.21890157 0.14755714 -0.015407893 0.09418861 0.054023217 -0.2164399 -0.12416899 -0.14358352 0.32070303 -0.05419593 -0.17108233 -0.09732533 -0.08867181 0.017652782 -0.07327966 0.0547202 0.22209643 0.12470575 0.0040003653 0.009942446 -0.0252034 0.17259379 -0.016007278 -0.1403296 0.11763844 0.14288516 0.17022805 0.22625725 0.22667514 -0.049434762 0.116260335 0.017251678 0.037952416 -0.04482526 0.053343415 0.074732356 -0.050874174 0.09654189 0.05638877 0.11143321 0.23314874 0.009171596 0.21655019 0.19449335 0.044739682 -0.06765973 -0.11420901 -0.0020051936 0.29099315 -0.010333756 -0.005589756 0.07662158 0.07728121 -0.05323305 -0.015102389 0.21803239 -0.35752666 -0.1959847 -0.36541963 0.048377 -0.16559571
40 -0.06369368 -0.005547233 0.06640424 -0.05938574 0.13633505 -0.10926336 0.273146 -0.13134818 -0.12585625 0.2066559 0.2709734 0.030235417 0.0023678602 0.007436206 -0.16044202 -0.09480568 -0.123585396 -0.31897655 -0.003617972 -0.22056918 0.28713426 0.07707134 0.040697154 -0.07553403 -0.04471158 0.24941607 0.044410147 0.005935693 0.28865573 -0.24423341 0.162902 0.21438994 0.060875647 0.084473066 0.053430367 0.001801962 0.05876752 -0.0824888 -0.4175144 -0.056345854 0.092283614 0.09630571 -0.045931835 -0.022541236 -0.039178133 -0.08480953 -0.024512153 -0.1369691 0.1903413 -0.0681852 0.099177286 0.29628104 -0.07385693 -0.06891357 0.10740839 -0.08034997 0.091814846 -0.20470263 -0.2706376 -0.08262931 -0.11398805 0.22974147 -0.17570893 -0.060796052 0.03096991 -0.19813564 -0.05976455 0.18771154 0.16985911 -0.011940968 0.077855416 0.023638455 -0.22218822 -0.12914774 -0.17985794 0.2547656 0.003921547 -0.11127844 0.019772103 -0.06125011 -0.025209554 -0.014524123 0.13170952 0.18213645 0.12628266 0.025716763 -0.03700112 -0.06566858 0.10685327 -0.02532939 -0.15624791 0.06567146 0.17425577 0.13223904 0.22833645 0.26747042 0.042343173 0.09370401 0.064928584 -0.024685774 -0.01650414 -0.0039888336 0.037870314 -0.052372545 0.19158705 -0.044194717 0.12589014 0.2996518 -0.09124856 0.20540129 0.23663229 -0.019952683 -0.1932919 -0.056387786 -0.040188976 0.29419157 -0.0144578 -0.08052912 0.0010385563 0.078744136 -0.14330205 0.001526006 0.119550094 -0.45977968 -0.14004783 -0.32863837 0.078879565 -0.1587248
5 -0.13844201 0.021508044 0.092164315 -0.07106229 0.13641948 -0.13815077 0.32531312 -0.21120799 -0.08004799 0.11486275 0.2851297 -0.014302154 0.06470058 0.05144774 -0.2840147 0.09245915 -0.25465596 -0.27392522 -0.102928534 -0.293208 0.22447953 0.073390536 0.025851294 -0.06585916 0.0014499838 0.3355968 0.1675818 -0.06355837 0.3480936 -0.37297028 0.20078968 0.19063815 0.072887115 0.08778681 0.061843988 0.072582126 -0.03894605 -0.17616181 -0.4300085 -0.086962 0.022588795 0.03404223 -0.0060192742 -0.12870358 -0.008425346 0.0005487811 -0.07416901 -0.14553055 0.17964163 -0.06604515 0.03480029 0.34545407 -0.021255612 0.051873703 0.034240734 -0.09049966 0.12039662 -0.19114222 -0.23058476 -0.06976723 -0.09717671 0.2825854 -0.09827413 0.0061082817 0.019521503 -0.1736353 -0.15211964 0.19708645 0.1161906 0.11192144 0.025888992 0.093118645 -0.23079973 -0.21087466 -0.16046563 0.29707503 -0.0126529485 -0.06005029 -0.08233507 -0.109048426 0.005592746 0.047639515 0.04251275 0.088869736 0.1753673 0.05172707 -0.15371291 -0.045511495 0.21368733 0.01569578 -0.12525398 0.19158028 0.13042998 0.046041913 0.14865334 0.30562088 0.035924982 0.099544376 0.043664828 0.027420947 -0.045812164 -0.007390776 0.06171733 -0.018125063 0.13405156 0.014541235 0.11916036 0.3085709 -0.050378174 0.24270456 0.1522222 -0.058703482 -0.17614174 -0.07167537 0.11043927 0.27356017 -0.084486976 -0.079226434 0.0028566604 0.12234788 -0.23971517 -0.08869851 0.15519796 -0.39347723 -0.11281907 -0.25923437 0.075919405 -0.2479248
30 -0.120722465 -0.028980462 0.066761486 -0.048622537 0.08104009 -0.09435057 0.23656388 -0.11936505 -0.049670834 0.0598196 0.32670945 -0.014455751 -0.007413083 0.05786453 -0.24223073 0.043689307 -0.2589489 -0.3233019 -0.13084841 -0.24967514 0.27608922 0.049004424 0.025545405 0.036859345 -0.0806559 0.26082927 0.12576817 -0.07779494 0.30298826 -0.29792973 0.15820499 0.19238913 0.10776892 0.05104045 0.05511782 0.037524946 -0.042338695 -0.1413531 -0.38502 -0.026985994 0.022368792 0.09545724 -0.032343652 -0.05677064 -0.0349994 -0.038558964 -0.057799336 -0.12619549 0.19056283 -0.0018539897 0.06338132 0.34193128 -0.086614825 -0.037162747 0.062290937 -0.113347426 0.08385051 -0.19342189 -0.18774706 -0.064984486 -0.043849207 0.20631066 -0.07040273 -0.08351935 0.045043048 -0.13131149 -0.12288812 0.23680268 0.08264812 0.06545453 -0.025819162 0.08036997 -0.15559155 -0.22243083 -0.14561696 0.27044103 -0.05286285 0.0071642334 -0.090880096 -0.12810725 -0.07955139 -0.01378868 0.10480411 0.11476932 0.11653204 0.02976862 -0.078257285 -0.08898704 0.15383294 -0.006270645 -0.11324522 0.11282023 0.18674277 0.04999433 0.19636327 0.31079224 -0.007469373 0.11439566 0.007450931 0.031168092 0.050993763 0.020157013 0.08010931 -0.0042483974 0.1533585 -0.015434367 0.07469575 0.336679 -0.04254158 0.2445166 0.1664453 -0.034531858 -0.12540141 -0.04619858 -0.009112807 0.27343896 -0.02129567 -0.08306932 0.024146013 0.10827321 -0.1935525 -0.032923304 0.123826995 -0.40796408 -0.11820729 -0.24138407 0.13384625 -0.1439265
1 -0.12917791 0.01610614 -0.008409972 -0.06936127 0.13315918 -0.13720223 0.27356684 -0.23365149 -0.15301305 0.057131242 0.26939678 0.026774822 -0.015236109 -0.012493291 -0.19528013 -0.06330327 -0.20589139 -0.292252 -0.11234264 -0.2591115 0.33721608 0.024749978 0.050725564 0.01587179 -0.05916617 0.24471626 0.121277764 -0.016807025 0.3094442 -0.28979495 0.19575773 0.19800666 0.030096883 0.11577557 0.10786603 0.052814372 -0.08461289 -0.09025033 -0.49364763 -0.08506589 0.08025988 0.16074257 -0.0475555 -0.035168115 -0.0379528 -0.0443214 -0.09211009 -0.11375469 0.15870161 -0.028825007 0.045773953 0.3855077 -0.023147887 -0.0003344429 0.10829226 -0.021713011 0.08756279 -0.223971 -0.24004254 -0.07835349 -0.13436876 0.27678037 -0.17032462 -0.051501684 0.035643797 -0.18555829 -0.048764713 0.12234437 0.18843721 0.04449677 0.04672872 0.08127959 -0.11803028 -0.19171959 -0.15897019 0.35490423 -0.051936507 -0.045489177 -0.09211294 -0.15003687 -0.00084638747 -0.03449546 0.020123567 0.18832408 0.11456011 0.017121494 -0.0866178 -0.012302536 0.09756733 -0.08979388 -0.14538924 0.079605065 0.15475157 0.050962962 0.13750777 0.24697535 0.065080285 0.09196161 -0.03789463 0.024297943 -0.05055665 -0.09481541 0.038107015 -0.036583625 0.13279468 0.023552043 0.10689225 0.32460344 -0.047515597 0.19566278 0.14915635 0.053178664 -0.12877618 -0.07930331 0.0019255899 0.31822294 0.024097035 -0.05474314 -0.056230094 0.20588699 -0.17748767 -0.120872274 0.10465717 -0.41401088 -0.22896186 -0.3165849 0.08223418 -0.13982981
69 -0.14394614 -0.03342418 0.09245031 -0.044924337 0.054612383 -0.08339039 0.28430519 -0.114176735 -0.08658524 0.17037286 0.3423474 -0.056209497 0.026756296 0.037910044 -0.20960455 -0.052100632 -0.25454372 -0.3265162 -0.11770922 -0.29213393 0.31871158 0.05341273 0.04229896 -0.0032101385 -0.10968309 0.2909483 0.1367369 -0.059102148 0.3152802 -0.20288214 0.18571354 0.18555461 0.02719579 0.19440262 0.05748801 0.010024491 0.06760408 -0.09836268 -0.3465983 -0.14634944 0.08091127 0.052798614 -0.044932663 -0.041486815 -0.044725794 -0.04037758 -0.06641305 -0.19818279 0.17338698 0.0016781534 0.06577798 0.32634956 -0.025151815 -0.014479354 0.051173907 -0.022000307 0.17572418 -0.13898623 -0.22680436 -0.09720983 -0.093126774 0.17977871 -0.072326094 -0.038038276 -0.052241437 -0.20152867 -0.026513303 0.1787088 0.12573645 0.061208364 -0.03337052 0.08262502 -0.18766852 -0.105035126 -0.1378168 0.349804 -0.008312225 -0.049017128 -0.11116609 -0.22887184 -0.00424112 0.044707023 0.107334554 0.14364639 0.123922914 -0.00057994324 -0.091065034 -0.091558434 0.09615166 -0.0683078 -0.17946206 0.110025056 0.13022518 -0.037906695 0.22057025 0.18501112 -0.001184269 0.20269296 0.028038936 0.0030329165 0.07343804 0.044962738 0.11081949 -0.11079841 0.16582982 -0.010533785 0.1433595 0.3185032 -0.04138441 0.226343 0.17149237 0.03532355 -0.20353696 -0.097724184 -0.033597317 0.36191997 -0.015059836 -0.037166078 -0.019579604 0.11405048 -0.21970683 -0.03911441 0.1618742 -0.44047385 -0.19863199 -0.28221056 -0.0057801553 -0.077403136
129 -0.14920612 -0.033893462 0.051059432 -0.08055331 0.08659507 -0.098384365 0.2405227 -0.122455925 -0.059971143 0.1620335 0.3119073 0.010633317 0.08346211 0.0941395 -0.1808362 -0.01796237 -0.21413246 -0.26725 -0.04206794 -0.25528595 0.24306135 0.058997013 0.029998275 -0.017733594 -0.06420076 0.21185003 0.112398624 0.042404976 0.28294817 -0.2551864 0.17048243 0.1851167 0.11027273 0.024436088 0.090333275 0.012732408 0.043459024 -0.13039953 -0.3975712 -0.070740096 0.08240586 0.018218428 -0.027914867 -0.105004445 0.00016583037 -0.07829895 -0.032584295 -0.14174098 0.24785982 -0.022459706 0.05819965 0.32289538 -0.14642851 0.013596697 0.13119593 -0.019227855 0.124089584 -0.12448074 -0.23584507 0.010878096 -0.14396226 0.26368427 -0.14555834 -0.056514647 0.037636567 -0.1416883 -0.10577274 0.2505849 0.111028105 0.08451012 0.055057332 0.010370035 -0.22676888 -0.16433819 -0.1148998 0.18146534 0.03321138 -0.03152504 -0.0029061236 -0.06775061 -0.09078589 -0.04101925 0.033203382 0.15060002 0.15234804 0.028732883 -0.06598247 -0.12874499 0.12447646 0.008523883 -0.19259493 0.09652956 0.12152956 0.015334703 0.12570873 0.30608308 0.023968821 0.102798246 0.00959407 -0.020290976 0.044473454 0.04635715 0.08065246 -0.0255716 0.13649304 0.0036855415 0.07983046 0.26276737 -0.027279546 0.20041326 0.1626454 0.040865704 -0.20584045 -0.110736646 -0.04377531 0.35054776 -0.068419866 -0.12271655 -0.017051741 0.09439498 -0.21885945 0.065665305 0.18315361 -0.32700443 -0.14826444 -0.26134378 0.113960266 -0.19421929
151 -0.099066064 -0.008237025 -0.011387627 -0.16002604 0.16084243 -0.1688773 0.3964332 -0.21069106 -0.03474098 0.12310787 0.3410179 -0.042332843 0.05934799 0.068903215 -0.11723302 -0.06336528 -0.18964384 -0.23159362 -0.13697737 -0.2651021 0.30197692 0.117585 0.07702461 0.04624465 -0.09456307 0.2680439 0.15504622 -0.043663934 0.33648083 -0.28464067 0.19952358 0.14865841 0.06377148 0.16638005 0.0052014063 0.06882805 -0.016971245 -0.15875806 -0.36654416 -0.006575506 0.008974862 0.058905743 -0.018359894 -0.089271404 -0.071159504 -0.05366256 -0.031554837 -0.13901158 0.13326523 -0.07655195 0.09198955 0.27246234 -0.014601873 0.02411694 0.03782472 -0.00622221 0.076254 -0.17293751 -0.21711743 -0.11019407 -0.10527651 0.21274914 -0.13672425 -0.0049997703 0.07525214 -0.15316239 -0.05087762 0.15635228 0.10270011 0.07918076 0.026821222 0.060929615 -0.19224727 -0.171793 -0.16605397 0.31482184 -0.035822935 -0.08105276 -0.033995315 -0.048912548 -0.018181564 -0.042651273 0.037077438 0.15627769 0.14188299 -0.016896944 -0.04741738 -0.12401828 0.13555385 -0.021298362 -0.1548444 0.14036742 0.112338364 0.08349137 0.21335654 0.27644733 0.028800823 0.05657211 0.053026143 0.056944598 -0.05300116 -0.019170776 0.08633759 -0.043765593 0.07727264 0.050451964 0.16702747 0.32706288 -0.065920286 0.26260236 0.1440848 0.077525906 -0.17434181 -0.15163189 -0.003265966 0.33259964 -0.022548608 -0.10559425 0.0018765201 0.11802693 -0.2373538 -0.0024808221 0.12068791 -0.44603562 -0.15335277 -0.26215208 0.18077813 -0.18831635
112 -0.09610585 0.10822253 -0.16038635 0.48898688 0.19127084 0.30285764 0.15915573 -0.10854236 0.09294421 0.27716127 -0.110571064 -0.05562791 0.03341537 0.003950712 0.24307367 0.28222016 -0.2723923 -0.21845734 -0.157969 0.18374498 0.13433872 0.30514866 -0.52315253 -0.5168707 -0.30195525 -0.34387505 0.10141535 -0.21609914 -0.006053806 0.0057473276 0.22015676 0.053886812 0.086654074 0.28487054 -0.12435423 0.118440464 0.0007169825 -0.23885609 -0.30617592 0.087943785 -0.3059033 -0.09836342 0.2681692 0.0025341534 0.26831812 0.15229982 -0.37048987 -0.021151178 -0.08175643 0.1258967 0.0748798 0.3298034 0.057110798 0.030583203 -0.17786126 0.22891472 0.58521163 0.45069283 -0.056375474 -0.07310692 -0.4858436 0.038349714 0.17711525 -0.32228008 0.24866763 -0.089138195 0.0068082516 -0.0626361 -0.17094882 0.25029632 -0.08277341 0.055582616 -0.63925993 0.14072187 0.088014744 -0.46441093 -0.065910414 -0.21775208 -0.28270212 0.18552154 0.22980447 -0.18272148 0.10339003 0.22254054 0.2247789 -0.047821064 -0.15737745 -0.120120406 0.030490607 0.07487627 0.15243813 -0.07347627 0.14116725 -0.16196547 0.12658595 0.22865503 -0.07382158 0.3240497 -0.42367563 -0.16929986 0.3399899 -0.16827112 -0.29054245 -0.06316823 -0.21926224 0.07102379 -0.020010093 0.4717415 -0.412827 -0.124077566 0.043867014 -0.15778989 0.20463906 0.16945136 -0.015127359 -0.3275626 0.09707339 -0.14978291 -0.0895529 -0.23280978 -0.15069418 -0.17431682 -0.055550445 -0.23012613 0.376054 0.1466992 0.33755538 0.09220657
156 -0.09523712 0.054041483 0.000967243 -0.015809953 0.15531632 -0.08338687 0.31205443 -0.22655295 -0.1341045 0.18860523 0.21523856 -0.007113641 -0.025269028 0.046510387 -0.16039194 -0.030108172 -0.20206524 -0.28273338 -0.12681414 -0.16451356 0.30386984 0.04722849 0.052170303 0.060755014 -0.03952034 0.2589119 0.081308246 0.029460318 0.33510453 -0.27522898 0.2248019 0.19650926 -0.0055896374 0.059112128 0.039463818 0.008911752 0.00012268334 -0.046325877 -0.40748885 -0.06359198 0.100642785 0.08783223 -0.010333369 -0.05490332 -0.070739165 -0.044757534 -0.0071166693 -0.13146922 0.23396641 -0.12555118 0.05308888 0.32464975 -0.051181857 -0.07728533 0.0782818 -0.10170655 0.024641609 -0.21719965 -0.32955813 -0.04072983 -0.09152303 0.2156991 -0.20941544 -0.01737694 0.085275866 -0.1494796 -0.073369406 0.09233114 0.12731884 0.02694876 -0.011432583 0.061320778 -0.19215383 -0.1783969 -0.12561263 0.32394123 -0.060139284 -0.11213888 -0.012091777 -0.077808864 -0.016808163 -0.050959934 0.04859458 0.14554101 0.1345211 0.0006127887 -0.1004197 -0.028778853 0.14303161 -0.028672198 -0.13597311 0.15013722 0.14586753 0.05342136 0.16015838 0.3305213 -0.0151687255 0.09670607 -0.00019954072 0.03514763 0.010364537 -0.07967681 0.062012196 -0.031722218 0.12884273 0.026922857 0.16027689 0.30383438 0.011418129 0.26072672 0.23253794 -0.0025800748 -0.14160147 -0.10761318 -0.017035063 0.3186163 0.0056220614 -0.06144905 -0.01857792 0.114725225 -0.21933705 0.04858556 0.1536701 -0.45549133 -0.08905602 -0.29739743 0.15121266 -0.10598065
4 -0.14665592 -0.060266573 0.06837098 0.007246169 0.20141245 -0.10801392 0.38230455 -0.2187085 -0.17156632 0.08746963 0.28258917 -0.009855245 -0.059715524 0.039551787 -0.10071421 0.023254467 -0.2250589 -0.3116883 -0.20543431 -0.18274078 0.2686445 0.08308559 0.020404017 -0.015393993 -0.1182348 0.28371185 0.080762684 -0.03359144 0.34635213 -0.3040415 0.2267745 0.15631667 0.046498213 0.08668942 0.031688143 0.050772257 0.049554456 -0.18617709 -0.43941435 -0.02983478 0.07923377 0.08426491 -0.027742356 -0.05310668 -0.05524753 -0.0099617075 -0.020788489 -0.091967545 0.28293508 -0.12631509 0.102950916 0.36543885 -0.0044219117 -0.049842358 0.10735771 -0.10012912 0.11057474 -0.28204298 -0.27983576 -0.04954648 -0.10839418 0.24769883 -0.07121629 -0.016418954 0.030034285 -0.116884775 -0.023595434 0.17741728 0.24081 0.06256819 0.021018049 0.15169889 -0.15642896 -0.24849167 -0.17192397 0.2952716 -0.031511225 -0.120033465 -0.062109504 -0.15224609 0.0272407 0.0131962225 0.04625726 0.13999924 0.09710568 -0.0070445524 -0.060136434 0.03690639 0.16856706 -0.030517247 -0.06503382 0.14094865 0.07063898 0.061285775 0.14007954 0.3035656 -0.054009125 0.08758364 0.055039775 0.11066594 0.018094685 -0.049508505 0.13292369 -0.009357728 0.22841729 -0.037057437 0.14634728 0.30217844 0.009859316 0.2401095 0.15932576 -0.01822944 -0.1888527 -0.14801975 0.047861133 0.3008073 0.027447091 -0.063996725 -0.027890198 0.071117975 -0.086740926 0.06315336 0.17707998 -0.44948453 -0.12634254 -0.2740405 0.11014742 -0.098101616
91 -0.06997867 0.07370295 0.008061454 -0.055082854 0.18963684 -0.10755449 0.44682965 -0.19385906 -0.06712838 0.16268073 0.28448826 -0.015207134 -0.00037977545 0.021303158 -0.1220015 -0.017322768 -0.23192857 -0.30792284 -0.10122785 -0.24961576 0.28965858 0.07140068 0.108085476 0.07489076 -0.100972414 0.3061313 0.16292226 -0.025803227 0.38258228 -0.28188536 0.22419198 0.15998167 -0.017084727 0.054450385 -0.0013423773 0.06916012 0.039303098 -0.118161276 -0.3989185 -0.030750776 0.047685698 0.115014486 0.04968534 -0.053498015 -0.07806204 -0.058748 -0.009812437 -0.11003436 0.25885257 -0.13017866 0.12225349 0.2913234 -0.050591856 -0.012418012 0.10136008 -0.03561924 0.09246543 -0.3543079 -0.2630528 -0.08713082 -0.058010507 0.20049828 -0.1458815 -0.0953847 0.0031422614 -0.18406191 -0.042026445 0.2176064 0.17024714 0.10347666 -0.00026053772 0.18187116 -0.16146243 -0.13989969 -0.18201678 0.31319284 -0.090654336 -0.06148122 -0.013899738 -0.12743376 -0.02901233 -0.06802558 0.07355785 0.18632685 0.06171759 0.017039131 -0.0019059128 -0.047810633 0.1283258 -0.08622422 -0.12710427 0.018342536 0.14293629 0.06121822 0.15907097 0.31133035 -0.042954076 0.0688353 0.081538066 0.081680484 0.058726892 0.008584334 0.10385899 -0.06688185 0.13706815 0.0739475 0.14245841 0.27918044 -0.028648516 0.2158572 0.2350067 0.02751589 -0.21450275 -0.17604978 0.017555367 0.3197181 0.047921523 -0.13034025 -0.061676126 0.07836059 -0.26689416 0.0402082 0.18848528 -0.50819135 -0.12701553 -0.26893362 0.14813837 -0.16702016
68 -0.15995651 -0.1220101 0.026834758 -0.08527847 0.20234242 -0.19168653 0.29873285 -0.1965171 -0.07872233 0.10063692 0.42445135 0.031791557 -0.0044791703 0.0956786 -0.22001629 0.09613623 -0.20171039 -0.20412835 -0.20370528 -0.2083942 0.22769055 0.01888612 0.07831668 0.11725457 -0.05216206 0.33809137 0.017088553 -0.028852561 0.33272144 -0.3402404 0.22256763 0.16712338 0.06576555 0.13520059 0.059435047 0.10634188 -0.000730897 -0.11532327 -0.3419602 -0.08671264 -0.041075956 0.09842578 -0.14838079 -0.049172334 -0.039523367 -0.02004392 -0.013397566 -0.13839895 0.15232375 -0.052034102 0.08706563 0.26488322 0.08600036 -0.1156951 0.02599088 -0.08088726 0.07409729 -0.17172004 -0.24027355 -0.10160815 -0.09088216 0.17783226 -0.09183468 0.008979646 0.055110987 -0.09764985 -0.025418898 0.22646724 0.10654283 -0.009475771 -0.05912528 -0.0077511957 -0.15722966 -0.17430556 -0.17750962 0.1827577 -0.042595394 -0.044684023 -0.06277451 -0.14374053 -0.02601473 -0.018220885 0.045155894 0.10866166 0.14301525 -0.026466314 -0.07528045 -0.13035648 0.245858 0.027972508 -0.09213775 0.12861173 0.11489613 0.042340092 0.13990453 0.2366678 -0.009040165 0.13938345 0.016069867 -0.007625894 -0.0516646 -0.044826172 0.061120063 0.04573139 0.20304303 -0.043696444 0.15202668 0.25546268 -0.025122404 0.14088131 0.19068165 -0.03561794 -0.13117899 -0.1427149 0.051954653 0.26781034 0.010070541 -0.02330024 -0.016319158 0.09252267 -0.25349644 0.007986333 0.09565382 -0.47329602 -0.12719353 -0.4041499 0.048195284 -0.19363166
24 -0.12393329 0.09212858 -0.15195179 0.4985526 0.29398152 0.29451582 0.13061577 -0.0060938518 0.14919032 0.34323817 -0.1333861 -0.11282635 0.049667325 0.096011765 0.2527124 0.306352 -0.21216184 -0.34461945 -0.19842413 0.224451 0.1498703 0.29251114 -0.47791895 -0.43631348 -0.17540102 -0.28233996 -0.054197654 -0.09537339 0.0415898 0.021534638 0.37847045 0.046188463 0.09087781 0.30461282 -0.118810676 0.09322593 -0.008575608 -0.2342075 -0.21816657 0.15955757 -0.51482886 -0.12228513 0.28680143 -0.058229208 0.23049746 0.15160307 -0.3161408 0.15169951 -0.09827097 0.095369086 -0.03568048 0.31570733 0.18796913 -0.05238819 -0.24895395 0.06541451 0.48032495 0.41240302 -0.08503152 -0.06235462 -0.45657152 0.038552474 0.07991051 -0.3239385 0.30875754 -0.10006096 0.11135213 -0.07113449 -0.19502676 0.14466678 -0.02922195 -0.12550321 -0.5774633 0.13180475 -0.0045367335 -0.42819616 -0.15653022 -0.2960579 -0.40044445 0.2651833 0.30166328 -0.18489186 0.07151319 0.1730671 0.27105168 -0.025423234 -0.13667917 -0.041094314 0.14137222 0.037936512 0.21666853 -0.068208635 0.12963921 -0.22710004 0.04124747 0.053473234 0.13559832 0.34566632 -0.38811707 -0.21598545 0.32856438 -0.18627869 -0.33254772 0.08177168 -0.30970636 0.057603773 -0.021325555 0.35856947 -0.46784693 -0.056496244 0.057582945 -0.14835665 0.26235905 0.08891645 0.11978175 -0.31113207 0.027091164 -0.19331215 -0.11345376 -0.30727407 -0.23297448 -0.23361187 0.0111191105 -0.19958092 0.26684338 -0.05064261 0.4459082 -0.01493538
3 -0.09363504 0.14233755 -0.22017938 0.6323163 0.42173934 0.32933995 0.24505806 -0.039933912 0.17210917 0.38854015 -0.09182468 -0.19944459 0.062101923 0.2025777 0.25090557 0.22683191 -0.22483404 -0.35924876 -0.333653 0.26112142 0.08789426 0.31119886 -0.38817838 -0.33535564 -0.2321803 -0.2417928 0.0019572221 -0.07213835 0.047923386 -0.057028573 0.22518088 0.049133483 0.10485341 0.24788633 -0.14265306 0.0698709 0.021803614 -0.21800947 -0.23080161 0.09975075 -0.5095721 -0.088958696 0.21357 -0.0050747315 0.19364083 0.11434762 -0.3547417 0.22450122 -0.09949894 0.18861936 -0.10687332 0.33449396 0.07587366 -0.018992445 -0.3269005 0.0895295 0.46649972 0.46318358 -0.06484555 -0.07892235 -0.50245565 0.032940015 0.20373169 -0.4612081 0.2668505 -0.055744577 0.12786566 -0.0016542487 -0.13354087 0.11347848 -0.12195143 0.008156052 -0.5600218 0.106101006 -0.020789359 -0.3799686 -0.071209125 -0.17094493 -0.35933802 0.14783187 0.29787466 -0.13734095 0.07146555 0.095130995 0.33321187 -0.07383704 -0.1493279 -0.041951466 0.0049039973 0.027481688 0.35616124 -0.12693468 0.10337109 -0.14499933 0.04896712 0.09652546 0.2475434 0.3950051 -0.36394566 -0.07830145 0.26433006 -0.12741709 -0.41002253 0.0649653 -0.23730214 0.07626437 0.10834596 0.35380167 -0.5270169 -0.083166264 -0.035077292 -0.20558302 0.25927842 0.21303596 0.10801812 -0.20179401 0.12591639 -0.19526543 -0.1304674 -0.2866817 -0.22787325 -0.19940649 -0.10369062 -0.24704579 0.34243545 0.09797876 0.37414145 -0.06535002
27 -0.12821622 0.15821756 -0.11027494 0.5220433 0.34609902 0.23628955 0.17843562 0.0027697813 0.07505928 0.20483984 -0.13887134 -0.101668045 0.03203363 -0.0006724089 0.32484922 0.3034723 -0.2709048 -0.19220164 -0.09458953 0.19868366 0.12119039 0.3128723 -0.45288795 -0.4331991 -0.23776542 -0.35265547 0.085492566 -0.12944846 0.04126697 -0.002225793 0.15837823 0.03454549 0.11361661 0.24931034 -0.023739558 0.097562596 0.030332021 -0.23738025 -0.23244007 0.13850793 -0.34307715 0.008998258 0.25637293 0.026546298 0.24234635 0.17226315 -0.37301898 -0.07235599 -0.011677736 0.07162546 0.043038644 0.2790778 0.13295001 -0.09433519 -0.10263585 0.14925064 0.47089586 0.46843103 0.034009535 -0.16156788 -0.3189646 0.0662865 0.22157864 -0.43098533 0.3036469 -0.12727794 -0.047355372 0.0051767896 -0.0824611 0.12571603 -0.102596164 0.08911708 -0.57794535 0.06260379 0.028123925 -0.39730376 -0.1156519 -0.19090092 -0.319391 0.16939172 0.2534346 -0.22682177 0.040671438 0.20737875 0.23254149 0.035228632 -0.034366325 -0.0126344655 0.04606259 0.08870482 0.1767946 -0.123500444 0.106986046 -0.13682747 0.031100344 0.15738456 -0.027088454 0.39116013 -0.28755987 -0.14969394 0.25463378 -0.089026 -0.28455082 0.024811521 -0.23725277 0.083155714 -0.09030205 0.39403886 -0.30117404 -0.068499275 0.07403173 -0.21554753 0.22927207 0.1549338 0.11121021 -0.39061227 0.20536196 -0.15003867 -0.093930535 -0.24853182 -0.18343368 -0.019709546 -0.046275735 -0.20294324 0.3901534 0.08169954 0.3307374 -0.09077888
144 -0.10301523 0.043712974 -0.026706731 -0.03093768 0.1976015 -0.14626373 0.34580722 -0.16287066 -0.11631276 0.10723535 0.34943464 0.008235886 0.025173157 0.09369534 -0.16775171 0.016751777 -0.22175348 -0.23567411 -0.14626747 -0.29812554 0.24560025 0.026055355 0.07350382 0.08624068 -0.04184717 0.26212516 0.07736025 0.068897486 0.36110538 -0.23837015 0.20103413 0.1676836 0.16863719 0.15079789 0.076125644 0.0077670994 0.056521177 -0.066516355 -0.41633457 -0.1179021 0.038019355 0.09179975 -0.030746004 -0.008879417 -0.04286459 -0.057328835 -0.03217101 -0.093599066 0.14969675 -0.09788034 0.0756717 0.31925508 0.026401075 -0.038361397 0.084602 -0.01753727 0.061653297 -0.2239161 -0.21510598 -0.030178746 -0.16954964 0.21879669 -0.16329442 -0.07725879 0.004007947 -0.1458018 -0.030094322 0.12571497 0.15531631 0.07133923 -0.033119097 0.09463515 -0.15822826 -0.06923365 -0.23081903 0.3079726 -0.04948975 -0.05361717 -0.05581653 -0.053776525 -0.01742022 0.04934386 0.0863132 0.18116568 0.15602292 -0.05840511 -0.09541073 -0.042929802 0.14839593 -0.05562201 -0.13999596 0.04926378 0.22827154 0.09953731 0.14925672 0.34061828 0.014700378 0.1349854 0.061074346 -0.0075800656 0.032401968 -0.06131342 0.07669232 -0.103275925 0.14495596 -0.081952974 0.2201101 0.32598153 -0.014545654 0.29978082 0.22375202 0.07401322 -0.2521851 -0.105115086 -0.033800624 0.36976102 0.013727877 -0.109633796 -0.14680131 0.18493587 -0.27910107 0.00015107123 0.2557687 -0.498344 -0.17402154 -0.38309005 0.039934393 -0.25191107
171 0.18519063 0.58706164 -0.33031407 -0.111989565 0.46904168 -0.14421548 0.18152873 -0.1496856 0.12317309 0.3528368 0.5254129 0.414692 0.12989324 -0.14257997 -0.28105393 -0.009938867 -0.12266135 -0.0050075585 -0.27885392 0.72481704 -0.376452 -0.43830788 -0.1418658 -0.12813705 -0.28211266 0.24557395 -0.1416675 -0.6761407 0.38957462 -0.12685402 -0.019512529 0.38622466 0.02047763 -0.44018435 -0.07919698 0.2236964 -0.15319353 0.022824934 -0.04674766 0.43958592 -0.4594775 0.20369123 -0.13364844 0.49081287 0.026309878 -0.05642586 -0.40047377 0.08615148 -0.21431573 -0.051310416 0.04125439 0.08399718 -0.08028584 0.11994131 0.17099635 0.1345371 -0.19522187 0.4786519 0.17963792 -0.23251161 -0.36925328 0.16870213 0.20918125 0.057936255 0.5967758 0.16837251 0.37663135 -0.06567386 0.020860149 -0.3276464 0.1331789 -0.27115244 0.11953848 -0.041818865 -0.012413167 0.31344333 -0.12761165 -0.40491253 -0.055814836 0.3100386 -0.01693379 -0.19897443 -0.24260755 0.07601883 -0.16189533 -0.36404338 0.19942142 -0.08943252 0.02796016 -0.011880112 0.13597985 -0.24930137 0.13218665 -0.5449137 -0.056973577 0.034853067 0.098116376 -0.008286629 -0.26688412 -0.019174423 0.3522982 -0.021817937 0.16124272 -0.22006215 -0.4668042 0.27955455 -0.3402368 -0.5248575 -0.20621045 -0.007871774 0.17924501 -0.19881615 0.17144032 0.047789786 0.33737198 -0.032293815 0.15919901 -0.18998098 -0.52103686 0.34309104 -0.031227022 -0.42326966 -0.086711235 -0.27199683 0.048030883 -0.16785759 -0.049127027 -0.10975446
90 0.11156804 0.6771159 -0.30835083 -0.12782459 0.40206844 0.04248529 0.22136256 -0.17513056 0.07094257 0.38227588 0.46978894 0.38021082 0.091402285 -0.0038480568 -0.2234135 -0.035046685 -0.11774965 -0.10912805 -0.16465093 0.6413449 -0.34491363 -0.47150537 -0.09677909 -0.2897109 -0.28112713 0.19313712 -0.10585961 -0.56625485 0.31479323 0.039884344 0.033760972 0.2439582 0.02629523 -0.4174937 -0.15732056 0.2892521 -0.14607948 -0.023714656 -0.07265172 0.36328116 -0.31885514 0.2417893 -0.12271911 0.36282018 0.10581812 0.06184176 -0.28034464 0.06278859 -0.20792334 -0.064343765 0.17694062 -0.03103863 -0.16101946 0.051855486 0.21203619 0.08590002 -0.13021548 0.576668 0.15173973 -0.27772415 -0.3696371 0.113795035 0.1866443 0.025399793 0.62523675 0.14075197 0.47612697 -0.10633713 -0.06318952 -0.42373973 0.22374223 -0.29174036 0.1512529 -0.043918926 -0.008916474 0.2671612 -0.11234272 -0.4008344 -0.04898022 0.3883265 -0.08100085 -0.1399934 -0.28920567 0.090701394 -0.14513658 -0.24249652 0.21069263 -0.09003235 -0.0040955585 -0.04677535 0.018766543 -0.2093583 0.13156684 -0.5279619 0.0017532416 -0.049523234 0.18960156 -0.08145436 -0.2474759 -0.03923866 0.237606 0.06998436 0.21287149 -0.120023906 -0.40281236 0.256277 -0.4018959 -0.5082695 -0.09894937 0.026902005 0.241068 -0.21612585 0.05629184 -0.08047244 0.33250165 0.14139555 0.14906593 -0.11771346 -0.52609575 0.38566262 0.019411784 -0.29760727 -0.20012371 -0.27953088 -0.10900035 -0.21405332 -0.12927146 -0.06526274
161 0.14162706 0.65991795 -0.34580025 -0.054303937 0.3706922 -0.08049951 0.19922687 -0.16529621 0.103127025 0.38780618 0.43495375 0.42522 0.22245698 -0.023289686 -0.21568777 -0.074081704 -0.09107862 -0.036558982 -0.23560522 0.59735936 -0.3862357 -0.39027753 -0.1403124 -0.25731045 -0.2791979 0.175693 -0.16385686 -0.5446521 0.3963975 -0.03902098 -0.020483093 0.40483084 0.014803137 -0.2986292 -0.24697262 0.2035259 -0.15757053 -0.017309032 -0.060572058 0.3864136 -0.44900003 0.26723954 -0.119874895 0.38873738 0.11987823 0.040041275 -0.39521393 0.061921407 -0.23300453 -0.11273988 0.16797605 0.0664058 -0.060733695 0.14352034 0.17984243 0.10126752 -0.11507173 0.53842473 0.11656257 -0.23833118 -0.30990034 0.0284396 0.14123324 0.019797385 0.52324724 0.119872876 0.4711895 -0.1457537 -0.12787212 -0.3629325 0.16711333 -0.31141475 0.087278746 -0.10789155 0.01282536 0.259755 -0.062199343 -0.44686592 0.0012787799 0.39814654 -0.11048823 -0.16131884 -0.19908778 0.0760248 -0.16002634 -0.2971327 0.17151374 -0.13355495 0.062396206 -0.044317544 0.013096458 -0.21264657 0.10257383 -0.6227286 0.017392743 -0.046545304 0.16379459 -0.091458395 -0.2242431 0.02549329 0.22504202 0.039494988 0.14832506 -0.19751023 -0.4010637 0.2646786 -0.35651538 -0.5737034 -0.09982408 -0.024143988 0.19985987 -0.1648094 0.052409843 -0.029828807 0.33722782 0.03379655 0.10952842 -0.16220774 -0.5544417 0.38598517 -0.02956124 -0.36737302 -0.053134225 -0.25243375 -0.06303085 -0.18884912 -0.15065534 -0.060784064
81 0.11185126 0.67136514 -0.34288943 0.040395368 0.39198315 -0.025859075 0.1687325 -0.06893963 0.21985333 0.37493896 0.37727094 0.40332368 0.20031424 -0.046874713 -0.19150914 -0.081916206 -0.16290228 -0.06216823 -0.13034903 0.6619793 -0.36931807 -0.42687082 -0.18449363 -0.25521675 -0.2640031 0.09325627 -0.08754199 -0.6993317 0.39556232 -0.14146648 0.0715696 0.37806642 0.0017153099 -0.28612897 -0.26212224 0.31387663 -0.14491923 -0.03462251 -0.13362491 0.4063331 -0.45159537 0.3626718 -0.16192226 0.36897165 0.087462686 -0.004196612 -0.3936436 0.09230078 -0.18830636 -0.035923354 0.037955824 0.06761802 -0.050297286 0.146931 0.1695474 0.13525128 -0.19760866 0.42879415 0.15658337 -0.30421066 -0.30731666 0.057921767 0.18103091 0.05625936 0.6151309 0.11464358 0.5737628 -0.20429869 -0.013136199 -0.39797276 0.15166533 -0.31502658 0.077935815 -0.07683743 -0.07978721 0.3070343 -0.08348372 -0.3742171 0.007092846 0.32871535 -0.10286805 -0.22054556 -0.19528691 0.1808577 -0.16121589 -0.276476 0.20223406 -0.11437914 -0.011512133 -0.027220488 0.08171989 -0.25312373 0.08805991 -0.58220804 0.0031600469 0.07706013 0.1590812 -0.03551112 -0.22221461 0.01213458 0.25419405 0.014353932 0.14666526 -0.17557614 -0.29476738 0.24631396 -0.30424702 -0.6004283 -0.07950641 -0.13350806 0.2088735 -0.11329266 0.08214117 -0.13267933 0.25550714 0.053020146 0.09090384 -0.14529309 -0.6030364 0.45499024 -0.01879355 -0.41569123 -0.061028693 -0.20655087 -0.12345374 -0.09249229 -0.20395876 -0.022909556
