201 128
138 0.38703722 -0.19725183 0.25501928 0.47101086 0.0064169895 0.18177213 0.03210457 0.050938826 -0.103221335 0.019997159 -0.12137512 -0.014885085 -0.26469585 0.00261622 0.074167036 0.31043458 -0.0074628564 -0.1150097 -0.08864652 -0.31523892 0.17539601 0.17951141 -0.14430043 -0.044090264 -0.0812977 0.012215847 -0.012628654 0.046674985 -0.07452332 0.013988192 -0.13600019 -0.13073452 0.04817724 0.14078425 0.24198185 -0.015369261 -0.066427186 -0.14878632 -0.05319996 0.11514467 -0.17688723 0.044445615 -0.1366984 0.12551795 -0.21224023 -0.10826763 -0.30875474 0.16040619 -0.05449934 0.15100528 -0.06610267 0.10142448 -0.0077815074 -0.10167587 -0.012144596 0.06734616 0.114582084 -0.04055479 -0.1726454 0.08384824 -0.17142278 0.025535922 0.1797297 -0.01534874 -0.064554796 0.010685386 0.0947546 0.17921343 0.3001574 0.026880769 -0.026212724 0.10255849 -0.15002452 -0.0134662995 0.10848194 0.021276278 -0.04869534 0.116956934 -0.06867892 0.046733335 0.03176267 -0.028462011 0.13677083 0.31942105 0.028192362 0.05640078 0.12478536 -0.009520368 -0.14692184 -0.015387372 0.12394519 -0.1495756 0.13272373 -0.06534438 0.3054702 0.04673578 -0.2148699 -0.044995535 -0.08232333 -0.12953673 0.078499116 -0.06977104 0.028726328 0.11704814 0.0877611 -0.1254908 -0.046027966 0.15539072 -0.036019932 -0.12753046 0.031493638 -0.10248545 0.0034770984 0.05698124 -0.09817006 -0.045868564 0.2381343 0.007856458 -0.056302503 -0.18764995 -0.06487584 -0.2852662 0.017424392 -0.0076189497 -0.03428844 0.18579602 -0.024970848 0.0897552
122 0.16507381 0.045802247 0.35269383 0.29354802 0.032080267 -0.04815543 0.076216176 -0.0039124005 -0.05453464 0.28794795 0.10224402 -0.029884424 -0.15560634 -0.08720976 0.0037520584 0.026385158 -0.18877824 0.003514808 -0.062002677 -0.06972859 0.08801376 0.19253732 0.12750919 -0.381161 -0.22928572 0.08345432 -0.21292634 0.02614921 -0.02422064 -0.032173134 0.34099647 -0.03821683 -0.27380154 0.07951595 0.03786157 -0.08613179 0.13344437 0.096513115 -0.024404792 -0.020338397 -0.1768118 0.11045595 -0.08743078 -0.01836519 0.2436974 0.099092394 -0.40018943 0.2711579 -0.042179048 0.103967324 -0.08741442 0.12383295 -0.2136003 0.19905299 -0.22561939 0.09635971 0.14541179 -0.22054535 0.0069609415 0.0033993097 0.051268563 0.054799072 0.108060755 0.07700833 0.19376476 -0.13016054 0.09343364 -0.09238776 0.3199985 -0.059061866 -0.41090196 0.1206788 -0.08666634 -0.15385695 0.0792435 0.00825563 0.07035491 0.094352596 -0.006437462 -0.054969016 -0.14060205 0.0882982 0.016753951 0.1468758 0.017023327 0.029269751 0.16928898 0.15082933 0.067614734 0.08055079 0.039595377 0.047299944 0.009853373 0.001406018 0.12347008 0.07584132 0.07567764 -0.059565887 0.00625128 0.27313358 -0.0063103084 -0.043715075 0.030693877 0.065592304 -0.029947277 -0.03196264 -0.07274711 0.045460284 0.017149761 0.089515544 0.02699276 -0.04473471 -0.040780254 0.008792832 -0.051719025 0.04968646 0.030800415 0.014796023 -0.023726393 -0.046673533 -0.045818884 -0.09788667 -0.1376868 0.015734823 -0.29823807 -0.22061947 -0.11439745 -0.05235593
64 0.33917025 -0.21630552 -0.002368554 0.35098845 0.15952897 -0.19525866 -0.020559099 0.07394169 -0.12713006 0.23924838 0.19951913 -0.04582505 -0.088780805 -0.0020090637 0.09546121 0.0034936287 0.031974554 0.022469958 -0.058374256 -0.05850763 0.255956 -0.06336432 -0.09512056 -0.031224713 -0.16573648 0.05650957 -0.31443393 0.0008484713 -0.093103416 0.013227872 -0.09561204 0.028350351 0.00894744 0.07176769 0.007113984 0.10076327 0.036509663 -0.09996409 0.17619962 0.13292867 -0.10795288 0.18982565 0.10151636 -0.013578403 -0.056814495 -0.047553193 -0.1685037 0.17517537 -0.06798679 0.13405989 -0.044039745 -0.03678075 0.08134262 0.03762101 0.08294417 -0.04126111 -0.10410821 -0.16005929 -0.24991904 0.14129016 0.1781358 0.053274717 -0.02559368 0.1755146 0.17985375 -0.10409815 0.07739153 0.29302576 0.11322294 -0.16051452 -0.23434566 0.0002593906 -0.17337614 -0.21586828 0.0854249 -0.22250222 -0.18809146 0.04443235 0.06154026 0.15982057 -0.19953755 -0.11455207 0.14507785 0.21805714 0.12027804 0.20234679 0.22480452 0.09580735 0.32861292 0.091011465 -0.038080245 0.046293095 -0.025676472 0.08719251 0.16461846 0.111019015 -0.20218553 -0.3903293 0.031098057 0.0323757 -0.037723653 -0.15371376 -0.04598374 0.045173068 -0.14964892 -0.07282722 0.06308961 0.021164713 0.32640842 -0.0017642261 -0.029588906 -0.055546306 0.13388447 -0.10221324 -0.13913435 0.0044689826 -0.06623744 0.11337791 0.08351964 -0.17166157 -0.16336705 -0.116844155 -0.22793314 -0.0041951276 -0.04197052 0.018178368 0.12048831 0.1499313
145 0.09629575 -0.076798156 0.1235706 0.2227239 0.26901674 -0.25153413 0.19331026 -0.13493754 -0.17722167 0.31745768 0.5382837 -0.32021168 -0.048414305 -0.21456538 0.14289892 -0.25179285 -0.14755458 -0.015468987 0.06647269 -0.27377883 0.1506608 0.03727388 -0.066498145 0.2830612 -0.1358706 0.31473744 -0.34701523 0.016893798 -0.19012028 0.15452144 -0.10958297 0.1266163 -0.13781375 -0.039461464 0.21016204 0.14881264 0.12207483 -0.2688872 0.26468396 0.11829427 0.015390161 0.16869102 -0.2351879 0.16812308 -0.1004475 -0.010435831 -0.38150725 0.270151 0.03129989 -0.017607762 0.20669124 -0.04979246 -0.044512697 0.02506814 -0.075412594 -0.15125126 -0.3072263 -0.06641595 -0.3250726 0.07380302 0.12030909 -0.0007980376 0.14005911 0.19006029 0.026793186 -0.17603034 -0.006893886 0.2702777 0.20929712 -0.31008184 -0.17391436 -0.2751759 -0.22304882 -0.12963559 0.010552988 -0.24234693 -0.036889832 -0.36732468 0.16401412 0.05636298 -0.2633744 -0.37181675 0.24113333 0.18879558 0.115880825 0.048038926 0.18206804 -0.028224979 0.18569525 0.05641144 -0.0107395565 0.3756057 0.096840225 0.1945901 0.2589041 -0.03795679 -0.16074905 -0.2649114 -0.07271413 0.08300232 -0.11704853 -0.3848818 -0.11232052 0.08815232 0.010564137 -0.1706173 -0.031766254 -0.056644183 0.27943394 0.18686028 0.2702204 -0.36910757 0.1388574 -0.04697342 -0.009763402 0.25378585 -0.11424872 0.15510635 -0.021656064 -0.18469651 0.06650599 0.031984463 0.08800254 0.15423802 -0.20669833 -0.27450252 0.1574152 0.026953997
107 0.066508755 -0.15709254 0.16196369 0.04796779 0.16334864 -0.082027934 0.3571615 -0.15902509 -0.14159188 0.28013617 0.4650311 -0.1735391 -0.4213454 -0.26375732 0.37210247 -0.07357981 0.09247944 -0.06548673 0.26463175 -0.26048788 -0.07525698 0.036591288 -0.29525447 0.3114348 -0.07526962 0.31082603 -0.16978312 -0.063683264 -0.06786232 0.16815992 -0.29710618 0.22883801 -0.038342178 0.1662199 0.4164743 0.14486246 0.18833262 -0.23706006 -0.042694747 -0.029784175 -0.04404763 0.21114475 -0.29795516 0.28359103 -0.16001669 -0.16359326 -0.52045685 0.30306315 0.079892404 0.2853345 0.074338466 -0.00037865303 -0.009160112 -0.044521008 -0.2729418 -0.13073756 -0.32968614 0.11046577 -0.3697935 0.076371655 -0.1532651 0.08375993 0.20218718 0.037477646 -0.20451412 -0.124078184 -0.055755224 0.20466553 0.15112917 -0.17411277 0.038364124 -0.37536764 -0.25674367 -0.11498309 -0.04928681 -0.05921789 -0.2117923 -0.3787737 -0.0055844258 0.1866046 -0.2052383 -0.4509491 0.14604115 0.3565201 0.09365464 -0.1401187 0.162792 -0.35483873 0.17302272 0.17535612 0.005580094 0.078026816 0.3022088 0.15976739 0.39116317 0.07179632 -0.11728522 -0.10745311 -0.13167809 -0.044648014 -0.11555215 -0.5316862 -0.0556106 0.18108016 0.27840343 -0.33819553 -0.1524687 0.26214617 0.15748778 -0.16049694 0.31230474 -0.42767194 0.059411854 -0.24407627 -0.16797581 0.13260166 0.22534993 0.09620988 -0.11392069 -0.20794055 0.19159907 -0.22664069 -0.027454142 0.15216625 -0.3465676 -0.24348646 0.06317532 0.0957588
147 0.47542635 0.0799729 0.2602956 0.13825782 0.39968765 0.109511815 0.080318436 -0.19297765 -0.12077617 0.1739024 0.21088688 -0.19613053 -0.29335028 -0.056099687 0.009162303 -0.068918884 0.087642886 -0.4093257 0.027504982 -0.30124497 0.24308568 0.14899297 -0.050178505 -0.100591384 -0.101225734 0.06604262 -0.10663489 -0.10555921 -0.20993873 0.055408917 0.012965654 0.044544715 -0.0006942564 0.30198744 0.2816881 -0.25049967 0.030157078 0.10274222 0.084222585 0.29922214 0.009220814 0.102955446 -0.026255343 0.22085129 0.067868724 0.005639432 -0.13084333 0.30163285 -0.2536098 0.108015485 -0.18973666 0.22928086 -0.14297628 0.09773205 0.10219326 0.07782927 0.5410986 -0.19295628 -0.24266043 -0.04037564 0.22498195 -0.059476633 0.07472593 0.19564882 0.32013196 -0.1721387 0.35566092 0.13001284 0.25607094 0.03984227 -0.23971075 -0.059823286 -0.15241614 -0.23314735 -0.12505841 -0.057852857 0.021100195 -0.15295428 -0.18207227 0.13561109 -0.2276841 0.19548965 0.114705585 0.18608041 -0.02395466 0.27624163 -0.0551458 0.16415621 -0.15763408 0.3529349 -0.2912545 -0.1724291 0.41721624 -0.2495327 0.14836021 0.022425674 -0.1587334 -0.1944396 -0.0712387 0.017861456 0.20505615 0.0128993075 -0.12918876 0.3027241 -0.0051890183 -0.3498213 -0.107661285 -0.23563968 0.049410522 -0.23903796 -0.100612976 -0.15515931 0.102225326 -0.102768116 -0.18321018 0.06341751 0.08503486 -0.1023548 0.07266957 -0.013463594 0.059910282 -0.27024314 -0.036030803 0.10080779 -0.07903267 0.0055271494 0.0015918557 0.29505372
186 0.27409422 -0.41591278 -0.0136827715 0.2681225 0.11576418 -0.1726924 0.03451858 0.09933532 0.003879499 0.020842575 0.042727027 0.06975048 -0.1434387 0.12258758 0.10828732 0.122427 -0.016021315 0.016568605 -0.18990023 -0.16612925 0.3050281 -0.016310304 -0.26894736 -0.2141532 -0.2242282 0.11063568 -0.4280012 0.22609602 -0.1092516 0.15199032 -0.06869896 0.0051878775 2.260469e-05 0.20489565 0.13442266 0.35291204 0.020994563 -0.072145425 0.1017494 0.02298142 -0.29430056 0.39005518 0.12968601 -0.128387 0.1334606 -0.2673063 0.012800454 0.10372132 -0.14504144 0.049856026 -0.06973833 0.04642375 0.030497883 -0.0046180417 0.264657 -0.09094969 0.15467466 0.0004096519 -0.42140305 0.2348614 -0.19618282 0.10450405 0.3011874 0.0049740737 0.109812096 0.24977504 0.061012115 0.34091395 0.30920205 -0.12421271 -0.111459956 -0.15764497 -0.42303312 -0.21113874 0.13184175 -0.024392584 -0.20088024 0.08192841 0.06948882 0.19564466 -0.1715346 -0.129635 0.24492896 0.33971962 0.19128565 0.20131648 0.33613494 0.06238114 0.14945427 0.08726771 -0.03881082 0.15438734 -0.12347819 0.045525167 0.27018976 -0.03633242 -0.42114067 -0.3403691 -0.045501463 -0.03987729 -0.19657692 0.058555674 -0.16983618 0.20603646 0.1215347 0.1511638 -0.08389066 0.013093318 0.2756243 -0.014045421 -0.05971202 -0.3094723 0.008496362 0.019744888 -0.2354389 -0.07772306 -0.006922621 -0.023657711 0.068824776 -0.21433167 -0.24525684 -0.21185756 -0.35264596 -0.092578486 0.052719004 -0.0107673835 0.064896606 0.30328092
97 0.05817102 0.1830774 0.3600586 0.029977594 0.027178798 -0.13324882 -0.17513618 0.23190211 -0.30858985 0.16125755 0.14054513 -0.049276017 -0.2274008 0.13913015 0.26221862 -0.10701372 -0.1738235 0.21940933 -0.20560597 0.34403464 0.07512948 -0.123258114 -0.0113831 -0.16349804 0.052259866 0.15697129 -0.1455494 0.12506033 0.053728014 0.05328767 -0.0035943007 0.04384496 -0.31578222 -0.24760818 0.23671332 0.06417487 -0.11722689 0.030532539 0.070695415 0.26885372 -0.30226892 0.07776934 0.08505998 0.009075064 0.055757247 0.06398124 -0.4815932 0.30832815 -0.07847148 0.26839295 0.031885058 0.07613168 0.22973809 0.03222613 -0.12968345 0.12890847 0.19364092 -0.08372905 0.2328634 0.24918525 -0.15406737 0.24961066 -0.1891977 -0.011215378 0.11546603 0.010978096 0.09239048 0.06355304 0.009842403 0.14726487 -0.2525668 0.0063669467 -0.08653957 -0.21065228 0.26442418 -0.46787447 -0.08341148 0.3450109 -0.19442952 0.1425606 -0.34653094 -0.24806002 -0.0071103894 0.5329591 0.12096138 0.050438475 0.24432918 0.1084746 -0.02520116 -0.03795821 0.2562341 -0.15281263 0.21387501 0.16386658 -0.042507403 0.14072004 -0.14036824 -0.35019863 0.084399566 -0.16513106 -0.3152188 -0.3269018 -0.022336507 0.3298722 0.106461704 -0.18674262 -0.102750346 -0.039645676 -0.15404041 -0.22233611 0.1370054 -0.08628868 0.024690256 -0.013432376 -0.054124992 -0.06214112 0.16197102 0.21506123 0.16397066 -0.05321748 0.15856428 -0.027403934 -0.051454052 -0.01620062 -0.31029978 -0.14013745 0.0361655 0.039842263
2 0.04601125 -0.062193044 0.18927383 0.03368771 0.14748827 -0.17484683 0.038606815 0.019995166 0.01886049 0.23466846 0.11261716 -0.014504658 0.010045113 -0.02053112 0.14037606 0.023513142 -0.115374476 0.14612356 -0.13470788 0.0074701253 0.15970388 0.1067913 -0.18678848 -0.06054296 -0.2962832 0.095832005 -0.24969074 0.095356 0.0112112425 0.15123609 -0.1528849 -0.051447548 0.029562771 0.2235947 0.18942548 0.17417307 -0.06416431 -0.17205228 0.15599155 0.12523621 -0.4461235 0.22487527 -0.0918268 -0.13667656 -0.059604216 -0.22191565 -0.20358121 0.19810599 0.012891959 0.39553213 0.040436354 0.07139252 0.139059 -0.07036841 0.055233374 0.03753831 0.10346727 -0.030491091 -0.20500347 0.21354908 -0.31418958 0.22155735 -0.026321094 -0.07569184 0.18145451 0.104534365 0.3876529 0.05904201 0.2286701 0.12670992 -0.09303992 0.34751597 -0.069549434 -0.007312458 0.06464172 -0.15728539 -0.07682074 0.29047248 -0.26380193 0.34089267 -0.07227527 -0.19829164 0.08591385 0.40543085 0.09876706 0.09124411 0.07081661 -0.17673166 -0.094374225 -0.03407896 0.17464642 -0.10050475 0.026235327 -0.091310985 0.24241154 -0.15034525 -0.39340252 -0.39134234 -0.026910909 -0.16216274 -0.28298795 -0.35369864 -0.13438119 0.14264043 0.22157252 -0.058055684 -0.06449676 0.048232093 0.073916905 -0.113288656 0.0956601 -0.002021032 -0.10282273 0.17915487 -0.24598119 -0.1221274 -0.15560004 0.051809758 0.07991004 0.13538715 -0.07895379 -0.12588593 -0.06199541 -0.10108675 0.020861702 -0.17478313 0.034975525 0.19352704
76 0.1791267 0.00451713 0.17753671 0.16044694 0.08012516 -0.125697 -0.0076677925 -0.06939865 0.17206262 0.36170942 0.0779797 -0.030840924 0.0132472655 -0.12532772 0.024949636 0.032952942 -0.11031386 0.07278776 -0.07595508 0.113049 0.109415084 0.20845397 0.09511388 -0.14163539 -0.4236346 0.1343164 -0.19376287 -0.013529173 -0.037901655 -0.054654565 -0.08204308 -0.033916585 -0.036176372 0.22613426 -0.08846505 -0.043422338 0.032009237 -0.17810863 0.12649202 0.094193324 -0.43890607 0.15509024 -0.13809426 -0.2395791 -0.044502527 -0.059918374 -0.24204983 0.27352297 0.009135662 0.30086622 -0.03341427 -0.10642877 0.0036137982 0.12710418 -0.12678331 0.124488056 -0.035252344 -0.22734883 -0.29245806 0.14350495 -0.11023212 0.19781679 -0.10047376 -0.07025046 0.19798996 -0.060545597 0.2535551 -0.04576598 0.14184952 0.15530309 -0.16650365 0.4271782 0.04424314 -0.051340856 -0.10254047 -0.060994625 -0.09389179 0.27613452 -0.28863513 0.32242283 -0.13707297 -0.052709766 -0.023894405 0.16974306 0.064397074 0.11596994 0.017743055 -0.100761175 -0.043413673 0.05363248 0.15515453 -0.2626315 0.028182387 -0.21834613 0.3204435 -0.015010075 -0.17978844 -0.29103544 0.1322563 -0.05672916 -0.054975543 -0.41174445 -0.060502175 0.079872265 0.039571345 -0.19761652 0.042693887 0.241728 0.08920146 -0.09677936 -0.056210004 0.08848615 0.014458298 0.1442418 -0.26839504 -0.09456912 -0.2522995 0.095771 0.10222846 0.049233984 -0.09495112 -0.08083937 -0.029554574 -0.005938801 0.051197384 -0.16339254 -0.023332149 0.012035023
23 0.31133446 -0.055910118 0.014835464 0.22545122 -0.082441226 -0.019238884 0.25440297 0.051925305 -0.1984185 0.21052958 0.20252396 -0.018929854 -0.018170113 -0.26461363 0.14720748 0.16160028 0.13711427 0.14006622 0.0756167 -0.021182025 0.1174519 0.036287703 -0.28318468 -0.22911571 -0.2266989 -0.17245893 -0.27780947 -0.14563766 -0.03910977 0.09981704 -0.21153748 0.010939202 0.0006585041 0.025266156 0.19519044 -0.03667752 0.11965003 0.07813597 -0.053992055 -0.34936097 0.06317429 0.10634301 0.015207832 0.114460655 -0.034898426 -0.09541713 -0.21469444 0.14152367 -0.0064056707 0.26135203 0.047178585 0.22407883 0.009036694 0.011708677 0.069466494 -0.11007669 -0.093251616 -0.00613669 -0.18034095 -0.08051454 0.046658278 -0.08968146 -0.080071636 -0.03572362 0.20433429 -0.2346883 0.1809455 0.075905845 0.22457945 -0.105450585 -0.25757724 0.2732386 -0.2842206 -0.1797839 0.0898193 -0.068154156 -0.075161554 0.12846637 0.0502672 0.070753895 -0.11348908 0.0061377934 0.2820239 0.43136513 0.26284477 0.18841316 0.23833473 0.12210196 0.36746 0.11548266 -0.04117768 -0.11037259 -0.0089704385 0.18777183 0.2927193 0.15673783 0.04716932 -0.19640835 -0.00028499664 0.2419439 0.13448948 -0.20344172 0.10547722 0.30381003 -0.005799214 -0.11736949 0.0443496 0.19033615 0.21822996 -0.113006495 0.17601365 0.1069328 -0.18789452 -0.008607682 -0.13791591 0.058311787 0.26681715 0.024440242 -0.038017653 0.11023492 -0.0603667 -0.13957793 -0.2268519 -0.15871456 0.05312129 -0.08209067 0.044089086 0.11048336
96 0.3845088 -0.23840661 0.0349466 0.19101016 0.08567603 -0.121332616 0.15727893 0.04639227 -0.048316527 0.053255334 0.15736955 -0.007536521 0.048486773 -0.01983416 0.080886215 0.039950065 0.10369816 0.10823943 -0.08361676 -0.1366688 0.22971103 -0.038971804 -0.2753168 -0.22101937 -0.31729937 -0.1737418 -0.37327832 -0.06882427 -0.11612247 0.25086766 -0.061813015 0.012068567 0.1300175 0.2217037 0.15406267 0.09412285 0.074279994 0.06290763 0.10923086 -0.119587995 -0.048937876 0.21279973 0.19913007 0.009130903 0.00801432 -0.31584746 -0.17447601 0.06774859 0.06768238 0.27599275 -0.061953094 0.15401319 0.061509393 -0.055568863 0.13554668 -0.031001588 0.048009075 -0.033298086 -0.28964388 0.05690658 -0.019837523 -0.009737696 -0.040327653 0.035469882 0.30516407 -0.07344955 0.18902422 0.21787497 0.37811944 -0.16971605 -0.18877357 0.13906142 -0.45582622 -0.17890084 0.14879246 -0.102643274 -0.10610188 0.15346214 0.06919113 0.21378745 -0.027304277 -0.027616039 0.31709293 0.39183202 0.28528532 0.30043212 0.23199406 0.08861247 0.25943258 0.16816771 -0.032225844 0.1104563 -0.080845684 0.06626141 0.2439941 0.04243427 -0.23552084 -0.32991594 -0.11990158 0.15420169 -0.064415574 -0.09345843 -0.11743599 0.15125245 -0.0051647797 0.06662077 0.0023717694 -0.0003240373 0.25211564 0.022274597 0.01589126 0.01911961 -0.08238601 0.031021554 -0.24742405 -0.08363948 0.12627183 -0.021590007 0.06589713 0.0141115375 -0.24464758 -0.17842436 -0.37763762 -0.26650584 0.09173869 0.03778773 0.19302596 0.2742332
193 0.33755475 -0.12866011 -0.0946844 0.4091483 0.227758 -0.17901061 -0.09589616 0.16793531 0.01934669 0.28625804 -0.12077923 -0.12873085 -0.12736702 -0.18364766 -0.110075414 0.03106149 0.12536816 0.11925887 -0.011860244 0.078800224 0.22582264 -0.1457565 0.19411284 -0.010328046 -0.26259115 -0.006153303 -0.23448499 -0.07378484 -0.07073391 -0.05120379 -0.080277085 0.08644699 -0.027186826 0.11384049 -0.12263461 0.07422345 0.008217895 -0.3065116 0.10818375 0.22745511 -0.18797563 0.08613968 0.01628127 -0.16423774 -0.1557689 -0.11411629 -0.23090656 0.12967479 -0.11603022 0.2879206 -0.15637478 -0.21329431 0.16179954 0.12351048 -0.09247466 -0.06472274 -0.26756454 -0.28921065 -0.34163365 0.21919209 0.10407314 0.20840828 0.041895546 0.141253 0.058557995 -0.1777084 0.067677155 0.08328351 0.14549647 0.06621152 -0.15870799 0.19270533 -0.094122246 -0.08113264 -0.11880498 -0.25053602 -0.4023939 0.17251992 -0.085574076 0.26461345 -0.12857877 -0.086064324 0.05037477 0.07431981 0.32377353 0.18347271 0.21949999 0.079250276 0.2399766 0.22135206 0.14759615 -0.14183058 -0.032397814 -0.09339316 0.12367807 0.13801293 -0.09283814 -0.36440474 0.04109509 0.05613599 0.046689495 -0.21552451 -0.2315731 -0.0954538 -0.006073366 -0.25545195 -0.03381943 0.29173195 0.26172972 -0.03557794 -0.25200328 -0.08744166 0.23168555 -0.11816436 -0.11016674 -0.048683453 0.065947644 0.14784831 0.03559034 -0.20674959 -0.12746622 -0.17605084 -0.20862852 0.012064656 0.08540029 0.10981539 0.085431956 0.12082648
46 0.1403957 -0.06125139 -0.078505866 0.214324 0.2532698 -0.181618 0.09779472 0.06847721 -0.073305644 0.19739354 0.37952048 -0.21508914 0.18982649 -0.228563 0.17760643 -0.1348801 -0.18940398 -0.104142 -0.11741912 -0.32232472 0.2608655 0.093914315 0.008983929 0.32070416 -0.2752767 0.29352042 -0.18236399 0.034885794 -0.104578026 0.1943447 -0.2604515 0.0029760054 -0.112420544 0.005049737 -0.00048041894 0.3061369 0.049866572 -0.35005093 0.3453046 0.10323575 -0.093223125 0.19836013 -0.16759029 0.11560008 -0.18388258 -0.025145367 -0.32424146 0.14749245 0.010160911 -0.035507888 0.2526902 -0.071625896 0.013812484 0.008983662 0.119956404 -0.19445832 -0.06581989 -0.12253081 -0.4612365 0.09849891 -0.044938624 -0.046950653 0.14247352 0.16110295 0.13969365 -0.18846987 0.11725532 0.34457436 0.3048964 -0.16623056 -0.061934277 0.16663943 -0.40694767 -0.033189796 0.16702648 -0.35246173 -0.10818294 -0.12714551 0.12589778 0.13806461 -0.09645557 -0.3999459 0.44025707 0.2886338 0.20713687 0.10915697 0.12939794 0.04501154 0.22442807 0.05275051 0.028687011 0.33960545 0.08306143 0.1864343 0.37542525 -0.10268037 -0.45248142 -0.45484975 -0.07175683 -0.103652045 -0.05623579 -0.24907325 -0.09200868 0.27452093 0.1583893 -0.33044252 -0.014883081 -0.09227573 0.49701875 0.20185931 0.22272852 -0.19153638 0.05010131 0.20942828 -0.03151024 0.25273192 -0.18382648 0.05685395 0.18528217 -0.13554862 -0.093780816 -0.08870392 0.21739799 0.21809234 0.11701237 -0.34751213 0.0028478643 0.228997
121 0.17681196 -0.049970984 0.12348181 0.2432302 0.13738833 -0.14319435 0.055428017 0.04610122 0.050391085 0.24577458 0.24403039 -0.08119282 0.23031661 -0.22171544 0.2045835 -0.008673262 -0.2074654 -0.1489526 -0.23499757 -0.23780887 0.18724027 0.2488201 0.08304358 0.19127339 -0.36597976 0.36156508 -0.09171125 0.15553261 -0.111489914 0.0901887 -0.30217883 -0.027450202 -0.0719788 0.12281605 -0.039040368 0.31359214 0.114606895 -0.44190103 0.3407218 0.06345117 -0.26170656 0.22724901 -0.2876624 0.014004943 -0.13648109 -0.013704263 -0.20895787 0.15051757 0.04640229 -0.01996967 0.2779367 -0.017168202 -0.056789696 0.020698858 0.1479614 -0.09509094 0.11771554 -0.0942789 -0.46679214 0.14122702 -0.17939177 -0.054482903 0.16057692 0.16182777 0.16154614 -0.053319976 0.19378702 0.31270394 0.2933557 -0.013978512 0.015992772 0.34266177 -0.33805922 0.030509999 0.17480071 -0.29630774 -0.06680374 -0.058315594 -0.018736554 0.1304783 -0.011003633 -0.339794 0.4882862 0.29421845 0.109522164 0.14995335 0.01732344 -0.030240692 -0.009105474 -0.009777994 0.04977589 0.24699672 0.11115103 0.04848929 0.43956706 -0.20017138 -0.56764054 -0.45202053 0.0343953 -0.11663004 -0.11747021 -0.16114534 -0.054370273 0.36544034 0.30211428 -0.26446226 -0.0051559466 -0.050628312 0.43563098 0.22911926 0.18049592 -0.1374308 -0.099831924 0.4745639 -0.04984792 0.25418293 -0.27980724 -0.03143675 0.277428 0.0064541185 -0.0762766 -0.07168011 0.40506747 0.14474975 0.18396778 -0.4240876 -0.09193757 0.15265371
47 0.19014564 0.21752308 -0.19515581 0.038967043 -0.19073568 0.1926041 -0.13819237 -0.20095599 0.025492935 0.09564729 0.0076094093 0.005721711 -0.13450159 -0.1281285 -0.13278152 0.27045265 -0.2699691 -0.3655091 -0.18142524 -0.122632265 0.011039862 0.3463114 0.0072024856 0.016690942 -0.21820326 -0.0894442 -0.16129856 -0.1283796 0.20314911 -0.096827544 -0.09991276 -0.13981101 -0.32240012 -0.11574416 0.11250142 0.32653207 -0.17780274 -0.0024960986 0.037200857 0.18010484 -0.32865804 0.045714248 -0.02892102 -0.06401378 0.20221734 0.08450234 -0.47425687 0.14564212 -0.081462875 -0.010479922 0.040093593 0.2324863 -0.17442901 0.08811653 -0.14752172 0.16375747 0.13075331 0.14234279 -0.24439178 0.04494891 -0.29655302 0.077508956 0.047573324 -0.018970402 0.19040133 -0.008926431 0.16392796 0.051428255 -0.02078317 -0.094879314 0.15209311 0.08108551 -0.2669849 0.0302208 0.033365592 -0.099726394 -0.28486747 0.15497692 0.14488168 0.23360114 -0.10477593 -0.078489445 -0.07639816 0.5296916 0.09673395 0.101552136 0.044433363 0.036472365 0.13053733 0.19308147 0.28409225 -0.21341203 0.15409724 0.09279607 0.30329126 0.060148194 0.04543276 0.12642148 -0.22884206 -0.12715457 0.04347216 -0.04827409 -0.1942645 0.38709855 -0.08517735 -0.2638003 0.09704275 0.14975485 -0.20314623 -0.06520232 0.12777163 -0.31024456 0.02008435 -0.11703203 -0.025616778 -0.0770921 0.3602054 0.08841373 -0.079371415 -0.15819466 0.044897467 -0.2307006 -0.20740601 0.08616176 -0.066645704 -0.18446526 -0.1434651 -0.11257426
77 0.08339894 -0.027554777 0.0986131 0.07619106 0.04617935 -0.18006258 0.08819918 0.057327252 0.0912832 0.25436226 0.14876506 -0.070779264 0.11049181 -0.1592593 0.1868371 -0.010457072 -0.14082536 0.051030423 -0.10789966 -0.079021744 0.16064924 0.20014274 -0.025380386 0.06676959 -0.3160926 0.21547905 -0.06902097 0.12369475 -0.032157447 0.095338024 -0.20432238 0.00923143 -0.036927037 0.15240724 -0.029802786 0.14600849 0.069798194 -0.30033338 0.22525603 -0.009500014 -0.28814447 0.16669141 -0.30980432 -0.04548671 -0.103270024 0.0030797399 -0.11073031 0.13253996 0.007984167 0.14500959 0.15125689 0.015734658 0.004117425 -0.0035496084 0.096243106 -0.037126843 0.10467421 -0.09414393 -0.35760695 0.15998998 -0.24192655 0.067529835 0.09953932 0.039645296 0.105948225 -0.06649131 0.26897162 0.10496256 0.24607855 0.08951738 -0.101617366 0.42254284 -0.2219814 -0.001606238 -0.00057632494 -0.15459348 -0.06751184 0.050984494 -0.18090726 0.19911699 -0.014492047 -0.22425343 0.31095022 0.2905883 0.1280248 0.10558896 0.029915193 -0.15021053 -0.0668014 -0.040632475 0.068715416 -0.008700704 0.08129451 -0.03172702 0.39309517 -0.13513398 -0.39953816 -0.3694332 0.044698264 -0.027777586 -0.16252525 -0.30973172 -0.08521337 0.2215764 0.24204786 -0.18370117 -0.011788562 0.109988496 0.16556944 0.08237798 0.08418533 -0.11155902 -0.0996731 0.4120592 -0.181286 0.14478329 -0.25661257 0.02002311 0.1444057 0.084991045 -0.024687687 -0.05621484 0.26618814 0.057408217 0.13224472 -0.35121876 0.020127747 0.10654672
189 0.19193232 0.110816784 0.21597429 0.18401068 0.11076734 -0.12853502 -0.102696925 0.16890644 -0.2895793 0.16486147 0.12332523 -0.05864974 -0.1178146 0.12893105 0.19899142 0.0030456057 -0.06609508 0.16900113 -0.15925598 0.1775312 0.16000685 -0.008388994 -0.03394107 -0.12712766 0.09938633 0.14243002 -0.18483192 0.09308883 -0.007572511 0.00842907 -0.07464195 -0.0421723 -0.13087744 -0.23502865 0.13745607 0.09337561 -0.09133616 0.009316402 0.036423746 0.22673291 -0.20838414 0.067413665 0.19897334 -0.001776204 0.008665737 0.045876157 -0.2891838 0.26264217 -0.17440484 0.14071046 -0.06447394 0.087639354 0.24251014 -0.03930897 -0.05569124 0.09277513 0.101555236 -0.09727626 0.028672785 0.15599553 0.0686566 0.13505685 -0.14987224 0.041052464 0.13135865 -0.0031145606 0.111010015 0.039566565 0.06717196 0.11236604 -0.19054319 0.00039736234 -0.14274195 -0.12846859 0.15076041 -0.4857644 -0.04618509 0.21102363 -0.096732385 0.18027864 -0.3674525 -0.17587431 0.015864456 0.35240024 0.09633285 0.10074701 0.18086241 0.18696882 0.1049218 0.03953775 0.10682353 -0.13849777 0.09022414 0.12901764 -0.0069764387 0.09839354 -0.11513299 -0.4207995 0.0027566254 -0.07907748 -0.15617599 -0.20226264 -0.01628266 0.29992008 0.032347947 -0.20485997 -0.026782941 -0.087928824 -0.00971977 -0.17683202 0.1276375 -0.045095567 0.011887789 -0.01007444 -0.009124509 -0.08345367 0.051566027 0.1097566 0.1974165 -0.1007149 0.040145665 -0.06526104 -0.20011908 -0.0019562775 -0.20308854 -0.13678262 -0.051093217 0.11877509
73 0.15075777 -0.067199305 0.11739354 0.21974932 0.099812254 -0.1668686 0.0123135485 0.00609542 0.0568839 0.2875172 0.12631014 -0.063560165 0.07253665 -0.15567614 0.08813451 -0.009880718 -0.14249419 0.021305766 -0.10627116 0.016055448 0.16689087 0.18982472 -0.007788999 -0.108937725 -0.27953005 0.12282191 -0.2032177 0.061933618 -0.04465978 -0.0040991614 -0.115374774 -0.0358213 -0.0614819 0.06533659 -0.082521856 0.09666713 0.033313844 -0.20037794 0.16767362 0.021784807 -0.34405974 0.14308362 -0.19971552 -0.1276202 0.033360228 -0.02717124 -0.11389911 0.21973479 -0.028267946 0.1583967 0.08042004 0.025641305 -0.022817325 0.08835098 0.044579174 7.0529146e-05 0.019139456 -0.16713597 -0.28408676 0.13496944 -0.040650044 0.09668669 0.011248738 -0.021193374 0.21191387 -0.014798764 0.2111186 0.12811574 0.115487866 -0.0017876951 -0.14440633 0.32851845 -0.11300253 -0.09196373 -0.0005702231 -0.16487901 -0.12210239 0.16456246 -0.11328251 0.13480434 -0.14582369 -0.12461569 0.15684591 0.28677407 0.10841682 0.18077676 0.14976895 -0.014528719 0.051104803 0.012967131 0.06332311 -0.028516365 -0.028276263 -0.051259745 0.2735886 0.00011551377 -0.2237392 -0.3903723 0.088388786 0.0033884905 -0.054125197 -0.2191794 -0.046172537 0.19886455 0.060943354 -0.104939535 0.0022323595 0.07486853 0.2140648 0.04980538 0.03712489 -0.04868124 -0.07675552 0.23544654 -0.1600777 0.050176624 -0.23009643 0.04002459 0.12723392 0.05298329 -0.07125659 -0.064159855 0.047950946 -0.0016563514 0.08357065 -0.23701186 -0.018762773 0.06587471
137 0.24813354 0.14626849 0.32534158 0.04296322 0.28132653 0.07770144 0.05991437 -0.10561778 -0.031827815 0.24735755 0.14251669 -0.13116005 -0.1831658 -0.14058334 0.00414446 -0.0052468074 -0.07166044 -0.2915424 -0.007338092 -0.10455721 0.12511316 0.16206507 -0.12188455 -0.13103977 -0.10837401 0.036401108 -0.063675486 0.033274584 -0.12721343 0.13972616 -0.0003646264 -0.0054074703 -0.09157445 0.20628108 0.16997401 -0.19440728 -0.0035247086 0.09749709 0.022811867 0.15332127 -0.13579042 0.15577656 -0.06550301 0.09966238 0.11181667 0.036485903 -0.13165545 0.24845758 -0.16213438 0.16246516 -0.10820194 0.29139572 -0.18190497 0.101619676 0.041494846 0.06569184 0.5195942 -0.1304375 -0.14298894 -0.05293184 -0.019157005 -0.021496244 0.027734032 -2.1265616e-05 0.3965977 -0.10309182 0.3368771 0.026536897 0.33213893 0.086586475 -0.15620337 0.105402365 -0.29375088 -0.16048193 -0.06448536 -0.0687782 -0.08628976 0.04852158 -0.20399901 0.07325445 -0.20791054 0.16916892 0.16406386 0.27597404 0.06482579 0.26639816 -0.03264142 0.17396608 -0.14902265 0.17957701 -0.18884681 -0.20471297 0.19804505 -0.117168285 0.16193442 0.040425397 -0.09737462 -0.0961994 0.074848145 0.036942802 0.1873209 0.01957697 -0.012857909 0.37795323 0.09586212 -0.23578972 -0.017850965 -0.27728567 0.03448103 -0.18526499 -0.008203086 -0.001910069 0.046030022 -0.048165396 -0.09841865 0.07598108 0.0013508324 -0.19920588 0.005690961 0.082313195 0.046232946 -0.27550107 0.022530526 0.109417334 -0.08483623 -0.086138025 -0.08194528 0.15447813
157 -0.044840075 -0.17521687 0.06815089 0.1238427 0.20326498 -0.036794055 0.20152351 0.08246371 -0.13819604 -0.11225231 -0.045243554 -0.20089494 -0.18566833 -0.09273902 0.15236104 0.21103491 -0.14991768 0.16644654 0.07263432 -0.22085868 0.25020254 0.35692817 0.029655505 -0.015228435 0.18874943 0.084341764 0.06007028 -0.024684822 0.11626876 0.20285971 0.024806926 -0.23516724 0.09002693 -0.14824966 0.059050146 -0.054332998 -0.13453515 0.025351014 -0.01884665 -0.027038205 -0.21213065 -0.13889548 -0.12081038 0.2184737 -0.07234299 0.07652179 -0.37241888 0.029290069 -0.2407767 0.11306393 -0.025471006 0.17219682 0.08359292 -0.09891016 -0.2639056 0.15603015 0.09015692 -0.14721087 -0.0708918 -0.09630547 0.069885746 0.103695214 0.40493467 -0.20993525 -0.14288855 -0.15344764 0.19549212 0.010609335 0.566613 0.019989988 -0.17762233 0.18620838 -0.50457007 0.025832068 -0.09138999 -0.17484719 0.0077590994 0.2014415 -0.04364304 0.123238616 -0.0314746 -0.05500259 0.23467633 0.32481623 0.2748565 -0.13327093 0.26383215 -0.04235059 0.04175828 0.24415195 0.04281148 0.034817453 -0.0065302015 -0.08360143 0.3508549 0.14140859 -0.06975527 -0.21074273 -0.27244812 -0.09490109 0.18445475 -0.16331421 -0.2226268 0.008342919 0.012231694 -0.18414088 -0.11075277 0.069481485 -0.15541282 -0.1255352 0.20807487 -0.23519257 0.002046021 0.109876506 -0.028018443 -0.2853491 0.146859 -0.036633875 0.07575952 -0.16263314 -0.14907493 -0.14737709 -0.22558564 0.07828616 -0.07611978 -0.115784146 -0.20928727 0.25074276
71 0.33669588 0.013615377 0.076096825 0.29342777 0.18680726 -0.23132898 -0.038882002 0.01934087 0.08771908 0.3976238 0.0046083005 -0.1658144 -0.03647722 -0.20471266 -0.20641476 -0.023541292 0.013425399 0.0961747 0.0081111 0.02391699 0.25228623 -0.03214771 0.22470047 -0.14476117 -0.39058346 0.011219788 -0.2058205 -0.065993965 -0.041222278 -0.08731239 0.03162246 0.06680132 -0.09786887 0.1344763 -0.14389949 0.014640932 0.01976206 -0.22126478 0.14432155 0.17638685 -0.20738962 0.07290474 -0.041724395 -0.2532565 -0.06367607 -0.030186174 -0.21062596 0.08362088 -0.08208799 0.2600954 -0.104559295 -0.1386653 0.022429368 0.12905173 -0.122161984 -0.05852704 -0.18473484 -0.32550752 -0.36311105 0.1560614 0.10387431 0.20484103 -0.021643713 0.14911959 0.13885175 -0.19352806 0.20099585 -0.05063937 0.15831912 0.13772672 -0.27166328 0.33082053 -0.049506523 -0.07163228 -0.18135285 -0.1379908 -0.27065113 0.15727575 -0.12015746 0.28561303 -0.11818719 -0.013073306 0.04223126 0.07644787 0.2927328 0.19293676 0.031764794 -0.015638603 0.121523455 0.12874077 0.053967066 -0.16129541 0.04455278 -0.18063834 0.15488242 0.1266454 -0.046290513 -0.33226204 0.035270553 0.10648966 0.021080932 -0.2519903 -0.27331543 -0.064182915 -0.041138355 -0.28140545 0.0275738 0.2715776 0.15743655 0.00914632 -0.21228686 -0.022223154 0.1977571 -0.089295104 -0.16615748 0.0022691358 -0.057131838 0.120279655 0.008988033 -0.17121245 -0.087492965 -0.044800755 -0.17887254 0.008548434 0.08052928 -0.04794075 0.08732319 0.065797076
114 0.4631587 -0.32172924 0.023105301 0.47436866 0.06620551 -0.058467995 -0.08566771 0.1956324 -0.06791557 0.009413561 0.058233704 -0.09987449 -0.16565226 0.049917962 0.3148858 0.21526133 -0.008287337 -0.313741 -0.091475785 0.13628393 0.22289075 -0.042698286 -0.30589604 -0.018990723 -0.15741107 0.15545745 -0.08255335 -0.20246772 0.029698536 0.01811657 -0.22605586 -0.095831245 0.047449373 0.15641418 0.0030756572 0.15257744 -0.11303094 -0.22101234 0.09107143 0.17840488 -0.3082671 0.12280422 -0.0945277 0.20948109 0.03021086 -0.056772716 -0.2717403 0.16866925 -0.15904617 0.19068444 0.015969591 -0.08927575 0.17895162 0.011899861 0.15687788 -0.03567095 0.05735322 -0.16009061 -0.15004708 0.092449576 -0.045074515 0.096253596 0.04664765 0.17192662 -0.012805882 -0.16916043 -0.058059942 0.52710944 -0.12802128 -0.2624751 -0.12620185 0.033059184 -0.21879315 -0.1360923 0.12950864 -0.19211578 -0.2972171 -0.04536315 -0.07040787 0.0068571945 -0.17209445 -0.2445122 0.19493684 0.4470534 -0.15937452 -0.016886298 0.31725448 -0.059674315 0.4749271 0.04739069 0.011657274 -0.08169215 -0.2455763 0.15687339 0.25026074 0.120420255 -0.09752118 -0.2953187 1.2125383e-07 -0.26067922 0.10341432 -0.27360603 0.027002547 -0.08489699 -0.1829354 0.07512763 0.06840061 0.13611066 0.14369364 -0.02620424 0.013561157 0.018277207 0.10164634 -0.056400403 -0.16304033 0.051155277 -0.151997 0.013314735 0.064868376 -0.18350849 -0.04882239 -0.364795 -0.07027262 0.082691185 -0.16804433 0.009628203 0.036684114 0.042366855
191 0.28022557 -0.120449364 0.0678087 0.38335204 0.062016953 -0.062674396 -0.059104577 0.064953044 -0.09022495 0.1781886 0.08056971 -0.06577701 -0.0147789605 -0.09364867 0.09980684 0.13294896 -0.050959244 -0.096667506 -0.04759038 -0.00067518104 0.11742676 0.07439391 -0.021251436 -0.122835785 -0.120633036 0.05625266 -0.13726836 -0.022455374 -0.055278108 -0.008452617 -0.032476623 -0.067009784 -0.09631185 -0.005433389 0.044939037 0.10061309 0.017208522 -0.08080049 0.07019198 0.111723326 -0.14445177 0.053063776 -0.023127323 0.12126795 0.042206436 0.05038819 -0.2058065 0.15421526 -0.07001408 0.028719319 0.03146085 -0.0028708365 -0.00017566868 -0.00458794 0.019812275 0.037520293 0.022806404 -0.1166341 -0.13029833 0.015088172 0.1203497 0.056627404 0.07605465 0.10119271 0.07196633 -0.08778861 0.045264453 0.18855166 0.14278568 -0.16019627 -0.18220857 0.0074445503 -0.25209 -0.1284307 0.06528303 -0.22872671 -0.03804496 -0.051145285 0.05247996 0.007867299 -0.13737379 -0.06170911 0.1306277 0.25729403 0.015008585 0.10468243 0.21675593 0.12666102 0.24747606 0.10129747 0.06169913 -0.0129888775 -0.055233695 0.055692956 0.20768896 0.11233214 -0.09706787 -0.22948222 -0.014646867 0.1208324 0.08991735 -0.07251897 -0.025563538 0.08397851 -0.09078822 -0.057746775 0.020755526 0.006573089 0.13134614 0.06468312 0.05764727 -0.13577156 0.07692617 0.045548078 -0.00945847 0.052285604 0.0031983396 0.018938504 0.050118122 -0.1906483 -0.040148117 -0.088441856 -0.09029845 -0.008352374 -0.08470403 -0.053921744 -0.02997934 0.0004758354
57 -0.036016297 -0.088896155 0.116082974 0.21527295 -0.07041525 0.09629082 0.17312811 -0.11826368 -0.06301061 -0.032602407 0.036245458 0.16455641 -0.21983229 0.23741248 0.20309263 0.19974518 0.07152556 -0.2957916 -0.23980393 -0.11483957 -0.19367567 0.24007913 0.39029512 -0.21487047 -0.20367123 0.30752 -0.19315161 -0.068283364 -0.04761063 -0.1740751 0.098639384 -0.08513441 -0.024968276 0.35885406 -0.012271415 -0.24049404 0.06055652 -0.07099945 -0.0052690655 0.008403991 -0.10193205 0.08316103 0.13964312 -0.035306245 0.21162716 -0.107675426 -0.63406444 0.31745493 0.11370556 0.11149695 -0.09123933 -0.120665245 0.010992721 0.2344198 -0.3290178 0.26727775 0.052186046 0.027484471 -0.109994456 0.16060492 -0.09264329 -0.17118092 0.16191347 0.06144042 0.06886225 -0.055007886 -0.34211397 0.13316824 0.3254836 -0.09116611 0.1614347 0.045037135 -0.043784093 -0.0044288235 0.29107434 -0.24130312 0.022773435 -0.056243308 -0.08931469 0.38824362 -0.00059228984 -0.1354029 0.16227797 0.23241256 -0.011022109 -0.08529017 0.11915762 0.1548064 -0.0035959787 0.2837781 0.16287358 -0.01908909 0.30471128 -0.2650395 0.42664772 -0.08085762 -0.114789985 -0.06763016 -0.17876714 -0.24159534 0.0398117 -0.19690315 0.12660088 0.23315063 0.027024884 -0.28112388 -0.07133603 0.29720327 0.2351457 -0.009065485 0.049233682 -0.021543777 0.015801618 0.23235555 -0.2781887 -0.13686891 0.28546786 0.03865704 0.40635484 -0.24082656 -0.39566988 -0.21499391 0.006931833 0.21028633 -0.32719335 -0.12017537 -0.22806112 -0.010888352
136 0.44664478 -0.11864066 -0.031134563 0.2930365 0.19676238 0.065791406 -0.11864851 0.094137795 -0.08885483 0.046295956 0.15171728 -0.03751067 -0.09503239 -0.08679163 0.14153482 0.10103379 0.044635322 -0.31197283 -0.054700084 -0.19629455 0.21943411 0.08364564 0.0011369451 0.0015166095 -0.05555783 0.09905954 -0.03380432 -0.15772304 -0.1010833 0.029741762 -0.19577816 -0.04524325 -0.02536472 0.083748735 0.09323653 -0.056313496 -0.12666716 -0.074898064 0.07706901 0.21174538 -0.079435445 0.05932568 0.029570237 0.24392448 -0.06800646 0.0790363 -0.2503442 0.26254836 -0.21177982 0.081053466 -0.055772737 0.0647797 -0.0045306594 0.017115574 0.03973689 0.062363528 0.24106728 -0.17760241 -0.27220482 0.021488154 0.15164213 -0.030161316 0.07083494 0.06978511 0.19353054 -0.21626201 0.14454997 0.33759117 0.24329181 -0.09673911 -0.20678657 0.03909441 -0.21543236 -0.21059325 0.013863658 -0.21046981 -0.07662498 0.02294399 -0.029309768 0.06288404 -0.12877923 0.05504762 0.17545936 0.2312087 -0.0075029465 0.17588158 0.0969691 0.17721365 0.22165333 0.20213108 -0.14016789 -0.120354876 0.11602288 0.05506413 0.14293048 0.09444047 -0.2335761 -0.26900727 0.035246804 -0.1910545 0.15221015 -0.02485282 0.051145706 0.22883832 -0.12643383 -0.31275564 0.015299807 -0.1817967 0.20703787 -0.1655672 -0.083676435 -0.033660483 0.1216208 0.05102946 -0.08807788 0.0041386588 0.008668998 -0.060041238 0.20084372 -0.10070053 -0.13949761 -0.33115008 -0.01963543 0.1308949 0.06694373 0.037983555 -0.12556264 0.2570916
130 0.13416563 0.04771489 0.32163987 0.08167817 -0.01919664 -0.024580939 -0.11413819 0.15824695 -0.15065208 0.11094536 0.06724893 -0.028017761 -0.29997748 0.111707084 0.17765397 0.03874192 -0.1733128 0.07400322 -0.13836995 0.16368425 0.066672996 0.03605683 -0.016434219 -0.22512841 -0.033735562 0.12141041 -0.0739151 0.12979716 0.0122266915 0.01878759 0.113298245 -0.016517326 -0.260596 -0.15868041 0.10376266 0.017963285 -0.081378885 0.060319062 0.014086714 0.10758827 -0.26321062 0.085989594 0.013306576 -0.008928239 0.12894009 0.050635 -0.36743686 0.22206454 -0.11839359 0.124465555 -0.009866755 0.09716142 0.06750094 0.07154702 -0.13655132 0.1082662 0.24735999 -0.11592392 0.10487661 0.20753714 -0.12375857 0.19999084 -0.010677143 -0.02750101 0.063938335 -0.006204603 -0.007938133 0.07290417 0.09484434 0.12887518 -0.2119708 0.02276666 -0.15723783 -0.19868816 0.14659859 -0.27518582 -0.08420061 0.31024742 -0.10012733 0.092135824 -0.25172293 -0.119366534 0.045391854 0.39607775 0.15213639 0.037671484 0.2097661 0.06829334 -0.04324378 0.035364054 0.12289228 -0.08241738 0.13296804 0.10601837 0.049372494 0.12200215 -0.070539564 -0.22078963 0.060979906 -0.14513673 -0.15195692 -0.15743434 -0.09761977 0.24954069 0.05796472 -0.08530742 -0.093300015 0.052874018 -0.10570841 -0.16714662 0.08357475 -0.100369476 0.009095531 -0.02803456 -0.07100915 -0.1098152 0.13114268 0.11194761 0.13370484 -0.061041113 0.06203501 -0.068538725 -0.11511143 -0.008330402 -0.20469315 -0.1374237 -0.00309988 0.029945605
7 0.37030604 0.02021399 0.09506099 0.114769496 0.27046084 0.13980834 -0.014117722 -0.081064686 -0.10655446 0.09050382 0.14565551 0.015100223 -0.26570207 -0.044285093 0.13561499 0.026533956 0.11588931 -0.4134408 0.0018719549 -0.14004564 0.13139692 0.104033254 -0.07317863 -0.03470244 -0.06635709 0.11007558 -0.07406968 -0.14147033 -0.10761065 0.0053942623 -0.1338842 0.03583909 -0.04513915 0.2981095 0.19897829 -0.17813547 -0.053914797 0.020930415 0.007836327 0.31063297 -0.10353527 0.14095011 0.042328008 0.27468705 0.025779791 0.051410064 -0.22058761 0.38719937 -0.22786802 0.12411137 -0.13868283 0.16070637 -0.106145345 0.063759685 0.01743093 0.14600386 0.41364285 -0.1280023 -0.21297576 -0.021738248 0.0852416 -0.016443305 0.02204188 0.05548741 0.3068689 -0.17285383 0.18195865 0.23512949 0.19795665 -0.05715572 -0.14066723 -0.060142204 -0.13725962 -0.26399136 -0.016435433 -0.079582304 -0.08057736 -0.07432411 -0.13160968 0.12529849 -0.21003854 0.11357201 0.027024256 0.21139492 -0.1444436 0.18671653 0.036747694 0.14784917 0.054474946 0.2678214 -0.17212754 -0.24868666 0.28450343 -0.06852939 0.11783462 0.06826013 -0.21583979 -0.18782316 0.03796148 -0.17676765 0.118686385 -0.025131652 0.095425725 0.2918953 -0.060445342 -0.31994295 -0.07573573 -0.2558953 0.11261442 -0.2593738 -0.12592195 -0.08137984 0.104404874 -0.068584666 -0.17243716 0.0032231475 0.08747547 -0.07499476 0.14946298 -0.0493119 -0.0342103 -0.3836619 -0.0047956877 0.1656066 -0.118295155 0.06493172 -0.15270889 0.25713503
41 -0.14062396 -0.04302355 0.17122917 0.229637 -0.015819293 0.07131313 0.20366734 -0.098381594 -0.10629028 -0.0022517415 -0.034282498 0.17857392 -0.14414525 0.2827293 0.1425774 -0.014479709 0.05861211 -0.17015661 -0.46578 0.15635258 -0.2689487 0.14232388 0.52340037 -0.4696999 -0.28102747 0.25595152 -0.45719203 -0.16137336 -0.029701611 -0.28343257 0.1686877 -0.030327767 -0.11082037 0.29378542 -0.0051827976 -0.1697914 0.07322928 -0.17299114 -0.03708731 0.012220208 -0.17766115 0.12025553 0.21035922 -0.1559313 0.3022761 -0.101140246 -0.6086012 0.41825625 0.28518254 0.09260082 -0.060067486 -0.05474706 0.0483568 0.37487006 -0.40930086 0.26463458 -0.044718497 -0.016422672 0.04771144 0.025756443 0.0221527 -0.29106513 0.101547934 0.10421045 0.28986877 0.06321115 -0.43721077 0.20339596 0.10378466 -0.25372732 0.11059997 -0.13034101 -0.11785866 -0.13922244 0.3984575 -0.38220713 -0.10368791 -0.11757084 -0.14468928 0.32863444 -0.02624723 -0.13768415 0.16071089 0.4205858 -0.024576062 0.075269364 0.38006705 0.30635816 0.21162088 0.3690216 0.4228627 0.08597368 0.19328882 -0.22017956 0.4456252 -0.03082007 -0.14553711 -0.23053077 -0.12227654 -0.08926287 0.030904405 -0.21715103 0.04366652 0.30955863 0.08114365 -0.12780336 -0.13022673 0.37179655 0.3316211 0.13668622 0.13901426 -0.0952439 0.035120495 0.2733176 -0.2247222 -0.023248091 0.33025885 0.069521464 0.47412655 -0.27931064 -0.35165927 -0.100840434 0.0029708934 0.19169931 -0.4500972 -0.15987206 -0.21268453 -0.14047699
167 0.10648998 -0.086884655 0.24593884 0.2549937 -0.23977543 0.1900541 -0.19627917 -0.003829966 0.01840878 0.3511926 -0.06025068 -0.09135343 -0.053457245 0.24027978 -0.12753548 0.09246219 -0.06381625 0.037983503 0.008305204 -0.007233919 -0.16336931 -0.025123205 -0.2130606 -0.05422575 -0.11295481 -0.18301356 -0.09546553 0.15953219 -0.20095393 -0.052151985 0.13619295 0.06813353 0.06958491 0.020789012 0.1683544 -0.303498 -0.09923904 0.028115336 -0.16724491 0.084379576 -0.18955928 -0.110744484 -0.08489105 -0.15508024 -0.06485224 -0.051828813 -0.41629454 0.12823883 -0.05888538 0.24200349 -0.12838888 0.22899054 -0.007971751 -0.14939693 -0.2244347 0.13855273 0.095563464 -0.15094842 -0.22460271 0.19488098 -0.12573893 0.0033490085 0.06875244 0.23085769 -0.016344491 0.06890079 -0.07365704 0.23998389 0.38264182 0.07017541 -0.2893101 0.20181374 -0.3946593 -0.052198257 0.10755845 -0.3212258 -0.14748552 -0.052071836 0.025411606 0.18581556 -0.040748775 0.032966428 0.22805321 0.25615093 0.117448606 0.26991257 0.022429803 0.014898556 -0.1539391 -0.09860773 0.11913325 -0.10499951 0.16529623 0.030930007 0.3761065 0.15179329 -0.0062460024 -0.12765738 0.11670958 0.051350154 0.15424131 -0.26057923 -0.007988171 0.0060905367 -0.22061318 0.0138140805 0.2126704 0.28381622 0.08595741 0.004073103 0.10316608 0.06503881 0.13720898 0.1291644 -0.027936721 -0.08940572 0.14085968 0.020967007 0.021953853 -0.0067049377 0.08854854 -0.24518098 0.03832817 -0.006226132 -0.24010539 0.0037351423 0.24272287 -0.11744854
117 0.3989821 -0.07472478 0.44038108 0.2955212 0.1509357 -0.082794204 0.2594824 -0.00496197 0.21587172 0.006968463 0.15099686 -0.05862225 -0.19991735 -0.09317848 0.053378418 0.23301005 -0.016718753 -0.034063738 -0.1897614 0.06964543 0.09250932 0.13639244 -0.06205652 -0.4146556 -0.29266012 0.01052124 0.002175629 0.09195608 -0.22209732 0.20357326 0.057413466 -0.084847495 -0.032970656 0.05606016 -0.011337651 0.10106181 0.14196512 0.07354966 -0.044892658 0.06644045 -0.2214589 -0.09423933 0.26514903 0.03068801 -0.08586369 -0.06212991 -0.1724637 0.040493283 0.07329508 0.048817392 -0.17910223 -0.045026064 0.03193032 -0.08464269 -0.2975743 0.17261791 0.073164925 -0.23855993 -0.3623249 0.076674595 0.1272431 0.29627788 0.03719346 0.068355165 -0.11326602 -0.010364708 -0.0019022436 -0.16041934 0.15617493 0.058202352 -0.05152178 -0.13285616 -0.44820067 -0.0066267266 0.09618381 -0.15624273 0.22745055 -0.28102627 0.074805625 0.14337063 -0.009272042 -0.036701128 0.20522511 0.21055537 0.012684357 0.13353772 -0.053853806 0.10430518 -0.02581635 -0.014892731 0.037662093 -0.26515964 0.119158216 -0.09033374 0.1298019 0.2582074 -0.06914639 -0.13117412 -0.18609472 -0.07201235 -0.04317295 -0.11694569 -0.10305079 0.22622856 0.05580302 -0.17294845 0.03834798 -0.0019830456 -0.035465438 -0.18993416 -0.010524599 0.057114895 0.06405591 0.089410335 -0.021502502 -0.213754 0.16249287 -0.21053581 0.03259871 -0.4339014 -0.08349524 -0.04626401 -0.2985797 0.004580741 -0.22502486 -0.1880969 0.016763777 -0.06279269
150 0.18743716 0.017123826 0.06273247 0.2616323 0.04741877 0.029202446 0.043509644 0.15318207 0.02220378 0.09245285 0.024594931 -0.07710037 0.05218719 -0.18883508 0.1432195 0.15819134 -0.17607267 -0.2763362 -0.21015987 -0.27026355 0.15409885 0.24761347 0.11512468 0.118592426 -0.28280404 0.28366554 0.11685226 0.107434995 -0.10100068 0.0736508 -0.18494253 -0.13583419 -0.13476321 0.12608376 -0.09026172 0.21892571 0.065701336 -0.38738334 0.14590406 0.055314895 -0.116963156 0.0937611 -0.2823253 0.15466401 -0.14347935 0.072400644 -0.2277226 0.0028745348 -0.07901187 -0.17174576 0.18776023 0.026773065 -0.07311672 0.0050903065 0.13045998 -0.05884171 0.27007857 -0.09607232 -0.36622646 0.0964812 -0.24395065 -0.114475675 0.36611342 0.18547206 -0.024223488 -0.13449037 0.07858544 0.19003016 0.37491047 0.065422475 0.08221893 0.3105864 -0.49031818 0.1084397 0.15004313 -0.2457618 -0.07807924 -0.13767935 0.012102417 0.031102177 0.07748505 -0.25645107 0.5139053 0.2878348 0.11732206 0.020132747 0.033582736 0.09323031 -0.054317202 0.033075057 0.010591005 0.1269916 0.09213526 0.038568486 0.47155827 -0.12798752 -0.41678497 -0.21492748 -0.09523959 -0.09753382 0.100620255 0.04806305 -0.043090355 0.37339947 0.34045157 -0.33657235 -0.009993374 0.041336853 0.27155378 0.17114289 0.13923326 -0.15341122 -0.05865895 0.41873875 0.004197545 0.27559376 -0.055478863 -0.15119155 0.17178783 -0.19226174 -0.10410009 -0.23204492 0.41053042 0.2911343 0.08382204 -0.4332754 -0.20016481 0.12726857
194 0.047147535 -0.1720875 0.16363378 0.23232996 0.11052614 -0.027499536 0.15862039 0.0927033 -0.090351574 -0.0542534 -0.079924 -0.19266017 -0.23333871 -0.030390756 0.086701974 0.2029067 -0.179104 0.17333262 -0.023368755 -0.18734874 0.19865021 0.292789 0.063262016 -0.18041436 0.12756503 -0.0046188603 0.00042058364 -0.013928002 0.069168374 0.13862994 0.17853837 -0.19246143 0.002287889 -0.16784327 -0.017695414 -0.08910736 -0.10674237 0.028781887 0.016944997 -0.05365576 -0.19138029 -0.10519722 -0.123917736 0.09947913 0.03266819 0.09593675 -0.36459574 0.03336845 -0.1818281 0.11994999 -0.052693047 0.16103786 0.031607907 -0.020383867 -0.23948689 0.19263357 0.117175326 -0.15944436 0.021524476 -0.018526131 0.04419835 0.089985274 0.30631843 -0.13766131 -0.041855127 -0.09625924 0.12593791 -0.010017202 0.4770244 0.0013949951 -0.24582127 0.17603043 -0.44383532 -0.015892798 -0.027885705 -0.16907834 -0.004284839 0.26867205 -0.030688679 0.065376826 -0.022385856 0.027689543 0.20468025 0.31636626 0.29566282 -0.027377313 0.2992393 0.04929827 -0.008351355 0.1997313 0.071658924 0.013262787 0.013892504 -0.10751174 0.33260533 0.18585745 -0.018029785 -0.1529805 -0.19910933 0.010578379 0.16238791 -0.11359081 -0.2648891 -0.01714615 -0.03490603 -0.07563618 -0.09924137 0.11287462 -0.209024 -0.063613266 0.1439369 -0.20164745 0.055078354 0.1638505 -0.049001057 -0.22651458 0.118306465 -0.028478134 0.07377915 -0.15178268 -0.13519964 -0.08096912 -0.1899048 0.0095699215 -0.07832437 -0.04409845 -0.06887793 0.09672468
14 0.004408464 -0.13040723 0.20945486 0.059014734 0.30358183 -0.18526345 0.59152585 -0.09767385 -0.1277914 0.26984316 0.40309063 -0.19931835 -0.5461197 -0.21912923 0.48684332 -0.11819104 0.16782545 -0.03704523 0.22212873 -0.114819124 -0.055044908 0.061127234 -0.18139252 0.23074993 -0.17812724 0.43990287 -0.30935374 -0.070651166 -0.0058558867 0.16310257 -0.26129368 0.26086265 -0.022986723 0.32044968 0.30699787 0.14729702 0.28214264 -0.39718652 -0.087160416 -0.019221272 -0.1665412 0.2534095 -0.3800342 0.19140859 -0.13215755 -0.20385404 -0.60782576 0.4082773 -0.0010826206 0.4036599 -0.017658202 -0.105918676 0.12307611 0.054833915 -0.34761238 -0.19363166 -0.40226778 0.09607583 -0.4153685 0.10735656 -0.26942137 0.0805299 0.2924922 0.017375974 -0.23317936 -0.16660002 -0.16056702 0.15620531 0.06522251 -0.09441607 0.11925588 -0.32646808 -0.1957875 -0.044367667 -0.07149337 -0.08089123 -0.33026108 -0.4067743 -0.22951213 0.31724575 -0.18326677 -0.6164317 0.10536562 0.37361795 0.18256623 -0.28053468 0.22703883 -0.4576188 0.18689755 0.31126773 0.018026149 0.12454074 0.28192005 0.012414748 0.39653695 0.006216484 -0.1135836 -0.25437596 -0.22815955 -0.108573854 -0.23051701 -0.70247877 -0.098771214 0.13288422 0.46053746 -0.4058389 -0.27786785 0.54786736 0.21167462 -0.121922135 0.19848551 -0.50212646 -0.067561775 -0.22256221 -0.2549896 0.15511486 0.28214818 0.18427403 -0.015577327 -0.24981134 0.15979098 -0.3023432 -0.028012674 0.22553219 -0.43988493 -0.3785569 0.004782514 0.14664315
59 0.27013 0.067309014 0.18039826 0.0693781 0.38218272 0.09329398 0.06757719 -0.13180363 -0.11318609 0.098624974 0.14577587 -0.049873836 -0.2235112 -0.028626444 0.071533605 -0.027606696 0.06475234 -0.34179285 0.037954334 -0.364764 0.20078816 0.1663224 -0.053541258 -0.04386851 -0.082480505 0.09027048 -0.05264972 -0.057618357 -0.19206597 0.100633346 0.026652921 -0.018017208 -0.0034195206 0.42422804 0.29043078 -0.14099738 0.018112399 0.088897385 0.033518746 0.34953192 -0.0956047 0.20079426 0.05572113 0.26746923 -0.016616246 -0.015990721 -0.19793981 0.3056333 -0.23195678 0.14530717 -0.2103942 0.19674347 -0.13820027 0.040611267 0.102417596 0.089904524 0.53694284 -0.14509 -0.23983136 -0.020360434 0.05382675 -0.0024082973 0.090753905 0.107415214 0.30637738 -0.111243546 0.32816797 0.10528369 0.39873692 0.07222257 -0.20555855 -0.051325284 -0.22579859 -0.21736425 -0.040419582 -0.03625267 -0.0036389665 -0.044207316 -0.22502095 0.20592244 -0.195851 0.16102614 0.09764828 0.23449302 -0.07154388 0.16604781 -0.010550965 0.09872822 -0.14411844 0.29896393 -0.20533742 -0.16188914 0.39406148 -0.21174484 0.21251805 -0.02435318 -0.32371438 -0.18301421 -0.08072124 -0.032172658 0.108402215 0.0062905946 -0.06150724 0.24423796 0.068243876 -0.38241813 -0.14186674 -0.23287907 0.11292818 -0.26332304 -0.06158872 -0.15503016 0.11315944 -0.07083892 -0.19240169 0.012539399 0.062070202 -0.12855436 0.0992934 -0.069441326 -0.029864477 -0.31997246 -0.028553197 0.098626785 -0.10824312 -0.0137287285 -0.12421414 0.37491566
170 0.2895605 -0.22720854 0.10011257 0.093737565 0.091861285 -0.1789827 0.115535 0.037886612 -0.04657117 0.1278407 0.042997666 0.09722388 -0.08502572 0.012597759 0.11127433 0.036461744 0.04573799 0.19779952 -0.23299466 -0.0027059999 0.26953533 -0.025011167 -0.35791355 -0.29378584 -0.37096494 -0.07488496 -0.42364508 0.16627297 -0.02717424 0.21433468 -0.14533566 0.065887146 0.040672842 0.27683985 0.22550765 0.22659126 0.02345998 -0.1021216 0.20624739 -0.013701353 -0.28496206 0.3111563 0.05259647 -0.14387496 -0.0026013227 -0.32897797 -0.0072355317 0.1334191 0.008282216 0.32700437 0.066727884 0.15337145 0.09510675 -0.041374195 0.24961762 -0.057927407 0.18898776 -0.046712402 -0.32899424 0.26944667 -0.323375 0.20746352 0.045822144 -0.005999667 0.24590717 0.117161445 0.36596227 0.24606141 0.23626648 -0.040770214 -0.18606544 0.20379628 -0.31144905 -0.23705389 0.10629493 0.032630578 -0.21245526 0.27591014 -0.1549407 0.29288444 -0.05592967 -0.0921482 0.18988462 0.5032411 0.23920232 0.32063702 0.22333111 -0.08313728 0.0413428 0.011140054 0.07504393 0.005837999 -0.040349197 0.022205278 0.19741507 -0.1288469 -0.4171778 -0.4137045 -0.048019774 0.007272691 -0.35576105 -0.18097089 -0.22348437 0.249104 0.22152062 0.15869364 -0.035088304 0.056371182 0.14712423 -0.03701186 -0.039381836 -0.14751175 -0.14741609 0.10252354 -0.34808162 -0.049779363 0.052050546 0.07943285 0.0034153876 0.09439575 -0.1292833 -0.09932781 -0.25719854 -0.27069172 0.14049701 -0.049631562 0.22408877 0.25533214
177 -0.17139453 0.089345574 0.19965139 0.1602103 -0.017404065 0.11403706 0.2045396 -0.101395495 -0.06938408 -0.064306945 -0.05819628 0.12591866 -0.18331228 0.23255554 0.10098483 -0.07115446 -0.06486639 -0.20228328 -0.49552056 0.20253988 -0.24377267 0.18514152 0.56252176 -0.46987352 -0.2766736 0.15653063 -0.37068385 -0.22752465 0.0082903225 -0.3055788 0.28374335 -0.06582543 -0.17910036 0.1500228 -0.06450165 -0.24574637 -0.010474887 -0.10263978 -0.01845574 -0.010906699 -0.20518695 0.06934086 0.1148405 -0.14002465 0.32269064 0.06409029 -0.606597 0.45863134 0.23331477 0.14607474 -0.07989224 0.07028009 -0.02905044 0.40844378 -0.5319839 0.3195827 0.08174424 -0.119750604 0.13125223 -0.04205967 0.009361789 -0.29087362 0.0918758 0.085608475 0.36162236 -0.0017370114 -0.34653875 0.13923751 0.11370957 -0.19855098 0.0036319615 -0.037883297 -0.11641084 -0.14072771 0.32744455 -0.3213536 -0.113051854 -0.024832591 -0.15895182 0.271014 0.01626988 -0.028777592 0.124996565 0.4444333 -0.050309885 0.10054452 0.3755609 0.31864205 0.18248507 0.35070992 0.44844836 0.025411889 0.19767775 -0.18361725 0.36380395 0.0009931505 -0.063790455 -0.15975611 -0.104167126 -0.10432097 0.0014251223 -0.1647886 -0.002817059 0.26531386 0.021945037 -0.14260851 -0.08773513 0.3485096 0.15709788 0.08551259 0.13160622 -0.06674194 0.012197813 0.2512175 -0.17865059 -0.07439371 0.34772262 0.06448203 0.4480392 -0.19498998 -0.28810203 -0.13565445 0.0314795 0.22572342 -0.4712555 -0.20027106 -0.21718878 -0.17858188
187 -0.0773824 -0.18363173 0.083974935 0.14727367 0.27406225 0.012024506 0.13550773 0.110813975 -0.14048973 -0.10930051 -0.046860855 -0.27246016 -0.24717814 -0.07242925 0.15965983 0.20116465 -0.20203407 0.052381273 0.14229107 -0.4487264 0.27273488 0.3452778 -0.02870906 0.17699869 0.25025037 0.10261448 0.17857175 -0.043816127 0.04925581 0.23827358 0.050924607 -0.27100024 0.08586752 -0.07018143 0.082823105 0.014819137 -0.18391854 -0.023852719 -0.04446139 0.064949 -0.20524411 -0.076808006 -0.17436227 0.27585742 -0.14264618 0.031926606 -0.432291 -0.008907221 -0.2846338 0.16347669 -0.11770942 0.14511758 0.0673069 -0.098966666 -0.19058701 0.121857315 0.10322158 -0.13404892 -0.045529604 -0.014575257 -0.020791825 0.13189246 0.4483462 -0.19210905 -0.14134398 -0.092270866 0.22315922 0.019181313 0.6513869 0.071256645 -0.15010464 0.1637213 -0.5193497 0.05109433 -0.07115756 -0.19069096 -0.052006047 0.3146674 -0.062989704 0.0817638 -0.05109924 -0.053429686 0.24845244 0.30680045 0.29863605 -0.217003 0.23682928 -0.04558262 -0.062462296 0.27324694 0.006848201 0.050318494 0.055874337 -0.1113058 0.39828545 0.16089505 -0.16141509 -0.15414213 -0.25373334 -0.13614738 0.2556909 -0.091253676 -0.2669616 -0.068089716 0.06954114 -0.2576139 -0.17536576 0.059160534 -0.10469605 -0.21885726 0.21941365 -0.22560449 0.09562391 0.002091316 -0.0099973865 -0.2807792 0.07564235 -0.12592605 0.041481994 -0.19798844 -0.15289125 -0.27569833 -0.22270116 0.10609444 -0.039603766 -0.06955525 -0.24150647 0.35910285
119 0.106275916 -0.322745 0.2437515 0.12815543 0.23567484 0.09636436 -0.024299344 -0.10547785 0.16499817 0.40506446 -0.15821776 0.31916633 -0.45226404 -0.45039287 0.040994737 0.23936363 0.15014622 -0.29615745 -0.10581851 0.39567146 -0.394349 0.04012313 -0.19906126 -0.5626788 -0.18320328 -0.12886786 -0.32412624 0.14998524 -0.183264 0.39177758 -0.4322812 0.22250558 -0.19762804 0.38092002 0.28990862 -0.2557007 -0.08479273 -0.2718827 0.12350005 0.26775706 -0.4814416 0.06585619 -0.38028005 0.31315458 0.017566921 -0.021429172 -0.20086175 0.5255636 -0.075147726 0.39341182 0.27085522 0.2515563 -0.2860619 -0.21250385 -0.20217018 0.2944173 0.34623876 0.0632127 -0.26364535 -0.0052419836 -0.29527923 0.2823159 0.12544069 -0.41489115 0.22435394 0.0054088086 -0.021264862 0.598869 0.43546566 -0.4707793 0.104482144 -0.04413076 -0.83710635 -0.4496934 -0.1917132 -0.14406285 -0.39280504 -0.16798227 -0.32669958 0.12764491 0.0048544547 0.17094287 0.18408616 0.5061683 -0.047025077 0.51983076 0.50215065 0.03069174 0.026243312 0.22404933 0.1737363 -0.44873717 -0.18003628 -0.22655839 0.4129585 0.14587396 -0.36332315 -0.21763948 0.26247752 0.0066834735 0.25401953 -0.28911656 0.21411054 0.52758527 0.23658389 0.03473956 0.011211967 -0.39202002 0.118458554 -0.0035225097 -0.36397505 -0.36333692 0.16418888 0.4652072 -0.18343785 0.19460976 0.0876447 -0.08513691 0.056964763 -0.028629083 0.080614716 -0.40821075 0.27884924 -0.0036505053 -0.15110321 0.1957475 -0.07602138 -0.14381924
112 0.011723615 -0.24268977 0.17051803 0.053375978 0.16692488 0.0654656 -0.012455349 -0.054342043 0.14001156 0.22748554 -0.13400865 0.20673235 -0.37069935 -0.34221536 0.061407775 0.23644023 0.022765921 -0.18475029 -0.06487171 0.28473172 -0.2723689 0.09732193 -0.17969212 -0.38311172 -0.08022021 -0.107564785 -0.20095351 0.12825245 -0.07621773 0.33776382 -0.32876596 0.108373575 -0.14059597 0.18770148 0.20761487 -0.17254609 -0.11373538 -0.18025981 0.11286642 0.18987386 -0.3882607 -0.0029112655 -0.30010876 0.24065728 -0.0077660307 0.024754616 -0.18523332 0.33625853 -0.047416408 0.30276027 0.22411796 0.21747112 -0.20337674 -0.17373493 -0.18984176 0.24479514 0.27349618 0.053235114 -0.17391035 0.007742031 -0.26221398 0.24208233 0.13373898 -0.3752336 0.115603745 0.012643286 0.02081741 0.41777614 0.36871177 -0.33754188 0.1191123 0.0055346387 -0.6739981 -0.29820657 -0.13593446 -0.118181325 -0.29050863 -0.05345234 -0.24668312 0.09626514 0.02411251 0.1051424 0.15255241 0.42125016 -0.006032532 0.32361624 0.3673067 -0.004363994 0.0047109113 0.15579614 0.14430746 -0.35523292 -0.16012298 -0.14796588 0.30767846 0.11593141 -0.26224935 -0.122169994 0.14632271 -0.06329319 0.17069305 -0.22801167 0.13025142 0.39020455 0.17479205 0.022653475 0.019339813 -0.30927822 0.0043482995 -0.037001565 -0.22169547 -0.27756363 0.11670909 0.3666146 -0.13719422 0.07847007 0.075294025 -0.08463143 0.042542253 -0.0034668236 0.043180242 -0.2930656 0.19607021 0.011640462 -0.092779435 0.12632021 -0.09385304 -0.09705952
104 0.13543944 -0.031298853 0.1360025 0.19439666 -0.009530799 0.04602156 0.06743557 0.0022496171 -0.05129872 0.13578404 -0.037875418 -0.095804065 -0.10230068 -0.07063578 -0.011855562 0.14532116 -0.09365134 0.0050960435 -0.030300226 -0.020045327 0.057677317 0.12204754 -0.0177444 -0.2025628 -0.09417136 -0.08128059 -0.09803258 -0.009087481 0.02024457 0.035471093 0.08116803 -0.11153628 -0.09078863 0.0051508634 0.043615676 -0.090695105 0.012466196 0.00040457695 0.030353902 -0.0060130083 -0.113335 -0.050189942 -0.10392512 0.036155775 0.014635088 0.02215311 -0.29794276 0.12348364 -0.042991363 0.081370965 0.020510798 0.09733375 -0.04891189 -0.0111671025 -0.10511294 0.08570296 0.0801576 -0.113849275 -0.06828425 -0.025967447 -0.019670775 0.039318535 0.09508147 0.046391908 0.044972062 -0.096282795 0.07144532 0.04154187 0.25190616 -0.03817716 -0.13687436 0.15173414 -0.34214148 -0.07541358 0.07434363 -0.11297715 -0.033083174 0.043476153 -0.009903036 0.08843342 -0.053294674 -0.016494123 0.12864195 0.3433077 0.1346224 0.109467365 0.16670457 0.09259283 0.011277631 0.09276786 0.106526874 -0.08149799 0.056151517 -0.06979108 0.31911674 0.120917656 0.0448414 -0.105298944 -0.09843981 0.13400976 0.17729615 -0.11613673 -0.062374383 0.14096685 -0.023057722 -0.101516254 0.0067614154 0.16594297 -0.026512112 0.03808616 0.08796585 -0.10381493 -0.0022456057 0.05833346 -0.06671987 0.005107303 0.19585797 0.040560972 -0.036986858 -0.15367109 -0.02076567 -0.10784767 -0.08183394 0.035857923 -0.16384476 -0.047952674 0.00019497989 -0.07158358
102 0.031857703 -0.0642644 0.11066074 -0.060954437 0.025239142 -0.053699885 0.050308708 -0.03489817 0.024761932 0.12655388 0.063542284 0.036421373 -0.08054989 -0.048145518 0.11507878 0.07062151 -0.06434852 0.027129514 -0.088264346 -0.026852632 0.075928815 0.1485188 -0.14526735 -0.05887338 -0.22014761 0.041550063 -0.120056026 0.010490471 0.036417525 0.10797526 -0.12992431 -0.026656821 -0.0112683885 0.2479708 0.15420444 0.025723755 -0.09220889 -0.10812394 0.098117106 0.068834856 -0.34031597 0.14747322 -0.10930495 -0.028822754 -0.03039709 -0.11970648 -0.28094578 0.20225224 -0.009157785 0.37476847 0.0014051544 0.088780135 0.008074668 -0.01929027 -0.02452229 0.10948858 0.16704847 -0.06488865 -0.19921105 0.18479542 -0.32308415 0.1969662 0.03428553 -0.10167577 0.14687969 -0.012213291 0.30218828 0.097273335 0.27793846 0.06669104 -0.1058312 0.3047343 -0.19973709 -0.100412086 0.05195586 -0.038164694 -0.11712943 0.27256593 -0.25445583 0.30175012 -0.04017503 -0.07375646 0.0813554 0.4128244 0.08923263 0.10358893 0.08229356 -0.14538889 -0.05784278 0.077685826 0.14714894 -0.17719886 0.10340887 -0.054983508 0.287576 -0.06777487 -0.29624557 -0.2287309 -0.03593091 -0.12680456 -0.16627033 -0.3405062 -0.11009267 0.14994696 0.14429903 -0.09973312 -0.041659016 0.08373615 -0.017609576 -0.14726178 0.010726484 -0.04973275 -0.021919489 0.14473324 -0.28454676 -0.12175185 -0.006178501 0.037805837 0.031953 0.08067695 -0.0793887 -0.18270694 -0.053483497 -0.052617062 0.021733696 -0.07293699 0.01502397 0.15772274
181 0.15580547 -0.02412538 0.1011097 0.24464837 -0.0035479239 0.006426594 -0.005391544 0.013782958 -0.055378363 0.18253909 -0.0583587 -0.023791952 -0.18020926 -0.050239466 -0.024039704 0.15049769 -0.05159845 -0.058553293 -0.097491205 0.02122046 0.014015739 0.10058192 0.04916622 -0.21325536 -0.12108764 -0.04333936 -0.14304335 -0.00739142 -0.004862565 -0.042450555 0.08549902 -0.028665293 -0.086681895 0.07031742 0.047012534 0.022032116 0.0286419 -0.057022613 -0.02357202 0.071059845 -0.18284534 0.026187614 -0.058930688 0.010282324 0.08700324 0.03025399 -0.22972676 0.12601933 -0.06251506 0.08265981 -0.031431038 0.08860937 -0.066779695 0.04476482 -0.09614929 0.0867752 0.11811719 -0.08310382 -0.08289706 0.033014216 -0.04471324 0.0547066 0.13062377 0.09741878 0.059642226 -0.0320843 0.05791913 0.05158041 0.13826767 -0.059080403 -0.13573235 0.06554893 -0.2619313 -0.096251085 0.016469583 -0.122136325 -0.13710478 -0.008101298 -0.03086794 0.070423506 -0.0827968 -0.001967172 0.10003157 0.3050697 0.04288154 0.12193588 0.20791666 0.07651121 0.10271392 0.13557692 0.13271974 -0.090388976 0.040453903 -0.032199804 0.26743653 0.1169901 -0.013860129 -0.091700144 -0.052248303 0.14179146 0.10892324 -0.08787189 -0.1201788 0.0730283 -0.031590596 -0.057035085 0.016062532 0.18830304 -0.037143033 0.021380574 0.03079981 -0.16909024 0.07405681 0.02279961 -0.033886973 0.019642761 0.14003032 0.026566245 -0.022945963 -0.1560016 0.008762896 -0.13446587 -0.08094292 0.0044727554 -0.16842744 -0.07149596 -0.021614695 -0.045019545
120 0.11113225 -0.08797723 0.17104566 0.26931563 -0.055234905 0.053709168 0.14642875 -0.18429007 -0.049231466 0.04087059 0.09689944 0.048639707 -0.23820265 0.15359697 0.058109816 0.22372004 0.0069003254 -0.2716839 -0.08691172 -0.17225823 -0.05181904 0.27642176 0.29545856 -0.37373653 -0.27214777 0.21660325 -0.20619874 0.02066404 -0.01284841 -0.092235364 0.21825442 -0.10407733 -0.08011084 0.3670078 -0.04691989 -0.35287914 0.16428211 0.113870464 0.13472654 -0.019359251 -0.050141606 0.03461008 0.11879237 -0.066852234 0.32757768 -0.16610079 -0.564039 0.18748353 0.10333731 -0.024866574 0.020741591 -0.118219845 -0.12678432 0.3002509 -0.14278407 0.24815568 0.14409517 -0.06088925 -0.09377266 0.18107243 0.07539367 -0.0834882 0.14318502 0.057772707 0.06925717 -0.13584684 -0.20412058 0.07553299 0.3452481 -0.08639872 0.06573133 0.1842024 -0.019751161 -0.07861522 0.23109643 -0.15850438 0.09683352 0.041203044 0.01452582 0.28053144 -0.062750496 -0.059709247 0.15957998 0.16293438 0.13849291 -0.033704128 0.06682067 0.18895806 -0.14727242 0.24056534 0.007958289 -0.006803788 0.2259078 -0.37125492 0.39869872 -0.07568884 0.072312266 -0.014547135 -0.22454536 -0.06364339 0.15745379 -0.05145882 0.050155446 0.2592135 -0.091390036 -0.16382022 -0.090638466 0.16559818 0.19238374 0.05589766 0.031154724 -0.0011752232 -0.065335646 0.14676681 -0.27582765 -0.0908187 0.31876358 0.060520735 0.23098624 -0.2005973 -0.36345604 -0.016786635 -0.04510021 0.13392207 -0.20025632 -0.0330369 -0.09234048 -0.08557714
106 0.19171764 0.003154079 0.18674812 0.22058582 -0.044586264 -0.005589887 -0.022434413 0.048289683 -0.034366317 0.19511566 -0.013907184 -0.018672999 -0.16861473 -0.03753669 0.043210745 0.12201116 -0.07047366 -0.09200349 -0.08682328 0.092305936 0.013936414 0.07927505 -0.019153185 -0.2480694 -0.14918777 -0.036224805 -0.09210304 3.7087793e-05 0.0023686958 -0.042866923 0.08944452 -0.02263802 -0.121105775 0.06367963 0.07470276 0.006751531 0.027850147 -0.022662828 -0.026407756 0.060332816 -0.2287019 0.044988237 -0.09720784 0.038291685 0.11076312 0.08615422 -0.21316098 0.16158055 -0.06626192 0.13357659 -0.038197853 0.1321346 -0.07637756 0.036088362 -0.062317055 0.091299616 0.20092136 -0.109448545 -0.040966555 0.03963669 -0.08152204 0.08191953 0.06668607 0.110824086 0.074357875 -0.04777249 0.10866066 0.04990052 0.07461321 -0.0022186425 -0.20925713 0.095173374 -0.25224224 -0.12909515 0.022503499 -0.098768786 -0.09338914 -0.0044653695 -0.07211785 0.03234723 -0.109398745 0.024820885 0.100356445 0.36235848 -0.012349637 0.12637374 0.17125131 0.05511918 0.0703608 0.099682115 0.110422626 -0.15393671 0.074870944 -0.007008073 0.25015858 0.13882504 -0.022495983 -0.117267676 0.0057595153 0.15478908 0.04648104 -0.115917295 -0.10329881 0.078186184 -0.013679387 -0.05873543 0.031471767 0.18210208 -0.09545675 -0.008454864 0.036828097 -0.11887466 0.043671746 0.046530552 -0.07674197 0.03279717 0.08610209 0.02139645 -0.031463698 -0.11679071 0.083826296 -0.14878434 -0.044222597 -0.033011116 -0.1879029 -0.11985891 0.016518999 -0.06712858
132 0.17769435 0.033930846 0.2081361 0.21830085 7.121649e-05 0.03206053 0.03213236 0.039146382 -0.09296478 0.19581267 0.00059904315 -0.085019335 -0.18881229 -0.05076373 0.037318826 0.12600583 -0.05596303 -0.025732327 -0.025203053 -0.0061647105 0.042837482 0.0911307 0.0069357357 -0.18216963 -0.069827974 0.0037499368 -0.07206548 0.01731163 -0.027722303 -0.03238121 0.088262424 -0.051581692 -0.1250898 0.006856538 0.1152697 -0.0098088505 0.057027407 -0.006901551 -0.0676555 0.045516707 -0.12603456 0.01856135 -0.07564993 0.04490554 0.05831464 0.036751308 -0.23844798 0.1368114 -0.08933752 0.066535026 -0.07255404 0.09546392 -0.04516164 0.029440442 -0.075778715 0.055994112 0.12850389 -0.08922536 -0.053338252 0.013159757 -0.012530239 0.051141605 0.09080658 0.08470261 0.021627689 -0.053523075 0.08106384 -0.04456756 0.13689545 0.074986815 -0.17294551 0.048785925 -0.23674203 -0.086286224 0.019794924 -0.15263979 -0.045447 0.011021318 -0.04043039 0.045524348 -0.16105045 -0.024433935 0.104870655 0.3114444 0.09522987 0.07426246 0.13131405 0.1047969 0.006793108 0.13180137 0.0999828 -0.12272338 0.16073863 -0.03245232 0.24922718 0.14656353 0.028671429 -0.10097143 -0.042857796 0.16969799 0.13783701 -0.10178044 -0.12088291 0.15111187 0.05270716 -0.17571741 -0.0462865 0.20894495 -0.054388687 -0.06435371 0.10769542 -0.13891904 0.04511072 -0.031181553 -0.03478581 0.02842401 0.16586335 0.014152595 -0.03525715 -0.1710333 0.08693785 -0.10004984 -0.08247321 0.020426959 -0.1802009 -0.10143978 -0.013990628 -0.020208042
25 0.16754428 -0.01947501 0.2936799 0.20175548 0.06286871 0.028686078 0.020884043 -0.015819062 -0.034824096 0.22109616 0.00229772 -0.07285694 -0.26912904 -0.05520496 -0.0061010765 0.09519018 -0.08172559 -0.03025538 0.03790013 -0.014294404 0.037802313 0.100963935 -0.06596285 -0.23923577 -0.097148 0.008057447 -0.10778538 0.072182484 -0.05568111 -0.009887588 0.09214438 -0.010941927 -0.102253616 0.078559905 0.1340541 -0.05547588 0.053991325 -0.0015718404 -0.11326912 0.071391515 -0.22900681 0.06251401 -0.12713256 0.015072637 0.09545467 -0.01996077 -0.21361494 0.16349044 -0.11478035 0.09787132 -0.08417806 0.13482039 -0.11430292 0.03263415 -0.07594335 0.08777251 0.16338745 -0.123549156 -0.09241159 0.048402645 -0.038189523 0.1122408 0.13035159 0.017494738 0.027985344 0.0052055973 0.09798679 0.001280138 0.166403 0.07153676 -0.18841052 0.050282877 -0.23718026 -0.13130926 -0.05602052 -0.07174071 -0.1181465 0.042271912 -0.05406832 0.0155297825 -0.17407379 0.010788877 0.07868182 0.24695162 0.115511894 0.069949105 0.1715766 0.045991853 -0.06930587 0.12084962 0.032403015 -0.112425596 0.07512025 -0.06504391 0.23067322 0.14159071 0.022134576 -0.06132416 0.0026288547 0.13575451 0.1543607 -0.06459198 -0.11021471 0.10892428 0.051866274 -0.05675748 -0.054480426 0.1529114 -0.020910183 -0.081208155 0.06892808 -0.14798167 0.0429707 -0.07848386 -0.04280289 0.013222568 0.104307555 -0.02360508 -0.069399945 -0.11070948 0.100046605 -0.12947592 -0.098556496 0.004419983 -0.19184607 -0.07699246 -0.015286025 -0.021769874
50 0.05266573 0.08391175 0.33756518 -0.061015207 0.04939745 -0.16092496 -0.054515388 0.13705647 -0.23518129 0.22386837 0.16149652 -0.01435009 -0.072787575 0.1269646 0.24770176 -0.06639292 -0.067701116 0.26214704 -0.16520005 0.20597775 0.14787628 -0.034430675 -0.14725047 -0.15318786 -0.11780784 0.1423748 -0.18435799 0.14843506 0.054000575 0.08682338 -0.07201098 0.024124343 -0.110763356 0.047125123 0.30044952 0.10715262 -0.07035458 -0.05223931 0.12372341 0.14838454 -0.3281677 0.1642489 0.056373693 -0.08232878 0.0045354897 -0.12713274 -0.25963846 0.25264114 -0.039482858 0.35848615 0.029792268 0.07686483 0.21689613 -0.004868098 0.0739102 -0.0053723766 0.2648447 -0.080436796 0.044874705 0.2703071 -0.23957434 0.254887 -0.15469164 -0.012258316 0.18703735 0.04897059 0.32441533 0.028729426 0.10865274 0.2495209 -0.26628768 0.25907928 -0.02512127 -0.16164255 0.20061594 -0.31821924 -0.04493481 0.40803614 -0.33444944 0.29825547 -0.28491545 -0.20831525 0.037052326 0.5504754 0.13160692 0.11938682 0.09657368 -0.07318393 -0.099420354 -0.037873406 0.2147932 -0.15301155 0.20303082 0.08369059 0.088440485 -0.08247486 -0.339917 -0.45937663 0.04226368 -0.11199083 -0.37037194 -0.39859903 -0.14320475 0.2618525 0.22197363 -0.10101954 -0.12807365 0.045682047 -0.025746888 -0.20467836 0.14592832 -0.01829631 -0.07925856 0.09460178 -0.19752403 -0.07619467 0.021128515 0.1723675 0.1297564 0.14392552 0.09427556 -0.006206711 -0.09119437 -0.13482372 -0.12813613 -0.20166244 0.052983116 0.19875057
168 0.24241158 -0.037304368 0.18987739 0.23760353 -0.0025823177 0.036217634 -0.02896856 0.0055906293 -0.03386616 0.1864711 0.013429531 -0.043069463 -0.11879169 -0.029624462 0.02237583 0.10920711 -0.047199138 -0.042732943 -0.026489155 -0.07398089 0.07352773 0.119571805 -0.016634988 -0.18499762 -0.14121263 -0.023594696 -0.06841495 0.02443654 -0.042492628 -0.045393415 0.11626367 -0.06252038 -0.11763132 0.076618485 0.09354198 -0.01903809 0.02353878 0.0231736 -0.027038883 0.09982504 -0.1454676 0.034224544 -0.031217024 0.047166336 0.041450854 0.053892598 -0.23259589 0.15962139 -0.08024832 0.076396346 -0.11993909 0.07488815 -0.044835657 -0.005670453 -0.06358893 0.102604106 0.14643456 -0.12449824 -0.10963654 0.023645509 0.0016245493 0.07810408 0.08110685 0.10649808 0.06865675 -0.056405894 0.101935335 0.008925694 0.22202328 0.041340187 -0.2307135 0.05252237 -0.24110048 -0.1284414 0.030250557 -0.09429079 0.0011030225 0.054034278 -0.029354962 0.10132254 -0.12387484 0.027488885 0.06714269 0.27234074 0.06178889 0.12445925 0.103899516 0.07909192 0.015191005 0.12369728 0.065043755 -0.118158706 0.13677865 -0.033781752 0.26633364 0.12814267 -0.057861697 -0.12877329 -0.012031356 0.14887391 0.07356093 -0.09554258 -0.104414284 0.069393635 -0.040946074 -0.13447928 -0.011832757 0.14673766 -0.010950953 -0.03655296 0.022497462 -0.12894638 0.09157757 -0.0005030036 -0.0929272 -0.04067642 0.0858277 0.039287757 -0.016693816 -0.1873591 -0.0024376826 -0.11504168 -0.122324556 -0.023974862 -0.13682579 -0.03840746 0.017669117 0.025547594
116 0.2362354 0.016241392 0.14824182 0.19600365 0.030081265 -0.018184401 0.08634207 0.03291924 -0.024674095 0.14129728 0.018111201 -0.06837703 -0.18978277 -0.10084114 0.033823255 0.12709117 -0.06440336 -0.07797544 -0.07597663 0.035100795 0.102837004 0.085338205 -0.003993132 -0.24387053 -0.16391085 -0.0049114935 -0.08816566 0.004961835 0.0011208336 0.021387218 0.04367344 -0.05084253 -0.13344595 0.04024054 0.023380648 -0.0017300621 0.051169235 -0.015766842 0.015263204 0.009307792 -0.13787885 0.026176738 -0.071021594 0.029654382 0.060612936 0.04161724 -0.20432502 0.115429625 -0.08739288 0.06794929 -0.025305193 0.06526906 -0.05709943 0.054853007 -0.049257457 0.04022347 0.14815551 -0.13903956 -0.14260343 0.023932375 -0.020954961 0.076034576 0.10351587 0.089082226 0.03513089 -0.10613819 0.10390914 -0.0007106869 0.13260521 0.017964572 -0.15142603 0.10230429 -0.26709267 -0.09698805 0.025521168 -0.072191596 -0.06459273 -0.009036779 -0.035314456 0.07593057 -0.10999418 -0.016878653 0.13905899 0.30817428 0.098521814 0.08947111 0.13442093 0.08780546 0.057077486 0.11894373 0.03351987 -0.13609055 0.09282526 -0.045902304 0.23979661 0.13133825 0.013943357 -0.119289115 -0.066889055 0.10190245 0.090378225 -0.08140211 -0.09855943 0.1704371 0.028655102 -0.14521839 -0.014613561 0.16318503 -0.026124746 -0.027591547 0.004294786 -0.105188325 0.0022825408 0.0076312884 -0.08368668 0.046529464 0.15855749 0.007919957 -0.031348906 -0.16758402 0.0123932175 -0.11905005 -0.09379438 0.047743436 -0.13329473 -0.12875982 -0.018654868 -0.016207885
184 0.3403857 -0.06966588 0.07620759 0.32339278 0.1082825 -0.12807287 -0.15156329 0.19938613 -0.22624463 0.082105435 0.20429201 -0.1669562 0.00789355 0.07177275 0.22298132 -0.091761045 -0.10356056 0.113988824 -0.10953592 0.03411202 0.29860172 -0.04294064 -0.07554847 0.005576111 0.004587911 0.151951 -0.19502027 -0.027947247 -0.100817606 0.010511662 -0.091732785 -0.00798663 -0.15257546 -0.23264238 0.023920065 0.1139433 -0.100595176 -0.04487527 0.074255385 0.14045759 -0.12994279 0.14701991 0.14714175 -0.010780657 -0.00837144 0.022893403 -0.22439338 0.21265507 -0.13940687 0.12774627 -0.04302872 -0.065531634 0.20518608 0.043249674 0.0041731903 -0.034253422 -0.0002445465 -0.19412628 -0.0888287 0.19823524 0.14297573 0.059973396 -0.11662571 0.05418796 0.19316593 -0.06506062 0.0546003 0.22255 0.10127865 -0.013241703 -0.2995454 -0.024199873 -0.14142953 -0.22355069 0.20832483 -0.42215267 -0.09758108 0.28702798 -0.00807018 0.080195785 -0.35370716 -0.17625271 0.093080156 0.34835044 0.14991416 0.15287487 0.25504446 0.1792372 0.27846572 0.02695319 0.062938735 -0.017840842 0.04080989 0.2310211 0.038870994 0.14926477 -0.16156755 -0.45991132 0.044421256 -0.08775751 -0.157309 -0.1532339 -0.0022907367 0.24985419 -0.08678478 -0.21370606 -0.050892305 -0.031597655 0.20468612 -0.16282624 0.09605511 -0.08612668 0.033628684 -0.053751912 -0.12129381 -0.052953556 -0.01492631 0.10656198 0.17267238 -0.10867957 -0.11589106 -0.12908608 -0.23042168 3.2688476e-05 -0.010926646 -0.0230533 -0.005663247 0.23390023
198 0.12575606 -0.025203306 0.1685184 0.20950688 0.008298127 0.055056617 0.05658318 -0.024818877 -0.025293687 0.05856234 -0.05245646 -0.062272996 -0.22245885 -0.018713452 0.00793887 0.12678558 -0.13079913 -0.11159997 -0.11186662 -0.028938787 0.04111591 0.16349635 0.07114602 -0.22204246 -0.12547874 -0.0023679768 -0.075051375 -0.017536864 0.021212393 -0.021249829 0.12689464 -0.101541646 -0.13414818 0.058856975 0.026124027 -0.035685346 -0.0051980107 -0.016393157 0.0458341 0.072577186 -0.16971454 0.021591013 -0.07463505 0.019485615 0.11194543 0.037254617 -0.30898407 0.1374163 -0.014207953 0.06842406 -0.011369436 0.06752043 -0.08647372 0.09027062 -0.1248634 0.1370662 0.1486182 -0.11083702 -0.010968706 0.03788062 -0.07685215 0.05854872 0.14501458 0.05020583 0.06007108 -0.049216285 0.034403183 0.038292073 0.17963384 -0.029929645 -0.0786873 0.07273235 -0.26118624 -0.07679376 0.076475225 -0.07157141 -0.07450622 0.06757707 -0.04800434 0.084003694 -0.055066317 -0.016559087 0.08779202 0.32921743 0.08340807 0.049102526 0.18056993 0.089974046 -0.024079002 0.123598084 0.15082547 -0.09209989 0.09910993 -0.10274357 0.28745914 0.111799575 -0.012460224 -0.046749145 -0.115627296 0.052676354 0.101876624 -0.06601213 -0.12095535 0.13581486 0.0012396775 -0.1045171 -0.03384677 0.15923196 -0.10051679 -0.0057758586 0.043584287 -0.16375294 0.05117503 0.040617954 -0.1134077 -0.024597744 0.18802398 0.013714638 -0.018079242 -0.20143053 -0.050090168 -0.11139025 -0.066261224 0.05734528 -0.16859311 -0.04828431 -0.018315844 -0.062032633
82 -0.019791434 -0.07282221 0.070696354 0.26179138 -0.07975808 0.029285753 0.19475183 -0.183842 -0.11037031 0.015375334 0.08501657 0.11725856 -0.24587113 0.22108842 0.10771498 0.34290883 0.024125148 -0.26873696 -0.13836041 -0.16462646 -0.1199579 0.31187034 0.38502648 -0.33659422 -0.22241715 0.29260135 -0.23472768 0.027970394 0.03586782 -0.11936087 0.16472806 -0.1220065 -0.015856383 0.396492 -0.04933303 -0.29865694 0.161048 0.07498203 0.10077492 -0.028823197 -0.05420442 0.03732605 0.18684152 -0.06951205 0.34909356 -0.19309646 -0.685782 0.17506988 0.10237853 0.016602555 0.0015554302 -0.16908634 -0.06837588 0.3106967 -0.17749986 0.24514006 0.06619858 0.021925552 -0.12171654 0.23252094 -0.0042538415 -0.11883049 0.18970023 0.04130755 -0.016059551 -0.10048163 -0.27574563 0.032784093 0.35451528 -0.04941796 0.2120225 0.1809613 -0.045374632 -0.009256043 0.29199567 -0.27063295 0.0733075 -0.008972776 0.0005276788 0.45443895 -0.05213004 -0.13683759 0.18032458 0.21435623 0.16193132 -0.13298903 0.06725653 0.17910919 -0.11725805 0.34672606 0.06336444 -0.005380377 0.30383214 -0.41942218 0.5209456 -0.10979118 0.049247745 -0.020037329 -0.33081493 -0.12291948 0.16656695 -0.12979004 0.020217996 0.25340444 -0.06820142 -0.24470364 -0.106374145 0.30666834 0.19976859 0.053498555 0.083526105 -0.04609921 -0.039329764 0.20225623 -0.33270505 -0.16229542 0.38226834 0.08581364 0.30328846 -0.29278415 -0.42694145 -0.054606695 -0.06298754 0.20288716 -0.27407792 -0.08978172 -0.18846138 -0.052580416
27 0.076545954 -0.1025195 0.33841857 0.28973916 0.06743263 0.12552541 -0.26301447 0.19924912 -0.0061825556 0.16676013 -0.21526785 -0.0208363 -0.18977863 -0.2521332 0.09083266 0.059594948 -0.03540926 0.021383865 0.06846424 0.1514541 0.05630289 0.2203689 0.05201826 -0.2885478 -0.194099 0.094704054 0.025866946 -0.01725114 0.25285342 -0.24565843 0.18036474 0.01656646 -0.14295714 0.16108282 0.21209456 0.013874984 0.21780922 -0.0817027 -0.20214312 0.14739701 -0.53200877 -0.030216351 -0.13885526 0.19555455 -0.12015644 -0.029884655 -0.009692239 0.065466605 0.07928647 -0.055077475 0.05093164 0.04157996 -0.065156616 0.060306583 -0.08071279 0.07719245 0.20846714 -0.22036697 0.03274472 -0.024048464 0.2270117 0.07972271 0.2795149 0.04639739 -0.078615546 0.11245557 0.2973705 0.053554334 0.074240915 0.058576297 -0.2702094 0.17713599 -0.26997292 -0.27850938 -0.09593433 -0.23941667 -0.20957473 0.15870418 -0.1309635 -0.13840236 0.039983742 -0.07432347 0.09325365 0.45490935 -0.004987197 0.07347025 0.22022732 -0.13575125 0.03855757 0.16154775 0.3032819 -0.008333067 -0.049826533 0.018690225 0.2803462 0.026013175 -0.22156867 -0.17903058 -0.06414254 0.18722077 0.08146392 0.13886006 -0.17972752 0.007632909 0.14581235 0.013188983 -0.19937314 0.28670985 0.21599317 -0.087409556 0.29262128 -0.328345 -0.056620285 -0.12582147 0.16406061 -0.029530084 0.29196426 0.08124222 -0.082088105 -0.155148 0.19498971 -0.019554036 0.12231048 -0.083386265 -0.079544365 -0.106922515 -0.18364975 0.035738897
60 0.16454796 -0.023333102 0.16684236 0.2341671 0.05948769 0.019842533 -0.034635924 -0.012828526 -0.09533126 0.2295787 -0.068027444 -0.035471477 -0.19724897 -0.0375246 -0.021190343 0.14008199 -0.038740814 -0.040427174 -0.0009807468 -0.0067873886 0.03115167 0.10583783 0.0018481761 -0.23394744 -0.049010877 -0.035865035 -0.121792056 0.0075872587 0.004722256 -0.034640852 0.12702209 -0.04198672 -0.08075392 0.10324899 0.13363566 -0.046678368 0.020729233 0.017365426 -0.056879617 0.15136883 -0.18278399 0.021628104 -0.07304009 0.0670166 0.08535784 0.050384827 -0.23887277 0.17397422 -0.14742044 0.1099536 -0.08969471 0.12217474 -0.06665071 -0.0014820897 -0.07777617 0.12065229 0.17817105 -0.1127449 -0.05134239 -0.010305285 0.010581329 0.103851154 0.1293593 0.07335176 0.04906114 -0.036852248 0.13789487 0.019212743 0.2200317 -0.009813782 -0.20363432 0.043692492 -0.24904129 -0.11201435 -0.05285375 -0.09330147 -0.08298899 -0.012381573 -0.0830987 0.077130176 -0.13334258 0.061168104 0.018441744 0.25487718 0.02648678 0.10277855 0.17284214 0.06519091 0.027886435 0.15972278 0.06987622 -0.12112737 0.07894886 -0.08833887 0.23886658 0.11375939 -0.007846752 -0.094413124 -0.03881079 0.19379522 0.13893184 -0.06632196 -0.07832428 0.046261225 -0.02160666 -0.081981756 -0.024605429 0.10986011 -0.07476241 -0.028457874 0.014279926 -0.18672542 0.08536132 -0.031938132 -0.042052675 -0.0049319607 0.10779182 0.021422403 -0.06029071 -0.14751975 0.0730905 -0.16409938 -0.11873281 -0.0036824811 -0.21778455 -0.037991393 -0.04608661 0.0045419955
83 0.26328462 0.009958846 0.1763316 0.25977555 0.012285559 -0.020703116 0.036316764 0.028289616 -0.03038361 0.21883366 0.028339667 -0.048257597 -0.16147868 -0.03438434 -0.002137207 0.12034262 -0.039783966 -0.06884808 -0.06300255 -0.062108625 0.07697737 0.095006645 -0.008925473 -0.23664312 -0.1719552 -0.03183924 -0.08686459 0.04519393 -0.07414154 -0.0050086426 0.14697741 -0.004045124 -0.092500985 0.10738903 0.057977404 0.0045168754 0.10439847 0.01904221 -0.01866266 0.042945977 -0.12553118 0.054411575 -0.035807636 0.0140386075 0.08292361 0.060472652 -0.17676601 0.10551178 -0.086995535 0.07353648 -0.10421636 0.1176063 -0.08885728 0.024857556 -0.024042824 0.043282904 0.22892389 -0.15175997 -0.16095519 0.0549121 -0.021859491 0.072679125 0.122937515 0.2006002 0.06052755 -0.077490486 0.14550896 -0.008789309 0.1901836 0.019821934 -0.26381615 0.08026702 -0.28158882 -0.112483226 0.012204185 -0.046998553 -0.039491612 -0.07027659 -0.0067882915 0.048574667 -0.09020441 0.05499656 0.1459733 0.25700805 0.026656315 0.14980006 0.10560649 0.094333835 0.03590328 0.09412853 0.014239106 -0.09667078 0.13702211 -0.010367171 0.21970637 0.119070016 -0.03249547 -0.11794169 -0.027811084 0.20020117 0.03985251 -0.048977196 -0.12380981 0.07465363 -0.011239764 -0.09095758 0.03774422 0.13821031 -0.036590267 0.010402352 -0.0058661364 -0.117663465 0.06044372 0.025104152 -0.07022242 0.042121477 0.072506264 -0.009730415 -0.043951653 -0.14125034 0.041189577 -0.13136028 -0.08887044 -0.0046799467 -0.1696677 -0.14189214 0.035566617 0.012687351
42 0.2151522 -0.18748936 -0.071785286 0.16110557 -0.2161828 0.15950458 -0.06824876 0.116277374 -0.092511274 0.10132724 -0.09441684 0.055442736 0.09174687 0.045181163 0.285096 0.2318684 0.2450707 -0.050943237 -0.037422888 -0.19232866 -0.1173786 0.09423867 -0.05789042 0.04773375 -0.0936759 -0.117284365 0.26976758 -0.044194434 0.083497524 -0.015987013 0.074187316 -0.1296084 -0.08115561 0.31878427 0.2426078 -0.0013033818 -0.010486423 -0.03351703 0.1717917 0.18647286 0.008272262 -0.17058596 -0.04796974 0.3311874 -0.25255555 0.122970924 -0.44252518 0.1524638 0.07231542 0.24638887 -0.07386537 -0.06080665 0.22407322 -0.33771828 -0.0631473 0.16024867 0.24941646 -0.017506331 -0.07499394 -0.0030141717 -0.2702813 0.11220201 0.1190986 0.3146748 -0.124172404 -0.18924496 0.15835123 0.15598333 0.48290777 0.014659921 -0.22327566 0.09591418 -0.40356323 -0.04446668 0.22287072 -0.10853584 0.23561189 -0.06936598 -0.20911883 0.43429127 0.20538965 -0.030058261 0.07449743 0.5796384 -0.12823926 0.12566242 -0.058835857 -0.17643613 -0.01983201 0.11082789 0.27942184 -0.25651345 0.48185486 -0.07148649 0.5445478 0.0402293 -0.44364044 -0.22478545 -0.115657374 0.123224705 -0.14475141 -0.41621184 -0.09414639 -0.020496277 0.015807323 -0.37067762 -0.011461821 0.32011452 -0.22467065 0.05405371 -0.019314732 -0.29979005 0.19703709 0.29641497 -0.28462577 -0.09596481 0.26944515 0.22699632 -0.0013162012 -0.3759874 -0.0036240174 -0.19524372 0.07098716 -0.087298 -0.15668443 0.036675386 0.20616809 0.16196775
131 0.04722527 -0.17268112 0.51103765 0.20898598 0.038902596 0.2455663 -0.19759127 -0.08309261 0.07838711 0.17942812 -0.011933598 -0.020230252 -0.075131394 -0.010484266 -0.034434993 0.07134383 -0.18628286 -0.12876493 0.15794471 -0.26761267 -0.18457901 0.06815109 -0.2519042 0.014408112 -0.2009895 -0.06405102 0.064287625 0.13728571 -0.35364476 0.1586938 0.07003255 -0.18532905 -0.08568512 0.321215 0.24123551 0.0026661986 -0.106418744 0.03762149 -0.3536338 0.28925684 -0.294188 0.25800246 0.042848114 0.024488691 -0.017567493 -0.34983557 -0.32191974 0.06850115 -0.036128577 0.33547068 -0.38742805 -0.059993997 -0.11576789 -0.09007077 -0.02916544 0.064628504 0.009212577 -0.037260085 -0.15094812 0.11350718 -0.24576007 0.16004835 0.00931342 -0.15866958 0.20325756 0.19847722 -0.08244661 0.046730734 0.535262 0.110324 0.077119306 0.031216789 -0.5375997 -0.15913866 0.23281176 -0.18639313 -0.25112864 0.47003695 -0.080173396 0.038372707 -0.24637045 0.018621918 0.09590275 0.31318763 0.19402207 0.07689422 0.117523 0.17518324 -0.12820993 0.17653751 0.22343169 -0.10948907 0.014040421 0.0063037286 0.5139814 0.25563058 -0.25777844 -0.0792216 0.15951338 0.07730177 0.3787417 -0.08885537 0.039388455 0.04859171 0.1730214 -0.20716901 -0.08342175 0.06918914 0.46363884 -0.27892846 0.07599499 0.11361541 0.2961663 -0.2416408 -0.09622383 -0.12968211 -0.04498362 -0.2451316 -0.07812461 -0.20013237 -0.15576382 -0.36999747 -0.38749382 -0.012725587 -0.056620188 0.15148902 -0.14431287 0.24019691
162 0.11848255 0.057263907 0.24938737 0.08370852 0.0052496283 -0.08109186 -0.061255526 0.19904348 -0.18021156 0.11275065 0.08349755 0.0042242766 -0.21848506 0.100445986 0.26833376 0.08228098 -0.07726387 0.118090235 -0.18351164 0.20121604 0.055924222 0.009029996 -0.014681232 -0.14029919 0.02011983 0.1777288 -0.0846654 0.10630642 0.03347613 0.04629862 -0.0495625 -0.018612385 -0.174466 -0.14391252 0.16010389 0.13743669 -0.0953751 -0.0545534 0.011693454 0.14127351 -0.26765803 0.05888141 0.06338247 0.026484543 0.0067363656 0.058133367 -0.38174722 0.2383499 -0.1003259 0.17239757 -0.015365576 0.04521208 0.2200113 -0.045266557 -0.1598211 0.07298716 0.1410961 -0.03751262 0.052700665 0.17713302 -0.18225338 0.21224898 -0.054903425 -0.016350185 -0.015980575 0.00839456 0.0073884493 0.04070382 0.059719898 0.14462674 -0.13077189 -0.014788869 -0.12923124 -0.081965595 0.15223014 -0.34085366 -0.029794067 0.18970546 -0.16576006 0.18210173 -0.21852353 -0.22613683 0.037874974 0.41486302 0.08133555 -0.013721 0.14791515 0.013808404 0.038523424 -0.0026995721 0.19583538 -0.16105203 0.16050789 0.124777414 0.054845694 0.08046198 -0.17492983 -0.29585025 0.023032436 -0.21051466 -0.23583432 -0.30867544 -0.047820386 0.27650684 0.14840995 -0.1996936 -0.08334112 0.06901396 -0.124711744 -0.17276622 0.10475286 -0.09269342 0.01835413 0.057012714 -0.058456875 -0.113293454 0.10643664 0.12301033 0.17402172 -0.11934743 0.07415376 -0.0979135 -0.083082266 -0.009761988 -0.23552778 -0.18807776 -0.03752209 0.07676035
79 0.19352672 0.022702968 0.22563389 0.19467628 0.005643343 0.028348777 -0.06559226 0.05456928 -0.009723264 0.19173184 -0.008427012 -0.0756155 -0.109384835 -0.064947516 -0.011835603 0.07957229 -0.107077636 0.00011113884 -0.04965261 0.022704927 0.08207669 0.113209136 0.019177247 -0.20908648 -0.16747026 -0.00040036597 -0.059271697 0.04773823 0.0141015835 -0.060246456 0.114139974 -0.06744221 -0.16557725 0.018251734 0.052427974 -0.004166705 0.0419774 -0.020468134 -0.010946093 0.09224854 -0.21150221 0.022591317 -0.074639015 -0.013619104 0.04152396 0.040563934 -0.24631374 0.14214796 -0.06507865 0.05600437 -0.028890729 0.05922748 -0.050564345 0.03342864 -0.08371999 0.09977216 0.15076107 -0.16293119 -0.08733861 0.045893077 -0.013771836 0.1195533 0.07313377 0.09490461 0.05212181 -0.04219793 0.14244014 -0.016193882 0.15914875 0.09660411 -0.20713031 0.15007767 -0.23254232 -0.11130111 0.030073144 -0.15270019 -0.035933062 0.105448514 -0.043266937 0.05428318 -0.13682096 -0.028902547 0.0729677 0.28750998 0.10994102 0.12037011 0.09353026 0.075625814 -0.02375203 0.07988821 0.11588185 -0.115201734 0.08222963 -0.021114603 0.23177265 0.10690181 -0.034522608 -0.15275376 -0.011873568 0.117716596 0.064236246 -0.08334077 -0.11969059 0.14722079 0.030247234 -0.14904338 -0.016670063 0.15273927 -0.0033290621 -0.028282573 0.07537228 -0.10876797 0.025322488 0.0012490823 -0.03781814 -0.010393875 0.107141756 0.045064993 -0.009735391 -0.16109435 0.041985802 -0.073725134 -0.07082791 0.00041804742 -0.116723225 -0.11154302 -0.0145297395 -0.027527757
93 0.11132555 -0.16772874 0.3895405 0.2801664 0.100470886 0.07063485 -0.2046662 0.1136245 0.04438087 0.17368618 -0.14813468 -0.040130667 -0.22851153 -0.19438566 0.090253934 -0.036292672 -0.044174932 0.049099945 0.077021345 0.16813496 0.06640111 0.26893643 0.0749807 -0.32825547 -0.18812634 0.095364235 -0.022260215 0.03737827 0.18701084 -0.23785579 0.2950766 0.11320702 -0.14388503 0.1612225 0.24368791 -0.07594758 0.26336902 -0.01899355 -0.17554402 0.07578819 -0.5166699 0.007547859 -0.18758398 0.16886374 0.020948043 -0.02160792 -0.041521646 0.17402583 0.09406142 -0.037412256 0.059108306 0.09378391 -0.13136703 0.15028714 -0.17351459 0.12423768 0.23271522 -0.277749 0.029811688 -0.0464676 0.34093508 0.05964933 0.29142275 0.028272517 -0.013278869 0.09061208 0.24756354 0.06613558 0.09980858 0.10950635 -0.42196882 0.13277434 -0.18207464 -0.27990282 -0.14360535 -0.18211156 -0.15191299 0.13927877 -0.10946102 -0.104543306 -0.045665335 -0.095030226 0.08532362 0.35493425 0.108425625 0.075468384 0.25001943 -0.13268305 -0.008379113 0.24543439 0.21081479 -3.895098e-05 0.014169629 -0.09853236 0.23608798 0.06728913 -0.1866868 -0.15507205 -0.019748017 0.23769192 0.10887524 0.13621598 -0.23399274 0.013198132 0.05489399 0.029838473 -0.26136467 0.25362208 0.20769465 -0.07410754 0.30118185 -0.35528538 -0.06486491 -0.09371841 0.13878217 -0.068882935 0.23072734 0.07099066 -0.039473884 -0.07412521 0.22845523 0.06789555 0.09208048 -0.13743927 -0.069633104 -0.17544378 -0.09216838 0.017901098
15 0.13933276 -0.026584039 0.18269452 0.18549788 0.012962678 0.020062065 0.050698154 0.006332336 -0.071846746 0.12430522 -0.024400843 -0.051834878 -0.20254517 -0.0016327203 0.042808417 0.15558523 -0.13108157 -0.05165784 -0.079695635 -0.051160924 0.091057576 0.16036612 -0.045847718 -0.22387236 -0.09719475 0.013941555 -0.102034956 0.043856714 0.0058246157 -0.0044674813 0.113204286 -0.10525211 -0.0840976 0.074252024 0.08906311 0.042060833 0.039580785 0.007753485 -0.037455656 0.050331026 -0.18801597 0.058097728 -0.051814944 0.023061365 0.09201931 0.025204599 -0.21043438 0.11506946 -0.088681035 0.057251073 -0.05222122 0.10811281 -0.060715556 0.028443549 -0.0472755 0.090834364 0.19353713 -0.0917859 -0.071695514 0.019154266 -0.07966611 0.07624565 0.16432719 0.06584649 0.036647122 -0.00015752048 0.1103846 0.0013485523 0.16226739 0.0010445523 -0.13561071 0.041204542 -0.2707996 -0.07117476 0.05267954 -0.05392167 -0.06278002 0.014276667 -0.050146576 0.06679753 -0.10667018 -0.017701866 0.09943559 0.33237678 0.040858362 0.050983693 0.1701314 0.06330322 0.004738972 0.093937606 0.099532604 -0.08799606 0.08373625 -0.042192 0.30029133 0.09669851 -0.04788202 -0.08229235 -0.09521 0.09053588 0.09490183 -0.044595614 -0.112863496 0.12590018 0.05500359 -0.075350605 -0.03401898 0.17972936 -0.054773588 -0.043104924 0.104988396 -0.1617369 0.015676199 0.01660454 -0.07227401 -0.012829576 0.11367613 -0.022168076 -0.03825889 -0.18381464 0.0032390645 -0.13764647 -0.11774963 0.028849112 -0.19779381 -0.10979936 -0.07158126 0.0019292551
195 0.1826786 -0.02229231 0.19482297 0.2645324 -0.07279741 0.019139264 0.018199984 0.05115822 -0.06820369 0.17974973 -0.00769031 -0.11378513 -0.2021259 -0.0008599621 0.046447072 0.10603757 -0.10817565 -0.010907099 -0.010589059 -0.04239748 0.05689987 0.106980115 -0.013876756 -0.14045775 -0.11458997 -0.020999148 -0.029140051 -0.0008828796 -0.03341646 -0.081061594 0.16634993 -0.053456675 -0.100395106 -0.0065299263 0.023674825 -0.048586704 0.022093998 0.015794896 -0.09397371 -0.016403938 -0.15274203 0.032069236 -0.106670864 0.009941035 0.07874497 0.04227823 -0.29305667 0.112054236 -0.089079365 0.12478403 -0.12890594 0.09527854 -0.037257727 0.07629087 -0.11022197 0.063791126 0.07825867 -0.15051357 -0.04375478 0.06857647 -0.030311929 0.038660437 0.108386815 0.12401169 0.02643712 -0.071440645 0.035407063 -0.012097274 0.15227517 0.08672536 -0.2393429 0.1413684 -0.2188142 -0.09249691 0.04324728 -0.11637125 -0.11310945 0.1293976 -0.0041104727 0.031441133 -0.14330119 -0.01785648 0.14120302 0.31318605 0.13513327 0.028788991 0.18765946 0.06175096 0.058779765 0.13662568 0.10092585 -0.07744985 0.12381621 0.008357699 0.29667553 0.1989338 0.054924943 -0.09003601 -0.010267354 0.16255529 0.13958724 -0.12383339 -0.15176474 0.020334031 -0.054851733 -0.11117614 -0.0015014545 0.32498574 -0.040137053 -0.044860214 0.10299218 -0.087411314 0.056476925 -0.04773723 -0.06858679 -0.030033233 0.12434557 0.023421057 -0.02109385 -0.13612138 0.028999045 -0.13048337 -0.11641958 -0.012190479 -0.14484552 -0.11350733 0.030619252 -0.01170445
125 0.32610196 -0.23869863 -0.047818694 0.1853505 -0.014399887 -0.01663751 0.033035804 0.050797183 -0.026256064 -0.02759989 -0.04992072 0.113918684 -0.13526125 0.058894474 0.074097045 0.17222549 0.02253181 -0.042594165 -0.24012773 -0.18479888 0.24769486 0.049795207 -0.2164943 -0.22941536 -0.24454205 -0.03327777 -0.24081954 0.13627315 0.0006853752 0.059548836 -0.046429165 -0.051593866 -0.043983277 0.1555298 0.119338185 0.29625148 -0.0008298838 -0.011091513 0.06896629 0.0041728765 -0.20417626 0.24590832 0.118679255 -0.056984536 0.063072525 -0.15991941 -0.0048533 0.04654304 -0.08251843 0.007271381 -0.017054077 0.11563652 -0.007940817 0.00056912715 0.234293 -0.016947556 0.26328942 -0.021825401 -0.36367393 0.18451782 -0.20766996 0.10367163 0.2213275 0.085658364 0.0951805 0.1367498 0.17775725 0.20511305 0.19887064 -0.020212872 -0.09238152 -0.017038908 -0.3680267 -0.19493121 0.13308063 0.063575946 -0.14491005 0.105374 0.05987527 0.18768796 -0.06683578 -0.029774608 0.19146785 0.43087742 0.1682291 0.23768091 0.18706495 0.06271405 0.06260287 0.10008191 0.0042969044 0.022872023 0.08756922 0.045535687 0.27793851 -0.0025573524 -0.31804544 -0.22978686 -0.10613108 -0.024357278 -0.1359786 0.10706828 -0.21023212 0.27420002 0.10008221 0.008191959 -0.03852458 0.15189262 0.12886299 -0.04675107 -0.003562699 -0.2765313 -0.050546404 0.015881434 -0.22598848 -0.05781277 0.18107745 0.013017968 0.0058235186 -0.19694363 -0.13945194 -0.16138631 -0.2812527 -0.102577835 0.075083375 -0.05054343 0.06162585 0.20434439
160 0.19815738 -0.071145564 0.25979722 0.296377 -0.04697872 0.07197565 0.008911745 0.0031292117 -0.023575233 0.18708959 -0.044179022 0.022880096 -0.11455839 -0.012691843 0.034682482 0.10791915 -0.04424713 -0.053612854 -0.100629516 -0.008596667 -0.008384614 0.15258053 0.00789738 -0.3137521 -0.20746171 -0.0062604756 -0.15660115 0.038372003 -0.0074553615 -0.112829104 0.14443576 -0.01907873 -0.1053242 0.13912845 0.11952717 -0.03991921 0.11815549 -0.0052945623 -0.0850429 0.006976826 -0.1905709 0.070623524 -0.060439892 0.012684311 0.110100545 -0.02222654 -0.21371138 0.16463442 0.021957893 0.051676482 -0.04271369 0.109639876 -0.09822132 0.05041717 -0.0770046 0.11353219 0.13942812 -0.09423619 -0.052499436 0.005020379 -0.008454752 -0.025173731 0.11868687 0.094198175 0.09121964 0.024511466 0.033394665 0.06768783 0.18896063 -0.013716343 -0.1822931 0.06617887 -0.22729012 -0.13140066 0.08117243 -0.07492495 -0.038981702 0.016867332 -0.028351458 0.038124282 -0.05073008 -0.0015671127 0.108795874 0.2815186 0.052684855 0.11332023 0.16306506 0.089751706 0.024364881 0.110349454 0.12238302 -0.024939615 0.053998344 -0.052935064 0.30403984 0.06381229 -0.059521154 -0.0800846 -0.016177922 0.20684028 0.082552314 0.008706553 -0.046538282 0.11706827 0.039791644 -0.0046033617 -0.028641384 0.20401105 0.07856874 0.060593776 0.102166906 -0.12907025 -0.023791395 0.06533164 -0.0553845 0.02894805 0.14956996 0.014298486 0.013413774 -0.12026546 -0.0029498085 -0.090674885 -0.050720125 -0.05760057 -0.15747312 -0.078847215 -0.024003414 -0.052478287
3 0.19037522 0.20442393 -0.21134314 0.05060112 -0.12894948 0.16214088 -0.15059339 -0.12302825 -0.006459345 0.09776577 -0.031577963 0.056812722 -0.107928425 -0.22165047 -0.13564858 0.30313838 -0.24195729 -0.30064237 -0.15783763 -0.13676347 0.04441666 0.29752004 0.020124286 0.010574592 -0.2126399 -0.08580541 -0.14706025 -0.11670116 0.23246801 -0.0663039 -0.15438595 -0.19493791 -0.2841682 -0.08131118 0.07489047 0.31210122 -0.24856974 -0.059487816 0.016092716 0.20287178 -0.34354725 0.069150575 -0.040215664 -0.05104554 0.086838394 0.04552388 -0.52021194 0.16424488 -0.1191527 0.040123787 0.07938358 0.19514965 -0.15972371 0.056711845 -0.1547047 0.13554491 0.043416016 0.0969278 -0.2907835 0.020232057 -0.31100115 0.11232648 0.0486289 -0.09423276 0.14231892 -0.06370958 0.1809908 0.08450337 0.09561603 -0.07859593 0.17371348 0.18311977 -0.26728252 0.036525846 0.042461615 -0.074774526 -0.2678773 0.19641602 0.112676844 0.22248991 -0.07011871 -0.0768685 -0.06360463 0.451069 0.09734315 0.061774768 0.02811646 0.022002965 0.15788874 0.1588278 0.26337174 -0.21581148 0.038679272 0.1083275 0.2879619 0.03610682 0.045422 0.075017974 -0.19704214 -0.19298941 0.060768187 -0.08871252 -0.059782777 0.33359787 -0.05075316 -0.2878774 0.09780606 0.12554988 -0.1045772 -0.06379562 0.07328264 -0.19183293 0.0010181977 -0.117405325 0.012699429 -0.08100317 0.33591685 0.06505457 -0.070648156 -0.16217352 -0.04387848 -0.3070044 -0.2095616 0.10654885 -0.063787974 -0.16558242 -0.23045552 -0.07022329
