201 128
88 -0.102357075 0.061008327 -0.00925916 -0.15618324 -0.00033547974 -0.23584057 0.052515205 0.02740153 0.11708577 -0.09365356 0.06668893 -0.2389693 -0.11451849 -0.077640645 -0.10663926 0.15375295 0.010360099 0.23497738 0.033473212 -0.07701905 0.07225314 0.07701816 0.0009195225 -0.07131032 0.059642725 -0.09634584 -0.11001945 0.054252792 -0.25588658 0.033985123 -0.39749628 -0.14316049 -0.08229158 -0.0674313 0.05760091 -0.04656097 0.034521513 0.12371066 0.09254768 0.13578549 0.13043171 -0.015851509 0.26950365 -0.1337938 -0.038561948 -0.007290981 0.1033007 -0.06356253 0.11423676 0.1555017 0.057723984 -0.0018794509 0.15812208 0.031126795 0.028000502 0.22836433 0.010214114 -0.1025376 -0.06719856 0.2568037 0.28155768 -0.1311646 0.18601952 -0.07082942 0.07126863 -0.03629972 -0.06349447 -0.00412071 -0.041917432 -0.016769491 0.17316987 -0.005859559 -0.054962084 -0.095136896 -0.057460327 -0.15566093 -0.039824653 0.12977669 -0.040384613 0.06324714 0.08442594 -0.03225455 -0.016251188 -0.009349264 0.117095165 0.16246335 -0.03005555 0.09960183 -0.054753486 0.011527503 0.010966658 -0.05534537 -0.13490053 0.028220622 0.02077429 -0.0489582 -0.020092798 -0.14739998 -0.19304703 -0.19497247 0.10943289 -0.062295295 0.092480026 -0.06540964 0.100034885 0.042715523 0.03380702 -0.14884958 0.11048117 -0.15739124 0.1169671 0.1948928 0.11155369 -0.082206085 -0.018846085 -0.20093276 -0.25442892 0.17305166 0.024206443 -0.10951349 -0.2050367 0.053611808 -0.09060869 0.0056950725 0.065739125 0.113319896 -0.0009904503 -0.14650717
159 -0.09453606 -0.028660122 0.01683154 -0.19883133 -0.016874924 -0.25882962 -0.04282653 -0.07731344 0.2318308 -0.08263156 0.017559921 -0.3168272 -0.110538356 -0.044074714 -0.067014866 0.08239137 0.010309057 0.13570078 0.05457681 0.007231262 -0.015767649 0.13967463 0.04913882 -0.1116579 0.02996933 0.023475183 -0.25361383 0.06652809 -0.12943366 0.11430606 -0.3104529 -0.16611238 0.031213269 -0.018259393 0.035072256 -0.08944736 0.053635534 0.12528718 0.25453687 0.15485014 0.13461484 -0.13949464 0.17034602 -0.11963684 -0.016221208 0.033449758 0.14710414 -0.118008494 0.07462392 0.13790104 0.049744174 -0.044033695 0.19677894 0.0039928895 0.019794287 0.12929174 0.0047749206 -0.056371316 0.043278027 0.3213927 0.28752446 -0.120403364 0.1710122 -0.16020647 -0.0339369 0.028784055 -0.107089125 0.0139827365 -0.06732101 0.035249174 0.06527609 -0.10160674 -0.07036249 -0.02980464 0.08775126 -0.06097457 -0.0129211815 0.14079334 -0.10982219 0.032897558 0.056934163 -0.0640276 -0.034536056 0.084605485 0.16126625 0.084239595 -0.037632275 0.14718008 -0.058990195 0.061759964 0.025076948 -0.056073584 -0.12248063 0.05523428 0.12273538 -0.14993301 -0.046808 -0.23891006 -0.17089133 -0.14758426 -0.0052392134 -0.14213388 0.14662248 -0.016543983 0.07666017 0.050078716 -0.115196325 -0.069844626 0.046405043 -0.093878776 0.07185348 0.20892465 0.18639474 -0.07072756 -0.08694912 -0.1504884 -0.16498901 0.19051823 -0.025019035 -0.14346592 -0.17859358 0.09131428 -0.15599914 0.10830692 0.025577879 -0.012939013 -0.049577933 -0.07938079
148 -0.075891025 0.078140795 -0.037299167 -0.090432964 -0.04154929 -0.19956966 -0.0023547295 0.018705226 0.105350845 -0.11282465 -0.10463809 -0.19285995 -0.06803417 -0.08722765 -0.022750534 0.079035394 0.08308556 0.13713488 -0.008575068 -0.022765262 0.046014037 0.1355104 0.007696136 -0.16165538 0.09884631 -0.017052732 -0.14750622 0.090380915 -0.15417829 0.10117369 -0.3820953 -0.15560675 0.02985171 0.0026642797 0.083249055 -0.12219734 0.074839845 0.14820774 0.04097243 0.08802064 0.20184152 -0.108686686 0.24345736 -0.0729942 -0.08543866 0.016401635 0.11120531 -0.17652626 0.04474955 0.05540653 0.049398918 -0.08692031 0.13927934 0.10195414 0.12683438 0.17724484 0.011392508 -0.07228013 0.023436561 0.2572357 0.27765548 -0.12619027 0.20401832 -0.058407985 -0.00094765663 -0.08780526 0.012131333 -0.017509503 -0.11276115 0.037292868 0.060706384 -0.10843734 -0.1532512 0.11181625 -0.0067614135 -0.1061137 0.061560545 0.114291266 -0.07974556 -0.032134037 0.0034651598 -0.06608608 0.01093077 0.06032689 0.04666419 0.1758356 0.005913463 0.20653073 0.09678643 0.08601827 0.026294602 -0.08127439 -0.0836429 0.0066943215 0.07016767 -0.028246185 -0.074381 -0.11679729 -0.17384253 -0.0966438 0.02594839 -0.099020585 0.20864403 0.005382631 0.093532704 -0.16497494 -0.09846935 -0.040713906 0.040521942 -0.14632368 0.16188495 0.1363311 0.14426076 -0.0009205889 -0.1081617 -0.1146447 -0.18780242 0.12501532 -0.05190622 -0.06697611 -0.14780004 0.05021887 -0.15508412 0.06215584 0.0055517433 0.05724234 -0.06366032 -0.105951525
75 0.0008469358 -0.11054618 0.14524817 -0.010240906 0.015335837 -0.23750718 0.061925836 -0.03048372 0.20192274 -0.15107562 0.039523624 -0.25313854 -0.008616421 -0.061922215 -0.031293556 0.14373077 0.020664588 0.23325987 0.016855976 0.056984477 0.0033894666 0.2483733 -0.0065899636 -0.05924345 0.033671346 -0.03597488 -0.18917872 0.18784112 -0.24784982 0.09847544 -0.4838507 -0.10416028 -0.03592942 -0.07212781 -0.06808442 -0.07322506 0.05840174 0.08564768 0.19420552 0.10235129 0.16790868 -0.08165861 0.23171507 -0.07138506 -0.1429823 0.10461619 0.0929749 -0.15843563 0.09811229 0.13150495 -0.024766533 -0.01424282 0.23965147 0.06661682 0.09643462 0.061836023 0.010837054 -0.094738424 -0.042548362 0.1521588 0.30968934 -0.1677436 0.19083318 -0.0013213842 -0.061799534 -0.03158437 -0.09712873 -0.04326979 -0.06199983 -0.013380162 0.2466231 -0.036459487 -0.10725662 -0.052403428 -0.0014526612 -0.13933869 -0.03153733 0.16753313 -0.04853351 0.0047760666 0.04840373 -0.036368154 0.05189252 0.1078837 0.07350196 0.0877782 -0.023956403 0.03246346 -0.10307917 0.04581833 0.045454405 -0.10647846 -0.062349416 0.1267511 0.03628495 -0.024104757 -0.015849099 -0.23777142 -0.12650417 -0.054770645 -0.027061906 -0.16918163 0.09151344 -0.07853551 0.04679848 -0.0021763288 -0.10524155 0.0066834544 0.07141035 -0.17739435 0.04452505 0.17923653 0.15818633 0.043322224 -0.0121698985 -0.13004465 -0.24309516 0.24750084 0.019423757 -0.060950454 -0.1208935 0.025657604 -0.086883485 0.02711598 0.1383039 0.07114346 -0.07204578 -0.11090894
30 -0.10344227 -0.050083224 0.035978377 -0.20982267 -0.08453506 -0.20704313 0.059638135 0.027596021 0.08986934 -0.089766 0.005319987 -0.14397462 -0.024408136 -0.120477535 -0.049717117 0.12931435 0.044315647 0.16990057 -0.004484186 -0.054509807 0.04432737 0.2299933 0.042587947 -0.093927145 0.011951888 -0.07883857 -0.19782597 0.15418167 -0.18066762 0.06587775 -0.42375085 -0.16935636 -0.038194824 0.0035432724 0.034115262 -0.09254878 0.01742558 0.03501293 0.16742346 0.116195165 0.09305522 -0.016706891 0.20400694 -0.111022875 -0.13965164 0.0072279847 0.104320996 -0.18292555 0.005016949 0.07382797 0.10446302 -0.031133194 0.18517832 0.08989054 0.076867715 0.17176478 -0.064957716 -0.056710783 -0.02772982 0.21301378 0.2817142 -0.17578234 0.17137627 -0.08520952 -0.03047224 -0.02038216 0.00019132101 -0.094642274 -0.043106753 0.046602305 0.23368192 -0.05889607 -0.034216665 -0.022329403 -0.076486774 -0.12823965 0.030389702 0.14760588 -0.04098033 0.10646072 0.03772881 0.005479057 -0.025837425 0.017850202 0.085591815 0.12351892 -0.06048617 0.057341125 -0.00475992 0.05512579 -0.0295787 -0.021067262 -0.028142348 -0.015888697 0.052615076 -0.024421519 -0.06290851 -0.18456106 -0.13502653 -0.097412765 0.040340535 -0.12372396 0.08050719 -0.037745237 0.015066407 -0.040592443 -0.065718435 -0.09249418 0.03675867 -0.0192434 0.10847896 0.22019814 0.15323296 -0.042863935 -0.06104865 -0.14321318 -0.17248762 0.19152759 -0.025274461 -0.06887331 -0.116031945 0.058327112 -0.08744322 0.048471063 0.06613367 0.004863434 -0.052885953 -0.20292246
95 -0.015933366 -0.065118045 0.19218288 -0.016755408 0.015080601 -0.14499527 0.024461377 0.033951793 0.15245448 -0.1405903 0.013836291 -0.19641337 -0.09779165 -0.1242057 -0.008844465 0.07555043 0.013325562 0.2435212 -0.030692227 -0.08968314 0.015161496 0.23504981 0.014762987 -0.091369025 0.06641039 -0.005193231 -0.16097312 0.16847965 -0.17445177 0.13312028 -0.28936163 -0.0038300478 0.038119208 -0.06740671 0.046780746 -0.13766143 0.003983485 0.03674428 0.18394282 0.12509574 0.15419967 -0.026287625 0.16301776 -0.15030545 -0.24255545 -0.04315895 -0.027152117 -0.15253744 0.11667112 0.04178056 0.035468627 -0.033012763 0.1831658 -0.014099673 0.062820606 0.13893774 -0.031187516 -0.0732888 0.012984496 0.2333902 0.38967764 -0.07138341 0.07363944 -0.038257618 -0.021636853 0.0019193594 -0.09460181 -0.017285254 -0.041131664 -0.011115453 0.13165465 -0.03409559 -0.13947563 0.03472441 9.206435e-06 -0.115362324 -0.058079418 0.10428665 -0.0005376136 0.0010078372 0.04774773 0.08063794 0.027572991 0.012685402 0.06404562 0.13357173 0.014240378 0.109242834 -0.1282401 0.13849844 -0.013616664 0.025544172 -0.05783322 0.047347303 -0.0093002375 -0.093555905 -0.10829451 -0.29485986 -0.19995458 -0.13111886 -0.08659395 -0.1587739 0.14767835 -0.030022917 0.085005075 0.045592066 -0.08560679 -0.13076577 0.16092204 -0.1758619 0.08879353 0.17406365 0.22655289 0.013681517 -0.04790485 -0.18796848 -0.09431186 0.31216463 0.026794342 -0.09581295 -0.11145767 0.058902353 -0.082492515 0.087875366 0.030774968 0.07153144 0.014193871 -0.092961535
40 -0.035681047 0.028689586 0.084836796 0.0119371405 -0.04828213 -0.22028452 0.02657655 0.006590447 0.17198393 -0.11211399 0.03062688 -0.21817717 -0.08062346 -0.12856899 -0.013179959 0.010053124 0.07822734 0.22666608 0.04470423 -0.061374836 0.072086334 0.22949731 0.015185626 -0.10190379 -0.0047682193 -0.04122758 -0.14371896 0.15071902 -0.22473656 0.09595657 -0.3814571 -0.06871053 -0.023523131 -0.042971533 0.030611152 -0.082336865 0.09670925 0.07431237 0.15731524 0.14119135 0.12228572 -0.042916413 0.18442443 -0.1476587 -0.09015492 -0.065183766 0.1172369 -0.1357719 0.09729309 0.10005957 0.006010809 0.010893741 0.13402025 0.0049217874 0.09869984 0.11420642 0.038057823 -0.08862945 0.062136453 0.23786509 0.36975265 -0.16769803 0.19071268 -0.009461528 -0.018147891 -0.046095036 -0.057171978 -0.04231907 -0.09037745 -0.01983764 0.19137105 -0.018421149 -0.19031198 0.014336708 0.014558317 -0.0970999 0.06658727 0.1794468 -0.013477073 0.015202604 0.05706404 -0.038307216 0.024136735 -0.0054449392 0.07348951 0.22834472 -0.00017886369 0.018413134 -0.07643019 0.10755335 -0.041117683 -0.08988058 -0.104560874 0.009258149 -0.01160295 -0.067876495 -0.06890579 -0.17242342 -0.15191376 -0.044841826 0.021841971 -0.10431911 0.1354061 -0.02955243 0.108318835 0.00644325 -0.05332776 -0.084172286 0.06730568 -0.17095289 0.078243166 0.16205023 0.11582458 0.026698021 -0.13008368 -0.17608096 -0.18787421 0.22092439 -0.0097854575 -0.04673337 -0.11484337 0.049800143 -0.14805964 0.06506757 0.14716913 0.06648451 -0.11940553 -0.10477745
103 -0.041974936 -0.07070625 0.071875095 -0.026394004 -0.003457586 -0.21949795 0.13281637 -0.028661726 0.15275162 -0.14042851 -0.005816991 -0.25168684 -0.06314698 -0.03577956 -0.047029894 0.11393154 0.022861905 0.17802438 -0.00019800672 -0.010942637 0.050207034 0.11859758 0.029027741 -0.07981323 -0.06258993 -0.050743137 -0.16976503 0.09894414 -0.16328418 0.017877124 -0.37504596 -0.1649331 -0.06547017 -0.028981712 -0.0295056 0.013198372 0.014563279 0.041677922 0.1373952 0.14178586 0.10036701 -0.05819243 0.3046423 -0.15432444 -0.09731745 0.06787602 0.034007605 -0.14774781 0.06232557 0.044824146 0.024655415 -0.030411132 0.15042743 0.082560316 0.07252434 0.13271467 -0.056144357 -0.012141206 -0.08106943 0.13262014 0.3826941 -0.097527936 0.16919897 -0.032710306 0.06484067 -0.07399055 -0.04964707 -0.11641774 -0.055898987 -0.019693533 0.13354313 -0.026229193 -0.07075621 -0.06685468 0.02342666 -0.13852924 0.00458077 0.15678722 -0.024018789 0.047909487 0.07785139 0.026574489 0.010303453 0.06638159 0.056341223 0.112576276 -0.10129047 0.1259054 -0.07998027 0.025652433 -0.02611016 -0.012494446 -0.04250076 0.051882844 0.09260348 0.021401253 -0.08232793 -0.17918327 -0.12642495 -0.06253003 0.031036954 -0.17503697 0.12264958 -0.03226024 -0.03790208 -0.115007676 -0.016398797 0.005486348 0.0662123 -0.11527878 0.11335361 0.20487419 0.19868809 -0.039171115 -0.033104606 -0.16406107 -0.09442054 0.19207023 -0.0014809958 -0.15827525 -0.14704995 0.05591944 -0.16418372 0.1513878 0.07679028 0.0009218935 -0.03946368 -0.08570531
12 -0.05259833 -0.0755155 0.18734118 -0.06805785 -0.13166232 -0.14554763 0.0034282818 0.009385639 0.08797935 -0.16431798 -0.06988132 -0.17638113 -0.0732272 -0.18138309 -0.08598848 0.15855776 0.06545391 0.20107675 -0.08421637 -0.030709265 0.012507967 0.18496503 0.03975105 -0.1894601 0.06099351 -0.07293501 -0.1508581 0.081517495 -0.26312235 0.16333403 -0.35720974 -0.068643264 -0.046305533 -0.034705587 0.01510074 -0.07471456 0.051341396 0.019556008 0.23087062 0.08327097 0.10498187 -0.025203679 0.2433922 -0.16653939 -0.14680831 -0.05420594 0.11766015 -0.20167357 0.10928656 0.024291007 0.051460158 0.04243426 0.2359444 0.101290114 0.12665452 0.15939043 0.04302596 -0.043303404 0.03599944 0.20421383 0.33916384 -0.062792055 0.18187073 0.041177366 0.03407333 0.0245498 0.009268257 -0.07022416 -0.044205025 0.053940177 0.10305985 0.058714315 -0.089778244 -0.02655301 0.013210794 -0.14595443 -0.082430735 0.07502919 -0.060990162 0.1269129 0.016039219 0.026597671 -0.06860624 0.09284483 0.08606128 0.11837825 -0.0124051105 0.12063742 -0.044891678 0.08944984 0.039349034 -0.02726421 -0.20206209 0.062647626 -0.033575498 -0.026264504 -0.10500865 -0.11263057 -0.18698066 -0.17110589 0.012600875 -0.13537516 0.09165918 -0.07497732 0.04371686 -0.052871674 -0.04443483 -0.065844424 0.03708242 -0.21610703 0.103996396 0.15459454 0.14647555 -0.022710886 -0.02542252 -0.21845712 -0.1332202 0.16621068 0.043909963 -0.08990057 -0.22655264 0.036196236 -0.13477089 0.13191567 0.10391489 0.054123633 -0.05395048 -0.11636832
31 -0.13279402 -0.016541978 0.10087218 -0.12745976 0.03297438 -0.208179 -0.0027920601 -0.012822987 0.14179097 -0.16637826 0.09141391 -0.1873828 -0.10159096 -0.11172134 -0.03187371 0.11965349 0.068597525 0.16018172 -0.0336836 -0.021315752 0.02413552 0.19810735 0.047653798 -0.19860885 0.013584086 -0.030037351 -0.122721106 0.14802973 -0.20324016 0.12867567 -0.35275397 -0.15317263 -0.045590457 0.0738199 -0.009416414 -0.032204233 0.09694069 0.10774012 0.15433103 0.14218797 0.18706189 -0.081182614 0.3012089 -0.10813859 -0.19302545 0.021472203 0.037578993 -0.15730481 0.023556456 0.03154423 0.05474153 -0.047548935 0.11920674 0.06513439 0.07034328 0.10380741 0.01259795 -0.061245915 -0.00918865 0.18390898 0.31873396 -0.10405538 0.13803597 -0.08428333 0.022467943 -0.00039614792 -0.060538813 -0.08006388 -0.032829806 0.021760935 0.13334946 -0.045274038 -0.13973014 0.022345291 0.05519533 -0.10971523 0.048328567 0.05563086 -0.058366418 0.039892763 0.044005055 0.0031230743 -0.0012812816 0.040918324 0.040422346 0.14556369 0.0064412835 0.106168814 -0.08983041 0.07271673 0.009920757 0.082164206 -0.064051814 0.07854359 -0.033512414 -0.15271889 -0.007399677 -0.14997044 -0.14422628 -0.050533924 0.023058368 -0.1353259 0.09066303 -0.054044705 0.019169973 -0.07848166 -0.0891686 -0.054247983 0.115246914 -0.13182066 0.101192564 0.202803 0.17270944 -0.02669429 -0.100667745 -0.16527805 -0.09999249 0.20502882 0.021364952 -0.093637966 -0.12736504 0.065293655 -0.06487122 0.041265517 0.02813562 0.021758007 -0.048659947 -0.109931655
173 -0.06907751 -0.001851822 0.12958986 -0.08718879 0.013511501 -0.1993837 0.04547998 0.021111893 0.13097712 -0.043818023 0.07431757 -0.22334382 -0.07563617 0.023205757 0.03426822 0.12536037 -0.0100588715 0.18871933 0.06752533 -0.1551866 -0.029382428 0.2791587 -0.019243859 -0.15393876 0.07972217 0.022211999 -0.19167124 0.2038778 -0.121501 0.05802741 -0.28627613 -0.09269382 -0.02102077 -0.09448048 0.01975316 -0.17753758 0.04753694 0.19692934 0.17087194 0.19899702 0.18799695 -0.022230264 0.19316018 -0.054813206 -0.15210226 0.013947227 0.05960767 -0.11978684 0.059769563 0.105641775 0.056171402 0.07506812 0.19658452 0.04445167 0.08278445 0.19323342 0.04170207 0.028791498 -0.019940767 0.27510932 0.32282802 -0.13348325 0.14917374 -0.0017447472 -0.0097075775 -0.11336743 -0.030681767 0.0035043093 -0.104219876 -0.10882868 0.1915729 -0.025354875 -0.112398945 0.05126051 0.011970827 -0.11794196 -0.024214827 0.1519672 -0.020965982 -0.026697775 0.065325804 0.06815592 -0.031008072 0.03802002 0.058664285 0.07903251 0.065801196 0.13846266 -0.051566627 0.06306963 -0.068194404 0.029697912 -0.14299066 0.07250566 0.118508585 -0.06783065 -0.017225858 -0.20405903 -0.10776198 -0.12601861 -0.13239557 -0.08201978 0.12815414 -0.07200859 0.021882476 -0.06957767 -0.029403806 -0.09309079 0.08012804 -0.01568096 0.10016459 0.14408198 0.153309 -0.023955977 -0.02509274 -0.16390231 -0.050395027 0.27402022 0.001546501 -0.03570074 0.051020514 0.062367905 -0.13364561 0.008257918 0.096388206 0.10647894 -0.08908038 -0.0707615
68 -0.040991172 -0.04346602 -0.077896945 0.011279356 0.030385861 -0.24757887 0.06126393 0.0913344 0.16435131 -0.18226315 0.07064356 -0.15677665 -0.05490958 -0.122211576 -0.03983064 0.102549344 0.040840022 0.21055982 0.028098717 -0.03202585 0.100297146 0.2810698 -0.005123418 -0.09588624 0.028612388 -0.08517575 -0.2259981 0.04767952 -0.16478842 0.023863131 -0.3229249 -0.08869119 -0.05821731 -0.013379305 0.031158874 -0.05847956 0.059648085 -0.00017434916 0.1886823 0.078055255 0.056419928 -0.019484932 0.16265048 -0.11519304 -0.14177854 0.0069054845 0.04290539 -0.14235568 0.0018286995 0.0043995776 0.10102442 0.024431482 0.07723921 0.055956595 0.085623205 0.10838838 -0.019048091 -0.07877513 -0.054577757 0.1612889 0.23947048 -0.15817931 0.23621167 -0.015838258 -0.05990506 0.06468002 -0.06569938 -0.024897074 -0.053438492 -0.051893402 0.034454394 -0.043935046 -0.08962557 -0.020798884 4.8900718e-05 -0.09377659 -0.050410654 0.1585071 -0.044532005 0.043382145 0.07511822 -0.019297915 0.053836897 0.012798779 0.19079906 0.101523235 -0.039106652 0.16314425 -0.03724457 0.108775444 0.009064297 -0.036011405 -0.04041502 0.028208632 0.06800141 0.017216552 -0.12470003 -0.19287184 -0.13177675 -0.06386845 0.09404253 -0.11387152 0.04804356 -0.0060348283 0.0677789 -0.121399656 -0.062984236 -0.0029826676 0.059101436 -0.051904857 0.08227057 0.24149212 0.16226801 0.019906074 -0.055029806 -0.1361778 -0.15078717 0.26506183 0.048861496 -0.037805025 -0.044879276 0.0053556245 -0.1592384 0.021232357 0.10506124 -0.06414933 -0.04980319 -0.06202625
158 -0.1196778 -0.021463087 0.10010871 -0.02891181 -0.008459748 -0.16675177 0.024414703 0.0029349604 0.1448163 -0.069057725 0.011623058 -0.24025144 -0.03856195 -0.07978555 0.0013218404 0.14840445 0.043573044 0.21926723 0.0050053815 -0.038502503 0.059076775 0.14790268 0.046501987 -0.10471818 0.06114004 -0.089758515 -0.1427941 0.25517556 -0.2823531 0.06701648 -0.41216838 -0.099511676 -0.08634406 -0.10435839 -0.101914585 -0.05668822 0.016326115 0.0010584871 0.050517555 0.03541908 0.22855477 -0.04634277 0.19947664 -0.1202258 -0.14250766 0.0154022295 0.11997248 -0.07849361 0.068940155 0.057411976 0.006106181 -0.037742592 0.12086462 -0.0030614845 0.10380378 0.044103056 0.109563924 -0.008524796 -0.041642524 0.19523333 0.30189112 -0.032601748 0.07593408 -0.04922665 -0.00988617 -0.030264817 -0.10826827 0.016059984 -0.055431362 0.02528323 0.1820346 0.032815643 -0.15710889 -0.10065079 0.040063217 -0.16100255 0.0734832 0.12620667 3.8273043e-05 0.047664553 0.07520477 -0.017434193 -0.029501453 0.053087372 0.06828681 0.17002559 -0.00055149454 0.027133625 -0.16236164 0.051177233 -0.0032389204 -0.094672 -0.10080215 0.047528297 0.061288387 -0.09230495 -0.0044946973 -0.17409445 -0.17133518 -0.18150422 0.05810611 -0.1230275 0.13653164 0.0586947 0.093182124 -0.079096235 0.037159763 -0.110736616 0.07533414 -0.13134222 0.006575612 0.12321313 0.19157009 -0.009329887 -0.029001584 -0.23322468 -0.091920175 0.21383129 0.01949699 -0.18453294 -0.03353517 0.073793344 -0.12438572 0.09705776 0.09104195 0.056455765 -0.11403806 -0.101642564
141 -0.082277514 -0.015242001 0.17279662 -0.13307576 0.117468394 -0.26326746 0.12133775 0.054218836 0.09044337 -0.10128233 0.009012419 -0.19660644 -0.028645497 -0.004873626 -0.14351931 0.09728595 0.022767546 0.26210397 -0.00866007 -0.022570372 0.031385276 0.033080567 0.06814162 -0.097066395 0.02771869 0.004843615 -0.07771967 0.10974622 -0.2120962 0.114565335 -0.34242767 -0.12176089 -0.073531754 -0.07480277 -0.016422655 -0.04682932 0.009733889 0.09846516 0.042185295 0.098584235 0.18705128 -0.013840584 0.25547612 -0.17627998 -0.15340203 0.05594325 0.12748677 -0.13881439 0.012570934 0.0024232937 0.06601769 -0.023857208 0.15616494 0.16912112 0.11245141 0.13799462 0.09217777 -0.06018124 0.04375673 0.2767015 0.26036906 -0.047686845 0.18555892 -0.06944884 -0.022785107 -0.022512503 -0.11375547 0.020926557 -0.07767331 0.02988338 0.15746339 -0.033350307 -0.14296988 0.014224973 -0.035063278 -0.19814855 0.040272232 0.17834543 -0.09942197 0.048410732 0.0006528971 -0.07066482 0.007028866 0.07316992 0.026466798 0.15989554 0.03851108 0.098096 -0.0036387916 0.07006097 -0.05979479 -0.033021137 -0.063790634 -0.053830735 -0.011968872 -0.03924044 -0.046492767 -0.22198935 -0.21954656 -0.08377153 -0.0077051953 -0.1074392 0.10544131 -0.034590065 0.1023675 -0.06024169 -0.06988003 -0.06595739 0.09298368 -0.16778314 0.08412081 0.08729934 0.16837211 -0.046539627 -0.0036741407 -0.07486823 -0.14828336 0.25213888 -0.0012486322 -0.11218849 -0.21598443 0.033776093 -0.11026686 0.004961746 0.03840846 0.054028876 -0.04063546 -0.08842329
78 -0.071013935 0.05701988 0.045118522 -0.08927201 0.034649532 -0.22140346 0.010506406 0.031778853 0.12371652 -0.0634229 0.10550319 -0.23692393 -0.088228576 -0.09022044 -0.08366052 0.055903573 0.022972483 0.15251262 -0.021110939 -0.065684 0.029247517 0.16303855 0.055143245 -0.08218905 0.09525868 0.016775891 -0.09496924 0.082552865 -0.19730143 0.059327535 -0.3320728 -0.12809877 -0.11798991 0.021203753 0.04626166 -0.06809645 0.031933043 0.089481875 0.13361958 0.1425867 0.111262746 -0.063010834 0.20228112 -0.15824312 -0.1778498 -0.020716513 0.13326587 -0.21120673 0.10669238 0.074681446 0.07716129 0.014647563 0.1573908 0.069032 0.03677158 0.107534386 0.031612772 -0.13628784 -0.021058304 0.28030023 0.30738056 -0.13623764 0.19476205 -0.07549295 -0.019066403 0.032952297 0.00268047 -0.008311837 -0.035822198 -0.006892879 0.099488884 -0.019502958 -0.0928277 0.051809657 0.02182164 -0.16455753 -0.05360819 0.015345293 -0.02833183 0.02655587 0.10734147 -0.02932099 0.031771988 0.008778445 0.111847065 0.14881442 -0.014681889 0.19434135 -0.044535693 0.011349786 -0.043730263 -0.02785175 -0.07000232 0.009384545 0.001043554 -0.09787867 -0.055486865 -0.18577608 -0.18031271 -0.14922388 0.06392606 -0.11064975 0.11530359 0.00878061 0.098507725 -0.06356289 -0.010098329 -0.10841537 0.10324349 -0.08910521 0.09953762 0.16701615 0.19965655 -0.058413364 -0.031275272 -0.123896964 -0.15817064 0.1499545 -0.03325134 -0.102902055 -0.104389265 0.026522959 -0.08694285 0.079005085 0.018713677 0.049310938 0.025735117 -0.04860112
108 -0.005444368 -0.018550316 0.06186418 -0.007905185 0.106132805 -0.21045922 0.065217175 -0.063697964 0.07043566 -0.043936487 0.03486614 -0.20123447 -0.08641672 0.019172067 0.011724627 0.030137045 -0.05632173 0.19218868 0.010007024 -0.015971983 0.0072677294 0.20763193 0.043353226 -0.13031042 -0.0122295935 -0.0064401976 -0.11798251 0.15691899 -0.1800178 0.11946741 -0.375169 -0.07144569 -0.030795237 -0.07421952 -0.025623728 -0.09928837 0.008836445 0.11743899 0.094599806 0.14387144 0.20688657 -0.17072687 0.23835789 -0.13984008 -0.030190973 0.07766436 0.053218704 -0.09136673 0.05338446 0.16526183 0.07290355 0.0010035905 0.15102653 0.04268946 -0.026052067 0.13492864 0.045260802 0.06632957 0.047467034 0.16353804 0.24390209 -0.13752757 0.16656384 -0.08833457 0.06997229 -0.05832208 -0.018949155 -0.047030937 -0.08926784 -0.07019651 0.14959005 -0.107934326 -0.12759197 -0.06591395 0.055951364 -0.1693097 -0.04339598 0.13449652 -0.06270706 -0.018482648 0.049713682 0.041611593 0.024255348 -0.0877399 0.0883138 0.13338932 -0.08051922 0.14748941 -0.046979565 0.11669496 -0.07270695 -0.032518957 -0.044168536 -0.06444627 0.027034866 -0.055992723 0.006499249 -0.19771855 -0.15724805 -0.18815075 -0.022627058 -0.17192121 0.12344758 -0.041441705 0.04001179 -0.17455915 -0.020427728 -0.08720028 0.05747825 -0.16873655 0.0054018204 0.22853313 0.14130348 -0.09501346 -0.0034545632 -0.17363098 -0.11549029 0.27115428 0.1007252 -0.076280415 -0.15465268 0.01241046 -0.19413362 0.123489834 0.07322639 0.040982615 -0.08234987 -0.058364455
10 -0.02678458 0.07682608 0.07645183 0.0074218637 -0.084414214 -0.20305187 0.016594868 0.0360676 0.18605584 -0.09487213 0.02749457 -0.16383165 0.025160965 -0.1038273 -0.04129438 0.08142614 0.103631705 0.1336968 -0.021143438 -0.062629625 0.040736493 0.21893524 0.03631399 -0.023631828 0.05028547 -0.014463503 -0.20820539 0.12489369 -0.19507919 0.0626523 -0.38659453 -0.10569713 -0.052079253 -0.08491038 0.067174 -0.056479495 0.0047507505 0.09386953 0.23635954 0.1806332 0.08559136 -0.12896724 0.1717607 -0.16178697 -0.16265176 0.061979536 0.10740189 -0.1509839 0.05401367 0.12820497 0.033486344 0.03160588 0.17666271 0.04751478 0.03369401 0.10910793 0.06136067 -0.0521151 -0.0127406055 0.20201905 0.27662688 -0.11581774 0.0870334 -0.049576014 -0.067127764 -0.020193292 -0.09442017 -0.09818034 -0.08277837 -0.03127552 0.1381052 -0.0666055 -0.13095436 0.0053585 0.031760633 -0.15150607 -0.0634214 0.0990461 -0.015868863 0.08164479 0.04524142 -0.019854518 0.030996218 0.02881611 0.12177808 0.12259888 -0.0018313564 0.088465065 -0.06033087 0.056946084 0.013775362 0.008727916 -0.074705854 0.044821948 0.027866168 -0.051759943 -0.018106544 -0.17662506 -0.23578043 -0.0062404163 0.0085216975 -0.074331634 0.09991074 -0.055669133 0.070573576 -0.028465863 -0.06726779 -0.076780446 0.0663906 -0.14668664 0.09248606 0.19223434 0.20080423 -0.0957486 0.012683437 -0.18762578 -0.21263629 0.2737333 0.031246325 -0.110331684 -0.098473445 0.05551057 -0.12701724 0.054317467 0.06006095 0.030449841 -0.019044453 -0.10445438
22 -0.060093004 0.0013756017 0.14970288 -0.11258967 -0.050508555 -0.15304163 -0.08794551 0.0934008 0.17993264 -0.10322722 -0.039819594 -0.25501403 -0.06623306 -0.107572235 -0.025921175 0.11002503 0.031384546 0.13785356 0.009762109 -0.04460962 0.07425922 0.20656988 -0.005001548 -0.044727646 0.108808815 -0.04117731 -0.15220544 0.11666273 -0.18290986 0.03907616 -0.44667068 -0.103885494 -0.04764305 -0.1395341 -0.008682471 -0.07092327 0.053181756 0.021646975 0.2854616 0.05557639 0.18704206 -0.13794717 0.1384641 -0.05558174 -0.12200677 0.07767042 0.008881406 -0.11265459 0.059462257 0.16093408 -0.007682789 0.0052360916 0.18457787 0.05029978 0.023981864 0.2213179 0.042686306 -0.020518988 -0.011628618 0.27053526 0.26476705 -0.048867323 0.16001476 -0.017583923 -0.048910953 -0.049849067 -0.11245345 -0.034309834 -0.07954359 0.020080013 0.08326637 -0.045423586 -0.17951666 -0.00865619 0.059194326 -0.1575321 -0.075574555 0.04921994 -0.03928044 0.014589453 0.028984811 -0.01209368 -0.0003012468 0.109460525 0.18447366 0.12132701 -0.0021213407 0.18235262 0.020958668 -0.006932719 -0.01928538 -0.08204183 -0.079644926 0.059577778 -0.051407453 -0.018490652 -0.03994737 -0.16512623 -0.2211326 -0.09112003 0.02794668 -0.16284974 0.062738135 -0.06537926 0.060573574 -0.12360353 -0.078573085 -0.10439141 0.05490805 -0.13100095 0.036630124 0.13774213 0.20004272 -0.07541484 -0.01033524 -0.14002383 -0.07486549 0.26788694 0.028944077 -0.1526591 -0.069260545 0.06275617 -0.102279074 0.055919807 0.048027154 0.060398728 -0.011461365 -0.11537986
153 -0.081329525 0.03854372 0.09516053 -0.10924249 0.07018024 -0.24929187 -0.010566727 0.07761405 0.16085944 0.01092306 0.11401389 -0.16203466 -0.042160504 -0.030623434 -0.019289626 0.11439902 0.0052351905 0.16259867 0.055867136 -0.06303027 0.10008877 0.09620225 -0.014161912 -0.0767001 0.0008468322 -0.014104522 -0.108339794 0.10483412 -0.19110517 0.113417946 -0.3456694 -0.083339155 -0.019260373 -0.09654047 0.036383033 0.001145434 0.094141476 0.0055330414 0.14063172 0.06614477 0.18622975 -0.07636714 0.23266241 -0.14688124 -0.025912296 -0.02081929 0.11856903 -0.10895222 -0.016558407 0.1392074 0.0764429 0.016395316 0.185041 0.03610441 0.11538653 0.21808583 0.0006765829 0.017837588 -0.030983677 0.2290544 0.25367334 -0.081912786 0.22118981 -0.08926094 -0.058441214 0.0030770623 -0.09342957 -0.07938755 -0.042772595 0.13789143 0.13803472 0.010859385 -0.13235934 -0.046207555 0.042330287 -0.1414202 0.018074194 0.080051 -0.06910994 -0.0011021689 -0.035681043 -0.0024210166 0.04062456 -0.06968363 0.1228209 0.14528418 -0.03598114 0.13858372 -0.03221884 -0.0074433377 0.011700012 -0.11101711 -0.06515097 0.032469235 0.009260288 -0.028527932 -0.061393585 -0.2467982 -0.16594881 -0.0951484 0.11504797 -0.19685346 0.04087269 -0.05718929 0.11662969 -0.07065706 -0.013598775 -0.07593937 0.032035194 -0.048316643 0.08843624 0.24390015 0.15832582 -0.032239866 -0.08575299 -0.0817886 -0.1414941 0.21610866 -0.025961248 -0.06559967 -0.056743514 0.0663719 -0.24551812 0.14867774 -0.044867393 -0.040924024 -0.07360551 -0.17967655
100 -0.014158634 -0.022140386 0.1116544 -0.058508173 -0.01904857 -0.25267774 0.08035669 -0.017008627 0.16407894 -0.104109615 0.0896558 -0.22703883 -0.0098168915 -0.076038495 -0.07373584 0.095568635 0.07351675 0.2464357 0.06162606 -0.087082244 0.00094385946 0.1481064 0.056552146 -0.09580615 0.055018228 0.00033510098 -0.098220386 0.1305004 -0.19480716 0.1482568 -0.44041657 -0.1436582 -0.047928665 -0.04319392 0.0054840874 -0.09825706 0.0769962 0.12778409 0.107428394 0.13840397 0.16480839 -0.042851303 0.23601405 -0.028274836 -0.100698635 0.08832874 0.12859038 -0.22068313 0.08510821 0.15429999 0.022488737 -0.03085955 0.19472486 0.0404052 0.04064615 0.16443358 -0.017564295 0.00306794 -0.013470613 0.16234194 0.28724554 -0.11523821 0.19405721 -0.06724389 0.004458536 -0.047213938 -0.0022108457 -0.10178496 -0.018257366 0.040722366 0.20039895 -0.040401336 -0.09598603 -0.0005631753 0.0051599653 -0.1320434 -0.05930547 0.105081454 -0.05997497 -0.03833209 0.07735232 -0.010702302 0.028279604 0.00048599584 0.028192362 0.13760707 -0.08342611 0.07970092 0.015260376 0.029538013 -0.016266663 -0.06324446 0.0009407241 -0.040323984 0.040862784 0.07032308 -0.030254008 -0.058784265 -0.13813515 -0.18435393 0.023968698 -0.07982503 0.06511113 -0.037424047 0.021929638 -0.08627051 -0.09109802 -0.02703738 0.07507961 -0.120806165 0.13638963 0.11464581 0.11858716 -0.020152451 0.031641383 -0.12517242 -0.16736002 0.14126922 0.013050115 -0.18869817 -0.15475067 0.009546774 -0.1494202 0.102755286 0.070880875 0.07824992 -0.06199215 -0.10505751
4 -0.07839927 -0.0729869 0.11784417 -0.20696864 -0.10320796 -0.24075316 0.13892984 0.07234422 0.19912411 -0.14159301 -0.013380168 -0.2021117 0.014565406 -0.0500321 -0.12749498 0.1863376 0.08990968 0.18735725 -0.02160349 -0.07208227 0.0491316 0.18689093 0.0386857 -0.02587951 0.09852852 -0.05602907 -0.14701204 0.11888589 -0.23987307 0.103974365 -0.42589077 -0.1665775 -0.048916318 0.011422629 0.12587163 -0.090162754 0.08265048 0.070959695 0.15520859 0.08160601 0.17132057 -0.018122448 0.23523349 -0.09059099 -0.19751185 0.085322574 0.049166184 -0.12024054 0.032459337 0.066792905 0.055865888 -0.08197803 0.1486092 0.16458121 0.107570454 0.12582955 -0.011248445 0.019638812 0.013719122 0.17209132 0.20605758 -0.12217404 0.18867053 -0.08036668 -0.022975218 -0.01137242 -0.04893308 -0.1319231 0.0063470225 0.020740842 0.11095369 -0.06414031 -0.11325424 0.0003490439 0.014784542 -0.16034883 0.06348263 0.113709204 -0.10147838 0.04049367 0.020358676 -0.03516102 0.009219961 0.083694175 0.055046972 0.18743823 0.015583306 0.0264044 -0.040289517 0.09274042 0.00858429 0.009751242 -0.034964915 0.12649113 -0.052862667 -0.006079552 -0.001594548 -0.15241487 -0.21538879 -0.06363498 0.0127306115 -0.11327564 0.17710926 0.13516536 0.026119765 -0.039751906 -0.040453672 -0.13587181 0.0117233405 -0.12284939 0.1325405 0.17664468 0.19824636 -0.018131461 -0.102513306 -0.1907457 -0.13515401 0.23964989 -0.025415594 -0.10177676 -0.108194895 0.06635083 -0.07414494 0.029877728 0.068491794 0.09153318 0.01574085 -0.12450166
72 -0.04609311 -0.041052677 0.059296794 -0.108284555 0.050272465 -0.21669278 -0.002083337 1.461311e-05 0.10360914 -0.13602704 0.037279356 -0.2331923 -0.019318013 -0.066966206 -0.007275684 0.14701967 0.075285934 0.2230818 0.017443262 -0.048645414 0.039192 0.21167204 -0.0048947805 -0.055535268 0.043343388 -0.029154882 -0.10564687 0.11460608 -0.15411167 0.07971673 -0.41209152 -0.1086057 -0.034210715 -0.0740184 0.0089575155 -0.14483383 -0.03841211 0.0436942 0.1608455 0.09979489 0.08976855 -0.087834224 0.218754 -0.056556825 -0.11639563 0.064483695 0.054225165 -0.08071597 -0.015795212 0.09907766 0.055840287 0.009140855 0.16001736 0.07350778 0.04650606 0.13278228 0.009085243 -0.0723751 0.028576607 0.23601018 0.19251579 -0.14224418 0.20506382 -0.06968544 0.058737636 -0.014227177 -0.03603068 -0.05738874 -0.06715017 0.006518909 0.17429091 -0.029988129 -0.080537334 -0.025192613 0.016239094 -0.11991015 0.06835488 0.16279446 0.01308352 -0.0005567113 0.06861507 -0.07702833 -0.0840715 0.03142458 0.08374459 0.16944051 -0.01852869 0.02096968 -0.049383037 0.081295505 -0.039342932 -0.026335927 -0.012787851 -0.028077452 0.05335864 0.010351709 -0.01290661 -0.24501395 -0.14350751 -0.08466609 0.005020236 -0.18030423 0.10089363 -0.052323624 0.077199385 -0.097584136 -0.10557404 -0.08213856 0.054423727 -0.10774328 0.093242146 0.14651424 0.09640475 -0.02056435 -0.08893581 -0.12551968 -0.16942416 0.21665418 -0.08818533 -0.13375369 -0.14788413 0.05715712 -0.11113968 0.12487204 0.05325092 0.006305686 -0.046159193 -0.11082635
1 0.016110273 0.048386283 0.09873363 -0.023237439 -0.025267005 -0.15591988 0.06728439 0.08080669 0.1150058 -0.11542833 0.005180994 -0.26827446 -0.044360384 -0.11471345 0.0003296981 0.044881545 0.033324406 0.14004995 0.020058306 -0.014010302 0.08387921 0.13646747 0.008479202 -0.13633865 0.016472958 -0.004837296 -0.1963413 0.14466943 -0.16282225 0.11073864 -0.34425765 -0.102349795 -0.064406216 0.015388243 -0.0080755 -0.13911712 0.10710846 0.12515283 0.09779017 0.1240384 0.1064927 -0.1170478 0.20513694 -0.16920745 -0.09448971 0.05245997 0.02933138 -0.18191876 0.13195851 0.08123045 0.091794156 -0.082454294 0.16333482 0.087374605 -0.007979804 0.16849813 0.08872123 -0.057733126 -0.1024643 0.21857151 0.2614347 -0.12821051 0.17513779 -0.09896339 0.09119137 -0.06381268 -0.060350575 -0.08812652 -0.055005535 -0.025615873 0.110021226 -0.06425603 -0.14374425 0.010596037 0.062247038 -0.10152368 -0.006361305 0.08889992 -0.004355382 -0.013805263 0.07535619 -0.016397608 0.03700368 0.0010302358 0.087983906 0.13858673 -0.0072534564 0.15755156 -0.053097785 0.037850313 0.06484917 -0.013516968 -0.07387183 0.0759715 -0.025441973 -0.12724079 -0.019969393 -0.18118265 -0.13391057 -0.133461 -0.11293192 -0.10033726 0.1385635 -0.037365343 0.00067161897 -0.06721382 -0.054669045 -0.11407659 0.09619633 -0.16428247 0.15987271 0.21093658 0.16596809 -0.0019469898 -0.07503142 -0.14180258 -0.17867616 0.22855574 0.07659691 -0.08300935 -0.16872057 0.014643682 -0.050171975 0.08653908 0.06089921 0.0030778868 -0.06595582 -0.05061601
18 -0.05999839 -0.052850995 0.07730756 -0.07176643 0.07700833 -0.17053118 -0.044375617 -0.0014150236 0.1187451 -0.14110926 0.10391593 -0.23804064 -0.08104325 -0.058456983 0.069373935 0.084562495 -0.062516086 0.20480157 0.040388864 0.077455126 0.13385315 0.26461136 0.037213687 -0.06159098 -0.006008232 -0.029997408 -0.12428162 0.1748853 -0.16995144 0.09994139 -0.33777002 -0.07758412 -0.06685759 -0.008192227 -0.012662166 -0.06277216 -0.0099036535 0.1006922 0.13220935 0.0881124 0.16550995 -0.008651435 0.18893307 -0.1226575 -0.11441897 0.04552721 0.11424723 -0.1757476 0.06994335 0.09210412 0.060384538 -0.010164402 0.07027577 0.042219922 0.061355382 0.09309366 -0.057790637 -0.11998587 -0.018143982 0.25387505 0.26419106 -0.09560305 0.16997491 -0.05969896 -0.04595179 0.015788738 0.029259467 -0.07833282 -0.008133054 0.026851125 0.1883678 -0.040821917 -0.037187684 0.04527188 -0.01864758 -0.093946286 -0.069268264 0.11477354 -0.041203596 0.010573806 0.11289939 -0.02434859 -0.022191595 0.07814863 0.11516343 0.17621858 -0.08911897 0.15223694 -0.082351334 0.029282385 -0.009749698 -0.0058924556 0.007943926 0.038661856 0.09310997 0.005933417 -0.13323906 -0.20940171 -0.074223585 -0.12438189 -0.009050123 -0.1274167 0.081586294 0.036828607 0.08701131 0.007999002 -0.04141409 -0.09176045 0.024693334 -0.022205204 0.038924634 0.15357198 0.17153804 -0.01600918 -0.05474024 -0.14597678 -0.16596188 0.22478361 -0.004893917 -0.11224553 -0.10476517 0.047519367 -0.19755968 -0.07873958 0.0728628 -0.0056331577 0.055016886 -0.039344165
8 -0.14040598 -0.10422087 0.06881088 -0.14652102 -0.009938082 -0.118338846 0.07937351 -0.03310179 0.09154972 -0.16357142 0.061686814 -0.19711629 0.011897946 -0.06517312 -0.09580442 0.11962389 0.045829795 0.2794743 -0.058905367 -0.10977591 0.013913755 0.14210029 0.049626008 -0.0531136 0.061558113 -0.08996653 -0.148941 0.1428193 -0.16613759 0.12820822 -0.36646315 -0.08427327 0.0074932748 -0.046037585 0.059826206 -0.043654293 0.03185271 0.11305298 0.12248255 0.020050094 0.17894053 -0.024554431 0.1732189 -0.14321287 -0.16808891 -0.008185334 0.21750207 -0.11578028 0.0028713099 0.15354507 0.044411577 -0.08064242 0.10584593 0.07196618 0.024383364 0.14941907 -0.10527065 -0.035376333 0.034653816 0.22076996 0.2352973 -0.05427682 0.08811436 -0.01125474 -0.06677935 0.028161831 -0.055306207 -0.010645365 -0.06675509 0.019350424 0.17053483 -0.0159632 -0.12277125 0.08372243 0.0034544815 -0.044254743 -0.0147899315 0.15583548 -0.13010632 0.08131126 0.029700167 -0.038047533 0.06271475 0.10150144 0.06649761 0.16956869 -0.025794882 0.11643272 -0.028799362 0.08735651 0.02043664 -0.13342848 -0.07894115 0.0093682185 0.12793472 -0.11366243 -0.05615705 -0.115007624 -0.17649268 -0.09174482 -0.030410908 -0.06739015 0.13978961 -0.036763206 -0.0066757775 -0.024228701 -0.16162463 -0.06638285 0.100817256 -0.21735324 0.056510262 0.13426144 0.2061791 -0.038938712 -0.0445828 -0.2117123 -0.13756986 0.21902882 0.018034108 -0.07689123 -0.16757412 0.05590139 -0.13906519 0.12259457 0.07196289 0.1176299 -0.13877894 -0.09578019
91 -0.03285511 -0.02177895 0.13712929 -0.10242443 -0.09005328 -0.21691416 -0.01108045 -0.009719088 0.18304008 -0.103926376 0.0690395 -0.24154405 -0.14333981 -0.12023271 -0.025837347 0.018632777 0.07547702 0.20042919 0.02360598 -0.11866365 0.062280823 0.22785133 -0.021111513 -0.032520283 -0.0072577605 0.015626846 -0.10737256 0.1272621 -0.1821474 0.066393495 -0.360478 -0.13853553 -0.066807434 -0.038245417 0.009892717 -0.010769977 0.07006683 0.15686595 0.104732215 0.10469421 0.13327223 -0.10049493 0.27214843 -0.20590727 -0.131655 0.0047454927 0.08323714 -0.15358354 0.1400028 0.11069173 0.0468197 -0.0137535585 0.20205073 0.04177909 0.057196256 0.07585228 0.028803162 -0.0667876 -0.012212749 0.26749718 0.301637 -0.12448071 0.17584965 -0.06462987 0.055633068 -0.0008098602 -0.018486232 -0.109502725 0.007180839 0.023829872 0.16818175 -0.003266867 -0.13028026 -0.07309296 0.0038377082 -0.102016576 -0.012730789 0.054364078 -0.048105005 0.0377687 0.11485302 -0.018307894 0.050919514 -0.02527009 0.103466615 0.1453304 0.04472032 0.09378062 -0.096470125 0.096149065 0.010651339 -0.086915866 -0.04163211 0.046260115 0.08637134 -0.062484734 -0.037121907 -0.12951016 -0.18501392 -0.16660962 -0.038761877 -0.12819341 0.1246782 -0.000497266 0.021507202 -0.0014909514 -0.031464633 -0.04255924 0.026596932 -0.16133726 0.009724065 0.11877555 0.16119184 -0.006167415 -0.12114835 -0.1942065 -0.18931724 0.17818995 0.01670469 -0.1264305 -0.1828133 0.02900549 -0.04089525 0.13507609 0.19403675 0.035137933 0.02914784 -0.102433905
139 -0.10239961 -0.02100163 0.13020393 -0.10194176 0.04169335 -0.13273975 -0.0011497398 0.013597137 0.1250589 -0.19673495 0.07812313 -0.1426734 -0.018860614 -0.050635677 -0.004748458 0.1839881 -0.013601377 0.24509797 -0.0033859932 0.0035313608 0.06851784 0.17426597 0.024827495 -0.13772245 0.10417035 -0.07529614 -0.07509732 0.13452616 -0.20041479 0.058925804 -0.35132807 -0.11411918 -0.18673578 -0.09415225 0.049048528 0.016543312 0.059338164 0.08298732 0.024894899 0.054500103 0.22184943 -0.01460802 0.2656009 -0.16981812 -0.15257113 0.05692207 0.09437718 -0.14925258 0.08155659 0.10043319 0.061741073 -0.046792645 0.14095104 0.058374777 0.07894029 0.07317434 0.044965107 -0.058811914 -0.04256606 0.20655453 0.24785775 -0.12621213 0.21043903 -0.016563507 -0.09562307 -0.0093472265 -0.08351538 -0.08471188 0.005879611 0.09676387 0.2478907 0.04221718 -0.085009 0.0021377755 -0.039588075 -0.17698619 -0.018932462 0.07168463 -0.03855044 0.034420524 0.16935705 -0.039865166 -0.06492534 0.0043395623 0.07014927 0.28382313 -0.08121796 0.09413819 -0.02758363 0.07250957 0.055401295 -0.0040223855 -0.020812772 0.0032330025 0.005661998 -0.04996793 -0.0030259385 -0.15086287 -0.16789603 -0.110305235 0.0045747976 -0.105174564 0.07215491 -0.05054614 0.16712128 -0.10937229 0.0014284711 -0.11767858 0.077602 -0.13220401 0.029569 0.098045826 0.124052085 -0.02875945 0.004202923 -0.15292226 -0.17563435 0.23243985 -0.030258492 -0.10368626 -0.10733021 0.0030537262 -0.10811151 0.020408526 0.1160084 0.10390202 -0.038351975 -0.067664176
56 -0.06019316 0.0034270054 -0.010481759 -0.014786594 0.10144641 -0.1629854 0.05449823 -0.020151302 0.09589859 -0.20738216 0.061858024 -0.26742092 -0.07053449 -0.04477451 -0.041520946 0.07223563 0.07011211 0.13379896 0.034125976 -0.040339693 0.03482552 0.15513322 0.065856844 -0.09403983 0.053338584 -0.010305887 -0.15884489 0.07915843 -0.18360129 0.09420317 -0.40042353 -0.1758852 -0.07633445 0.046732977 0.00728444 -0.08370381 0.080894634 0.08268718 0.15223266 0.15310854 0.09546985 -0.0323659 0.2086733 -0.083148934 -0.02386718 0.055033542 0.07252978 -0.21289511 0.029798474 0.034162447 0.056730445 0.0029174422 0.0947471 0.0058903825 0.017443528 0.19476293 0.01259096 -0.107771754 -0.07537256 0.17074926 0.2831767 -0.15610397 0.20794149 -0.122928746 0.0049898108 0.0070929443 -0.030841757 -0.104762286 -0.060669884 0.00312112 0.11154409 -0.024016466 -0.098121926 -0.032253113 0.04056984 -0.17040378 -0.027626988 0.109450184 -0.09836313 0.07680155 0.08521183 -0.02709218 0.03355763 0.033966444 0.0958585 0.13547358 -0.058869883 0.09880305 0.005633686 0.114289016 0.0029192492 -0.0781386 -0.08734197 0.010821584 0.05258359 0.04590007 -0.09627754 -0.06693688 -0.15248084 -0.16062212 0.0064106905 -0.13552764 0.091099046 -0.046229478 -0.0099349255 -0.043019187 -0.039544106 -0.0110638775 0.019871425 -0.10639093 0.111528955 0.14972164 0.13910541 -0.045016408 -0.056186162 -0.21149376 -0.16652584 0.19322298 0.004515684 -0.11604337 -0.24181983 0.062385023 -0.06716558 0.08991865 0.16721377 0.102094635 -0.04356174 -0.019704618
69 -0.03236144 0.007819899 0.0024779914 -0.11404563 0.0048073204 -0.261827 0.029228834 0.021996899 0.13970795 -0.105153866 0.089667566 -0.21299809 0.013058162 -0.10866412 -0.035759233 0.04840971 0.10756492 0.15240112 0.024317792 0.01155136 0.0029349208 0.15743822 0.04759352 -0.015767299 0.022770312 0.024899865 -0.14106594 0.09644117 -0.17552349 0.075630166 -0.36764947 -0.0936585 -0.12232424 -0.06594503 0.09720875 -0.13117504 0.024467997 0.08864726 0.21769774 0.09755254 0.113090545 -0.06697579 0.24197012 -0.09136807 -0.12946497 0.003651617 0.11857055 -0.07256844 0.050234172 0.0992481 0.0851026 -0.06663934 0.1768725 0.12488271 -0.0130404765 0.16788569 -0.037740014 -0.118034765 0.07202436 0.26853874 0.15523621 -0.19017547 0.11207934 0.020717828 -0.036156133 0.0007209139 -0.09265232 -0.028796667 -0.08541415 -0.006309567 0.12832555 -0.089798704 -0.056150094 -0.010807216 -0.013500543 -0.14876524 0.0065844585 0.13343297 -0.04605922 0.014724347 0.06718935 0.0007834302 -0.026257684 -0.013752004 0.063765995 0.23473829 -0.008992634 0.20159079 0.04142366 0.051122323 -0.10629826 -0.0040271743 -0.058202263 0.035183873 -0.014827036 -0.035472166 -0.004626562 -0.22388643 -0.122680634 -0.09667775 0.023277914 -0.0916564 0.14249176 0.048702087 0.029845608 -0.10116302 -0.04850403 -0.08326065 0.058485564 -0.15045448 0.06263561 0.18698907 0.12722611 -0.05869627 -0.10406896 -0.1603464 -0.22190563 0.28328016 -0.010992005 -0.08413863 -0.062036205 0.021418655 -0.06706816 0.20232405 0.046187446 0.043930914 -0.15450765 -0.116762884
192 -0.11271749 -0.079107 0.11213981 -0.1493446 -0.028424881 -0.22785848 0.014374206 -0.02295953 0.15765037 -0.017424108 0.07609085 -0.2855143 -0.06276957 -0.008298155 -0.10474652 0.10586364 0.0018018767 0.08547417 -0.022797527 -0.026588356 0.041460663 0.226092 0.038933054 -0.1339023 0.047023028 0.00034438737 -0.21367033 0.039470203 -0.24691129 0.09624101 -0.4258092 -0.06774837 -0.097346544 -0.049550373 -0.074641906 -0.07612682 0.05819595 0.107137136 0.18380186 0.122807935 0.14946456 -0.087560005 0.25738996 -0.15647057 -0.11924062 -0.047669593 0.07532208 -0.10783556 0.039423086 0.08748264 0.011857137 0.040869225 0.10112473 -0.012730954 0.07573802 0.15436873 -0.022408478 -0.01038893 0.04416057 0.23126195 0.30743116 -0.114705145 0.15363918 0.019374952 0.02401332 0.012527566 0.014982652 -0.04967982 -0.040866125 -0.07100491 0.21036516 -0.006264646 -0.12494752 -0.055322398 0.007202269 -0.07591396 0.028506374 0.03664247 -0.019660871 0.04500232 0.05197233 -0.0005113394 -0.05345589 0.0019028134 0.05978876 0.14154153 -0.023280816 0.12512708 -0.1131015 0.06507132 -0.043859433 -0.040215325 -0.07704915 0.07102711 0.14942807 -0.008095544 -0.051028803 -0.0801023 -0.16682671 -0.1295108 0.053466357 -0.022531265 0.0777021 -0.021866513 0.08695451 -0.09241833 0.0055576507 -0.083390445 0.028113233 -0.08867938 0.05324871 0.12848838 0.13873024 0.037021447 -0.07164894 -0.120606646 -0.13294308 0.10549094 0.0005653246 -0.047102615 -0.11086505 -0.012964436 -0.10104593 0.12344882 0.11985495 -0.022721132 -0.13134457 -0.18734135
111 -0.09578319 -0.037310027 0.08988663 -0.07162505 0.08409332 -0.19835064 -0.027565258 0.070131704 0.2688514 -0.16282673 0.025475213 -0.22152197 -0.0115893185 -0.02797333 -0.026202438 0.029863078 0.056159865 0.23383227 -0.0005194239 0.015213439 0.04468536 0.17126611 0.036840227 -0.10400466 0.07357295 -0.008947413 -0.23044819 0.154574 -0.1203805 0.08857086 -0.28501308 -0.1212378 -0.14826484 -0.012640433 0.054048374 -0.074857235 0.06357045 0.110902995 0.08498036 0.10990805 0.15309156 -0.0026705735 0.2565219 -0.11988961 -0.14905193 -0.0062288204 0.14558911 -0.14864391 0.08822235 0.1268278 0.07011258 -0.08519324 0.17154814 0.12885417 0.08367516 0.09549552 0.039989088 -0.05950313 -0.049956635 0.18740925 0.35822517 -0.12473867 0.18299581 -0.057468407 0.004769093 -0.027131453 -0.060258985 -0.047707677 -0.06850519 0.025642466 0.16842915 -0.051565792 -0.15794376 -0.010559211 0.03651453 -0.16953894 -0.045163818 0.066091545 -0.06444399 0.013283312 0.078457855 0.013821687 0.032514405 -0.053360038 0.08694162 0.18317255 -0.041365653 0.098124854 -0.0064746807 0.07244142 0.10534037 0.034691952 -0.001400429 -0.028254192 0.009831239 0.02519173 -0.05490195 -0.18714996 -0.11582669 -0.06500593 0.07433238 -0.15958625 0.042616673 -0.104709804 0.04909056 -0.15404923 -0.04195762 -0.07385345 0.13910449 -0.17525059 0.089952186 0.23443471 0.21423782 0.03901562 -0.021644088 -0.11918136 -0.26154298 0.2470972 0.04502266 -0.053264245 -0.20502904 -0.017770004 -0.10357555 0.06537754 0.099721394 0.030926486 -0.01388398 -0.062076494
185 -0.061979875 0.017700376 0.03616761 -0.108841084 -0.033912543 -0.3130263 -0.028349698 0.021289865 0.1367596 -0.07442067 0.024873024 -0.28525978 -0.12911965 -0.08674302 0.056245703 0.1032291 0.09257449 0.14509405 -0.036247294 -0.11652554 0.04285119 0.12524581 0.07518656 -0.092165574 0.038892493 -0.02461524 -0.10788868 0.14922655 -0.22260508 0.09385353 -0.42040572 -0.115722954 -0.07473477 -0.07695223 -0.014418635 -0.23165108 -0.05776277 -0.0343323 0.20170307 0.16343209 0.032314006 -0.03417596 0.20321743 -0.09302329 -0.10423459 -0.040683392 0.01492575 -0.13448209 0.05337804 0.10324022 -0.011008462 0.027338382 0.18539345 0.039674103 0.056936447 0.14079697 0.101633646 -0.057172567 -0.06933682 0.24375005 0.28790975 -0.052599076 0.18473767 -0.08897244 0.03528839 0.031357016 -0.08565105 -0.11212788 -0.011176532 0.06941833 0.16615574 0.09754351 -0.11518199 -0.06859257 0.049196966 -0.15760374 -0.048723634 0.11592341 -0.0275979 0.15396588 0.07066089 -0.03167876 -0.004287622 0.08994069 0.024821544 0.23033598 0.017053131 0.11432126 -0.13022034 0.08139058 -0.02205254 -0.03156437 -0.10039173 0.10954537 0.024440058 -0.13149332 -0.06259621 -0.27427533 -0.15241802 -0.12612104 0.083654836 -0.23287657 0.033465806 -0.07878517 0.08070764 -0.035269562 -0.06483172 -0.085127644 0.11443284 -0.08286184 0.06755112 0.14919603 0.1486656 -0.10234176 -0.021177158 -0.10122926 -0.1153809 0.26606837 0.023681117 -0.08774108 -0.13177593 0.10197678 -0.17422676 0.02072671 0.08278247 0.12694295 0.009475509 -0.05847465
58 -0.05525869 -0.042960774 0.07809185 -0.09181032 0.03729027 -0.21261826 0.019549925 0.047164362 0.06272958 -0.09332385 0.04490677 -0.2073881 0.01529973 -0.06544185 0.038348693 0.12918544 0.010129033 0.11878474 -0.026836893 0.015853107 0.059906177 0.12554726 -0.016644815 -0.13997513 0.046201844 -0.039899588 -0.18200941 0.07686562 -0.19086581 -0.013606771 -0.2992385 -0.15451856 0.034610894 -0.12099105 -0.06272623 -0.09941703 0.034106236 0.09048581 0.21207109 0.11266932 0.12812844 -0.068503566 0.21137044 -0.08298923 -0.14912313 0.049824834 0.08564269 -0.05494555 0.026307499 0.023048988 0.06689368 0.049656972 0.15516603 0.0101468945 0.13835584 0.1075312 0.017702706 -0.09690034 -0.09412762 0.24614777 0.2411874 -0.08194862 0.14713977 0.019159935 0.101583 -0.044103403 -0.05689154 -0.013227168 -0.025497893 -0.0323507 0.091221385 0.04797433 -0.089474075 -0.07209508 -0.003185068 -0.23002465 0.032714687 0.08489628 0.031982705 0.10702438 0.13564521 0.033015504 -0.0051960233 0.17173578 0.07906993 0.16218707 -0.007251768 0.15056351 -0.094989926 0.03666688 0.05839406 -0.035190634 -0.10163669 0.108869985 0.15375866 -0.011463798 -0.052707538 -0.13722046 -0.157837 -0.021460878 0.039763533 -0.06341184 0.12819715 -0.04257075 0.027252978 -0.018124798 0.009330333 0.057128232 0.08531802 -0.029942367 0.15542787 0.2249015 0.14973511 -0.039570883 -0.12225943 -0.11260818 -0.12122381 0.24859925 -0.042330045 -0.068594806 -0.13832414 0.090010755 -0.12704326 0.05365182 0.038737167 0.06387575 -0.012108786 -0.0100643765
48 -0.07699628 -0.03151262 0.058127288 -0.020800428 -0.00011639883 -0.2695985 0.011532439 -0.013816155 0.12554786 -0.028241582 0.07488001 -0.20308608 -0.12037158 -0.07060587 -0.054663308 0.11339665 0.033014085 0.1338991 0.064256296 -0.026637526 0.038294494 0.15512095 0.009706604 -0.10104036 -0.077120975 0.007947598 -0.1939422 0.03958114 -0.16177918 0.10574478 -0.40065393 -0.12449523 -0.034280255 0.009164402 -0.02675151 0.029449645 0.06353689 0.06652575 0.19810835 0.105636165 0.112717 -0.116000555 0.35680127 -0.1689717 -0.057698883 0.018326426 0.11340534 -0.15403613 0.061938632 0.06943041 0.09763678 -0.009011962 0.18999767 0.055118844 0.074478015 0.09569739 0.001642378 -0.04384943 -0.03201231 0.16486569 0.21799697 -0.08721169 0.09742442 -0.027038367 0.02640492 0.011079823 0.017044518 -0.03823442 -0.0600563 0.036940288 0.10420731 -0.03839418 -0.12551983 -0.08720493 0.014788987 -0.08409047 -0.10169538 0.09511077 -0.059003424 -0.00904678 0.036250517 -0.010258961 0.031511422 0.06258595 0.1084187 0.0899255 -0.033062045 0.11703544 -0.05970566 0.033557035 -0.062341426 -0.064213 -0.08716399 0.12771443 0.041767556 -0.072664745 -0.05400516 -0.14802466 -0.10385526 -0.1201002 0.043023016 -0.110921755 0.05274072 -0.05303837 0.037738916 -0.12361633 -0.045229916 0.013319911 0.027949793 -0.14573166 0.06360409 0.15325242 0.109795965 -0.028532557 -0.062011063 -0.17264868 -0.18809068 0.18792629 -0.029438576 -0.07177789 -0.114787884 0.021474913 -0.13246112 0.17325056 0.06466313 0.03017068 -0.081681095 -0.109093584
129 -0.087848 0.07358921 0.0774075 -0.091235265 0.07911392 -0.24132228 -0.018424526 0.06280281 0.15614383 -0.13393176 0.09509012 -0.2666486 -0.07617564 -0.1247969 -0.020984193 0.08893989 0.10225752 0.19083185 0.068595126 -0.02391269 0.06520356 0.20580423 0.0044777906 -0.12085836 0.0077895964 0.022612028 -0.16619651 0.06580389 -0.22130305 0.16224946 -0.3175505 -0.10958051 -0.10688615 -0.029590534 0.029707918 -0.025649162 -0.0025040205 0.07728091 0.12436487 0.061050493 0.11291668 -0.0064064143 0.28164762 -0.063764095 -0.08966225 -0.10112807 0.12645918 -0.14958906 0.11639335 0.041333616 0.00818447 -0.05940855 0.17594773 0.0803801 0.0971831 0.081293404 0.0114185875 -0.088366166 -0.036909442 0.20006402 0.34441516 -0.09888082 0.14230374 0.013685528 -0.0011999998 0.003951955 -0.035529573 -0.028952636 -0.09436775 -0.0021247054 0.1206517 0.023243837 -0.103461854 -0.0028102603 0.029563444 -0.1310116 -0.05236616 0.06524168 -0.051424764 0.06807249 0.0792832 0.038335886 0.00856715 0.07614976 0.104596175 0.19763236 -0.018464781 0.09664042 -0.10451703 0.063380376 -0.03218924 0.022797897 -0.07074926 0.053492688 0.12605225 0.0088998815 -0.097121984 -0.16488841 -0.13197133 -0.09197954 0.027589852 -0.1206027 0.09663537 0.040068503 0.12334644 -0.051300917 -0.017408928 -0.044532724 0.011847918 -0.1397584 0.05462203 0.14669184 0.17073835 0.037466824 -0.034684215 -0.18196397 -0.11488213 0.11548343 -0.03988155 -0.098644055 -0.040128663 0.061139636 -0.062630996 0.14326835 0.082974076 -0.071220145 -0.09336965 -0.0890607
199 -0.080435455 -0.065828234 0.07147851 -0.048485123 0.011584362 -0.227058 0.093636364 -0.0720893 0.12754072 -0.10412778 0.078229666 -0.23317225 -0.0717391 -0.05609859 -0.01516718 0.07835711 0.08100003 0.1715554 0.009641167 -0.095267914 0.02311768 0.20211616 0.029497784 -0.09480387 0.01993046 0.023293518 -0.11993569 0.13251206 -0.22732802 0.135731 -0.34499204 -0.11853233 -0.091612615 -0.044057075 0.021287445 -0.12711053 0.0236368 0.066818416 0.19523573 0.13118331 0.07336363 -0.009472636 0.23202552 -0.09794227 -0.068732455 -0.013733594 0.122099146 -0.1361458 0.06096741 0.06158336 0.050070122 -0.009552287 0.19509153 0.13422675 0.04833227 0.21781044 0.018428365 -0.046331663 -0.0606318 0.21753787 0.20907554 -0.043293748 0.18155146 -0.021018013 0.00042042913 0.019091535 -0.14923689 -0.06266175 -0.014228758 -0.011684985 0.17848578 0.02835681 -0.11130843 -0.06395402 0.009318732 -0.213176 -0.02114976 0.120604046 -0.02162555 0.073552914 0.04518704 0.05715116 -0.029225705 0.017700844 -0.0031086742 0.15869455 0.073785104 0.052464504 -0.08425231 0.041972946 0.010740415 0.048943497 -0.09005841 0.07000617 0.10222312 0.059072893 -0.014852934 -0.2140888 -0.14558657 -0.115388975 0.02010466 -0.09182272 0.046290927 -0.014303813 0.009067092 -0.03167717 -0.042246543 -0.063109994 0.07146976 -0.16537932 0.1466335 0.11602599 0.107434645 -0.030914798 -0.044302296 -0.19559202 -0.11895538 0.16408168 -0.019371932 -0.052718002 -0.035847086 0.030179763 -0.098662086 0.102960706 0.11523241 0.03788625 -0.101223305 -0.0006996462
0 -0.03158153 -0.06877059 0.13509694 -0.16947596 0.07237376 -0.20737082 0.058785483 -0.003320089 0.15044479 -0.13906384 0.15734509 -0.21838167 -0.07005953 -0.021779777 -0.11205609 0.09512835 0.092127755 0.16134462 -0.070559375 -0.08229796 0.07123877 0.2371339 0.057858814 -0.0632107 0.07043618 0.047774807 -0.22480808 0.069466494 -0.17661627 0.049652725 -0.38152254 -0.09730982 0.01920046 -0.01881655 0.053299934 -0.098287724 0.030970966 0.07500342 0.17914194 0.10670153 0.07925153 -0.061050594 0.18882388 -0.12695217 -0.13724528 0.03235058 0.13559961 -0.20281282 0.030843185 0.12388528 0.07623905 -0.05229301 0.14905612 0.15054424 -0.013258501 0.12530577 -0.028377943 -0.10871244 -0.09474944 0.20826901 0.29750198 -0.20516437 0.20244506 -0.05510275 -0.056866657 -0.026861828 -0.029694133 -0.09164385 0.01464735 -0.035498753 0.17309515 0.0086636795 -0.055008277 -0.0005196779 -0.014096505 -0.16414936 0.012841783 0.08155793 -0.063860625 0.0017040977 0.11278572 0.09290363 0.11712087 -0.0522376 0.08559757 0.17923291 -0.0827556 0.06920045 -0.076865464 0.05300609 -0.004578305 0.019356286 -0.04698805 -0.028363785 0.11862161 -0.088621534 -0.027545098 -0.18675838 -0.17703879 -0.13566318 -0.004730667 -0.15308398 0.08830403 -0.0019510811 0.026560718 0.055774137 -0.0062824558 0.013747679 0.045687582 -0.13768487 0.13425292 0.19162787 0.13155465 -0.0009825313 -0.1706904 -0.24871121 -0.17368656 0.17875023 -0.04011053 -0.0972913 -0.15541236 -0.050535712 -0.12018683 0.054265473 0.040277693 0.047427513 -0.0636374 -0.024194142
151 -0.06406515 -0.10475909 0.18188126 -0.18363753 0.032409668 -0.18068992 0.029684035 -0.05038373 0.17510879 -0.06337823 0.025693245 -0.2866198 -0.10761918 -0.067205556 -0.061176103 0.16507223 0.04398614 0.20895867 0.026751004 -0.013409763 0.0762347 0.10767317 0.09692977 -0.10483931 -0.031580713 0.014900425 -0.16322905 0.09582377 -0.1795995 0.13164678 -0.442817 -0.0942361 -0.07490249 -0.07384426 0.020340083 -0.08704961 0.07924059 0.14044686 0.094958305 0.10877166 0.16562344 -0.11132132 0.18118383 -0.07512616 -0.09849528 0.050470658 0.08004996 -0.11698406 0.07716253 0.072476245 0.032481566 -0.058874983 0.12653793 0.026853919 0.0035045007 0.1978729 -0.017056802 -0.04025417 -0.021637196 0.21651661 0.26654804 -0.10943943 0.13015443 -0.06590006 -0.0024070186 -0.018846614 -0.06289489 -0.01910017 -0.08873477 0.020149384 0.16042893 -0.02133268 -0.051415853 -0.003723665 0.012293886 -0.08772431 -0.07109591 0.04773164 0.004219094 -0.05926594 0.10617936 -0.007625546 0.024744473 0.006835912 0.07889008 0.20390238 -0.10527256 0.1026861 -0.10937351 0.041001804 -0.014633004 0.03565777 -0.004073251 0.044678118 0.06966916 -0.0058526816 -0.011809722 -0.14726734 -0.13113256 -0.1745837 -0.00029490402 -0.046824276 0.120420806 -0.060936794 0.15231174 -0.027332583 -0.03988715 -0.1348959 0.06507423 -0.19347134 0.11729211 0.16227554 0.11561376 -0.11229685 0.0067288554 -0.2256819 -0.1276368 0.2752709 -0.010132278 -0.19375491 -0.06426455 0.041914623 -0.031205721 0.09203523 0.091755114 0.092450865 -0.044576593 -0.040497974
133 -0.06811918 -0.01266486 0.038434256 -0.09788463 0.09018834 -0.3002071 -0.025288062 -0.06670084 0.08607443 -0.14204623 0.07446004 -0.13929246 -0.017769342 -0.12717228 0.013744227 0.18467854 0.08414306 0.16028461 -0.00078245276 0.034745935 0.066622406 0.1813004 0.0740517 -0.10189738 0.07522118 -0.0032518255 -0.12188147 0.04160683 -0.17080389 0.14330222 -0.40898836 -0.095063195 -0.09336589 -0.09040044 0.12344751 0.011227446 -0.008317078 0.09664375 0.13241729 0.13321874 0.18034872 -0.0059615746 0.21245353 -0.09298723 -0.07294855 -0.0184826 0.005955532 -0.15796188 0.023038916 0.07810214 0.01513236 -0.023029596 0.13470753 0.033254035 0.10240744 0.12617742 -0.008726694 -0.05805011 -0.03491561 0.13892414 0.26113233 -0.03640583 0.14689493 0.016902281 -0.022740675 0.0041523287 -0.10916796 -0.02942745 9.126199e-05 0.012423016 0.18047392 -0.02848477 -0.008814579 -0.078449175 -0.031185761 -0.06450452 -0.0058383653 0.12753838 -0.124681555 0.106144205 0.005768266 -0.0675849 -0.016868709 0.07668219 0.1048336 0.09961983 0.03607216 0.107596755 -0.00074155297 0.017120423 0.009374457 -0.11109142 -0.11312004 0.038439997 0.05045501 0.037259437 -0.07456046 -0.2646025 -0.1500823 -0.09312174 0.002113481 -0.18584195 0.13254094 0.016931431 0.07322636 -0.117943585 -0.09063677 -0.116445914 0.044291966 -0.12207547 0.107432105 0.13137357 0.2160919 -0.006232697 -0.0318189 -0.17400552 -0.15427375 0.285169 0.031499248 -0.079931594 -0.12765257 0.0026631295 -0.16333461 0.14880134 0.12318203 -0.03708047 -0.01932231 -0.069633625
144 -0.093623914 -0.07092141 0.11006518 0.008877466 -0.0007858106 -0.1726954 -0.005803964 0.079998 0.12396595 -0.059106994 0.00096726377 -0.1429434 0.019202894 -0.0494824 0.061991893 0.0871948 -0.010775177 0.14336398 0.10431074 0.009495914 0.036874395 0.21301469 0.024601055 -0.1077277 0.012260552 -0.029898314 -0.16301517 0.04227899 -0.17206736 0.14146924 -0.428905 -0.12892032 -0.046158828 -0.013115517 -0.02627149 -0.0635998 0.05203143 0.032950543 0.032047253 0.055261474 0.21634367 -0.100304 0.20105699 -0.019366344 -0.05392067 0.02477611 0.0624873 -0.16255678 0.111508615 0.06623286 0.071567565 0.010286954 0.1519715 -0.02616133 0.17395549 0.09724516 0.05081732 -0.055742037 0.0035281542 0.14121073 0.31326854 -0.039347295 0.21665394 -0.01598891 0.051808883 0.024416873 -0.063292734 -0.08000492 -0.023113515 0.07766491 0.2026922 0.022004047 -0.19118194 -0.02195955 0.082348526 -0.1438907 -0.010764471 0.072367206 -0.0150332805 0.025424855 0.09813505 -0.019086305 -0.097983465 0.067776494 0.12413316 0.103555724 -0.047905788 0.06571523 -0.046413954 0.016948521 0.04448405 -0.045240235 -0.060421202 0.01708535 0.06674322 -0.018359255 -0.09970195 -0.1754361 -0.14114907 -0.07326595 -0.0012833253 -0.17151417 0.072917104 -0.041586414 0.06632002 -0.08160937 -0.033669993 -0.019647168 0.06327247 -0.17335746 0.08987134 0.1691346 0.15485692 0.08153748 -0.015417918 -0.116879135 -0.1428524 0.16361168 -0.0338649 -0.03838253 -0.10644634 0.02276731 -0.15151496 0.06865448 0.08207869 0.008632237 -0.036285818 -0.07484754
28 -0.026733758 -0.01632817 0.12812145 -0.102030694 0.008938759 -0.25284103 0.037777435 0.026465474 0.14108902 -0.03874738 0.061378974 -0.25293776 -0.018636415 -0.0063181203 -0.06729707 0.11944151 0.033245146 0.23185803 0.0025355942 -0.04841988 -0.06044824 0.16999017 0.022182126 -0.13328132 0.0660999 0.0040719486 -0.10278614 0.14026357 -0.23338032 0.11547792 -0.38466772 -0.038403075 -0.049604848 -0.028392268 -0.043776996 -0.120220594 0.13572341 0.11107587 0.14315937 0.11133545 0.13503025 -0.12134868 0.25150937 -0.07218479 -0.08890399 -0.023341272 0.114271596 -0.13804863 0.077282965 0.110579304 0.05152141 -0.01654381 0.16559051 0.017386138 0.108729884 0.1320603 0.06879524 -0.02593143 0.03219826 0.22296208 0.21197702 -0.15228738 0.16596204 -0.07328495 -0.013095054 0.02344328 -0.021878462 -0.06866686 -0.03424117 -0.0067740246 0.24870321 0.013067693 -0.14032458 -0.03279954 0.022564208 -0.1390273 0.044673726 0.049363572 -0.09112074 0.07829099 0.06374212 -0.035584003 0.04973139 -0.023685068 0.033844803 0.16151232 -0.020037457 0.0752941 -0.07315237 0.036755223 -0.06861455 -0.09101122 -0.055589925 -0.03914877 0.056465816 -0.14285049 -0.027328994 -0.10731734 -0.1271395 -0.19448933 0.0004908535 -0.09245363 0.06901382 -0.03064427 0.07162116 -0.006976043 -0.074345 -0.05101 0.06058684 -0.14333008 0.071442656 0.17618664 0.091403894 0.003243448 -0.05479771 -0.15670133 -0.13634478 0.1241035 0.05531831 -0.037553534 -0.05283622 -0.00072658673 -0.15005375 0.09347637 0.049156073 -0.0018897996 -0.110690534 -0.11140393
156 -0.04744021 0.0369732 0.0030097906 -0.04044991 -0.050777018 -0.17005669 0.08914433 -0.013502539 0.1359822 -0.07369941 -0.0371832 -0.21056475 -0.11760742 -0.027975146 -0.039865058 0.15302324 0.044196308 0.15084337 -0.013725309 -0.009676253 0.023666918 0.2712136 -0.010639936 -0.021362377 0.113837324 -0.03584147 -0.12505502 0.16690381 -0.21106644 0.056245722 -0.34774125 -0.055160385 -0.15340127 -0.030383188 0.04563418 -0.08472801 0.07031299 0.08305973 0.1382262 0.06270868 0.15221375 -0.057506558 0.17561428 -0.15656969 -0.15632547 0.06928155 0.09364178 -0.099080384 -0.014139329 0.11683091 -0.0019220428 -0.028361682 0.21011028 0.04889301 0.06811194 0.13718258 -0.011465562 -0.067031816 -0.06299781 0.18578242 0.27734414 -0.1458794 0.16224198 -0.049064606 -0.0947081 0.0052641365 -0.16258153 -0.050032943 -0.08183162 -0.044802673 0.1560548 -0.09211092 -0.09031239 0.019352095 -0.011106892 -0.14212301 -0.056526724 0.14271915 -0.02740769 0.005835284 0.09385858 -0.078148626 -0.009790846 0.07169102 0.07624826 0.20745778 -0.03499831 0.12579036 -0.08291951 0.0819027 -0.07761961 -0.016904406 -0.093493916 0.087331705 -0.048212126 -0.0026085433 0.04014537 -0.21435745 -0.15740985 -0.07179381 -0.0052725845 -0.10904969 0.16557021 0.031643644 0.08673065 -0.12362173 -0.0047846623 -0.0687075 0.0508951 -0.13587797 0.097427346 0.12435414 0.09677278 -0.009869625 0.04830938 -0.13199897 -0.15489092 0.22930095 -0.022559881 -0.022616224 -0.04925311 0.004567903 -0.10024483 -0.015906598 0.095711015 0.0018472081 -0.09863011 -0.11416351
5 -0.06694534 -0.056423005 0.058070336 -0.014931446 -0.042043272 -0.20556627 0.039822258 -0.022467187 0.036566805 -0.07582581 0.159084 -0.2194417 -0.04141213 -0.06986744 -0.02107969 0.16267253 -0.024670754 0.20479052 0.08470449 -0.0706709 0.055315237 0.22683075 0.027298912 -0.050620336 0.016075015 -0.002548536 -0.09852676 0.20661785 -0.09809689 0.13431057 -0.40031338 -0.11754356 -0.06426984 0.0075160176 0.04894627 -0.024345651 0.09606883 0.07968559 0.20311303 0.12422165 0.12528948 0.047914006 0.18848859 -0.10368681 -0.0303098 0.080676325 0.12046432 -0.18664669 0.06432199 0.11988878 0.04386842 0.044534773 0.13720305 0.027876759 0.026493384 0.15203005 -0.035210583 0.029558748 0.012689515 0.2241173 0.22390276 -0.06724691 0.22700252 0.015492947 -0.08083068 0.035007294 -0.022188433 -0.122741304 -0.017353809 0.008191698 0.23252562 -0.06887007 -0.14790253 -0.034631073 0.082709834 -0.082238935 -0.017034706 0.13904676 -0.029296681 -0.008355394 0.046326455 -0.122306585 -0.07006856 0.008416928 0.11871703 0.10568435 -0.038372364 0.014373917 -0.066057324 0.039165385 0.035202343 -0.062099867 -0.105981395 0.07113638 0.058339432 -0.01014144 -0.053534716 -0.1659167 -0.124366604 -0.10781796 -0.00423134 -0.083395675 0.09979347 -0.11211933 0.085187 -0.020162104 -0.06240206 -0.10098176 0.032048922 -0.06667754 0.0833344 0.07025393 0.11530659 -0.077083 -0.03061059 -0.13385606 -0.14423713 0.17838725 -0.027384942 -0.12079192 -0.16810736 0.067583926 -0.14431077 0.03089407 0.19734934 0.016687928 -0.052179795 -0.08538927
20 0.028586728 0.05058001 0.088631384 -0.023581717 -0.024789156 -0.17965314 0.05701179 0.010041321 0.12209675 -0.027042558 0.1024048 -0.0905468 -0.012529146 -0.039751917 -0.19750248 0.19323286 -0.04735795 0.13579354 -0.03504333 -0.11288731 0.047126494 0.19792186 0.1320461 -0.082889244 0.006820363 0.017430982 -0.09548696 0.15518713 -0.18092674 0.049028087 -0.31396797 -0.16000131 -0.051840007 0.092164986 0.10928435 -0.14142454 0.08194267 0.04871742 0.07643692 0.21383153 0.10623772 -0.0616302 0.21490821 -0.17949805 -0.07190443 0.023296405 0.030060437 -0.15711106 0.0771706 0.13413525 0.023269627 0.023116605 0.12507883 -0.00041319997 -0.0057881074 0.15641132 0.022242304 -0.09028066 -0.0854792 0.18165034 0.30878147 -0.22579333 0.18017259 -0.1191227 0.05401332 -0.09234469 -0.013637293 -0.07320313 -0.08588004 0.017214907 0.207879 -0.087536745 -0.059892252 -0.054380037 -0.029125536 -0.21144736 0.00091797987 0.11635078 -0.021455558 0.07531235 0.0057630753 -0.004150906 0.08650573 -0.034067295 0.113362715 0.08870884 -0.057627466 0.1090141 -0.027689861 0.05009731 0.0070737824 -0.061291162 -0.020608468 -0.0012412047 0.03306384 -0.058999714 -0.035493452 -0.19362786 -0.16715138 -0.13558637 0.018964816 -0.13846454 0.09989329 -0.02288995 0.032943748 0.03179485 0.060334913 -0.08644187 0.084539175 0.03293203 0.15290429 0.2104505 0.15095133 -0.06344515 -0.036998585 -0.12624699 -0.1692507 0.15251118 0.026366139 -0.12615965 -0.18091148 0.05377915 -0.085823126 0.03987191 -0.004503817 0.05012393 0.021165818 -0.2024349
44 -0.1155123 -0.018268442 0.115641974 -0.12402027 -0.011298285 -0.22617382 0.015421828 0.018487023 0.19216715 0.019799538 0.04696883 -0.18118939 -0.03567423 -0.116475254 -0.02628954 0.09608214 0.119792975 0.21693888 -0.021096861 -0.052439354 0.0263283 0.15346274 0.06614234 -0.07428413 0.050865877 -0.07334731 -0.19752474 0.13171919 -0.17873055 0.12637818 -0.4410466 -0.05764687 -0.028743938 -0.059118584 0.0057449867 -0.027254086 0.04923466 0.14554794 0.12378248 0.020190343 0.19530064 -0.12109093 0.21891677 -0.1758356 -0.097309195 0.07184891 0.08709621 -0.18995146 0.12664734 0.18864694 0.032521218 -0.056515876 0.17636351 0.115724154 0.05008091 0.06851211 0.074596114 -0.01734721 0.027581153 0.22842251 0.32228637 -0.102001205 0.12940621 -0.16956864 -0.007833503 -0.114525594 -0.036186576 -0.01140028 -0.090231225 0.019013464 0.11458782 -0.042260453 -0.107121 -0.0034909865 -0.036056716 -0.08428677 -0.034950502 0.10876373 -0.018473534 -0.018149823 0.08304436 -0.0057021715 0.02988897 0.084842965 0.15133058 0.138219 0.033127468 0.08065694 -0.047604095 0.067890555 -0.027029565 -0.07332756 -0.015470546 -0.005019119 0.017951602 -0.07551205 -0.02798008 -0.1677089 -0.16028792 -0.07301056 -0.023309022 -0.08895088 0.16964127 -0.0034830258 0.073593736 -0.0351559 -0.04815246 -0.15062043 0.03868174 -0.164781 0.0889258 0.16937248 0.27955082 -0.06195426 -0.0906118 -0.16424409 -0.19078822 0.2117246 -0.009505976 -0.09444407 -0.122825965 0.06178742 -0.057410467 0.09297598 0.05827245 0.016670845 0.023007074 -0.06314393
165 -0.05054672 0.0011238729 0.022553623 -0.03206205 0.07325949 -0.19393517 0.11877418 -0.03825119 0.18544978 -0.14964797 0.05807179 -0.24023499 -0.13310215 0.0070628594 -0.06926009 0.11710219 0.031721786 0.21247104 -0.04569383 -0.06583839 -0.021151502 0.19429722 0.091069855 -0.06735351 0.021978347 -0.02114002 -0.15387033 0.09839181 -0.2151051 0.114653945 -0.34694687 -0.05697466 -0.09231022 -0.092039816 -0.03744628 -0.06788704 0.054963946 0.0829068 0.11396903 0.1555834 0.22733647 -0.08195743 0.23190711 -0.14959158 -0.1236602 0.051208083 0.11507306 -0.115801714 0.018495342 0.061734837 -0.0049191904 -0.06872664 0.14442942 -0.009434641 -0.020256408 0.110004745 0.04994748 -0.032033302 -0.042972643 0.18036973 0.2891561 -0.09059517 0.15052243 -0.15522581 -0.022110699 -0.019048959 -0.1583003 -0.005921607 -0.05192565 -0.080775574 0.10271299 -0.035388175 -0.15304537 -0.034499533 -0.0386033 -0.1300414 -0.056585442 0.12240285 -0.095200695 0.05125893 0.09474904 -0.019307427 0.06754353 -0.013551971 0.10946396 0.11881658 0.00015936902 0.06310042 -0.19298214 0.10257401 0.002921932 -0.056433357 -0.019768434 -0.057795174 0.1142968 -0.053174395 0.025512079 -0.14148714 -0.18414922 -0.14665768 0.013179921 -0.07881448 0.053812936 -0.03868188 0.048908852 -0.037485007 -0.04594068 0.0228544 0.08147499 -0.13948958 0.09903846 0.10768909 0.2475838 -0.0047934414 -0.0017085803 -0.20249942 -0.1019639 0.23153701 0.06635487 -0.10480296 -0.04983091 -0.016123096 -0.13259691 0.056763172 0.08099362 -0.019709418 -0.037607145 -0.09542011
105 0.3942247 -0.023891382 0.15007204 -0.188184 0.051951744 -0.03279675 -0.2519311 0.057057597 -0.07884016 0.020153306 -0.015781505 -0.122381434 -0.1344778 -0.24811293 0.068150334 0.13871671 -0.19874045 -0.04613642 0.0004980612 -0.021432532 0.12356878 0.18724665 0.04237732 0.16591498 -0.09888331 0.1746782 0.23970285 0.029456954 0.052830294 0.046684228 0.047026303 -0.10340284 -0.20012653 -0.2575418 0.17196825 0.12075408 -0.091923274 0.27460456 -0.02503551 0.054834217 0.011672398 0.25252557 -0.1395887 0.023907028 -0.34196642 -0.11956862 0.19424874 -0.18843052 -0.45253876 -0.24148153 -0.09768408 0.121725135 0.016447727 -0.004884537 0.27273223 -0.033191722 -0.19192775 -0.11684442 -0.00510889 0.1443959 -0.054851975 -0.18665855 0.16087867 0.26955694 -0.20209783 -0.17841521 -0.13115011 -0.148663 -0.20741545 0.089630246 -0.103183515 0.03845785 -0.078212775 0.021405172 -0.08041377 -0.29950342 0.03735555 0.06725482 -0.12817061 0.0822724 0.29245475 0.1866804 -0.087275445 0.23883063 0.0653335 0.08342552 -0.019313298 0.28996858 0.14303255 0.4782672 -0.23371148 -0.22955748 0.12187479 -0.09993942 0.47565883 0.11059847 -0.17256093 0.049779322 -0.12065572 -0.21517216 -0.016734298 -0.08294308 0.20505638 -0.10992823 0.14775656 -0.18798046 -0.025612412 0.21786885 0.08636802 -0.10242706 -0.08581891 -0.04968311 0.37955397 -0.025469866 -9.884022e-05 0.09503582 -0.045436207 -0.04143275 -0.05288608 0.022995537 -0.24530852 0.0065683466 -0.05038532 0.37353012 -0.031721365 0.021249373 -0.14564803 -0.3777505
188 0.334523 0.10390517 0.18306224 -0.11096442 -0.01764949 0.045470584 -0.3864649 0.07001924 -0.0061038327 0.10234015 0.08800658 -0.095445275 -0.04451386 -0.16522367 0.1715232 0.05975433 -0.14260602 0.1403381 0.039212666 0.04201568 0.006567181 0.11245196 0.0482164 0.21015595 -0.05247971 0.17246631 0.26172978 0.18075728 -0.023303863 0.12237687 0.048493132 -0.0498291 -0.3275023 -0.21744134 0.34226882 0.05736568 -0.14582707 0.39732164 -0.019642007 0.071845695 -0.0035118249 0.22854435 -0.14714766 -0.004296624 -0.424644 -0.12101502 0.16645533 0.018962676 -0.45213956 -0.11337978 -0.08549123 0.09081171 -0.0208152 -0.016898282 0.27006248 -0.22878978 -0.18705666 -0.26437098 0.02044583 0.2327159 -0.18668492 -0.21129552 0.18696591 0.1977768 -0.1671942 -0.23372693 -0.24020527 -0.087692805 -0.14662993 0.081094444 -0.09978296 0.047113635 -0.09851836 -0.09639555 -0.11498275 -0.3408946 0.017732773 0.05712047 -0.17049667 0.14409958 0.38321483 0.31085745 0.053961627 0.27408215 0.14560448 0.2766781 -0.04238057 0.3294166 0.05810676 0.4454307 -0.1399123 -0.14335868 0.15392475 0.021351472 0.49254715 -0.006612197 -0.10097632 0.016961038 0.024380978 -0.19485062 -0.07569046 -0.029485835 0.32178417 -0.07582374 0.11806646 -0.2065763 0.029776968 0.100656785 0.07744276 -0.07995 -0.07591461 -0.014773022 0.4196545 -0.14675097 -0.0220068 0.23132333 -0.17581186 -0.02401005 0.05196757 0.13259393 -0.23862456 0.077675916 -0.022449102 0.28983542 0.0034893 -0.080800354 -0.13250433 -0.33637443
143 0.33236355 0.053755976 0.16577733 0.06574146 0.022462616 0.044304002 -0.25141016 0.13764456 -0.016080387 0.08619712 0.019150265 -0.042682182 0.09278031 -0.1569388 0.12316704 0.14313918 -0.26574323 -0.051777177 0.1382956 0.10317631 0.04337808 0.14629477 0.024125269 0.27050033 -0.14668275 0.21561757 0.30121627 0.14067873 -0.0009915557 0.039084464 -0.004423434 -0.16024865 -0.41570362 -0.24997744 0.21708937 0.09825524 -0.10326785 0.2582572 0.096334875 0.077756286 0.07563969 0.15782124 -0.0037931763 0.012569668 -0.3481173 -0.070921905 0.24482681 -0.056160633 -0.41796562 -0.17028116 -0.012040945 0.019717013 -0.009173408 -0.04889994 0.42041907 -0.15945907 -0.10771481 -0.17819916 -0.00993688 0.073898986 -0.11988792 -0.21479961 0.11445477 0.39007697 -0.11480827 -0.2309785 -0.16274524 -0.15080747 -0.17801632 0.052286364 0.026914755 -0.02111765 -0.14615956 -0.09184003 -0.1782573 -0.40216243 0.08237961 0.072336525 -0.17404029 0.048134807 0.35636374 0.304242 -0.085091904 0.119623184 0.09370954 0.17480153 -0.08623439 0.211593 0.10922666 0.36482713 -0.25959066 -0.12081156 0.14579359 -0.06195551 0.43722346 -0.01555832 -0.061536536 -0.09916696 0.01445587 -0.1904533 -0.046270665 -0.10528868 0.16881172 -0.11860699 0.12193651 -0.30815673 -0.08616207 0.14345416 0.11061615 -0.13742001 -0.11221487 -0.0636506 0.36034304 -0.0820761 0.012777907 0.110110104 -0.18877311 -0.15663253 -0.058910873 -0.0015485042 -0.26302183 -0.06698462 -0.07725062 0.43175176 -0.059978113 -0.041240845 -0.19661799 -0.4168696
197 0.31683832 0.08624155 0.10414585 -0.020333271 -0.06063788 0.034154966 -0.32859027 0.13386476 -0.044436507 0.0349485 -0.060798474 -0.116536915 0.027913116 -0.24415629 0.21958733 -0.03547318 -0.13973081 -0.039096676 0.036082797 0.049295846 0.066041954 0.10087883 0.055066116 0.24834906 -0.14223814 0.124948844 0.39075902 0.048684772 0.021765165 0.13115743 0.017944168 -0.043916218 -0.3223298 -0.27769703 0.090648524 -0.021213286 -0.16654299 0.2569548 0.047991153 0.01094796 0.026793862 0.2242625 -0.11758526 0.09494295 -0.3674538 -0.060906786 0.22084908 -0.19055171 -0.42792627 -0.23035239 -0.07460626 0.035985332 0.013792941 -0.046817098 0.38839278 -0.08714322 -0.13527597 -0.22739802 0.031178482 0.20914552 -0.10214779 -0.19231656 0.1687817 0.2487489 -0.12809779 -0.21047361 -0.31785613 -0.12475171 -0.3069534 0.0489124 -0.14136334 -0.06675935 -0.28067315 -0.048252203 -0.10183938 -0.3202423 0.09041364 0.06328815 -0.117269225 0.03595211 0.36410433 0.2933823 -0.08739047 0.22776046 0.032302298 0.23479168 -0.030451017 0.23916776 0.13671325 0.34187713 -0.13885322 -0.19630404 0.17336212 -0.005783888 0.3722877 0.036419 -0.08816475 -0.089845836 -0.11304154 -0.17107356 0.055402566 -0.15492494 0.22090101 -0.08017686 0.15792581 -0.21171689 -0.073171966 0.18153378 0.1033964 -0.28492898 -0.14332896 -0.059050836 0.4260661 -0.09405097 0.105560765 0.21435016 -0.21381642 -0.17122658 -0.15440916 0.019310303 -0.27642524 0.010943029 -0.069271594 0.36866412 -0.0850435 0.041201584 -0.23440771 -0.46263766
29 0.3948626 0.009853473 0.06646662 -0.038114898 0.0010144762 -0.04281282 -0.30906215 0.09437611 -0.020825814 0.100966275 -0.03287811 -0.15066351 -0.08453976 -0.18052904 0.1666408 0.024697741 -0.14287171 0.11652005 0.09833967 0.040252186 0.060253084 0.057230867 -0.0076256325 0.24263202 -0.11491259 0.192746 0.16338003 0.19493577 0.02282098 0.15891784 0.057069425 -0.07251356 -0.26988056 -0.2730915 0.2331015 0.048178673 -0.12131692 0.27155653 0.06015481 0.07264974 -0.008958057 0.28884637 -0.15504926 0.035317842 -0.3637462 -0.059113406 0.16805427 -0.12895752 -0.34469387 -0.20693372 0.007473608 0.03205239 0.10904827 0.0074686506 0.2948809 -0.16449882 -0.14017344 -0.02118194 -0.020432657 0.16359113 -0.17805204 -0.21622771 0.18678892 0.20314571 -0.15288374 -0.19315405 -0.29855093 -0.20355779 -0.13428847 0.1250907 -0.18337204 0.023495002 -0.124346435 -0.1758844 -0.024739385 -0.37869534 -0.009171264 0.06725354 -0.1180096 0.074868284 0.38333976 0.3614482 -0.034989234 0.08502041 0.12299486 0.23343158 -0.040828943 0.2066972 0.11051562 0.48170635 -0.098198295 -0.09342253 0.17101718 -0.050390802 0.43782896 0.01986005 -0.030936657 0.052516226 -0.08224757 -0.3058492 -0.011998537 -0.08085271 0.2269606 -0.0943234 0.055427957 -0.19697067 0.008751362 0.14811075 0.05460648 -0.23461366 -0.10410677 0.013118768 0.37555546 -0.17684114 0.013345166 0.10316324 -0.06935 -0.061795987 -0.058469493 0.008745222 -0.26436827 0.015331061 -0.021228174 0.41513988 0.060337067 -0.043153405 -0.19097993 -0.2802569
49 0.30445227 0.044735603 0.14822318 -0.07578395 -0.005570552 0.030893112 -0.36079398 -0.01881234 -0.032517068 0.10183129 -0.079612195 -0.092567496 -0.14902875 -0.13286227 0.033884007 0.06406527 -0.111521125 0.040339675 0.008992922 -0.05215737 0.16097048 0.17311281 0.10312793 0.38269037 0.015942065 0.110468194 0.2579101 0.09639221 0.053243686 0.005719734 -0.0463185 -0.100791104 -0.27870846 -0.3180597 0.06697808 0.007337774 -0.19514371 0.22426611 0.03486485 -0.006116068 0.04876297 0.26867282 -0.09631686 -0.08963802 -0.41508305 0.050604712 0.31588286 -0.12743372 -0.38106415 -0.09183817 0.051664833 0.023852015 0.062254947 0.11388152 0.2719711 -0.08489224 -0.054095358 -0.08167701 -0.06748952 0.24646161 -0.1609666 -0.20817362 0.15597436 0.14061593 -0.22162591 -0.23352061 -0.15204528 -0.17806707 -0.18360677 0.10422312 -0.045530595 0.009311221 0.008733785 -0.059392918 -0.329363 -0.30927983 0.07638851 0.1256675 -0.15014635 0.036628567 0.34071833 0.2947683 -0.116253525 0.17383161 0.022726174 0.09056749 0.08669131 0.17064597 0.17394559 0.4174202 -0.17861544 -0.1870721 0.17143168 -0.19578402 0.52058375 0.09681405 -0.10835573 -0.05649586 -0.11150719 -0.31729943 0.028563451 -0.046752095 0.18070468 -0.01026146 0.10657437 -0.31798452 0.075166576 0.012955946 0.06294877 -0.1264211 -0.13921253 -0.21281374 0.4552343 -0.17066178 0.012749381 0.1404255 -0.24646361 -0.15213884 -0.20225327 0.07138087 -0.30117092 -0.020398593 0.037431728 0.28394958 0.090562865 0.036827512 -0.10860506 -0.33396524
52 -0.11841917 -0.091273874 0.0827697 -0.030235592 0.069062 -0.25172323 -0.00795639 0.03201546 0.23155147 -0.16052854 0.0040208446 -0.28974855 -0.028471889 0.054905713 -0.03877793 0.0125583615 -0.004477033 0.17470287 0.067974485 -0.06523465 -0.024583232 0.08969097 0.052938953 -0.07229957 0.037424985 -0.0016960489 -0.20437837 0.06961618 -0.22894806 0.14362995 -0.32153916 -0.04166225 -0.06618686 -0.05305011 0.0022280249 -0.023099443 -0.09153692 0.063406646 0.12089806 0.08103338 0.14780049 -0.018877834 0.14825796 -0.057190463 -0.042746928 -0.0024083909 0.09287609 -0.20154427 0.04285692 -0.05118749 0.076232 -0.02310389 0.069035724 -0.039140582 0.088429056 0.11214597 0.02545014 -0.10321917 0.058135364 0.31074864 0.20047203 -0.016437318 0.0789495 -0.1257845 -0.16308184 0.02906576 -0.19635512 -0.08268466 -0.056617558 -0.04495997 0.07963236 -0.09137708 -0.18224894 -0.06879483 -0.003555285 -0.13576086 -0.040521443 0.078138255 -0.18592665 0.01811752 0.08182519 0.035290293 -0.048122186 0.13468647 0.12959753 0.10312168 0.054441582 0.031537056 0.04715351 0.055903394 -0.17642426 -0.008226193 -0.07463577 0.067935675 0.10702526 -0.08223274 -0.13719916 -0.23400006 -0.13680607 -0.23417649 -0.117251605 -0.24709375 0.046035048 0.013767035 0.05886666 0.08931049 -0.070710994 -0.061435867 -0.010953959 -0.10346916 -0.000627332 0.021060186 0.17396906 0.037664406 -0.050718002 -0.1401846 -0.12760189 0.09796838 -0.10402661 -0.16428785 -0.10270316 0.032480326 -0.17573646 -0.009625649 -0.050670832 0.028848 0.018737797 -0.10033563
120 -0.14351466 -0.044611152 0.18026818 -0.034523483 -0.006127273 -0.2864382 0.12668465 -0.0018995453 0.03300673 -0.24617448 0.12243576 -0.18499719 0.041950352 -0.1206657 0.03449667 -0.017165767 0.13442242 0.28641322 -0.020106003 -0.041941628 0.074333936 0.20572796 0.039231785 -0.0048940927 0.0029648186 -0.08954667 -0.19129586 0.07979568 -0.16177289 0.13368016 -0.37320623 0.0052269655 0.044528473 -0.13123545 0.0086330185 -0.118277885 -0.076338634 0.09252832 0.2064175 0.034010958 0.1731987 -0.05884895 0.16233252 -0.13299625 -0.11190948 0.06681866 0.18612027 -0.18816563 -0.0019071434 0.025630116 0.048017245 0.0016195221 0.015668117 -0.013754419 0.11003121 0.13719411 0.0033906614 -0.074525036 0.09053162 0.10480529 0.35653585 -0.040123183 0.03159312 -0.060377065 0.06891228 -0.059913002 -0.028239958 -0.04834054 -0.03701688 -0.11764456 0.21005782 0.04361064 -0.0848419 -0.01202943 -0.08996047 -0.039330434 -0.0513725 0.19600683 -0.08519348 0.13300112 0.1027878 0.06681335 -0.08939499 0.06405592 0.13080758 0.19378996 -0.043364257 -0.07475008 -0.08313048 0.09975845 -0.06090166 0.048210032 -0.021833165 0.008403535 0.12114563 0.025493445 -0.10741745 -0.122101665 -0.13277502 -0.048493743 -0.12336415 -0.031097809 0.07195407 0.024068601 0.11240816 0.13596222 -0.04118808 -0.110993676 0.03858624 -0.09001764 0.05559264 0.15571229 0.14331342 -0.014728413 -0.0023576727 -0.16159977 -0.13088937 0.19048883 0.01976925 -0.013956229 -0.10106924 0.109309174 -0.16890688 -0.06851137 0.041559186 -0.034217007 0.026986301 -0.049005676
16 0.0003074372 -0.065697454 0.057179056 -0.04142708 -0.07015447 -0.052065775 -0.20331356 -0.03207224 0.11323378 -0.026644312 0.08452784 0.062346067 -0.08192723 -0.23823415 0.1290412 0.13144176 0.0036408766 0.1402101 0.08312023 -0.026376322 0.06790234 0.24061899 -0.074962355 -0.13151017 -0.13958882 -0.1465387 -0.06306997 0.15101075 -0.04101635 -0.045648403 -0.14648616 -0.09891071 0.0382344 0.12960282 -0.07138766 0.09091088 0.22400336 -0.047929812 0.20917767 0.13637042 0.15263529 -0.012263088 0.1322664 0.017259251 0.09404085 0.009053274 -0.041909676 -0.111244194 0.1313314 0.02795471 0.16289341 0.01483652 0.19563079 0.06708911 0.047424912 0.072069086 0.116176546 0.052716497 0.008544888 0.14170279 0.12202708 -0.10721155 0.24671775 -0.023756789 0.05496983 -0.030443734 0.080130026 -0.12944461 -0.017801652 -0.032934327 0.08476598 -0.0042541246 -0.15761648 0.05947886 -0.034764677 -0.039830647 -0.07427281 0.023239978 -0.0115883425 0.1491313 0.129915 -0.024266977 0.0988135 0.16394906 0.09118893 0.13394697 0.13861358 0.056508996 0.20546435 0.13413613 -0.03980573 -0.21870247 -0.027376652 -0.18137316 -0.0343861 -0.13461363 -0.03062116 -0.054729518 -0.13633901 -0.07171927 0.012856353 -0.07072502 -0.05584522 0.0056133354 -0.049605858 0.052625846 -0.057774883 -0.1042152 -0.041450243 -0.010329371 -0.017465346 0.00401723 0.12331108 0.0050765243 -0.21141064 -0.26627138 -0.028491298 0.121932775 -0.002092021 -0.13349648 0.011114997 -0.103353955 -0.021227319 0.017271776 0.15504758 0.1082333 0.07381766 0.0018137717
124 0.08846803 -0.07166722 0.074594595 0.031299964 -0.01807345 -0.10501843 -0.12678675 -0.043651856 0.018606955 0.051996347 0.18188801 0.054395746 -0.07871412 -0.12049622 0.041199476 0.12583707 0.0039744857 0.078544684 0.050745904 0.044048913 0.07836706 0.23998421 -0.045053672 -0.106349945 -0.015152493 -0.118187785 -0.08180252 0.025359988 0.0193661 -0.15710689 -0.05574309 -0.10743767 0.10183286 0.07343684 -0.07022409 -0.038513612 0.20491984 -0.0888588 0.09531427 0.18428908 0.050771493 -0.020537175 0.09159517 0.00056303287 0.022157911 0.054409243 -0.104311205 -0.0054734177 0.16512698 0.13624787 0.13891336 0.17693776 0.18098569 0.07618868 -0.06318515 0.23067361 0.18673995 0.0071586804 -0.07357904 0.1688775 -0.01938754 -0.14542197 0.3069343 0.021784386 0.19596039 0.0005714086 0.09855733 -0.033140562 -0.15374441 -0.028283572 0.038779356 -0.16632876 -0.29507256 -0.024146203 0.05842112 -0.13046072 -0.12016246 -0.023344347 0.020948682 0.122112 0.018346004 -0.07859843 0.0654095 0.030707978 0.08299605 0.096607804 0.0963828 0.12795842 0.13018692 0.085135855 0.11562047 -0.20129621 0.038123813 -0.102364466 -0.07046411 -0.12210231 -0.043511663 -0.16462593 -0.24513103 -0.08393542 0.16315529 -0.04393253 -0.032280922 0.05650143 -0.030834956 0.06090997 0.02414703 -0.07945909 0.0879083 -0.034142274 0.07725828 0.028416615 0.121327594 -0.039951112 -0.1823744 -0.09569214 -0.21457453 0.23191112 0.1658978 -0.040159136 -0.12252528 0.015998952 -0.057855025 0.0440377 0.07208491 0.04119027 0.03552811 -0.06719003
38 0.019809736 -0.020003468 0.051501133 -0.010640945 -0.00789296 -0.14840662 -0.09654603 -0.08189176 0.1587703 -0.12498285 0.113450296 -0.04310832 0.017693473 -0.18966974 0.1146263 0.0550673 -0.00038046093 0.11206324 0.06583321 -0.05519157 -0.026094284 0.11743362 0.17933878 -0.04136789 -0.039399043 -0.22875609 -0.08518582 0.032899782 -0.049153324 0.056367747 -0.06194832 -0.20308737 0.0067031346 0.02591325 0.007825468 -0.1640562 0.120841734 0.021684216 0.12310712 0.08414612 0.045157142 0.035925698 0.013119254 0.07179293 0.09282695 0.14129938 -0.18974434 -0.052680857 0.14698228 0.123365045 0.04862819 0.0064438614 0.16505268 0.15208709 0.0073678405 0.21291026 0.1564949 -0.0027107703 -0.06003935 -0.01289806 0.07451494 -0.030985493 0.2910128 -0.049547028 0.15524024 -0.0623322 0.07212464 -0.119397074 -0.025454646 -0.039679665 0.095339626 -0.07670679 -0.22761302 -0.029973581 -0.0193217 -0.11877434 -0.043057248 0.075264834 -0.03768107 0.07965949 0.13569312 0.016833324 0.13587701 0.22752608 0.09832563 0.14699188 0.20662291 -0.03612969 0.0686394 0.18371926 0.08647363 -0.13614383 0.056090564 -0.117490746 -0.023002736 0.004877146 0.027052533 -0.12575373 -0.021800052 -0.040569212 0.10043661 -0.099366516 -0.17384715 0.04122788 -0.08565124 0.07735072 -0.033748962 -0.12004139 -0.0019857811 -0.16120261 0.20953724 0.18715484 0.1880618 -0.06304643 -0.075358056 -0.18641134 -0.15347742 0.10193379 0.009936708 -0.07349138 -0.06231941 -0.08729194 -0.03969697 -0.00339269 0.16110457 0.12561998 0.09594262 -0.07818949
11 -0.11081793 -0.084942795 0.024237793 0.08109902 -0.023530995 -0.13612226 -0.054756973 -0.1452586 0.06548956 0.0046859896 0.22526254 0.112483315 0.03461998 -0.062355276 0.20415395 0.088745184 0.034720086 0.118433446 0.08622867 -0.03606621 -0.1208096 0.052253526 0.039387304 -0.06738359 -0.0018455243 -0.15651855 -0.1892137 0.13515344 -0.124450035 0.08303373 -0.122979775 -0.15060121 -0.022150932 0.093571 -0.035479117 -0.08842182 0.11090611 0.015643314 0.10953921 0.15332077 0.13177148 -0.026128164 0.1509028 -0.0022549513 0.13822715 0.084383264 -0.06430582 -0.059207916 0.20833948 0.10121004 0.11032086 0.050000936 0.18718892 0.027731812 0.0776764 0.20507666 0.24184032 -0.016428398 -0.0190735 0.102991454 0.00401576 0.020562269 0.11515212 0.068591364 0.13103263 -0.109493285 0.08450968 0.0039987774 -0.095530815 -0.07899142 0.22062615 -0.1335876 -0.30746007 -0.05522534 -0.060903855 -0.12223084 -0.1077271 0.0128071895 -0.013981148 0.08829384 0.16259365 0.01215268 0.11941135 0.20682621 0.025356842 0.1903003 0.11369662 0.0463825 0.0803745 0.0835528 0.023465766 -0.23017295 0.05884987 0.00029002564 0.09009618 -0.08603638 -0.037709765 -0.008584754 -0.043539815 -0.06561343 0.045404434 0.0024257703 -0.024478327 0.0007691528 0.031872462 0.027420402 0.046990313 -0.051567268 0.0028656553 -0.020894002 0.028546577 0.0052824942 0.16293655 -0.06917123 -0.12992026 -0.004720603 -0.12537856 0.19470343 -0.07544473 -0.060871225 -0.08139724 -0.035769146 0.008415201 0.023209365 0.13231166 0.17485514 0.09934294 -0.03531736
175 0.023649404 -0.1442439 0.218396 -0.07034192 0.08014053 -0.106939785 -0.12372529 -0.095552236 0.07708019 -0.09214622 0.11782673 -0.021021402 -0.098740034 -0.14553174 0.035020493 0.11096352 0.061365716 0.24492988 0.046300933 0.03703708 0.10201294 0.17417967 0.048419356 -0.12953141 -0.07082023 -0.12226886 -0.13665935 -0.0053690416 -0.057423804 0.029732002 -0.1589645 -0.09730355 0.122574575 0.07259869 -0.1420451 -0.038418803 0.15084675 0.04982758 0.19381386 0.18201707 0.09984619 0.013267633 0.13021654 0.03984035 0.24166943 0.020766672 -0.12112593 0.0066886987 0.20101133 0.11573426 0.04383811 0.17493378 0.11735905 0.1622638 -0.0717872 0.22912964 0.24647635 0.023584282 -0.058112726 0.09694528 0.03502468 -0.1219685 0.3074119 0.0034000974 0.15525942 -0.09285521 0.08246061 0.060496144 -0.11630146 0.018295083 0.012912349 -0.049669165 -0.16496459 -0.039750822 -0.026754536 -0.07151396 -0.12558834 0.09320183 -0.056144234 0.19475807 -0.0355619 0.02900251 0.15127787 0.18748862 0.06319009 0.00013301297 0.0719049 0.09306074 0.1960495 0.16811699 -0.011403298 -0.23970449 -0.10788816 -0.08975867 0.01757702 -0.06678969 -0.16778697 -0.0051636 -0.114519306 -0.16251571 0.051126216 -0.025830021 -0.0807406 0.03474485 -0.116931565 0.008163168 0.012554893 -0.15556556 -0.05660596 -0.10200804 0.030201152 -0.0033056878 0.10967093 -0.03319289 -0.11130385 -0.15604375 -0.100964725 0.10013672 0.21501149 -0.026914826 -0.16014186 0.03936539 -0.015695227 0.09658544 0.11567964 0.087552354 -0.076405086 -0.05819945
123 -0.0010845202 -0.015059902 0.2213247 0.01504072 -0.0034795692 -0.12505756 -0.14076565 0.0022716818 0.09605435 -0.08734019 0.04493643 -0.042148065 -0.06790974 -0.12229872 0.11974649 0.018826729 0.0049960655 0.14137556 0.06426651 -0.0791154 0.029593032 0.1479015 -0.075830355 -0.18419787 -0.03046478 -0.08114799 -0.07683219 0.07786825 -0.06324948 -0.025414532 -0.123990126 -0.116909996 0.029299967 0.03895457 -0.0678865 -0.08484173 0.13242486 -0.04779469 0.1436403 0.097179085 0.11116058 -0.0070605786 0.2079321 0.056424066 0.19193947 0.021968607 -0.0086075 0.0667229 0.1524498 0.03512183 0.11984202 0.015268616 0.1583163 0.14255103 -0.0020060036 0.16396552 0.3091506 -0.027974078 -0.07499434 0.12067717 -0.004560175 0.019942954 0.29264045 0.028441248 0.13909496 -0.061157595 0.010436063 0.03702401 0.042444162 0.074593775 -0.008322637 0.054240488 -0.30134115 -0.028516132 -0.015188638 -0.12475274 -0.079011634 0.100694224 -0.017788239 0.18646398 -0.00597431 0.029489322 0.20595823 0.16390637 0.06761036 0.17377275 0.14255081 -0.01854279 0.060255673 0.12395556 0.12526537 -0.19213426 -0.05199528 -0.119878344 -0.0020826198 -0.103594586 -0.0147104 -0.06203394 -0.17128374 -0.106942534 0.06082387 0.00096005667 -0.19081326 -0.010126081 -0.09438705 0.051018596 -0.010652101 -0.07449972 0.008968799 -0.16881528 0.13303679 0.005397286 0.16911706 0.043559734 -0.18580934 -0.21777141 -0.07093912 0.17419367 0.103210665 -0.09293787 -0.06924645 0.010317448 -0.06604476 0.06280922 0.14222844 0.13731179 0.0101892 -0.044428777
127 0.084348835 0.00060895964 0.12265286 -0.026566485 -0.072839156 -0.13955809 -0.13403131 -0.067076564 0.046778407 -0.15531844 0.16301867 0.0040193214 -0.05959943 -0.11095276 0.1070114 0.13769573 -0.04438388 0.13688353 0.1031259 0.0744107 0.13329636 0.21822232 0.013308119 -0.07143789 -0.02153273 -0.15607008 -0.07277305 0.047854315 -0.023242194 0.007484755 -0.13495609 -0.11438308 0.027266826 0.07106427 0.07746696 -0.012585323 0.15627654 -0.07590629 0.18548715 0.18268897 0.16716546 0.034919385 0.089053765 0.035198793 0.21309423 0.021102402 -0.016543599 -0.0462275 0.18186907 0.17640261 0.09204612 0.10358976 0.059754707 0.11910379 -0.08853067 0.20094818 0.17092623 0.02153671 -0.12815407 0.021543397 0.009852988 -0.04566579 0.23545063 0.07844034 0.10492122 -0.111018784 0.015335547 0.034071255 -0.052877277 -0.0034727142 0.051132288 -0.10437528 -0.15179446 0.019747047 -0.03746107 -0.040518254 -0.16151416 0.06850359 -0.11489591 0.19638433 0.06465069 -0.085166276 0.08222079 0.18208101 0.16329047 0.11667062 0.041271046 -0.012416781 0.15432137 0.07252776 0.07869558 -0.20572738 -0.062839426 -0.052349746 -0.054115605 -0.08827075 -0.13802674 -0.047353163 -0.07104213 -0.17788602 0.038625985 -0.040967718 -0.17337498 0.07199726 -0.047527406 0.040832218 0.007970547 -0.16159536 -0.046976715 -0.03322257 0.054737158 -0.0335581 0.119352095 0.087836325 -0.1483851 -0.17581435 -0.113222614 0.17001383 0.19245614 -0.12288902 -0.05418649 0.030451644 -0.0845438 -0.028424839 0.09871568 0.023793248 0.051340666 -0.07897337
92 -0.067372344 -0.061150264 0.081701435 -0.14636539 0.07522373 -0.14722918 0.008841894 -0.05802386 0.0796626 -0.0730949 0.04934461 -0.07400524 0.013251131 -0.114108615 0.0960949 0.17364888 -0.046485577 0.21851707 0.080117375 0.017052738 0.049471777 0.14193654 0.040665224 -0.15016323 -0.07662996 -0.22451912 -0.03360004 -0.079099156 -0.099548824 0.02477884 -0.0778939 -0.16373558 0.032977812 0.11798803 -0.0028342078 -0.0035269412 0.06447095 0.098921314 0.02786691 0.14913446 0.14508714 -0.0922214 0.18308796 -0.040752362 0.13159512 -0.0048550954 -0.18929943 0.0027710996 0.04977385 0.052254185 0.15761155 -0.013737401 0.04853728 0.123732544 0.0025465747 0.15022591 0.13886766 0.0251086 -0.061078828 0.036204893 -0.09431995 -0.050366335 0.2880308 -0.017552452 0.17183948 0.03361406 -0.024925211 -0.044509567 -0.070439614 -0.004862425 0.06940746 -0.13287798 -0.25710875 -0.0213538 -0.08956121 -0.20920289 -0.11640299 0.009591793 -0.15616012 0.2549231 0.020188482 0.025206493 0.14567342 0.16054365 0.022030277 0.17580225 0.12572318 0.07163498 0.1661359 0.26575246 0.07862338 -0.1887207 -0.00072375895 -0.11033399 0.00065213704 -0.16714078 0.015902406 -0.11191616 -0.16648263 -0.03743203 0.11243955 -0.004484949 -0.04354795 -0.030548228 -0.014839099 0.023236241 -0.09427449 -0.1118592 -0.06111378 -0.09107825 0.08605964 0.0059930603 0.123165235 -0.1291574 0.010780661 -0.12968287 -0.13168547 0.1504825 0.16380203 -0.011422506 -0.2378378 -0.038802527 -0.12657641 -0.032313515 0.06223331 0.069360346 -0.0038619053 -0.041527245
6 0.13042495 -0.08078174 0.029105868 -0.10509073 -0.15012312 -0.17820403 -0.09601471 0.013143626 0.14288457 -0.087531745 0.15978251 0.0064208047 -0.04442542 -0.075915456 0.024544725 0.13238393 -0.005397757 0.10260969 0.015635228 0.08650419 0.051983368 0.11179685 -0.032942403 -0.07494875 -0.05910126 -0.17069533 -0.09547921 0.024343448 -0.06289422 0.059931852 -0.027470471 -0.056661073 0.026698548 -0.032373656 -0.06228013 -0.16404308 0.15393703 -0.103322245 0.12644053 0.11588049 0.107822835 0.03525154 0.18248503 0.04559029 0.11592002 0.013669807 -0.081480026 0.023199463 0.24196012 0.12820491 0.14607784 0.022513872 0.1020146 0.05253006 -0.028942982 0.1738555 0.23034325 0.05002909 -0.03890048 0.14589287 -0.03625033 -0.10930883 0.23429883 0.07454437 0.24354735 -0.03865035 0.055837717 0.058765937 -0.118738465 -0.13068955 0.030444337 -0.08761051 -0.24074668 0.038478844 -0.056747243 -0.10399906 -0.12286322 0.0033806055 -0.07230315 0.15358274 0.12565134 -0.03068839 0.0575668 0.07446689 0.019766495 0.23500995 0.08224889 0.06174392 0.14581916 0.09034717 0.13990885 -0.1897882 0.029236123 -0.06796171 -0.045719508 -0.094370656 -0.08707651 -0.12108767 -0.18907058 -0.17831 0.13708788 -0.01417599 -0.13614112 0.19394225 -0.027412685 0.07949346 -0.014104672 -0.11289327 0.034428585 -0.08255232 0.11443992 0.14202778 0.1702819 0.11629401 -0.2111732 -0.16316473 -0.27348197 0.14469768 0.21230142 -0.04864992 -0.07615018 -0.040724184 -0.041115638 0.03535167 0.12841508 0.041975975 0.12171875 -0.08434216
19 -0.0046799025 -0.042710494 0.15474188 -0.04495157 -0.016627446 -0.20082888 -0.1661682 -0.06438615 0.15952146 -0.020910978 0.027392702 -0.07642729 -0.045321543 -0.16105133 0.09057681 0.056535315 0.009251281 0.06748751 0.07017551 -0.061395 0.068212435 0.2544224 0.032721277 -0.12294345 -0.009995288 -0.051581956 -0.15228055 0.13404231 -0.11216456 -0.03184226 -0.13532309 -0.14803919 0.06397953 0.10636816 -0.019567853 0.0005477893 0.21979553 -0.019160977 0.1323925 0.08423517 0.037750646 -0.10758422 0.14379315 -0.01528963 0.14909157 0.047578905 -0.069787 0.018136486 0.14509092 0.15190873 0.09540099 0.019052591 0.13774982 0.1554159 0.043309227 0.11198415 0.28462115 0.038135923 -0.036972117 0.081349485 0.06514521 -0.07056258 0.26663792 0.023831509 0.017077753 -0.043003783 0.17060731 -0.07746299 0.06861376 0.016768003 0.11567914 -0.13227393 -0.22989033 -0.020518882 -0.040338576 -0.12095481 0.00096273184 0.018718667 -0.1210871 0.09054817 -0.004238318 -0.022894878 0.23780034 0.18732683 0.09811575 0.1417974 0.18158932 -0.02062102 0.13093436 0.22698942 -0.058896165 -0.14104979 0.032337632 -0.09521498 0.04065546 -0.019126873 -0.006372785 -0.05584191 -0.0913226 -0.10773752 0.0569156 -0.057573207 -0.098163925 0.07614602 -0.05748161 2.405981e-05 -0.048892368 -0.04347524 -0.007364958 -0.023321949 0.115860045 0.0008445013 0.07708893 -0.021821816 -0.26071763 -0.17406195 0.018706687 0.04916108 0.012889697 -0.101280935 -0.11142227 -0.0659725 -0.037012745 0.0010503697 0.13549186 -0.03815696 0.080714956 -0.014113775
163 0.0032850055 -0.07058305 0.10699996 -0.026034005 -0.019342229 -0.05317557 -0.11328219 -0.12509727 0.052528057 0.004289519 0.0071092756 0.0114164045 -0.0696964 -0.051342454 0.12132676 0.13177076 -0.04470851 0.09996957 -0.022392 -0.089403264 0.034507263 0.19599415 -0.050951377 -0.12306685 -0.032238547 -0.14004485 -0.15680373 0.114149235 -0.03738167 -0.12885475 -0.12148759 -0.05835128 -0.054665394 0.105580986 -0.044975415 0.0011542729 0.1699366 -0.062977724 0.10858879 0.16507676 0.023439214 0.076473236 0.1678712 0.0655954 0.06321457 0.114068314 0.035493184 0.08902384 -0.028239666 0.17039193 0.13538937 0.041875277 0.15249349 0.1092271 -0.016048204 0.14464429 0.22806254 0.070686445 -0.1994756 0.06856016 -0.059004273 -0.12167936 0.2825143 -0.011107061 0.06533941 -0.037365545 0.014060448 -0.042177185 0.02425622 0.00032143027 0.09076915 -0.08421286 -0.21960136 -0.008153072 -0.019772474 -0.05402289 -0.062650345 0.108867 -0.037974235 0.17355582 -0.000999628 -0.041970234 0.2607493 0.14182627 -0.024763178 0.12924191 0.007310803 -0.033047825 0.035937045 0.16408646 0.054441504 -0.27167284 -0.005919694 -0.12421848 0.017735844 -0.11991676 0.014405177 -0.076282255 -0.2669339 -0.10297888 0.124774955 -0.0088429805 -0.1069825 0.10319075 -0.11077378 0.07347367 -0.023167744 -0.13700943 0.08776253 -0.05526219 0.111805536 0.084923536 0.20944695 0.06322529 -0.12805317 -0.22225983 -0.12222086 0.23618478 0.16741335 -0.15800488 -0.03527614 -0.049663506 -0.037371654 0.08790759 0.13228145 0.021896902 0.0002296592 -0.16911137
