68 128
64 0.21103725 -0.2238764 0.41496485 -0.14699057 0.010711877 -0.177329 -0.048544772 -0.036962844 0.092799865 -0.19382969 0.27546126 -0.16530581 -0.13647106 -0.45035166 0.059017148 -0.101290785 0.34314677 0.17958522 -0.038870193 0.022001069 0.29651636 0.2117152 0.10027172 -0.32903197 -0.28468126 0.22298703 -0.2725007 0.092154995 0.172518 0.024403192 -0.30596024 0.2492587 -0.24110933 0.18313909 -0.27018744 0.09976915 0.3053269 0.036520183 0.36111426 -0.029037358 -0.07751745 0.12645774 -0.011304588 -0.106274895 0.020987151 -0.10503516 0.07964023 -0.31090987 -0.23955105 0.04870462 0.22944489 -0.28214636 0.30867547 0.29307836 -0.0014179212 0.05807425 0.25671452 -0.08523357 -0.20125623 0.0033743344 0.1994208 -0.26767677 -0.15727958 -0.058399145 0.1710905 -0.0150301615 -0.047971517 0.010033689 -0.16792092 -0.3710835 0.07902892 -0.21344945 -0.3921863 -0.04006564 0.10085332 -0.34904042 -0.058492888 -0.1058654 -0.2129059 0.21609141 -0.0887396 -0.15607321 0.14426982 0.2692693 0.018144473 0.15627126 0.27630824 -0.22645384 0.29978478 0.22560795 -0.26436457 -0.21587868 -0.20217371 -0.012634702 0.27917725 -0.013923656 -0.27241647 -0.36891487 -0.07125328 -0.11059301 -0.31549555 -0.16958368 0.07403504 0.08434333 0.1723034 -0.1983823 -0.17823997 -0.3665353 0.09600958 -0.28039134 0.06343339 -0.054805778 0.34144482 0.27627912 0.068802565 0.06431804 -0.012882357 0.0866577 0.1282298 -0.023978772 0.030737983 -0.09191475 0.060175154 0.27352694 -0.15408601 -0.19050978 -0.013632137 0.049835134
47 0.12211098 -0.22299477 0.294171 -0.081096105 -0.00014403413 -0.14230132 -0.011272852 -0.025158513 0.076478794 -0.21225938 0.19642356 -0.08823959 -0.13772288 -0.34673882 0.05382468 -0.058814272 0.33879596 0.10520657 -0.080327116 0.036200788 0.2547281 0.20297986 0.11355315 -0.2818347 -0.18593368 0.1762235 -0.23511542 0.18638313 0.175691 0.024343578 -0.19491717 0.1513222 -0.25973368 0.19772173 -0.32154176 0.090711124 0.32311195 -0.0068710786 0.4466937 -0.057089243 -0.06272781 0.13084197 0.01810338 -0.23062415 0.118802145 -0.03826989 0.038250417 -0.2635504 -0.28071323 0.08440169 0.24273819 -0.26461253 0.1974976 0.25499862 0.04497789 -0.02897632 0.25842944 -0.15244643 -0.19841008 0.008675198 0.21104097 -0.4266678 0.0025173556 0.021006882 0.12097201 -0.01852232 -0.07581035 0.059334327 -0.14106219 -0.22813001 0.019445222 -0.2001435 -0.2894898 -0.021841805 0.05505132 -0.34245816 -0.06696135 0.044893667 -0.13321868 0.2615546 -0.054298922 -0.12956302 0.07169458 0.24360512 0.099804245 0.13852528 0.2549079 -0.22633664 0.42282042 0.27439544 -0.32131276 -0.19988324 -0.13331255 0.03966493 0.29577032 -0.011549164 -0.19260828 -0.2846329 -0.055516694 -0.091176756 -0.22237125 -0.14161034 0.118898354 0.07044478 0.071169086 -0.19872299 -0.15776606 -0.2774023 0.0070133856 -0.22793753 -0.0057718065 -0.016048145 0.20419322 0.154065 0.08441598 0.08858613 0.0039338465 0.110121965 0.11916235 -0.07488157 -0.047222666 -0.11911015 0.07483272 0.21330172 -0.077613354 -0.24714306 -0.027567126 0.02279952
66 0.16320279 -0.21094805 0.30157316 -0.10553753 0.004736425 -0.123521194 0.029161507 -0.060756635 0.094914004 -0.18439992 0.23961711 -0.086006574 -0.09070551 -0.3486458 0.01673683 -0.012582751 0.36335775 0.13773084 -0.023264743 0.027961232 0.31178477 0.15706325 0.085262604 -0.4166297 -0.21956694 0.14335878 -0.25252587 0.040314917 0.1501254 -0.021973524 -0.16970737 0.1654256 -0.27506638 0.24394128 -0.29472834 0.14179754 0.34982437 0.12228873 0.45264 -0.12114479 0.0021667117 0.13827498 0.03233498 -0.1835078 0.06020238 -0.027466588 0.05775611 -0.28238276 -0.25210828 0.09964537 0.24208139 -0.22924012 0.27727765 0.25247377 0.10012291 -0.010638717 0.36482444 -0.13906826 -0.17354181 -0.10202328 0.20611039 -0.33612227 -0.13724537 -0.10670572 0.1532722 -0.074748166 -0.010502861 0.092156954 -0.1861043 -0.2266616 0.07994003 -0.1599762 -0.34132951 0.034055807 0.11076449 -0.3777395 -0.07213757 -0.060864136 -0.15055808 0.28724095 0.053348448 -0.16289182 0.037064336 0.277903 0.09141492 0.15578686 0.24845181 -0.23664865 0.39438352 0.17658375 -0.30437207 -0.20178026 -0.14989646 0.020143412 0.27928093 -0.070393816 -0.19471888 -0.31669104 -0.18292591 -0.14341897 -0.29802123 -0.12753627 0.07535695 0.09392483 0.07100379 -0.19940867 -0.10038339 -0.30732286 0.034380108 -0.22732046 0.021576464 0.025551103 0.20476519 0.1554579 0.08810408 0.04572336 -0.0074170316 0.158048 0.13290629 -0.13033454 0.002008803 -0.08651915 0.101363495 0.21205094 -0.1420043 -0.19565566 0.028965594 0.012603014
46 0.21987422 -0.20799531 0.33577853 -0.1234449 -0.0122372275 -0.18764971 0.03429699 -0.078722626 0.09296328 -0.12412092 0.27915266 -0.029418431 -0.16584674 -0.38758016 0.06698075 -0.107303165 0.2938075 0.12235013 -0.060601834 0.016732233 0.2829274 0.062450342 0.15339549 -0.28175128 -0.17548066 0.19734485 -0.22147495 0.04023155 0.1050165 0.020853624 -0.2504347 0.12496678 -0.20078935 0.19752787 -0.24068545 0.07384602 0.2746745 -0.025909679 0.376793 -0.0061299833 -0.016945811 0.1771158 -0.018129723 -0.1217708 0.09488702 -0.1378224 0.043054014 -0.22087066 -0.28236085 0.059130542 0.2798626 -0.2986878 0.1938521 0.3093725 0.073117785 0.028982788 0.2274565 -0.13555613 -0.22478324 0.04265171 0.1941759 -0.26742578 -0.025667824 -0.03075283 0.14002691 -0.11959959 -0.0030906992 0.08807146 -0.14865789 -0.2012426 0.07041332 -0.17702465 -0.2480855 -0.028460063 0.032162324 -0.24913773 -0.047356993 -0.06569238 -0.11353419 0.19346128 -0.03801709 -0.20082633 0.064493604 0.24990597 0.034076214 0.17086323 0.18181115 -0.23664175 0.35579073 0.16165246 -0.25801453 -0.13787286 -0.11008602 0.008930514 0.22531609 -0.054205768 -0.17762595 -0.30077827 -0.107831284 -0.12646106 -0.17447577 -0.22813287 0.17016754 0.10103427 0.16565852 -0.25145072 -0.11936609 -0.3205554 0.14834681 -0.15434277 -0.00438206 -0.04036304 0.27541026 0.20019211 -0.01563008 0.07645704 -0.05163227 0.106099084 0.07703542 -0.027023444 0.062017385 -0.08444076 0.07249969 0.20537281 -0.19176868 -0.19994068 0.021227904 -0.079242796
16 0.2441063 -0.24487665 0.31296593 -0.17440704 -0.031146403 -0.19570556 -0.05505379 0.020305699 0.07644829 -0.20255104 0.16869421 -0.068372115 -0.11685853 -0.371465 0.09699242 -0.06232044 0.40757126 0.09543257 -0.026756054 0.061109867 0.24654712 0.0067862356 0.16782948 -0.11175782 -0.1322591 0.22463456 -0.0693926 0.10078353 0.19357249 -0.02999122 -0.24115777 0.086074345 -0.19520882 0.14752223 -0.29851922 0.15397899 0.31121728 -0.034014944 0.3673129 -0.09182216 -0.070985 0.12138307 0.0060509555 -0.15683192 0.10345682 -0.04143989 -0.04375869 -0.2751875 -0.12475909 0.051663976 0.25996986 -0.25006473 0.2094643 0.26834595 -0.0014098684 -0.058605857 0.19143306 -0.0997929 -0.11476803 -0.044805087 0.11832459 -0.17514943 -0.10985555 -0.026367744 0.20583044 -0.017924305 -0.024951672 0.03357586 -0.07926012 -0.30219594 0.13640402 -0.20694618 -0.24316853 -0.105150454 0.1147051 -0.22445367 -0.010244432 -0.00405085 -0.19134966 0.2906616 -0.14779478 -0.17286338 0.09857264 0.22455256 0.037055697 0.05172048 0.228484 -0.25204924 0.3069327 0.2133319 -0.23304585 -0.23052333 -0.10111462 -0.00913671 0.21192671 0.009917372 -0.29047555 -0.28086156 -0.02239766 -0.08704453 -0.17332 -0.0660106 0.10999675 0.030066052 0.29797402 -0.16101241 -0.16062458 -0.27993596 0.053699654 -0.15688139 -0.053968493 -0.07825288 0.24271385 0.16796036 0.055222973 0.06282008 -0.032858316 0.121693134 0.21266827 -0.08404434 0.070462435 -0.116070665 0.076683156 0.23971167 -0.20697927 -0.26353225 -0.027367016 -0.051936585
21 0.31247687 -0.16056038 0.31730157 -0.06407791 0.030703068 -0.13371865 0.042200234 -0.043888804 0.041946072 -0.079282984 0.22085093 -0.1268322 -0.12141637 -0.3907108 0.16125397 0.008992826 0.39306334 0.11859475 -0.032948326 0.03767361 0.19672844 0.18481077 0.12683758 -0.3198545 -0.21209648 0.22488536 -0.24819033 0.05452988 0.14502923 0.046688106 -0.21472517 0.23651695 -0.17363858 0.17706436 -0.18467402 0.045751918 0.27674437 0.079930775 0.24997766 -0.006657105 -0.106496826 0.087680064 0.026392195 -0.06490733 0.07771925 -0.1352051 0.023173507 -0.24162352 -0.2563878 0.03166098 0.12676716 -0.2590678 0.21038683 0.2591721 0.0029369274 0.053914897 0.21884236 -0.07314311 -0.22036535 -0.0138527155 0.1291816 -0.19039904 -0.11965653 -0.05642855 0.11463794 0.035256848 0.04032668 -0.019031465 -0.140724 -0.2594913 0.06515528 -0.19022176 -0.31716716 -0.055337507 0.05254686 -0.23337601 -0.0032547785 -0.10282077 -0.20489435 0.08242875 -0.050563097 -0.1266173 0.12641957 0.24352804 0.045396894 0.09549489 0.21805722 -0.2386316 0.3208902 0.22155586 -0.3194742 -0.27289468 -0.1552725 -0.011824667 0.34047875 -0.046574082 -0.20397687 -0.2830674 -0.05856903 -0.09207078 -0.26632726 -0.16734818 0.039598573 0.0833889 0.19041756 -0.19023244 -0.12644733 -0.32043573 0.062763005 -0.25939602 -0.02529529 -0.088614024 0.28117067 0.1672439 0.022653488 0.05248736 0.03735292 0.10212606 0.15013753 -0.09528332 0.061092958 -0.16843791 0.027442329 0.33104226 -0.19724274 -0.2104036 -0.092652276 0.05680746
23 0.25111315 -0.20008859 0.3040317 -0.13708311 -0.0101378765 -0.22183438 -0.019680552 -0.027585361 0.13470106 -0.19554128 0.23213473 -0.10349362 -0.08613908 -0.3428667 0.062127814 -0.017836891 0.3437311 0.13832629 0.008713231 0.09751907 0.23011516 0.18632026 0.05657925 -0.22273628 -0.20345932 0.1921896 -0.16960847 0.119861685 0.12167026 0.03617449 -0.24848758 0.15831281 -0.16874397 0.19990255 -0.31497994 0.09620838 0.2628695 -0.02672402 0.33313328 0.020772671 -0.15850072 0.20658566 0.031224467 -0.12473404 0.10861083 -0.123843126 0.013897315 -0.19291641 -0.29314974 0.04885087 0.19368236 -0.28898364 0.28608298 0.33516133 -0.0010489342 0.06463892 0.2553997 -0.048363924 -0.26598838 0.029508317 0.13148475 -0.35145384 -0.13999875 -0.055058382 0.11939453 0.05011916 -0.056086954 -0.040181644 -0.111899175 -0.16847202 0.023449346 -0.25605598 -0.27038455 -0.054993603 0.053136945 -0.19837865 -0.058130972 -0.06549928 -0.17438735 0.2166274 -0.11134419 -0.1700881 0.12946199 0.28123686 0.03632201 0.07431443 0.21761285 -0.27654633 0.27891788 0.19644952 -0.2759789 -0.27754083 -0.2130369 -0.025519062 0.35852095 -0.0036492867 -0.25007898 -0.28615516 -0.018608259 -0.049259692 -0.26394826 -0.20798981 0.07838552 0.09315418 0.20899735 -0.19495256 -0.16502215 -0.3839914 0.029244617 -0.27175647 -0.021379463 -0.064041555 0.33807278 0.16694902 0.049605396 0.06837149 0.006831694 0.04096341 0.11146619 -0.09550667 0.004452343 -0.10595852 0.0197118 0.36139044 -0.18751617 -0.19335392 -0.010546779 0.03435007
61 0.24008827 -0.19160642 0.32686186 -0.16668856 -0.018397372 -0.18572909 -0.032487866 0.021511562 0.05394139 -0.1552503 0.2817496 -0.079552636 -0.14759806 -0.39454037 0.053516213 -0.023764426 0.45628268 0.1439177 0.0052126916 0.08165731 0.22474527 0.093271166 0.14726238 -0.3063719 -0.13796848 0.15018676 -0.16191977 0.12093822 0.19202033 0.045692753 -0.19978721 0.19952482 -0.275571 0.1633986 -0.16891696 0.118241 0.36867076 0.065849915 0.38793233 -0.023259979 -0.07080413 0.10813275 0.011497722 -0.11797722 0.1349021 -0.09393041 -0.0100906305 -0.260963 -0.22639567 0.09147284 0.21105774 -0.2861369 0.29492542 0.28496042 0.082219705 0.008721754 0.22823158 -0.03855199 -0.18930295 -0.019208508 0.08158583 -0.27449888 -0.1268239 -0.067630626 0.23285452 -0.07120406 -0.061109502 0.023383249 -0.23787765 -0.30377564 0.11041905 -0.25068563 -0.29067498 -0.035935234 0.13310796 -0.34856376 -0.08342069 -0.118074566 -0.20295714 0.26012936 -0.09507644 -0.104063876 0.06241959 0.21022154 0.047161527 0.09901666 0.23361649 -0.18333723 0.29436442 0.21271248 -0.25442606 -0.24381953 -0.11530097 -0.046945814 0.3449255 0.0069731367 -0.19028078 -0.300463 -0.11308466 -0.17944014 -0.26836705 -0.23060165 0.013434038 0.078733064 0.17373773 -0.26992318 -0.16731203 -0.3420298 0.06829319 -0.2116412 -0.019633934 -0.034446824 0.2912101 0.20065549 0.08186566 0.08913478 -0.030526344 0.121686436 0.14098604 -0.08449704 0.11520659 -0.10491423 0.07608601 0.2627559 -0.16676053 -0.17388792 0.1167965 -0.025776448
15 0.24240118 -0.20443164 0.31332347 -0.12758863 0.017328335 -0.20318513 0.05069281 -0.019084029 0.1593895 -0.11922097 0.2908939 -0.111411236 -0.03224431 -0.43880278 0.057614774 -0.1294747 0.445047 0.17510372 -0.10042998 0.04014188 0.16974701 0.20686159 0.06821311 -0.2779443 -0.22054237 0.12463106 -0.19497766 0.12791647 0.17974082 0.048419204 -0.24641179 0.20978414 -0.2091542 0.14580175 -0.24142586 0.10317025 0.297235 -0.01316011 0.34570667 -0.007935976 -0.11531453 0.09059939 0.062354032 -0.10952083 0.10832438 -0.12435665 0.014569298 -0.29656264 -0.21187337 0.11010461 0.20509474 -0.20293851 0.2926018 0.33562902 0.078617066 0.041411582 0.28146955 -0.03553832 -0.14372833 0.08344018 0.11001781 -0.23955667 -0.120275855 -0.12573907 0.15005125 0.05088527 0.0100969365 0.06472985 -0.16935143 -0.21812655 0.08559462 -0.24131887 -0.2799131 -0.114597686 0.08353334 -0.32487786 0.025578177 -0.051227722 -0.19129892 0.29283175 -0.025644839 -0.2950307 0.06159339 0.34385943 0.11209339 0.14638706 0.28429803 -0.261596 0.32897398 0.20507208 -0.35725307 -0.2710206 -0.1617193 0.003523511 0.3584395 -0.057420067 -0.3257191 -0.32716691 -0.18015526 -0.15134233 -0.25505704 -0.24119003 0.09419218 0.029489698 0.30369192 -0.23995858 -0.25813016 -0.38010266 0.11497034 -0.26570186 0.024513235 -0.10981837 0.2752203 0.1294353 0.06441808 0.078702964 0.029543111 0.08517482 0.15016586 -0.08705593 -0.030087307 -0.07874436 0.0522939 0.21635851 -0.22292253 -0.18682219 -0.017968295 -0.041000254
19 0.22240353 -0.17720352 0.30165595 -0.105296016 -0.0054397406 -0.19572331 0.017788595 -0.049396474 0.079747364 -0.07381881 0.2805987 -0.084104024 -0.08160191 -0.4441668 0.04471382 -0.07979812 0.29612604 0.17815778 -0.064018756 0.04910063 0.20897314 0.101053946 0.12810439 -0.22771175 -0.24470815 0.19157985 -0.19268869 0.013857799 0.11858715 0.014416398 -0.2849813 0.2213725 -0.22366582 0.16500518 -0.298622 0.09713278 0.32890588 0.037750024 0.3535989 -0.027164131 -0.07835933 0.12984528 0.029342826 -0.08389069 0.06713498 -0.1122947 0.002494749 -0.23994516 -0.26684383 0.04139664 0.25377095 -0.3203465 0.31896612 0.40158942 0.08579246 0.027438413 0.24500541 -0.10010101 -0.20942399 0.053536724 0.18129267 -0.25882798 -0.12962024 -0.08712294 0.10637052 -0.041891977 -0.04468993 0.018828424 -0.10817042 -0.17681783 0.07779871 -0.08715629 -0.20361689 -0.045632854 0.08173846 -0.20899646 -0.07955931 -0.06904914 -0.1182306 0.21708593 -0.046069324 -0.20455329 0.08300558 0.27298152 0.023171326 0.16965057 0.23004721 -0.2377742 0.29280883 0.16865666 -0.22047849 -0.17107575 -0.10306689 0.061406564 0.17190927 0.05828918 -0.22805 -0.25355586 -0.09466566 -0.08279201 -0.14002113 -0.22432292 0.15058367 0.063870974 0.164315 -0.16267332 -0.13642803 -0.24747862 0.058601312 -0.19004776 0.017149534 -0.078719586 0.34332475 0.2578005 0.09840859 0.047388487 0.00015398764 0.057200126 0.09863674 -0.015824683 0.04034699 -0.05971306 0.016903216 0.24206315 -0.14383261 -0.16538236 0.032029945 -0.0066233296
49 0.08610942 0.087469384 -0.22211605 0.04962485 -0.017014667 0.068515904 0.20309618 -0.12857613 0.0074754995 0.11239599 -0.1510609 0.16287436 0.07816705 -0.17627952 0.087783955 -0.09099686 0.3408229 -0.02150157 -0.16744308 -0.005710746 -0.14069757 0.13107255 -0.18807304 0.11921443 0.054752737 -0.10881542 -0.104559526 -0.15905173 0.036614876 0.07717667 0.076887146 0.1781462 -0.020362195 -0.23416285 -0.12631129 -0.08113084 -0.12661988 -0.06392216 0.00016578044 0.06607139 0.10331472 -0.008763141 0.16814214 0.10007023 -0.22975889 0.032175474 0.03397417 0.08187461 0.080163926 -0.07229054 0.082693174 -0.057347763 0.09573317 -0.061007246 0.003398758 0.07933224 -0.14666256 0.08779187 -0.15347621 0.05385411 0.07973409 0.033078447 -0.15887716 0.11789255 0.27452353 -0.27938685 -0.1725029 -0.007600059 -0.12569791 -0.18259183 0.21989323 -0.058942214 -0.047501024 0.16468556 -0.0133584095 -0.06328089 -0.16453692 -0.09533935 0.052121554 0.16165625 0.16132039 -0.16932182 -0.07778176 0.085968554 0.019177428 0.3529638 -0.10101616 -0.034100104 0.2673132 -0.11937086 -0.1787246 0.18788901 0.17382461 0.086039364 0.20772494 0.020904321 0.20589061 0.009037776 0.06489815 -0.22168691 0.072564915 -0.1596558 0.07312381 0.12394887 -0.17694338 -0.17334431 0.109951936 0.0028595128 0.18774612 0.22019817 0.059653413 0.2345334 0.2164281 0.3931786 -0.22528042 -0.23887847 -0.08605873 0.089945026 0.0057599344 -0.018054835 0.21370438 -0.1723236 0.15421808 0.007148673 -0.10851475 -0.07306215 0.39166862 -0.33416492
11 0.26233837 0.04244465 -0.07577178 -0.074610636 0.042350873 -0.026220495 0.1378843 -0.06853238 0.09392782 -0.00553221 -0.20436908 0.0057815397 0.22192614 0.1333789 0.14940144 0.083067544 0.09668318 -0.124247685 -0.16854928 0.12485612 0.12476545 -0.113281354 0.017878067 0.11874111 -0.08924531 0.15631181 0.10102386 -0.1166906 0.12531352 -0.0012183265 -0.021939568 0.006939032 0.23295966 0.06706523 -0.31494677 -0.004396068 -0.35443896 -0.0066283145 -0.18133093 0.06019338 -0.05726743 -0.067952834 0.052363906 0.07547213 -0.1444108 -0.017681263 0.08736458 -0.015718533 0.16970268 0.033254787 -0.11252199 0.06307572 0.08942009 -0.16264929 -0.30308262 0.07549052 0.1231136 0.01684802 0.09229145 -0.0066351374 0.049036458 0.15399903 -0.3473566 0.12790838 0.16435505 -0.33257157 -0.022791358 -0.09405369 0.13942866 -0.15534824 0.15408278 0.04629996 -0.21016006 -0.019289648 0.15340993 -0.09107165 0.09268717 0.07425109 -0.122565284 0.16099171 0.260584 -0.2739099 -0.052713487 0.13855547 0.09050577 0.07515217 -0.24666725 -0.14199656 0.2769882 -0.1429353 -0.16595542 0.10090296 0.1225156 0.26128834 -0.004324839 0.098773226 0.24799252 -0.16900475 -0.05702231 -0.30018982 0.09194203 -0.25555602 0.07839965 -0.050647575 -0.22949234 -0.1992172 -0.0086854575 0.04157601 0.15527606 0.34403506 -0.15631317 0.17097443 0.10322138 0.07728997 -0.1998516 -0.19079977 -0.13106087 0.0045049153 0.19299287 -0.23371866 0.027650688 -0.12810996 0.026199296 0.20411715 -0.17362018 0.007480722 -0.16752593 0.07543472
22 -0.008129506 0.075739704 -0.29191464 0.07382366 0.034320958 0.11588803 0.28130352 -0.15193953 -0.028363388 0.2610068 -0.16959895 0.17528616 0.07433331 -0.2735241 0.10187253 -0.07845555 0.34691313 0.029862639 -0.26709083 0.018975504 -0.19425812 0.16465831 -0.25925764 0.21197143 -0.02455579 -0.14965634 -0.13494307 -0.14109282 0.039048333 0.099655665 0.06333353 0.30259135 0.035866085 -0.26398548 -0.12056092 -0.07482371 -0.0692912 -0.031847112 0.002108024 0.109159805 0.15351179 -0.0841475 0.17921923 0.10588523 -0.33219618 0.04710405 0.010451975 0.11232975 0.11559784 -0.10953415 0.05864046 -0.040269054 0.14670731 0.012274075 0.033302013 0.06391495 -0.12920791 0.01106387 -0.070618525 0.2040948 0.08764016 0.06172487 -0.15116715 0.114759296 0.21724965 -0.24609318 -0.19757634 0.022158612 -0.17125559 -0.23799634 0.17852527 -0.07608898 -0.081367426 0.15013887 -0.03738969 -0.1730278 -0.13728961 -0.065599635 -0.009158383 0.14760299 0.13742527 -0.110227175 -0.11754537 0.04069013 0.043794174 0.4072647 -0.086522 0.0806436 0.21830885 -0.07337381 -0.11966569 0.26484823 0.13421495 0.13234757 0.15429835 0.012901967 0.24088722 -0.09528273 -0.003426139 -0.20482855 0.09582188 -0.21482986 0.008289281 0.078720085 -0.23058575 -0.22911511 0.09680856 0.039235763 0.176947 0.1907953 0.09831121 0.16550998 0.19478814 0.37869045 -0.06967947 -0.21973436 -0.024300823 0.058073785 -0.008209384 -0.02765461 0.114080705 -0.12789308 0.08958816 0.0353058 -0.12140085 -0.016949225 0.30078885 -0.22022022
40 0.043015577 0.12634195 -0.15859117 -0.030776 0.07839358 0.07198284 0.23378061 -0.097198166 0.0100209555 0.12014254 -0.14065674 0.07718414 -0.00722566 -0.16742924 0.18295221 -0.054151047 0.23791297 -0.041928418 -0.18983911 -0.0120792575 -0.031530563 -0.055126823 -0.14166605 0.08980477 -0.11821733 -0.12167567 -0.09168308 -0.1668731 -0.013455917 0.17338128 0.023036486 0.17714678 -0.0005134756 -0.16109446 -0.1741849 -0.057763275 -0.13523242 0.010178902 -0.011677022 0.02571396 0.13681726 -0.016010374 0.12718225 0.094049804 -0.28091118 -0.018258356 0.043305967 0.07151416 0.028578358 -0.12917052 0.19726498 -0.14141437 0.08395667 0.02865465 0.041819204 0.0022210157 -0.053584576 0.014562926 -0.045822687 0.109097764 0.09500617 0.05770424 -0.23386426 -0.022952043 0.16606154 -0.27291483 -0.23539914 0.004646125 -0.17027651 -0.21418038 0.17100686 -0.059529204 -0.07912385 0.09876027 0.009065763 -0.16102432 -0.07407989 -0.059045687 -0.012908801 0.1589932 0.109095566 -0.073011436 -0.12534845 0.03238265 0.08403329 0.27689883 0.01390934 -0.024266548 0.22777966 -0.028924458 -0.18130985 0.24126057 0.13388628 0.08247153 0.14729334 0.08151127 0.2824293 -0.06954515 -0.078211576 -0.2574641 0.09654637 -0.20729154 0.05340316 0.064162344 -0.2695205 -0.25077805 0.06117862 0.033683598 0.16790509 0.2557769 0.091203004 0.2107285 0.15091774 0.34622198 -0.14957476 -0.12187033 -0.07060926 0.037586506 -0.0022891157 0.022883458 0.11661753 -0.040483296 0.109733865 0.058634304 -0.06920405 -0.029172882 0.2742357 -0.17529568
63 0.3069216 0.035607133 -0.039292295 -0.0069600367 0.0038042313 -0.035177972 0.12564936 -0.10442344 0.09171331 -0.07557746 -0.1269168 0.02967817 0.21023133 -0.004832595 0.19341356 0.13897492 0.071306415 -0.10358939 -0.08024386 0.10040427 0.07131523 -0.0058209146 0.03269651 0.061515484 -0.05445482 0.1392162 0.09751331 -0.15059857 0.13015497 -0.0065902593 0.010614014 -0.0068326057 0.18747891 -0.012728177 -0.28298393 -0.011144328 -0.24387057 -0.012221273 -0.20149545 0.08005006 -0.11414966 0.0014692319 0.095567994 0.14973082 -0.07681548 -0.021141365 0.0395652 -0.012736115 0.13109903 -0.03822967 -0.05520783 0.021257894 0.04374636 -0.13149023 -0.27813482 0.12362809 0.014400625 0.11265572 -0.04624816 -0.05423164 -0.04478058 0.24276069 -0.37100592 0.14322439 0.103318535 -0.33345196 0.0016081303 -0.1750528 0.137802 -0.06416973 0.13928805 0.041529953 -0.16110082 0.048241615 0.114337124 0.04667451 -0.027235076 0.014176749 -0.013780201 0.119172804 0.18505275 -0.16947 0.048611645 0.18489207 0.028275615 0.13375022 -0.22078715 -0.25553542 0.20954886 -0.20787066 -0.19065414 0.040527143 0.15507321 0.20164049 0.102738366 0.07431015 0.36015394 -0.09522748 -0.034668382 -0.2995677 0.119087785 -0.27077585 0.060492676 0.030183433 -0.26165628 -0.22773843 0.07876409 0.070482664 0.22298552 0.4058531 -0.07617808 0.19220118 0.2307921 0.19055717 -0.19257656 -0.16574068 -0.03438916 0.028480904 0.16441861 -0.13713908 0.17333929 -0.15600677 0.004319866 0.20024541 -0.1956644 -0.05906296 -0.08261297 -0.03694618
29 0.030274702 0.12066418 -0.04476073 -0.065192096 -0.16160564 -0.13398314 0.095313035 0.22293627 -0.07804 0.2863548 -0.049262777 -0.022040984 -0.070132084 0.30152336 -0.13718776 -0.39979613 0.12097718 -0.09899621 -0.4532672 0.15283938 -0.011179135 0.21125084 -0.06303196 0.49387932 0.10424149 0.15364346 -0.009888436 0.042546928 0.101898976 0.12798941 -0.33046103 0.19979393 0.053211834 -0.35273448 0.13647525 -0.06487219 -0.02869482 -0.17436239 0.17396058 0.3059517 -0.31707168 -0.038592547 -0.048547547 -0.08511963 0.14960523 0.1061729 -0.14825241 0.23508519 0.19807404 0.0004948335 -0.017644776 0.14668332 0.111277945 -0.12124387 -0.27862796 0.07306569 -0.010638781 0.052091993 -0.07086684 0.004826187 -0.014927185 -0.29347637 0.021230385 0.4179693 0.3425518 0.050754003 -0.052710325 0.12832674 -0.12614918 -0.2709772 0.10184575 -0.088138625 -0.1525548 -0.059578247 0.17229445 -0.260601 -0.0332314 0.22699995 -0.16025911 0.13728774 -0.27942643 -0.44355565 0.00030847458 0.11980021 -0.21510208 0.17388307 -0.010967882 0.07950333 0.536235 0.29507813 -0.11990631 0.0064619905 -0.06503296 0.0083518 0.32007545 0.33135083 -0.030721877 -0.2833744 0.405078 -0.096874736 -0.1370433 -0.0023045074 -0.22331864 0.3994062 -0.6430699 -0.19037975 0.15116377 -0.038477708 -0.46602276 0.102756344 -0.00491196 0.17684686 0.075240925 0.2457126 0.007057719 -0.021176154 -0.088282704 0.16978915 0.21519756 -0.060001973 0.07598927 -0.332634 0.04433857 0.25699595 0.07411107 -0.23526211 -0.0018819328 -0.092329085
53 0.39719674 0.11867043 -0.16629104 -0.01650963 0.006453527 0.026041804 0.19658567 -0.047722183 0.08595134 -0.050567057 -0.2176422 0.123310246 0.24710639 0.11025028 0.20993513 0.11270977 0.14472604 -0.14374146 -0.1224525 0.18694164 0.15413716 -0.06843294 0.12686633 0.060586885 -0.063097045 0.24113704 0.00047207106 -0.16170268 0.1318415 0.0043252376 0.050031137 0.07628664 0.2141731 0.017914375 -0.27935907 -0.08691461 -0.24487343 -0.026175825 -0.21623424 0.09392754 -0.06915728 0.067743436 0.07189709 0.12808196 -0.07730862 -0.014795638 0.040657744 -0.038574103 0.021958278 0.0500882 -0.075109534 -0.08676964 0.10841717 0.02135578 -0.27331218 0.100676574 0.059983358 0.051779803 -0.10975208 -0.13063739 0.047722533 0.015428637 -0.240371 0.1794307 0.1563405 -0.34922957 -0.032616843 -0.21025673 0.09519507 -0.09955506 0.15340267 0.0018199848 -0.09855515 0.06350851 0.1670854 0.0022150774 -0.066324174 -0.02827454 8.928834e-05 0.04935793 0.23074456 -0.23552999 -0.024470396 0.14156544 0.08092139 0.06301931 -0.28406203 -0.31443796 0.1876789 -0.24621043 -0.19560665 0.002434532 0.17316143 0.22794716 -0.018735083 -0.050798826 0.3203534 -0.013613969 -0.099559255 -0.25320297 0.17663528 -0.21116617 0.07305675 -0.11554096 -0.17278022 -0.10023997 0.07703273 0.11670531 0.20777737 0.3501906 -0.077194564 0.10420357 0.2010536 0.12260052 -0.19862612 -0.12105282 -0.026519675 -0.0028368207 0.18515186 -0.1310301 0.14555499 -0.09561509 -0.013711646 0.2640468 -0.28066653 -0.0069293976 -0.03147218 -0.086410224
56 0.07946753 0.14983745 -0.096746735 -0.032832153 -0.13063094 -0.08918574 0.24854428 0.26314098 -0.12414167 0.2067852 -0.10350757 0.06689726 -0.08946716 0.36597925 0.03430963 -0.3931402 0.2067512 -0.123581916 -0.5522624 0.23089929 -0.03538849 0.14180295 0.0011656808 0.45346424 0.03646005 0.18535444 -0.023986517 0.25212133 0.07595244 0.09824421 -0.29408613 0.26439154 0.04848023 -0.32124346 0.09172294 -0.14249153 -0.037150297 -0.12291497 0.17488883 0.33804235 -0.30133063 0.11270827 -0.03075253 -0.11712745 0.13293493 0.09575679 -0.068695806 0.26013324 0.21723253 0.11195612 -0.015075645 0.07911176 0.18906382 0.015766494 -0.2755061 0.041902717 0.02246157 -0.004041756 -0.09901841 0.15779014 0.008868557 -0.48871556 0.115985796 0.5644868 0.3581436 0.07287047 -0.14884685 0.113779955 -0.21772629 -0.30002233 0.13242528 -0.17335923 -0.06791872 -0.16084662 0.28524712 -0.31428167 -0.015172959 0.1900271 -0.18161905 0.1080096 -0.2749772 -0.40040863 -0.019656694 0.018512929 -0.24249165 0.035751294 -0.09678503 0.20423959 0.47452107 0.28625405 -0.11558326 0.014020339 -0.0060110297 0.06575355 0.23256186 0.25923035 0.050976247 -0.23996271 0.32031202 -0.06700851 -0.20368095 0.004128627 -0.21075794 0.31467503 -0.6700791 -0.2025492 0.16598785 0.019119991 -0.36438486 0.13363321 -0.037569724 0.16169901 0.013350253 0.19451366 0.06306991 0.031555988 -0.053338118 0.1349714 0.23269422 -0.024772156 0.041191556 -0.23874559 0.11033236 0.24922 0.12589653 -0.13385263 0.10752622 -0.09510051
18 0.046060495 0.13570173 -0.25907522 -0.009837905 0.028227264 0.12468402 0.15522783 -0.089625105 0.017916983 0.1274959 -0.23703003 0.14653291 0.060424 -0.23502359 0.12481309 -0.07633224 0.44006523 -0.020235265 -0.23302385 -0.043118987 -0.048761036 0.09595892 -0.23209493 0.068243355 -0.08197411 -0.19523703 -0.08092449 -0.2060462 0.001742902 0.14874701 0.05163407 0.1866015 -0.024958488 -0.2014698 -0.26534253 -0.032861456 -0.13256623 -0.07184546 0.020697197 -0.04325482 0.13866766 -0.12107107 0.16444485 0.06900131 -0.29962233 0.05226446 -0.0142353885 0.07146276 0.08643294 -0.096080236 0.17833076 -0.109156236 0.13342406 -0.0274777 -0.038692035 0.02611036 -0.077811696 0.027178464 -0.08960792 0.040132184 0.11800584 0.058200683 -0.24910632 -0.024226591 0.1843103 -0.09972699 -0.22416954 0.018259501 -0.13071291 -0.19679706 0.17250615 -0.007203187 -0.049629036 0.12399697 0.04319535 -0.16642134 -0.15093516 -0.032920294 0.028001126 0.20729119 0.12587364 -0.054846838 -0.101674244 0.01348773 0.031808544 0.32613823 -0.016176557 0.008742137 0.16771752 -0.082649514 -0.13165428 0.21574672 0.12238554 0.02621034 0.1184526 0.039127454 0.22703859 -0.031152511 -0.041225974 -0.19731696 0.08902735 -0.07287914 -0.0075772316 0.09329259 -0.21951947 -0.16998702 0.10679439 0.023804506 0.13390581 0.23306946 0.14280552 0.22424406 0.20982379 0.46544465 -0.16308834 -0.21054392 -0.15320417 0.038647622 0.024782822 -0.004756609 0.14638616 -0.11086915 0.17089647 0.07881943 -0.09407402 -0.07064038 0.33352214 -0.26108575
55 0.23615678 0.0227492 0.026620109 -0.07068287 0.013618387 -0.044161446 0.059297223 0.03291432 -0.001161637 -0.0971869 -0.17786883 -0.025029507 0.16559532 0.19004059 0.29124478 0.1610099 0.104801774 -0.14969338 0.010316627 0.12650229 0.19048566 0.016256742 0.07518707 0.0448091 -0.036294714 0.1962677 0.11261747 -0.0147264525 0.15922223 -0.0828231 0.022281362 -0.05706069 0.19045885 0.08563357 -0.29279944 -0.010028698 -0.19047162 0.019142063 -0.1827724 -0.028172119 -0.08522211 0.028034845 0.07536145 0.065509304 -0.0023546016 0.060575012 0.0037614736 -0.03632431 0.15350161 0.037772074 -0.010902036 -0.001200935 0.038852643 -0.17337179 -0.29686782 0.009614714 0.06087164 0.06980807 0.00312095 -0.15768653 -0.019797232 0.102660276 -0.24253765 0.1314199 0.18586072 -0.3222575 -0.059696496 -0.2231559 0.18863502 -0.11287117 0.16231123 0.042334314 -0.1834732 0.006263337 0.20296846 -0.048806336 -0.03363543 0.03041092 -0.06005665 0.15151438 0.14544477 -0.1893639 0.015409692 0.14132527 0.015133242 -0.026272468 -0.28006682 -0.21959177 0.21912697 -0.15539388 -0.16847937 0.007997386 0.10662381 0.20184946 0.0014391959 0.026646348 0.3167232 -0.053889327 -0.05708413 -0.23777153 0.13392732 -0.104360975 -0.0394319 -0.044992022 -0.30713335 -0.1859482 0.09282725 0.15249683 0.13381787 0.35000172 -0.041999068 0.16367212 0.19355918 0.18637352 -0.26600516 -0.20086598 -0.12176789 0.039360218 0.21098024 -0.20947967 0.094155654 -0.14000773 0.05638745 0.21397056 -0.19644898 0.011020162 -0.1282378 0.03385074
7 0.3400473 0.10590961 -0.12408103 0.038119268 0.11423614 0.06405397 0.2549879 -0.15409712 0.09424846 -0.09996018 -0.20151594 0.07541611 0.21163364 0.059470035 0.31161746 0.18981203 0.12314555 -0.18208766 -0.06953785 0.0952417 0.050435703 -0.09897855 -0.08571382 0.04719745 -0.09234089 0.08028459 0.12596507 -0.110081464 0.042752597 0.021436183 0.16137673 -0.034800343 0.2030825 0.051096138 -0.24026808 -0.10457984 -0.35120192 0.00022124237 -0.19449767 0.14501478 -0.17387725 -0.015237695 0.08243699 0.10241725 -0.073446825 -0.10628053 0.04553907 0.019670105 0.05668893 0.034386452 -0.13560048 0.007844055 -0.023777049 -0.23929834 -0.26931894 0.05323105 0.050142944 0.055673443 -0.058022782 -0.092072845 0.020841127 0.082223974 -0.27414796 0.13479254 0.075294465 -0.31704828 -0.07600494 -0.1723599 0.10573202 -0.049776994 0.09260588 0.053959057 -0.1783175 0.028086983 0.100280516 -0.053560503 0.0055802166 0.05319203 -0.01580725 0.079735585 0.34134352 -0.23836462 -0.021813799 0.23175344 0.09893806 -0.05952051 -0.18610942 -0.21858478 0.26641464 -0.123918 -0.16321239 -0.011049187 0.14868923 0.2272733 0.0701451 0.024792401 0.37036872 -0.018769141 -0.15454946 -0.30663306 0.18574707 -0.29384258 -0.04500451 -0.07087276 -0.29971868 -0.10631094 0.06378175 0.06906729 0.14947999 0.35581875 -0.07341377 0.16111827 0.14754812 0.028545924 -0.19518864 -0.22812702 -0.060577646 0.0040348074 0.16168389 -0.29562378 0.050228305 -0.09505766 0.061880384 0.33034268 -0.22216947 0.00794706 -0.13129425 0.043797996
5 0.30794284 0.096468836 -0.1593267 -0.028069785 0.051288363 0.06540918 0.17264533 -0.15501162 0.050734468 -0.003017096 -0.22199377 0.08387126 0.207853 0.051737294 0.2402492 0.13703915 0.065737985 -0.083332166 -0.06191892 0.07719096 -0.005514226 -0.0971598 -0.010620118 0.12289443 -0.048785064 0.12410888 0.048669994 -0.20540316 0.031185988 -0.014269619 0.058358464 0.019787349 0.17274801 0.017850073 -0.19934736 -0.062036365 -0.3013067 -0.03934596 -0.18641661 0.124218285 -0.11594379 0.049869444 0.033611376 0.0833877 -0.17444779 -0.011090851 0.05340204 0.052170634 0.10611959 0.00086135865 -0.081408344 0.023329148 0.11712348 -0.15068114 -0.34771684 0.12843806 0.037988577 0.08431676 -0.05225778 -0.07505408 0.07853344 0.08736487 -0.36466265 0.17090867 0.1761871 -0.35119373 -0.014211392 -0.120351195 0.09237708 -0.20763141 0.15309118 -0.06971318 -0.19754434 0.05368814 0.13945882 0.0243032 0.0131948935 -0.074218564 -0.09708364 0.03982939 0.25495082 -0.2626086 0.017424019 0.19192319 0.047630113 0.037695535 -0.23336653 -0.2445003 0.22011256 -0.21630712 -0.17462017 0.013287965 0.07841263 0.19272344 0.068853736 -0.035235863 0.29898065 -0.10447391 -0.028609257 -0.25304124 0.06791251 -0.20417093 -0.012636203 -0.04699209 -0.22365296 -0.11503025 0.11598403 0.081194066 0.22071537 0.3575545 -0.06523407 0.18603575 0.21121669 0.18203397 -0.31034863 -0.27739686 -0.13433185 0.02443856 0.16995089 -0.26040092 0.12874568 -0.15311775 0.031212218 0.27328706 -0.24332827 0.031156301 -0.023960954 -0.056275185
50 0.23773235 0.028739896 -0.06739244 0.0018774597 0.03203782 0.020116556 0.05260721 -0.120001696 0.038678564 -0.12087852 -0.1755492 0.09022883 0.2521161 0.14803585 0.19613221 0.19553758 0.09571153 -0.16142169 -0.08470503 0.050504304 0.14517729 -0.051581927 0.0684516 0.023966623 0.025705477 0.21631359 0.07531187 -0.18657424 0.11907259 -0.033795897 0.016579883 -0.117380954 0.17321883 0.08281403 -0.3237608 -0.08919897 -0.28241432 -0.16936214 -0.21710166 0.05794702 -0.18972175 -0.039732527 0.04909275 0.09255927 0.031087784 -0.035534006 -0.012675564 -0.014457133 0.03657894 -0.009977649 -0.05183006 -0.019235754 0.09971582 -0.11301183 -0.37490165 0.14221957 0.078249484 0.043291576 -0.040103644 -0.036584754 0.08553052 0.0076519125 -0.3411581 0.22190641 0.055395965 -0.34636286 -0.017061086 -0.15182756 0.11208388 -0.108891614 0.17091219 0.031812716 -0.13085794 0.014447198 0.1378964 0.024373522 -0.046369772 0.04925636 0.059197914 0.05351836 0.24818061 -0.35646263 0.08012847 0.29326183 0.032176252 0.03223992 -0.33832994 -0.22719292 0.27121833 -0.20273654 -0.16034208 0.0958986 0.1406251 0.21310392 0.042247098 0.023317268 0.35694292 -0.06036129 -0.079911925 -0.22174345 0.16772364 -0.16450205 -0.015173543 -0.07061212 -0.29138628 -0.1251984 0.015451583 0.12556048 0.19271475 0.358723 -0.027801264 0.20871605 0.16085729 0.035939425 -0.2442973 -0.19619995 -0.10785458 0.04486382 0.17103682 -0.32575205 0.0719108 -0.13476168 -0.024354797 0.1932481 -0.19347271 0.021376507 -0.14896983 -0.010350986
6 0.2427347 0.045601603 -0.16131254 0.055844933 0.049263272 0.06794094 0.17108025 -0.13627146 0.03591319 -0.0551206 -0.25491688 0.09606011 0.21251345 0.047960628 0.27266404 0.22923824 0.11421726 -0.12576534 -0.14435717 0.14605965 0.040459365 0.04161925 0.025894571 0.050520256 -0.10571875 0.19084758 -0.0023162062 -0.12153922 0.08316329 -0.007690752 0.10166235 0.025608523 0.21799307 0.048258793 -0.43713474 -0.08153596 -0.27988675 -0.074071445 -0.20765 0.100056455 -0.09715992 0.03355631 0.09783476 0.13118368 -0.11771466 -0.018018102 0.071102455 0.051333345 0.04279186 -0.027637392 -0.07752439 -0.07350842 0.116136566 -0.058602545 -0.3315108 0.1500114 0.06634958 0.028976891 -0.11339233 0.022485804 0.07050339 0.06532939 -0.34785458 0.27685466 0.05565932 -0.36567813 -0.0811231 -0.2755568 0.13589394 -0.106704816 0.090482585 0.02823185 -0.15081675 0.094583586 0.109525956 0.028934319 -0.053995233 0.03670587 0.010426873 0.043245688 0.23304772 -0.102073 0.09012288 0.17605712 0.056956682 0.09062293 -0.2935559 -0.23067868 0.22496372 -0.21272016 -0.19044766 0.11164559 0.12222853 0.25051832 0.04266093 -0.024676122 0.4189614 -0.047861952 -0.022864765 -0.18347816 0.16574019 -0.17507082 0.04637667 -0.07394532 -0.2706106 -0.10945971 0.049109176 0.1347766 0.22228132 0.3697445 -0.06063525 0.18963109 0.15404904 0.12486218 -0.19965605 -0.18751338 0.0044541974 -0.0311539 0.1414023 -0.17779374 0.049186997 -0.13180317 -0.053705916 0.30426496 -0.20976688 0.003726423 -0.1643854 0.06491438
13 0.19127767 0.09668844 -0.19814536 0.046279006 0.07518865 0.16847984 0.0812274 -0.1092593 -0.04702958 0.045337413 -0.19851202 0.16381943 0.018988619 -0.15080413 0.28952104 0.064222604 0.2600844 -0.0314733 -0.13382167 -0.03690476 -0.07187992 0.10495791 -0.04121677 -0.0145879295 -0.03857059 -0.08125724 -0.0516862 -0.23874952 -0.06256205 0.054952666 0.12318407 0.09950127 0.04753255 -0.059495818 -0.2278422 -0.083335035 -0.14217176 -0.11005406 -0.1713394 0.012982979 -0.0016550896 -0.01704847 0.14451224 0.09241957 -0.17797098 -0.015066705 -0.0477859 0.10072558 0.038251758 -0.074247874 0.18652216 -0.10934449 0.12215541 -0.038345166 -0.19751781 0.108880825 -0.043267805 0.04457393 -0.07107765 0.016051134 0.08932164 0.07849647 -0.26521602 0.04568027 0.17023627 -0.25711504 -0.13509917 -0.07618062 0.001718916 -0.1620416 0.15040645 -0.054799505 -0.074559 0.09200473 0.09784312 0.05251983 -0.06395684 -0.11355153 -0.008961974 0.059466455 0.14156319 -0.19102144 0.0028123697 0.14374687 -0.01180345 0.23079392 -0.16098751 -0.116600715 0.23423184 -0.1942444 -0.19254777 0.10963033 0.15341833 0.053391457 0.1237265 -0.011239194 0.38040623 -0.08722636 -0.009762763 -0.25268912 0.040063683 -0.19242008 0.021971479 0.15191916 -0.2864548 -0.29906943 0.20577241 0.05759881 0.25282815 0.36869213 0.07908212 0.2726412 0.23830418 0.38765168 -0.29301292 -0.19161607 -0.1170307 0.0523709 0.03933027 0.024783274 0.20743571 -0.117479496 0.11427509 0.050926868 -0.10547915 0.0061095706 0.23544852 -0.23267816
58 0.15357234 0.19175948 -0.21307267 -0.0009183944 -0.098281294 -0.08851613 0.22050872 0.23367289 -0.08370254 0.30508125 -0.04444974 0.06908261 0.040013056 0.33303508 -0.036416963 -0.33695725 0.108100235 -0.1628188 -0.5008625 0.18658148 -0.09694025 0.12764393 0.069336265 0.45727777 0.10127043 0.21846561 -0.072499976 0.09539378 0.082809016 0.13117328 -0.28398633 0.23651043 0.047290843 -0.33527753 0.099338755 -0.18186906 -0.01893837 -0.16826674 0.18114665 0.3789506 -0.32999772 0.0425891 -0.008510065 -0.09719697 0.1558741 -0.026045123 -0.094102 0.24774364 0.14874831 0.08956855 -0.06810478 0.043056164 0.21950796 0.01646407 -0.25635922 0.11909971 0.03482447 0.06643284 -0.16455819 0.16293769 0.025122998 -0.4605121 0.046094865 0.5529656 0.32941818 0.020948697 -0.024317734 0.116586454 -0.17756875 -0.279627 0.16427498 -0.16397807 -0.021423306 -0.12735221 0.14245886 -0.24512653 0.044426497 0.13623871 -0.1381083 0.084471 -0.14782439 -0.48904505 -0.045566913 0.13229856 -0.15327941 0.13498603 -0.06312574 0.08551951 0.5226748 0.24683875 -0.16180268 0.0008168458 0.023523318 0.075517826 0.29323754 0.29302937 -0.062954985 -0.25390595 0.4890418 -0.028774142 -0.1966312 -0.065088406 -0.14703123 0.42624053 -0.583332 -0.17658786 0.15682986 -0.0011736649 -0.47836375 0.096035406 -0.06760866 0.17043008 -0.005107461 0.13137573 0.011667593 0.008610168 0.020816317 0.14490797 0.27169716 -0.036034644 -0.02558654 -0.3205459 0.016131975 0.20464087 0.13214964 -0.20973314 0.06497565 -0.13567132
62 0.13251282 0.124441415 -0.28008848 0.056380738 0.07565996 0.12071906 0.23091637 -0.14490771 0.026454143 0.15508717 -0.18985467 0.1289507 0.1616574 -0.12597725 0.12792365 0.03685652 0.31432486 -0.046523873 -0.13921653 -0.0048951674 -0.1358448 0.04023537 -0.23333517 0.08136401 -0.05832768 -0.14819223 -0.054593205 -0.22661641 -0.018652678 0.09080611 0.16804227 0.17840815 0.030489206 -0.13654824 -0.2491952 -0.07878514 -0.1418045 -0.0030179706 -0.011579265 0.08737685 0.07644051 -0.009702397 0.19201234 0.08268608 -0.27363917 -0.054359186 0.0159094 0.09988276 0.072571136 -0.084130175 0.05758612 -0.04467793 0.092232995 -0.114850014 -0.011241561 0.07013292 -0.047753215 0.054973893 -0.074518055 0.062392794 0.1063461 0.050768014 -0.29060796 0.059430186 0.20789766 -0.28046647 -0.13785592 -0.027993822 -0.06650964 -0.13750228 0.16533473 -0.03880136 -0.07184961 0.113398395 -0.012715411 -0.060698096 -0.07026021 -0.08623839 0.0028983362 0.20128717 0.28216925 -0.15019749 -0.119783826 0.11271172 0.098140694 0.29646018 -0.06775851 -0.0975125 0.24541107 -0.11045398 -0.19044434 0.21202336 0.09847918 0.103364855 0.22006974 0.04527282 0.22739546 -0.05845445 0.035177436 -0.21856451 0.060398094 -0.21063727 0.0145125035 0.09181924 -0.22184649 -0.14945808 0.114242725 0.0022396722 0.10298359 0.22628947 0.005848442 0.23140603 0.12730148 0.25147903 -0.2074084 -0.23105963 -0.06597361 0.08637071 0.059462104 -0.06755375 0.10546756 -0.1365001 0.119396396 0.035879858 -0.048724327 -0.026587801 0.28401762 -0.17755854
65 0.23844004 0.13273448 -0.0754026 -0.15461275 -0.14888436 -0.09652115 0.1094334 0.2503739 -0.11698731 0.25399914 -0.020534366 0.05552287 -0.02727597 0.32223845 0.0164518 -0.2609935 0.07951335 -0.10080481 -0.32225677 0.24309812 -0.006868473 0.17962824 0.07693821 0.4782043 0.1374565 0.23326387 -0.025487734 0.13647035 0.12917294 0.104245886 -0.31316143 0.18680488 0.10837842 -0.3304991 0.14852285 -0.11474939 -0.015580503 -0.1923788 0.0628129 0.35289872 -0.273778 0.07252164 -0.059627004 -0.04378329 0.15481792 0.07273029 -0.18317004 0.261869 0.14950441 0.008980433 -0.047781713 0.099620946 0.15800826 -0.022419257 -0.25215724 0.12857136 -0.026290713 0.09237523 -0.012255815 0.030235145 -0.06473521 -0.42855096 0.027933476 0.5371633 0.3873486 -0.015241302 -0.08195833 0.052354764 -0.15032205 -0.35321757 0.15015961 -0.21829717 -0.03931051 -0.08434114 0.26234564 -0.2665311 -0.019254709 0.10597954 -0.10003391 0.08160825 -0.3212241 -0.4518006 -0.034261044 0.051373933 -0.31245375 0.14451179 -0.13643862 0.07889988 0.41857153 0.21323574 -0.07212592 0.0006979972 0.0052149696 0.023133207 0.20855188 0.32580155 -0.029035313 -0.33579552 0.45440108 -0.06443961 -0.20352018 -0.059891783 -0.24453542 0.37735826 -0.6266807 -0.17464003 0.1786505 -0.086434685 -0.4881987 0.11379039 -0.009438115 0.16682012 0.14464968 0.25463215 0.011349405 0.03727404 -0.009843256 0.15396334 0.2690772 -0.017399328 0.08482231 -0.30499196 -0.04605315 0.3250835 -0.0011308806 -0.17609528 0.10725149 -0.15434028
31 0.11814794 0.22545882 -0.16004659 -0.053258512 -0.091530815 -0.10896414 0.23068285 0.23319963 -0.07182144 0.2571838 -0.10380267 0.051583152 -0.06596155 0.29257286 0.008890048 -0.41523802 0.016057061 -0.14181297 -0.4869486 0.18394426 -0.049539104 0.01746973 0.05383606 0.5772347 -0.0015117638 0.25660613 -9.225327e-05 0.04038763 0.03228881 0.08991618 -0.3880973 0.26037458 0.055456206 -0.3202553 0.06976594 -0.13483053 -0.05273225 -0.12619983 0.14383455 0.3407903 -0.3607389 0.10097318 -0.06420974 -0.10195974 0.07486548 -0.0078052324 -0.065738924 0.2682925 0.18093425 0.041597597 -0.029196663 0.03274466 0.20219538 0.07890464 -0.30593857 0.09221694 0.010602091 0.03366927 -0.13566881 0.11489482 0.07191788 -0.42508626 0.05357687 0.49084812 0.32877085 0.08537408 -0.06777867 0.09045026 -0.14532918 -0.37259838 0.17927305 -0.15679158 -0.109049745 -0.14404343 0.20883082 -0.26604235 0.030508485 0.14557062 -0.14988403 0.07959414 -0.2162072 -0.49764028 0.023067705 0.11952404 -0.24375564 0.08701593 -0.019141622 0.09895332 0.56835824 0.32511246 -0.13228878 0.02112842 -0.018537318 0.058511082 0.25381416 0.3654735 -0.024957394 -0.2673613 0.43726584 -0.04541271 -0.23275268 -0.00984104 -0.15808083 0.39886832 -0.5536703 -0.1179646 0.16168456 0.005387056 -0.43225488 0.10793095 -0.039108813 0.16656312 0.10209695 0.28953895 -0.002742875 -0.07693451 -0.03736472 0.082255185 0.23656961 0.0015926887 0.025382593 -0.26974306 0.06718513 0.25719416 0.12314184 -0.19340561 0.07248776 -0.06933424
10 0.032839924 0.10505341 -0.14396541 0.018080296 -0.103721075 -0.11391144 0.10467168 0.1332151 -0.092702664 0.23915163 -0.019886276 -0.024035655 0.073149845 0.19611238 -0.121841736 -0.3703786 -0.04932102 -0.15601623 -0.4702467 0.18882142 -0.0866468 0.1550217 0.004180686 0.5690589 0.11829209 0.21836017 -0.10401644 0.08450884 0.12055175 0.064128235 -0.3527277 0.21425216 0.023024932 -0.40572572 0.08064388 -0.1471811 -0.026507927 -0.19422212 0.22654879 0.31185377 -0.29750925 0.04852591 0.0009293137 -0.10520415 0.04911848 0.12869272 -0.050830718 0.18316564 0.21153785 -0.022822004 -0.031756468 0.16364531 0.21863924 -0.05749464 -0.16606452 0.13416632 0.00041498197 0.02043649 -0.083296105 0.10836585 0.12107785 -0.46461827 -0.023672389 0.5521786 0.345333 -0.09980951 -0.066087656 0.16553389 -0.1341986 -0.3575554 0.10405914 -0.14934206 -0.10236652 0.008971835 0.11785186 -0.18630737 -0.010044176 0.14752659 -0.14893411 0.20698006 -0.2245155 -0.4526469 0.009946369 0.13110955 -0.1732598 0.23383194 -0.009947902 0.07766521 0.46141922 0.22391355 -0.1381296 0.013956066 0.019966092 0.09364372 0.28629702 0.28588322 -0.06968037 -0.30047658 0.47850877 -0.09911771 -0.17284591 -0.06813201 -0.11819106 0.32362476 -0.64048094 -0.16333902 0.10758379 -0.02232527 -0.38282925 0.07445138 0.046697944 0.27560365 0.069746695 0.21108565 -0.014380256 -0.087382905 0.007132048 0.17453979 0.22148387 -0.039974853 0.0022502728 -0.35821733 0.047794495 0.15886547 0.13167088 -0.1792959 0.08659408 -0.13843408
20 0.034324486 0.13140637 -0.09386611 -0.043985434 0.015582254 0.02851186 0.24848613 -0.21522593 0.07792306 0.14715095 -0.19627745 0.10204337 0.053131476 -0.2629042 0.14814503 -0.05403837 0.41046634 0.009335057 -0.15998818 -0.076630354 0.0118015185 0.06244052 -0.29623947 -0.06523941 -0.14242215 -0.20532683 -0.09893252 -0.1559572 -0.09374108 0.18808885 0.04687487 0.1186529 0.030732987 -0.14614625 -0.34027314 -0.053492732 -0.21151955 -0.03487375 0.13535085 0.0337548 0.09391695 -0.018077588 0.12874214 0.036668442 -0.35257956 -0.008421563 0.07773321 0.116174415 0.082420215 -0.13287406 0.14602986 -0.0669131 -0.005814407 -0.12991862 -0.114254184 0.07952644 -0.10988702 0.022186082 -0.13244478 0.10222192 0.11829289 0.18337202 -0.36381975 -0.03137906 0.19016948 -0.066012815 -0.2675619 -0.050161034 -0.17065622 -0.2894431 0.23628528 -0.09810002 -0.083533555 0.09689848 0.06812839 -0.17394271 -0.1466279 -0.06759252 -0.010341661 0.17224729 0.19572319 -0.04901355 -0.07121646 0.055603657 -0.08420251 0.3346753 -0.121892154 0.015940344 0.20144868 -0.09318512 -0.1844322 0.32328346 -0.007671579 -0.04208672 0.17351474 0.013802096 0.16835386 -0.08168892 0.020603819 -0.1124993 -0.07792855 -0.02758922 0.05632327 0.18685108 -0.16432473 -0.10722272 0.14001662 -0.12086696 0.15809934 0.15602413 0.10466841 0.16654047 0.08334528 0.30751076 -0.18953848 -0.21110635 -0.19336027 -0.023379706 -0.11683927 -0.02607776 0.09320602 -0.051908664 0.17522644 0.102709755 -0.1102859 -0.020087076 0.22622144 -0.21536373
54 0.2680201 0.11631987 -0.09503414 -0.083962604 0.016684823 0.06716611 0.31409645 -0.24014159 0.06780735 0.20416737 -0.15499696 0.16626078 0.13932058 -0.29413858 0.20758273 -0.032496728 0.31960732 0.097975574 -0.022102857 -0.088634305 0.000636181 0.19550033 -0.32371646 0.018560767 -0.10101305 -0.119418375 -0.17805733 -0.1704569 0.041870065 0.1799184 -0.020040931 0.20327947 0.075601935 -0.16522413 -0.13511842 -0.06289176 -0.17179807 -0.064111084 -0.015563952 0.099124886 0.18005916 0.023898618 0.023988178 0.13091098 -0.4356647 -0.039340217 0.03288364 0.063496076 -0.00660162 -0.14332679 0.15038279 -0.07494702 0.077807814 -0.015707761 -0.06302303 0.12527296 -0.14922781 0.069161616 -0.09282411 0.05786214 0.15361783 0.026881365 -0.33345747 0.0052929386 0.10039166 -0.20812605 -0.15805279 0.037519097 -0.19697168 -0.3292664 0.1589597 -0.15420768 -0.06854966 0.15326849 0.027848646 -0.11331203 -0.13983363 -0.19943836 0.01928398 0.019725075 0.18012667 -0.17224707 -0.08660482 0.059896633 -0.08365064 0.39754438 -0.09329908 -0.13200517 0.11680112 -0.03733452 -0.16497296 0.20668444 0.0033032799 0.029727282 -0.023546029 0.022257335 0.13150603 -0.09670416 0.053252265 -0.07618773 0.018232692 -0.12614313 0.07720816 0.065312 -0.13186309 -0.02008979 0.14899479 -0.1033005 0.15689893 0.09134849 0.15777397 0.120200016 0.17001611 0.33853647 -0.15444773 -0.19964802 -0.11898851 -0.06645546 -0.09326245 0.01087511 0.085988805 -0.040257383 0.06541436 0.22831774 -0.23366326 -0.0025115276 0.22331412 -0.2728484
8 0.07239305 0.1322767 -0.14981292 -0.08973208 -0.011156109 0.0058768527 0.33707866 -0.24873754 0.075544246 0.14328164 -0.15794358 0.14957929 0.13705143 -0.20718884 0.12527093 -0.045632083 0.23423824 0.04999837 -0.071880005 -0.11475359 0.029449238 0.08228646 -0.29347652 0.081700936 -0.050769567 -0.13760345 -0.124602 -0.121013574 0.110144794 0.1707417 0.00478488 0.1330205 0.08322962 -0.15827943 -0.20860282 -0.021936858 -0.21842347 -0.06873187 0.029233936 0.10743801 0.07919859 -0.048981026 0.07001391 0.07546139 -0.37885797 0.0015502195 0.041937623 0.038832862 0.10895423 -0.12724397 0.10627637 -0.014281924 0.036133066 -0.10218884 -0.16842453 0.12100691 -0.19714513 0.0821331 -0.068003684 0.14745471 0.09148599 0.13890281 -0.36582506 0.0055303588 0.11207528 -0.23596747 -0.18208213 -0.027714258 -0.23242548 -0.41498393 0.24126928 -0.1865717 -0.17866081 0.097258784 0.08031565 -0.26374048 -0.1356263 -0.041033532 0.03994175 0.13294524 0.21081087 -0.20318896 -0.08224474 0.095749475 -0.05902356 0.33602384 -0.21187787 -0.023490164 0.23284028 0.0043322193 -0.214523 0.35655722 0.027594686 0.059363656 0.10185839 0.032903288 0.23205395 -0.036995616 -0.067818485 -0.08382811 -0.011579784 -0.021433467 0.0066789947 -0.0031883712 -0.2057506 -0.023874676 0.082709774 -0.0117946835 0.08341489 0.11440257 0.124012165 0.108171776 0.08278239 0.22550942 -0.107151106 -0.24763034 -0.17046836 -0.10279508 -0.14416982 -0.11445193 0.034290712 -0.021100722 0.07004695 0.13320695 -0.15059602 0.009885853 0.14597678 -0.21611297
60 0.012809939 0.09141484 -0.01488814 -0.09717774 -0.030452903 -0.027513646 0.31007475 -0.24477398 0.04511933 0.0747226 -0.14982074 0.20031926 -0.02323062 -0.2644694 0.20620742 -0.009928435 0.27963784 0.08644608 0.04352466 -0.11555962 0.027566055 0.12984787 -0.37811917 0.09840226 -0.013374051 -0.18382856 -0.09232533 -0.079589486 0.028490003 0.16856223 0.080158435 0.08362554 0.14735007 -0.18775891 -0.1815692 -0.03709758 -0.1517507 -0.11337171 0.032324534 0.1454103 0.05497009 0.099109404 0.046462156 0.047438316 -0.32968742 0.009538702 -0.042610623 0.11947197 0.039183468 -0.20550562 0.19449383 -0.053517673 -0.08435638 -0.078839615 -0.13420135 0.070343755 -0.2657138 0.06609631 -0.15808499 0.1061076 0.03811029 0.10595588 -0.31045687 0.049618136 0.06373789 -0.13293983 -0.24253091 -0.07659669 -0.2610551 -0.33750564 0.1656795 -0.2657459 -0.13641445 0.08797992 0.002780383 -0.15212072 -0.19926962 -0.04427025 0.07734881 0.049384527 0.07976129 -0.0931525 -0.029774731 0.09125424 -0.11045448 0.23625469 -0.17696252 -0.07381464 0.19365726 0.06662742 -0.183585 0.33522123 -0.019157829 -0.01573314 0.14717372 -0.019632744 0.26548985 0.040242746 -0.030051986 0.0024135131 0.0082827015 0.024289992 -0.036042538 0.06665319 -0.21795097 0.008409213 0.14811543 -0.04158704 0.09288025 0.0895515 0.18278682 0.048803065 0.08033706 0.22153538 -0.1289876 -0.21071166 -0.11929298 -0.085742794 -0.19755282 -0.073846556 0.101406276 -0.033282384 0.109505795 0.20459723 -0.2312635 -0.036581855 0.17551558 -0.26944503
43 0.031425152 0.12687893 -0.110509336 0.0081881145 -0.00059848645 0.07092254 0.25934386 -0.1584816 -0.04023052 0.20927536 -0.17129037 0.18149972 0.057922468 -0.11283728 0.20260979 0.0088704005 0.20310114 0.016877158 -0.036428846 -0.09521233 -0.0406701 0.1243972 -0.31422365 -0.0035905298 0.010166592 -0.1864545 -0.14416218 -0.11414574 0.005978756 0.19294359 0.08023937 0.1234458 0.12007844 -0.12205106 -0.09678905 -0.11481384 -0.18678756 -0.088355035 -0.027084274 0.13065092 0.11121943 -0.022242494 0.07970407 0.14464715 -0.3217903 -0.062996365 0.03459667 0.14065608 -0.008266988 -0.12516196 0.14176223 -0.12321709 0.08801774 -0.1048775 -0.16512328 0.194552 -0.09581127 0.052123625 -0.16344805 0.17152931 0.05696449 0.09141806 -0.38121212 0.102646306 0.19222352 -0.23389426 -0.16661578 -0.08960916 -0.2118662 -0.3096161 0.16436766 -0.1398995 -0.19787647 0.117636316 0.014051583 -0.30191907 -0.14481242 -0.09088721 0.050010517 0.07517019 0.07017101 -0.04601252 -0.029051974 0.06357168 -0.05516941 0.27195373 -0.1307112 0.029922241 0.22964436 0.01198833 -0.15948229 0.22715206 0.065146215 0.025489561 0.098112546 -0.07343787 0.30324158 -0.0119670015 -0.06299307 -0.07895085 -0.028509602 -0.02268662 -0.11689374 0.057995312 -0.22243033 -0.10625891 0.08983564 -0.07241114 0.17442013 0.10171288 0.14624697 0.14766352 0.059893396 0.15270486 -0.19509548 -0.17323545 -0.06457165 -0.013335563 -0.11745735 -0.107348636 0.096686855 -0.040997796 0.09386755 0.12375904 -0.24536891 0.067569986 0.09885316 -0.14677648
14 0.12457528 0.08341344 -0.16260104 -0.025231374 0.012724015 0.09652224 0.3311968 -0.28068545 0.05274333 0.14052925 -0.18397486 0.21032396 0.11441759 -0.27330577 0.21768308 0.07379793 0.3211159 0.074113056 -0.05825478 -0.14716612 -0.037442204 0.15821268 -0.33447742 -0.06716424 -0.042868923 -0.1987059 -0.13425034 -0.10109308 -0.003134907 0.20098151 0.13469337 0.080309846 0.15463838 -0.13156873 -0.2152178 -0.09921896 -0.23410864 -0.1960972 0.012379037 0.15832172 0.056680515 -0.07107302 0.06681785 0.07218086 -0.3613171 -0.059454173 -0.03722048 0.15633069 0.034184963 -0.12666778 0.12234164 -0.05988019 0.034295257 -0.107236326 -0.26503915 0.19239058 -0.16239457 0.04979886 -0.11176135 0.24032688 0.11192398 0.07259471 -0.38266253 0.09806621 0.0060154307 -0.08472269 -0.1675366 -0.05377289 -0.20537241 -0.32439947 0.15135989 -0.1725514 -0.075226806 0.07227049 0.07771268 -0.1966167 -0.09992733 -0.057667095 0.06242671 -0.02213092 0.21915843 -0.12907106 -0.047145147 0.09203293 -0.08783224 0.29754338 -0.23429295 -0.017461542 0.17582022 -0.013318965 -0.1876852 0.31558532 -0.019439667 0.0026490653 0.055816874 -0.025282169 0.2501672 -0.05159558 -0.050391257 0.01062213 -0.0076458794 -0.0055919127 -0.06416358 0.036688816 -0.1768019 0.009043063 0.10911551 -0.08655861 0.12823732 0.061111774 0.15241249 0.082673706 0.026108587 0.17271514 -0.1686677 -0.23938026 -0.19405691 -0.14455552 -0.18575484 -0.16052419 -0.009963559 -0.00452046 0.046079665 0.28031388 -0.2302596 0.056623306 0.05790122 -0.20108189
39 0.24039863 0.06979824 -0.07951788 -0.0752529 0.1270232 0.26322562 0.18335675 -0.24269296 0.018894993 -0.063826315 -0.43789268 0.082215205 -0.029841129 -0.19050728 0.50244886 0.24354483 0.10698356 -0.17922346 -0.0333551 -0.0445737 0.034624163 0.041529533 0.058365237 -0.04491494 0.12188824 -0.089423195 0.10884923 -0.08114473 -0.011007843 0.17702927 0.10215492 -0.38497376 0.04196182 -0.07776868 -0.40108052 -0.114882566 -0.32451066 -0.3243038 0.08417169 -0.08554093 -0.07810526 -0.2705194 -0.00692605 0.013578483 -0.08572339 0.18951437 0.012403208 0.1606882 0.010832751 -0.09503847 -0.2291243 0.13585372 -0.056907278 -0.19957419 -0.21726857 0.037418697 0.046613634 -0.0014509084 0.21577598 -0.12716596 0.085391566 -0.075598575 -0.13957582 0.22219326 0.010705252 -0.23750529 -0.17733954 -0.1404165 -0.04726542 -0.17161109 -0.0603631 0.010086253 -0.1841103 0.24400659 0.06841701 -0.43648052 -0.21387126 0.2805155 0.09816605 0.10580779 0.024701562 -0.06813333 0.09310294 0.23071769 -0.026004132 0.07860674 -0.05572384 0.12792088 0.26532716 0.036095683 -0.19432655 0.07854032 0.18179154 0.06936331 0.03939011 -0.2682592 0.4038241 0.17629652 -0.17050053 -0.1688016 0.23028676 0.21881805 -0.25149697 -0.19686635 -0.21373817 0.10894729 -0.08979686 0.1830077 -0.003960857 0.06653548 0.114213504 0.1941406 0.020024847 0.16403274 -0.16696236 -0.33043608 0.023559708 0.032619543 0.14822058 -0.43050572 -0.09377498 -0.15186457 -0.04244319 0.53491694 -0.38995987 -0.00337683 -0.17560193 -0.006726897
2 0.203414 0.07456981 -0.058442075 -0.019690441 0.14304905 0.21995245 0.22560725 -0.25578442 0.011655502 -0.07549556 -0.4634326 0.053911604 -0.13512477 -0.22005112 0.5979765 0.22684634 0.023761982 -0.14992385 -0.07310932 -0.16269507 0.013014188 0.10054556 -0.03694258 -0.0023751284 0.067392044 -0.20098306 0.16081803 -0.10756867 -0.03757677 0.21196556 0.08026061 -0.40135986 0.08675831 -0.07261355 -0.4901815 -0.06595829 -0.34915206 -0.35198694 0.0581181 -0.09461596 -0.18579696 -0.23379259 0.008300596 -0.014724654 -0.13413945 0.13231415 -0.021627681 0.20574374 0.074296616 -0.17389816 -0.13011613 0.17933878 -0.13231464 -0.1870088 -0.3033691 0.108039476 -0.020883463 0.02147704 0.24680994 -0.026143907 0.058848828 0.009265189 -0.20379339 0.1891192 -0.08592054 -0.11074831 -0.14173172 -0.14976382 -0.050208986 -0.18748423 -0.043628775 -0.044540517 -0.22761758 0.17001997 0.0660362 -0.29502907 -0.14819825 0.30892143 0.08014664 0.11368979 -0.009341429 -0.07101323 0.15473394 0.26269028 -0.048856106 0.021256834 -0.016668404 0.07250224 0.30349073 0.13600732 -0.2978742 0.059827957 0.16826469 0.01205625 0.16124453 -0.16492997 0.48064855 0.15208688 -0.2316588 -0.15466884 0.09553447 0.19767931 -0.19858533 -0.09157577 -0.2913472 0.003470836 -0.036976337 0.129992 0.02210926 0.12914194 0.11787702 0.2345592 -0.005237456 0.1207299 -0.16499071 -0.2874712 0.0043835547 -0.024414152 0.081353635 -0.37119097 -0.111514874 -0.11630994 -0.01754291 0.41191462 -0.27516446 -0.05041873 -0.20614055 -0.004586916
41 0.15693828 0.048430838 -0.015691917 -0.10832942 -0.03734185 0.02469985 0.30011114 -0.21191566 0.05605311 0.1449114 -0.13321087 0.18801762 0.047912903 -0.22637692 0.1947809 -0.0050206603 0.31142128 0.02862939 0.032750033 -0.06702577 0.007250919 0.14089411 -0.33209258 0.016415035 0.027041333 -0.18688495 -0.11184297 -0.08332396 -0.02503887 0.22594112 0.043404713 0.059968233 0.08901095 -0.123076856 -0.18228662 -0.049931776 -0.14827916 -0.10438175 0.06279165 0.085689075 0.1846677 0.07137864 0.06263347 0.092527874 -0.312742 -0.026008274 0.017909762 0.15864323 -0.051866777 -0.15561993 0.18334614 -0.12773594 -0.02573982 -0.05775654 -0.04732864 0.10044319 -0.14208077 0.04499456 -0.14769389 0.11786755 0.0701739 0.040427696 -0.31040782 0.02758644 0.13880329 -0.15720525 -0.22032037 -0.013509682 -0.2524415 -0.23711184 0.15899622 -0.18003994 -0.03974069 0.14908102 -0.031646356 -0.16472287 -0.14441836 -0.14742137 0.04051607 0.027491875 0.11875194 -0.089069694 -0.10493616 0.017962445 -0.09734972 0.41214362 -0.13194002 -0.046775866 0.22804008 0.009134924 -0.17080507 0.31771535 -0.03333302 -0.0115269 0.09776113 0.028968902 0.1875323 -0.05907449 0.05916214 -0.048692185 0.013205639 -0.062154584 0.030643629 0.1375673 -0.15511736 -0.06794342 0.12540518 -0.12804443 0.12321376 0.044442095 0.10788078 0.11738636 0.085616015 0.33667213 -0.19907631 -0.2189371 -0.13262686 -0.038480345 -0.16307628 -0.0713968 0.09590315 -0.07982205 0.089138225 0.25580588 -0.24818486 -0.0025569354 0.23079586 -0.26985222
9 0.14628229 0.18105586 -0.13472265 -0.05506756 0.0029587701 0.058982145 0.3113183 -0.16940564 0.119984165 0.19656612 -0.23168075 0.15102932 0.020442268 -0.2478549 0.057118554 -0.13102095 0.38534907 0.058346923 -0.1871016 -0.030529857 0.017021693 0.121277325 -0.21132359 -0.08842847 -0.1223075 -0.13884284 -0.17153306 -0.1170672 -0.05011426 0.18911745 0.104301065 0.1484758 0.077675596 -0.23818262 -0.27125296 -0.13600025 -0.21511413 -0.11951086 0.15239577 0.17825654 0.069768265 0.009473093 0.032764986 -0.026904855 -0.32082844 -0.011279376 0.05012615 0.09044333 0.057340883 -0.063474216 0.028010538 -0.024550144 -0.005551359 -0.07481097 -0.097642094 0.07187865 -0.14485344 0.04996981 -0.12431501 -0.0029840185 0.17333117 -0.042393547 -0.18433034 0.10467142 0.1322345 -0.08751212 -0.24752091 -0.009890016 -0.23720506 -0.33638385 0.1807869 -0.21204416 -0.057628825 0.13096495 0.09814946 -0.18730205 -0.1953057 -0.07346325 -0.005590846 0.06369926 0.28550935 -0.11018213 -0.12352802 0.0683772 -0.008500948 0.30059987 -0.15604757 -0.08521381 0.11868674 -0.0772377 -0.19651018 0.23752668 0.021147339 -0.021522844 0.07350047 -0.07224182 0.15752004 0.021241685 0.05780502 -0.07226329 -0.004145155 -0.033167496 0.107452795 0.059826583 -0.10726781 0.020669712 0.1297578 -0.07846821 0.10643831 0.10311396 0.10075987 0.08239371 -0.0017022564 0.19864346 -0.11693521 -0.11751631 -0.16381651 -0.090136744 -0.10737182 0.02899244 0.03331019 -0.004005496 0.10842683 0.21252485 -0.15732212 -0.02278049 0.23354311 -0.28499582
26 0.6854145 -0.25589094 0.46774018 0.06150075 0.034376647 -0.02109517 0.25581995 0.047664706 -0.047259953 0.39419267 -0.24377131 -0.27551472 -0.09996208 -0.042435735 1.0005795 0.22564171 0.72053915 0.13780884 -0.12356634 0.036844153 -0.35123396 0.33275628 -0.2556852 0.038914528 0.027265288 -0.34922177 0.55338144 0.24444343 -0.045440577 0.277064 -0.22614287 -0.23500818 -0.11288832 0.22598878 -0.6169445 0.029388024 -0.057505853 -0.27065474 0.663744 0.11849066 -0.44956547 -0.31870183 -0.09074116 -0.06229056 0.16427694 -0.15924965 -0.30213833 0.27307 0.108746946 0.26628897 -0.11561322 -0.021450223 0.47662112 -0.26589978 -0.46077213 0.10562102 0.13740854 0.3189063 0.1080431 -0.046784278 -0.2163887 0.33361745 -0.622095 0.21742633 0.5884344 -0.53369707 -0.44412497 -0.28817523 0.09769952 0.23759185 -0.017402291 0.615946 -0.038188413 0.032942712 0.53162265 -0.30112293 -0.6936238 0.13389157 -0.28860176 0.48558876 -0.10449362 -0.1617806 -0.07975939 0.48134232 0.042012293 0.17483388 0.123858556 -0.43939635 -0.024744783 0.16336165 0.001670182 -0.5982439 0.3418574 0.30335936 -0.44615316 0.3559195 -0.052071296 0.039971694 -0.011647017 -0.37488258 0.5180861 -0.6218233 0.23466557 0.078805156 -0.016987424 0.09887624 -0.06687973 0.012083176 -0.08405601 0.09515925 -0.16210128 -0.09048896 0.27496502 0.10986975 0.26027793 0.31665117 -0.15951127 -0.16244023 0.09364827 0.28822815 0.013626876 0.16911465 -0.076992325 0.28942224 0.005961948 0.12010249 0.19845125 -0.029660296
59 0.06954681 0.09421104 -0.15575865 -0.063216776 0.06798374 0.22547264 0.1915264 -0.2847908 -0.029720843 0.0772662 -0.39981568 0.16442841 -0.050736092 -0.19476618 0.382307 0.2761165 0.15225713 -0.054780174 -0.1103284 -0.07340916 -0.07872514 -0.06261566 -0.05760734 -0.0011270195 0.07771936 -0.2097853 0.14387204 -0.1864765 -0.10357363 0.20509881 0.14044102 -0.27680185 0.058976147 -0.014780692 -0.33475533 -0.057296876 -0.2701438 -0.25276405 0.08580189 -0.08415763 -0.05898971 -0.22058547 -0.020991394 -0.033603344 -0.11468299 0.17368528 -0.04657158 0.24429205 0.028934972 -0.10671828 -0.085457444 0.05848127 -0.013833917 -0.115738325 -0.29298532 0.062466573 0.08597857 -0.054638706 0.14958309 0.013749776 0.046081632 0.023219833 -0.27924427 0.15566486 0.0023443038 -0.13603142 -0.1513899 -0.13458428 -0.03857133 -0.13508599 -0.024283072 -0.01389504 -0.18629844 0.16133828 0.13279459 -0.36157662 -0.14320448 0.2795463 0.0397939 0.106727704 -0.03864889 -0.01173515 0.0852615 0.21745704 -0.007176632 0.025847299 -0.11261316 0.10721717 0.30459785 0.035216294 -0.22212687 0.049410127 0.13785961 0.057028946 0.11738136 -0.27462432 0.41395783 0.09755003 -0.23021281 -0.0931905 0.10266058 0.17833461 -0.32117978 -0.06711959 -0.2950883 -0.03076289 0.0031192268 0.1349458 -0.02401559 0.15535003 0.07135435 0.14230675 0.0042921053 0.12643614 -0.14985071 -0.24417546 -0.08439608 0.0145530375 0.06696474 -0.4478775 -0.03817431 -0.10578028 -0.010123647 0.43310592 -0.32241264 0.014318813 -0.17654663 -0.008512504
45 0.21633002 -0.07616712 -0.023124635 -0.07705293 -0.047571886 0.023374995 -0.028444167 0.24678862 -0.035046864 -0.03601801 -0.20603554 -0.039506074 -0.15702875 0.23470463 0.117054366 -0.17648031 0.09869343 -0.08515992 -0.40800634 0.19402312 -0.034044765 0.27971122 0.12302299 0.3555121 0.009352704 0.21122196 0.11050388 0.13858229 -0.037639365 -0.012980929 -0.178749 0.10959789 0.23316087 -0.19483994 -0.19599149 -0.05148696 -0.058450848 -0.30944246 -0.05069278 0.22291014 -0.32903123 0.029507482 0.009700388 -0.0887718 0.13288273 0.11224546 -0.2013482 0.26686788 0.19934797 -0.015656631 -0.051248766 0.1668631 0.11415203 0.046317466 -0.42240316 0.075864695 0.0605576 -0.0011362678 0.23522604 0.05548113 -2.8968294e-05 -0.32777 0.03682721 0.49985588 0.24928597 0.27943182 -0.12483678 0.019226497 0.03485309 -0.17543416 0.12693019 -0.13916747 0.014584682 -0.21439254 0.34202534 -0.069639474 0.05616218 0.1968114 -0.18827735 0.02609463 -0.32835478 -0.49126226 0.072473474 0.08746665 -0.28922498 0.0002970859 -0.06518641 0.10831733 0.36322632 0.19504616 -0.1036098 0.038039193 -0.11881147 -0.02928321 0.24348287 0.35572416 0.010210643 -0.4451116 0.41672215 -0.12736006 -0.18695569 -0.014657907 -0.20806357 0.36481705 -0.5871274 -0.22032537 0.18575406 -0.03834956 -0.31871256 0.21970902 -0.049609523 0.23438363 0.020624325 0.2147098 0.051921893 0.036529817 -0.021538831 0.10751929 0.3068411 0.06689342 0.0113185225 -0.19838724 -0.0262766 0.22896338 0.18014537 -0.12959357 -0.03522891 0.0034777476
57 0.74332917 -0.30061588 0.5105589 0.002742588 0.047692623 0.027211405 0.26774064 0.07592736 0.0070045753 0.48859766 -0.2964435 -0.35707614 -0.136274 -0.04957829 1.0860797 0.2169024 0.55776584 0.14719734 -0.08265399 0.123812065 -0.3490247 0.33029377 -0.18138991 0.068662696 -0.04827206 -0.26429275 0.5154159 0.31374356 -0.072448015 0.28118244 -0.37812263 -0.25218767 -0.055622295 0.21423963 -0.6591384 0.03140693 -0.08804777 -0.3164302 0.6367888 0.12990852 -0.36699933 -0.32829505 -0.13720292 -0.051285688 0.07060484 -0.18402041 -0.2554578 0.28326672 0.072698265 0.19862142 -0.16420427 -0.020376172 0.4848611 -0.14311856 -0.4031003 0.13708837 0.14444125 0.25065163 0.28232765 -0.008766173 -0.110087916 0.3114209 -0.6159592 0.18720762 0.5081533 -0.48174068 -0.44923976 -0.23666345 0.095868304 0.16301684 -0.06034666 0.5330267 0.033996344 0.09488799 0.5145423 -0.2921126 -0.5914717 0.09049258 -0.31617317 0.36695087 -0.1672573 -0.16942194 -0.06466913 0.36910316 0.058769584 0.2815724 0.16072868 -0.44262394 -0.08089796 0.13716201 0.0071219625 -0.514112 0.21750487 0.25967723 -0.46748587 0.38072613 -0.10170555 -0.07636621 0.12205005 -0.34831363 0.45154288 -0.61609197 0.30218092 -0.034536343 0.10138063 0.064613335 -0.17152487 -0.0903945 -0.0022326512 -0.007274331 -0.18169004 -0.05963074 0.27523306 0.19561654 0.28340483 0.32918403 -0.094618626 -0.20107621 0.08614155 0.29337513 -0.0498422 0.25490156 -0.18074061 0.42973265 -0.10766025 0.1511862 0.18984377 0.028828917
4 0.19892871 0.095298484 -0.07772439 -0.081366204 0.047071245 0.14793858 0.15773618 -0.16118467 -0.015656425 -0.035475604 -0.42492214 0.06508897 0.027892351 -0.13960335 0.4707284 0.1814882 0.30841938 -0.22178452 -0.060764927 -0.027714357 0.15287302 0.07923652 0.009358452 0.006472581 0.16383119 -0.11640092 0.061294004 -0.052257042 0.05356806 0.23148644 0.0783602 -0.30308107 0.047615565 -0.1336454 -0.39169917 -0.08083163 -0.29990253 -0.34003 0.058239046 -0.07776317 -0.12860842 -0.20834854 0.056787405 -0.001177592 -0.084939025 0.17650986 -0.07265433 0.19544022 -0.02851266 -0.12936597 0.018110482 0.047479678 -0.051182777 -0.17081584 -0.22660644 0.045413833 0.052384526 -0.020657253 0.11861136 -0.050066374 0.063149616 -0.10575392 -0.32876372 0.053106546 -0.09564957 -0.11277441 -0.11858319 -0.11320088 -0.050372355 -0.15651922 -0.054508977 -0.06447598 -0.09622193 0.15842265 0.05595511 -0.21787225 -0.054437913 0.24369378 0.070476934 0.10360251 0.0017232184 -0.097323105 0.06610762 0.18448943 -0.013436968 0.15387991 -0.10756726 -0.00031853653 0.2971688 0.04606484 -0.31023836 0.15230784 0.1393371 -0.0153878555 0.19873035 -0.06120021 0.4202527 0.23354776 -0.13465516 -0.108347856 0.19440383 0.26913533 -0.18342544 -0.20328258 -0.14530048 0.06583727 -0.11709448 0.16519997 -0.002094315 0.065198995 0.07459054 0.2246603 -0.0010924038 0.06661539 -0.23844852 -0.27820525 -0.04963394 -0.03774532 0.027989822 -0.42640564 -0.054696504 -0.08437108 -0.032142613 0.39615366 -0.335627 0.056146543 -0.15976772 -0.01861247
28 0.17512095 0.10852431 -0.011793482 -0.11469458 -0.13822916 -0.10671399 0.16019104 0.23269193 0.016395869 0.052126776 -0.12294433 0.09131087 -0.1112819 0.3685624 -0.046785194 -0.28739396 0.24327518 -0.17115586 -0.45274955 0.21228948 0.09035263 0.1977453 -0.0172311 0.3581007 0.11297459 0.18011689 0.07166264 0.17178698 0.018912643 0.15855964 -0.25141096 0.08105219 0.16428675 -0.2411321 -0.020674752 -0.113772705 -0.09630129 -0.2739269 0.10751837 0.33662385 -0.32630593 0.061293516 -0.07687817 -0.06289945 0.26014674 0.03297604 -0.11907916 0.28446072 0.07703224 0.05497651 -0.0742795 0.08545892 0.034474 -0.017981868 -0.32231885 0.051155783 0.037303347 0.027379034 -0.059260823 0.04225762 -0.032561127 -0.44317216 0.13757509 0.5378387 0.2936328 0.11043927 -0.14974484 0.019015692 -0.159987 -0.15641925 0.10970159 -0.07802112 0.031675484 -0.1295593 0.21755226 -0.25378308 -0.0624862 0.23738413 -0.05899243 0.025771055 -0.22104037 -0.49440974 -0.010827563 0.077833064 -0.294406 0.04944834 -0.15450302 0.13443172 0.5055648 0.25807962 -0.07519792 0.086491846 -0.017706133 -0.0045318888 0.16150098 0.3212662 0.03777013 -0.26114205 0.35641637 -0.07863429 -0.08191852 -0.037113182 -0.1751816 0.4296499 -0.63520193 -0.1850557 0.1348821 -0.054314144 -0.42661348 0.16635162 -0.07265155 0.15529881 0.0041013747 0.12180202 0.05493554 0.066390015 -0.07104872 0.098836504 0.2212181 -0.016191183 0.032966297 -0.26522523 0.045083344 0.35110807 0.058602978 -0.18198134 -0.022984976 -0.07657709
44 0.660698 -0.1366675 0.46823016 0.03373338 0.043430325 -0.03648015 0.28193253 0.02497605 -0.072385505 0.5537229 -0.21615738 -0.30782068 -0.1251332 -0.09697368 0.99883986 0.16438302 0.50033516 0.12915914 -0.050049167 0.02118504 -0.31570882 0.13728493 -0.16887358 0.019130617 -0.03148508 -0.2838582 0.44906363 0.15585652 -0.055564187 0.27749753 -0.34519753 -0.25283802 -0.18526046 0.12938397 -0.5517583 0.0053681997 -0.08726514 -0.22773352 0.6888515 0.13137041 -0.402525 -0.2945942 -0.14522333 -0.045960076 0.07900643 -0.20876613 -0.22106354 0.2665361 0.10687612 0.16416122 -0.1307852 -0.018145096 0.46788168 -0.22505456 -0.28266132 0.17284018 0.0585606 0.3131741 0.12007321 -0.0355338 -0.10422171 0.3321946 -0.6413827 0.190211 0.5632728 -0.6165881 -0.3783119 -0.23320664 0.022635996 0.07350373 -0.01380094 0.5399089 -0.030702172 0.12213307 0.46737123 -0.31159252 -0.6532672 0.056736503 -0.22203785 0.4706895 -0.124231786 -0.13827805 -0.02804917 0.4380777 -0.010650882 0.2521871 0.186113 -0.42624584 -0.040049452 0.16026017 0.03036567 -0.5152741 0.30770355 0.25211543 -0.45882905 0.3799869 -0.11799692 0.037685066 0.083972394 -0.3326207 0.42157474 -0.59902453 0.3169359 0.029273104 0.08943921 0.1854021 -0.13455215 -0.076863244 -0.0872637 0.013857162 -0.14441162 -0.059963576 0.3391908 0.19713147 0.201745 0.26052898 -0.14435016 -0.16378301 0.05018968 0.29888487 0.049147133 0.19327208 -0.0852982 0.31920663 -0.08251422 0.118704066 0.31751838 -0.072314754
25 0.69770706 -0.29776728 0.51284516 -0.038038284 0.014174415 0.01587518 0.30790275 0.09403644 -0.051287703 0.58335286 -0.29172185 -0.30066064 -0.202844 -0.07366931 0.9865377 0.17058505 0.7709198 0.21229284 -0.17987508 0.12651078 -0.32006904 0.36724272 -0.22354746 0.089724295 -0.007684728 -0.34379956 0.47324866 0.29947147 -0.037532642 0.3807599 -0.36171696 -0.13911213 -0.065226026 0.1833768 -0.6231175 0.044786904 -0.04580744 -0.3193639 0.6962838 0.14580563 -0.30193865 -0.36688176 -0.1402161 -0.05594761 0.055814344 -0.12856384 -0.31580108 0.3466976 0.033991195 0.19167732 -0.08809134 -0.069091596 0.4701991 -0.12474608 -0.39265114 0.06221682 0.14491516 0.20548403 0.24021138 0.010850296 -0.15829122 0.29378462 -0.61493945 0.15948607 0.5106592 -0.47038388 -0.44603115 -0.16467662 0.029343206 0.17774642 -0.075974815 0.5112942 0.037815504 0.083573066 0.4694705 -0.33325654 -0.59748554 0.13457894 -0.33866942 0.35574305 -0.2077978 -0.1096059 -0.15523082 0.32734936 0.08016474 0.34655136 0.12972595 -0.4031429 -0.026251113 0.20972751 -0.020058097 -0.46594533 0.2520376 0.2700298 -0.45681688 0.3484002 -0.056006 -0.031850435 0.078221165 -0.34645554 0.5377058 -0.58092207 0.24675542 -0.0218752 0.04515311 0.019907989 -0.1422165 -0.02083894 -0.036191516 0.01782489 -0.197674 -0.114307724 0.21013902 0.14230725 0.35835308 0.43175068 -0.108343884 -0.1969403 0.051976956 0.3369525 -0.0035202904 0.25256628 -0.16783614 0.4100681 -0.105328225 0.13131146 0.16799784 0.021489782
38 0.17515595 0.06246622 -0.07648154 -0.04022445 0.166232 0.26781702 0.23145723 -0.25857627 -0.03753772 -0.04785957 -0.5425423 0.047255546 -0.12591518 -0.28876957 0.69007903 0.24216338 0.14489813 -0.16417712 -0.08208965 -0.13757662 0.03497642 0.09737429 -0.018380953 0.051894933 0.06181959 -0.16701683 0.07332164 -0.08036609 0.014783558 0.2524435 0.047224477 -0.35608763 0.032685254 -0.10018226 -0.48602977 -0.055878103 -0.35271642 -0.3280438 0.061129734 -0.2223351 -0.06458692 -0.2812985 0.024049014 -0.011790306 -0.23255542 0.25503972 -0.0069451802 0.21941815 0.074480906 -0.21363376 -0.10008835 0.12692498 -0.119959176 -0.17265154 -0.2531016 0.015480082 0.002503031 -0.034720797 0.257248 -0.045886826 0.10630111 0.0059205126 -0.22542663 0.109999344 -0.13183746 -0.09816459 -0.15125658 -0.130018 -0.0269322 -0.23573166 -0.08372216 -0.0742673 -0.2507305 0.20671158 0.004457356 -0.36522743 -0.101784356 0.34257528 0.070778534 0.118216135 -0.08174754 0.045710765 0.1628903 0.20712903 0.010006012 0.019008655 0.060920052 0.14005722 0.31817284 0.1672766 -0.32201192 0.06289999 0.17028283 0.038525395 0.14150372 -0.25256333 0.46748012 0.23384434 -0.23993987 -0.10584868 0.17059776 0.36453858 -0.24926957 -0.2305969 -0.19465691 0.094359264 -0.10131869 0.22518313 0.040426012 0.072580755 0.1468554 0.22086558 0.037226792 0.23081896 -0.21881597 -0.38558012 0.019823559 -0.004186533 0.12238833 -0.49497426 -0.12663166 -0.16600534 -0.012402787 0.57185745 -0.4236717 -0.068423346 -0.23829587 0.005251612
3 0.1674496 0.07867572 -0.09164852 -0.043004066 0.1703602 0.26945853 0.07633569 -0.25515994 0.0017018525 -0.13633882 -0.44853398 0.090583965 -0.10395274 -0.3199523 0.57437795 0.29410484 0.019288959 -0.18637484 0.028784698 -0.13634172 0.00018887792 0.030994825 0.06494618 -0.033055406 0.12303862 -0.19207233 0.08189991 -0.129742 -0.04881164 0.17391649 0.18489258 -0.45890373 -0.016827237 -0.11039565 -0.576148 -0.11024583 -0.2411634 -0.4575474 0.17207785 -0.092920646 -0.14958665 -0.17150149 0.025451835 -0.08784132 -0.09946237 0.16413541 -0.049640257 0.1861872 -0.024770444 -0.19440477 -0.07879327 0.114545316 -0.08716277 -0.14724788 -0.16842306 0.09328727 -0.01882546 -0.008418497 0.23213698 -0.041571442 0.18181907 -0.21970269 -0.23409462 0.22876658 -0.080631256 -0.23202558 -0.23388526 -0.14081052 -0.09405913 -0.1694039 -0.14110573 -0.10625089 -0.12078388 0.21718538 0.07471905 -0.3126973 -0.26731583 0.299645 0.1482725 0.19850178 0.024238866 -0.018244926 0.11718998 0.30210054 0.013554292 0.14329949 0.021390162 0.005197823 0.24864715 0.12172902 -0.2999677 0.12097751 0.20263076 -0.0017023333 0.16010286 -0.17413855 0.47645658 0.22866862 -0.14859672 -0.12245045 0.19955622 0.24953376 -0.22213714 -0.24123944 -0.21553652 0.16798766 -0.119567975 0.17311604 -0.01019441 0.009624267 0.16775088 0.270229 -0.0073573343 0.13660687 -0.2270633 -0.32145068 0.011245928 -0.010212793 0.0681109 -0.3779858 -0.15990701 -0.10940311 -0.085288756 0.5019647 -0.3008781 0.0020427152 -0.06286077 -0.08867924
27 -0.040138133 -0.26701874 0.23005918 0.08249949 0.041336913 -0.046475098 -0.14972317 0.06859198 0.0645902 -0.34402657 0.16841559 -0.16034782 -0.31162262 -0.08880963 0.0092795845 -0.06832786 0.14192934 0.13717361 -0.021254405 -0.010958794 0.09504989 0.34797502 -0.021775002 -0.17447306 -0.15468675 0.04410892 -0.147181 0.260883 0.09373951 -0.015454879 -0.029426767 0.17152633 -0.08142157 0.2686173 -0.16031055 0.07537507 0.29546243 -0.07902228 0.16560096 0.054090425 -0.16417345 0.1098832 0.039394807 -0.25310874 0.11137268 -0.080783404 0.026980571 -0.22694618 -0.24151523 0.13907845 0.13522762 -0.19855012 0.21800539 0.1766233 -0.1526549 0.063037395 0.16594845 -0.08580333 -0.272951 0.06992574 0.12354086 -0.3021938 0.07740297 -0.039232466 0.05150378 0.12597454 -0.11348786 -0.033035647 -0.13664795 0.0055201044 -0.118901215 -0.21718188 -0.3825965 -0.097016945 0.017917588 -0.22142397 -0.1780426 0.047711167 -0.22405647 0.15457536 -0.008769724 0.0027078337 0.083995424 0.19491918 0.28106096 0.005559461 0.2563085 -0.22985986 0.23881151 0.26709864 -0.257865 -0.32297418 -0.15888001 0.06544622 0.3801513 -0.03081848 0.06518311 -0.2130516 -0.27300224 -0.17379631 -0.039229896 -0.26929852 -0.052162547 -0.09285186 0.05141105 -0.28044868 -0.089687236 -0.15629852 0.26001737 -0.17845635 0.09462505 -0.033126093 0.2732644 0.17970039 0.02118904 0.012956832 -0.06209048 0.042644374 0.054328263 -0.1186843 -0.027434355 -0.16512638 0.10302292 0.230201 -0.016159667 -0.14798324 -0.040166784 0.08646546
68 0.14619799 -0.3445679 0.3598202 0.050791044 0.026207825 -0.095971785 0.04259109 0.0121597815 0.12019157 -0.4040072 0.110746086 -0.27348542 -0.20966637 -0.08717328 0.12316653 -0.10493124 0.22420076 0.0022594323 -0.10774748 0.005087843 0.30023485 0.45948482 -0.039087012 -0.17759557 -0.10850107 0.1491838 -0.18791455 0.2814165 0.22179765 0.04734045 -0.18883961 0.15204348 0.028734155 0.18994498 -0.13634929 0.031736024 0.14361915 -0.008469437 0.15724024 0.024814442 -0.059047032 0.016583228 0.105426855 -0.125887 0.021631531 -0.0131294625 0.121806726 -0.2606243 -0.23776373 0.118101284 0.11398294 -0.18258636 0.17290187 0.059935596 -0.17486459 -0.0023351666 0.27892977 -0.13406564 -0.25425518 -0.093653515 0.112232484 -0.28400362 0.1312569 0.04303418 0.114195004 0.028548317 0.004693631 0.020082925 -0.08930704 -0.05805243 -0.10022782 -0.044526342 -0.48602775 0.054214228 -0.13877843 -0.2680183 -0.008572362 0.053434115 -0.2996006 0.086088985 -0.043462828 -0.04878588 0.06261352 0.12130393 0.28394836 -0.033056322 0.27524862 -0.2148535 0.30814686 0.24130405 -0.24211994 -0.3310157 -0.13138933 0.09007087 0.29727545 -0.10254347 -0.12741986 -0.16577259 -0.16930681 -0.15516631 -0.025382526 -0.18187685 0.018273799 0.010319247 -0.020550309 -0.30477735 -0.094312415 -0.082180925 0.09967261 -0.19987875 0.039461076 -0.05483565 0.22250435 0.1894411 0.01085087 0.045058977 0.046166077 0.14580159 0.16420645 -0.15208887 -0.025591362 -0.24387842 0.11741935 0.12858427 0.0045772498 -0.23436564 -0.23751053 0.17580669
51 -0.083992936 0.15618809 -0.22870749 0.15842845 0.16856667 0.21367525 0.22043751 0.2218205 -0.2556096 0.28087243 0.16554545 0.17618367 -0.20280905 0.14927374 0.19696349 0.20902926 -0.006089177 0.035790186 -0.13538295 -0.028884396 -0.33778852 0.36808577 0.15384859 -0.041578535 0.055133298 0.04011312 -0.036809895 0.18965527 0.088638596 0.0011037048 0.35513324 -0.007913839 0.10040352 -0.05783211 -0.1974938 -0.18802786 0.21912411 -0.21230686 -0.09428156 0.10923304 -0.25913492 -0.19550316 0.12800281 0.044433285 0.34768683 -0.12603764 -0.4313087 0.14372517 0.02259532 -0.04891469 -0.3806948 0.12549347 -0.06407775 0.26957428 -0.14757621 0.16592805 -0.27309722 0.099636115 0.314281 0.4738432 -0.097596675 -0.15847063 0.15887254 0.39643347 -0.04890165 0.2686718 -0.29957625 -0.40468684 -0.20543438 -0.03230399 0.20736417 -0.108316764 0.04433549 -0.3397629 0.4043491 -0.8616909 -0.37950057 0.37127364 0.38876402 0.17943323 0.1631601 -0.48074573 0.008422094 0.3381435 -0.10462193 -0.16705643 -0.16097046 0.3443572 0.37386963 0.31216562 -0.2329476 0.26731616 0.015894625 0.115536295 0.16978727 -0.052980773 0.44323128 -0.100237966 -0.46796992 -0.08409188 0.20323806 -0.0051102396 -0.67802054 -0.1469024 -0.42846525 0.1726992 -0.044163547 0.049161278 -0.13995828 0.056524303 0.33135286 -0.009264785 0.26551616 0.2471835 -0.044939395 -0.5891998 0.060713597 0.037773255 0.32087374 -0.81425005 -0.25132638 -0.21443653 -0.12933718 0.9075285 -0.6284314 -0.069225855 -0.10795142 -0.20040749
33 -0.31973907 0.09068542 -0.20941009 0.30500174 0.21179555 0.26467103 0.060742058 0.26772213 -0.3265404 0.18326403 0.11340356 0.12512808 -0.30614144 0.101640895 0.23329222 0.15811776 -0.14012605 -0.0015452425 -0.23242998 -0.07202297 -0.35399586 0.23151207 0.12969375 0.006118151 -0.10882991 0.06818057 -0.038555965 0.11728113 -0.053633273 -0.14881137 0.32364583 0.016713722 0.031920385 -0.052084852 -0.3282411 -0.21020634 0.2783224 -0.18593104 -0.028090252 0.05422063 -0.32101047 -0.16299559 0.1666153 -0.045024637 0.28856 -0.04673258 -0.31419516 0.10786705 0.10691154 -0.060731713 -0.3354359 0.108589344 -0.010686322 0.17940217 -0.21044676 0.14553724 -0.24687412 -0.013187938 0.23237087 0.46510082 0.058134984 -0.09613957 0.2174589 0.48276237 0.08931245 0.3009302 -0.3790857 -0.42812702 -0.10121383 -0.13844705 0.23257433 -0.0013627564 -0.08281181 -0.37634283 0.4129981 -0.8837427 -0.49951446 0.42848536 0.3492721 0.25674984 0.16524042 -0.33839077 0.13088213 0.39752075 -0.15311623 -0.114293694 -0.05356863 0.44584084 0.4890487 0.2851292 -0.15402642 0.335914 -0.015314713 0.18864633 0.19297498 -0.054333907 0.4411219 -0.21659388 -0.40256867 -0.079854526 0.081069455 0.11668046 -0.68293583 -0.07478606 -0.5440874 0.21017487 0.09254034 0.10853947 -0.043425817 0.06652938 0.42110395 0.06930043 0.2911118 0.40767258 -0.051298335 -0.6899298 0.021098007 0.123775356 0.35781494 -0.6679679 -0.23408277 -0.25333259 -0.0389761 0.7669035 -0.41577908 -0.08352038 -0.06795449 -0.109723605
34 0.0027320893 -0.073897205 0.013101634 0.30605498 0.2785379 0.231084 0.061770495 0.20941855 -0.28589255 0.23902746 0.08064255 0.18780658 -0.6179029 0.0013888341 0.33136448 0.33147207 0.005411761 0.124372624 -0.26356792 -0.022947714 -0.19275309 0.261775 0.31971514 -0.26807526 -0.1247021 0.09022402 -0.08540519 -0.0283343 -0.21465436 -0.1751449 0.48051468 -0.019251747 0.15440367 0.17441529 -0.55500066 -0.10556916 0.36004126 -0.22299838 0.0969831 -0.06988556 -0.28875694 -0.004440547 0.10457835 -0.20514755 0.3480888 -0.04424501 -0.473669 0.35004193 -0.018559381 -0.23524943 -0.32911044 0.15473789 -0.11206257 0.34217858 -0.21078196 0.29757708 -0.14956418 -0.13227071 0.43671826 0.42617515 0.14333704 -0.039282672 0.0621976 0.49387807 0.086459875 0.43689474 -0.24256544 -0.46428797 0.040206138 0.07982887 0.19393407 -0.038068924 0.012171428 -0.51777923 0.55510634 -0.74022084 -0.47947714 0.5004146 0.429082 0.30020443 0.09826592 -0.4025681 0.16248432 0.53825134 -0.25360072 -0.1702103 -0.054100484 0.44299746 0.6310792 0.34705648 -0.31793943 0.3296506 -0.004635934 0.022487957 0.1553709 -0.12735212 0.55462813 -0.21162023 -0.35563675 -0.06224155 -0.08606945 0.23650032 -0.6021914 0.043092348 -0.47651237 0.34700987 0.2830494 -0.073756136 -0.17473416 0.09237977 0.17310981 0.120473005 0.24415521 0.22221595 -0.20161101 -0.7780203 -0.01051848 0.21359743 0.43640572 -0.7698689 -0.1558183 -0.3427308 -0.07430183 1.0467525 -0.7470551 -0.15446731 -0.18840776 -0.2012913
42 0.15295668 -0.15372309 0.058031775 0.33281657 0.28125322 0.23458217 0.10079538 0.32495883 -0.32471472 0.26478472 0.18621854 0.16148748 -0.6452697 -0.018972546 0.38411972 0.21932884 0.0154764475 0.13945988 -0.17435227 -0.022510273 -0.20961551 0.4592018 0.32191435 -0.20345406 -0.092044614 0.111176245 -0.13244237 -0.0071873255 -0.12771209 -0.21716079 0.47946122 0.08193953 0.16078675 0.09169201 -0.42615813 -0.11831845 0.5305658 -0.1821636 0.050901342 -0.031083884 -0.22085036 0.04038754 0.2011753 -0.2001915 0.36402902 -0.07038322 -0.56204116 0.33331984 -0.050112944 -0.2097225 -0.25000635 0.11144426 -0.08999505 0.3598483 -0.00031366263 0.230338 -0.10692085 -0.12504786 0.38523585 0.30203426 0.112546384 -0.15037811 0.20308255 0.41777068 0.102534086 0.4162708 -0.1642552 -0.31793067 0.05311532 0.19502324 0.11417069 -0.03962126 0.022061309 -0.50653905 0.402618 -0.5926352 -0.41909662 0.41515902 0.38699877 0.2636509 0.1289052 -0.3721178 0.069333054 0.48101908 -0.19474997 -0.06810681 0.06455314 0.38632786 0.6043333 0.39624488 -0.25484395 0.24695998 0.015011582 0.076644056 0.12361568 0.00024011833 0.49952936 -0.19653448 -0.2296966 -0.105828375 0.066623 0.1553174 -0.58150417 0.068920985 -0.46177837 0.39435235 0.3618239 -0.00916885 -0.26765496 0.0029612388 0.19427815 0.10954101 0.2785279 0.34929582 -0.19517778 -0.80169415 0.10406879 0.2903568 0.54555106 -0.7038769 -0.15761665 -0.43612552 -0.12694493 1.0804348 -0.7281127 -0.19949387 -0.11132766 -0.26688597
48 0.29286146 0.07822434 -0.20831192 -0.2291321 -0.04071205 0.19263369 -0.1226649 -0.16290157 -0.0016703104 -0.17103596 -0.16770886 0.25798026 0.26973107 -0.03040669 0.12299173 0.37526643 0.32031578 -0.075302474 0.15153715 0.054217707 0.16346101 -0.061984383 0.0584856 -0.20392436 0.08928265 -0.019301007 0.12704763 -0.21032801 0.10344539 -0.027762974 0.35597816 -0.16800009 0.13142888 0.07394114 -0.28371337 -0.005428132 -0.18010138 -0.21539083 -0.16892868 -0.043320082 -0.031161549 -0.068555735 0.030350417 -0.013609111 0.0070970682 0.1420142 -0.23773906 0.05597572 0.08449493 0.01066414 0.093012065 0.0855497 0.09463167 -0.19389632 -0.34362486 0.114254564 0.16111252 0.026143463 0.1960129 -0.103383236 -0.056945127 -0.13854158 -0.49148765 0.10984557 -0.008840358 -0.26507425 -0.04420494 -0.11391866 0.09946625 -0.10952603 0.01314296 -0.15405689 -0.083564356 0.034931526 0.34860703 -0.21450979 -0.0024544408 0.10556907 0.08998932 0.2287937 0.07594071 -0.23105289 -0.0045850044 0.2721467 -0.08130079 0.06216791 -0.3092963 -0.14587572 0.2086805 -0.17669025 -0.19667351 -0.04469058 0.14298055 0.07621089 0.055007868 -0.05276664 0.460949 -0.060524374 -0.20750077 -0.21627904 0.102961384 -0.034178186 -0.36707473 -0.056411322 -0.37643436 -0.15939356 0.071047 0.06453757 -0.009806999 0.3170704 0.044376813 0.2696773 0.12383631 0.03688327 -0.20475626 -0.1488284 -0.19726819 0.01808492 0.13128632 -0.40182 0.07965658 -0.017263548 0.018842459 0.35186943 -0.34343207 0.18713972 -0.032122184 -0.08299876
35 0.11366161 -0.4731988 0.2558904 -0.021970047 -0.0244075 0.047590643 -0.09068045 -0.047422115 0.17276165 -0.66183615 0.060289327 -0.1596531 -0.073499374 -0.009069943 0.091794506 0.05313637 0.28297237 0.07491427 0.15682784 -0.10416058 0.19176927 0.5652077 -0.16009238 -0.24215806 0.16944286 -0.007288793 -0.099535555 0.46968463 0.2838793 0.09710861 0.053152706 -0.0038682476 0.15694724 0.21497555 -0.018725744 -0.055127114 0.1474824 -0.31249502 0.037843034 0.22176059 -0.058471378 -0.1364911 0.10026249 -0.19258696 0.10216397 -0.036415856 -0.013845486 -0.35192746 -0.34058613 0.25865647 0.14271934 -0.24731755 0.36090943 -0.1038165 -0.48903498 0.11302642 0.27074465 -0.030321067 -0.3890361 -0.020688394 0.055273395 -0.49451107 0.069579266 0.16615476 0.22250634 0.044091668 -0.10398439 0.028971737 -0.3140759 -0.19366132 -0.0648228 -0.33450747 -0.56713986 0.03669654 -0.16978012 -0.47702524 -0.09210637 -0.005411807 -0.31520584 0.016920498 -0.007165859 -0.0719793 -0.044438582 0.07585242 0.4397297 -0.08841722 0.15011892 -0.188283 0.18461707 0.25132006 -0.11772579 -0.35569066 -0.19014622 0.08679215 0.33546975 -0.15741062 -0.1596866 -0.23091258 -0.20804963 -0.15778658 0.101684555 -0.24709596 -0.2629012 -0.12250743 -0.03649442 -0.3741134 -0.15694474 -0.06543171 0.18825412 -0.25867042 0.17779446 -0.09128724 0.12417392 0.12305293 -0.011082409 0.11734719 -0.13504602 0.10758462 0.038549006 -0.24980865 -0.06440126 -0.25258687 0.10709043 -0.023312297 0.13567652 -0.09776893 -0.14435694 0.112251684
32 0.29108256 0.16436996 -0.12087396 -0.21373485 -0.0049006287 0.05366633 0.100776464 -0.15094171 0.020600406 -0.07327215 -0.11219141 0.2620479 0.13026395 0.044489577 0.16545339 0.3261868 0.47485048 -0.09720753 0.0159742 0.037860647 0.23086938 -0.10832601 0.0633371 -0.2756831 0.062456712 -0.043471225 0.116773345 -0.16082874 0.046331804 0.08732837 0.32867378 -0.19069062 0.19522765 0.07851988 -0.26688823 -0.00784292 -0.2621012 -0.10354732 -0.16404411 -0.0451982 -0.0573219 0.014674149 0.061786864 -0.002405113 0.06730036 0.06594225 -0.19783324 0.10865298 0.06328195 0.010339256 0.090513125 0.087037586 -0.042134054 -0.13667862 -0.32932404 0.061810814 0.13477045 0.029295828 0.13183321 -0.01658321 -0.15095851 0.0437082 -0.45385686 0.09372409 0.010452776 -0.19168116 -0.050545994 -0.17210716 0.043363977 -0.012652679 0.12641476 -0.13531487 0.00012880168 -0.069152735 0.31981808 -0.16288833 0.040436454 0.15444303 0.06517368 0.18660772 0.13512199 -0.25839403 -0.05894774 0.22798963 -0.07315968 -0.06358954 -0.42425543 -0.11183855 0.2473999 -0.21248727 -0.29908732 0.040279094 0.16207118 0.027720027 0.12570296 -0.13653822 0.46764106 -0.048303362 -0.26251712 -0.22819774 0.035135042 -0.088251576 -0.1980731 0.10725939 -0.32845265 -0.29984078 0.1068227 -0.01463379 0.007118266 0.417497 -0.057188846 0.18251131 0.043226458 -0.10490489 -0.23805909 -0.0937834 -0.20320874 0.018986402 0.12395187 -0.46541953 0.11288607 -0.08218208 0.10801725 0.31364483 -0.41627604 0.03843901 -0.11105458 -0.16075173
36 0.031092234 -0.2997694 0.14843492 0.001293767 -0.037140355 0.10396389 -0.07806678 -0.04606345 0.19283983 -0.6469127 0.036598574 -0.08960844 -0.11622415 0.077317394 0.032887876 -0.017979706 0.20344949 0.03791148 0.03302204 -0.09889798 0.2453558 0.59884995 -0.14618357 -0.15985171 0.12497374 0.028927522 -0.15494825 0.4168756 0.28221786 0.15782423 0.007543057 0.046011947 0.1339967 0.11575768 -0.0035246676 -0.07038346 0.049876247 -0.4206529 -0.03614632 0.23946567 -0.19205838 -0.10286256 0.012624162 -0.1335195 0.112770155 -0.07148686 -0.036608167 -0.28650618 -0.2797174 0.19622974 0.14800361 -0.13153985 0.19450028 -0.030626412 -0.5204022 0.091041304 0.13018146 0.024240391 -0.24173899 -0.0008314109 0.027236225 -0.471489 0.1298216 0.18816642 -0.020383049 -0.024611907 -0.13315637 -0.03149171 -0.35672724 -0.17326827 -0.14904654 -0.26436818 -0.44972435 0.10208928 -0.034616284 -0.37347552 -0.12241584 0.05674067 -0.23224448 -0.14556481 -0.009024741 -0.2857851 0.052601643 0.15238899 0.32809255 -0.07959066 0.050903965 -0.26999202 0.21946025 0.25090557 -0.22512017 -0.25549826 -0.15493226 0.037472837 0.30632642 -0.123191416 0.060364265 -0.1657257 -0.28880963 -0.13047656 0.105742864 -0.30082998 -0.16529612 -0.08031601 -0.18968649 -0.397754 -0.16777274 -0.025092077 0.13273108 -0.12789944 0.21362542 -0.029739544 0.10192917 0.08491972 0.028661916 0.15546602 -0.09796085 -0.04118266 -0.06282666 -0.13692185 -0.058361698 -0.09022915 0.050546322 -0.0060366658 0.17650759 -0.06253733 -0.13822444 0.053851083
24 0.15263088 -0.34873492 0.23367096 0.015782643 -0.038393963 0.0754382 -0.020804334 0.0025345436 0.19391021 -0.6552353 -0.018989068 -0.14241363 -0.08396906 0.06121463 0.18875061 0.036997452 0.24762899 0.03630363 0.07654687 -0.07871505 0.26070374 0.60247684 -0.08138328 -0.24053867 0.12982032 0.049218517 -0.082903855 0.4553289 0.35211495 0.17534232 0.00068492966 0.006011142 0.11003569 0.16177732 -0.026274377 -0.052415933 0.056584887 -0.3403758 -0.027138429 0.1690109 -0.19583361 -0.16425155 0.042097688 -0.08804628 0.1327207 -0.061187617 -0.008425062 -0.32754174 -0.283547 0.24331985 0.103071295 -0.21994764 0.2571183 -0.01760116 -0.54205006 0.068511754 0.18788661 0.06614042 -0.29784843 -0.092765324 -0.011514383 -0.39060527 0.09288303 0.0993468 0.03755913 0.03187866 -0.10670592 -0.0644222 -0.32182363 -0.11996866 -0.11013112 -0.2164947 -0.5037543 0.10840687 -0.0539951 -0.40564477 -0.13808137 0.021140866 -0.26006547 -0.1323046 -0.037386306 -0.1608815 0.06901621 0.13917652 0.3936414 -0.16898398 0.14391167 -0.2812324 0.15521145 0.24594817 -0.1799459 -0.3949398 -0.1280961 0.06449676 0.26074645 -0.15789507 -0.00958763 -0.072793424 -0.3670439 -0.14985372 0.12826872 -0.23958075 -0.19759887 -0.1836869 -0.022232834 -0.3336214 -0.22724374 0.004164304 0.23354979 -0.1782142 0.19423862 -0.10191339 0.16723095 0.13962488 0.03104106 0.1344719 -0.07818677 -0.009475748 -0.0027590152 -0.24534264 -0.007875236 -0.08692672 0.061373416 0.07706018 0.05727908 -0.09801242 -0.17651533 0.09859921
30 0.16845977 -0.42800805 0.22165248 -0.1254328 -0.059185788 0.10249599 -0.16235985 0.0050706626 0.14799763 -0.5735922 0.037668023 -0.109658904 -0.0900047 0.076516435 0.059561756 0.06798504 0.23909077 0.13368927 0.20939073 -0.07247745 0.22663525 0.58011425 -0.08906472 -0.22753975 0.1408476 0.008384126 -0.08614705 0.46753338 0.32076558 0.08382065 0.13050582 0.052827317 0.20964465 0.25266603 -0.007955887 -0.012647229 0.1431609 -0.33180448 -0.033063676 0.23301342 -0.04006477 -0.0852724 0.02880437 -0.20874284 0.08455581 -0.010063407 -0.09645913 -0.30584577 -0.25055492 0.23835894 0.16909054 -0.17320015 0.28707787 -0.099130675 -0.5180081 0.09877393 0.15839046 0.009444445 -0.20174934 -0.06863443 -0.005215596 -0.45316625 0.030271051 0.16788784 0.14768176 0.0038363656 -0.111840636 0.030929612 -0.28511146 -0.24792184 -0.07766712 -0.43185222 -0.469255 0.016410273 -0.031889874 -0.38823637 -0.0657026 -0.022969345 -0.33000213 -0.020597717 -0.051151644 -0.15187418 -0.04751329 0.091976136 0.35795888 -0.105011635 0.07223222 -0.2784046 0.1143958 0.23745319 -0.13808739 -0.3570986 -0.20823805 0.052949555 0.23328692 -0.12873119 -0.04195109 -0.24631219 -0.18712404 -0.17647636 0.14216125 -0.24583547 -0.2582861 -0.16627836 -0.107098654 -0.37722117 -0.113313586 -0.0064024804 0.16183434 -0.12524137 0.18976948 -0.06032929 0.105440415 0.09817112 0.026263237 0.16956232 -0.18325031 0.009636395 0.008529898 -0.17392702 -0.0373993 -0.11743277 0.0775829 0.02710728 0.07936766 -0.0017766206 -0.14642628 0.07476498
12 -0.087804615 -0.02383765 -0.26309437 0.23470023 0.15086588 -0.012975349 0.36189348 -0.24022137 -0.03867334 -0.02765654 -0.15423882 0.27328074 0.30880764 -0.6024627 0.32389167 -0.0003529479 0.65524536 -0.1377741 -0.33892232 -0.027565433 -0.13686171 0.039561395 -0.4050056 0.20193036 -0.04089287 -0.021275286 -0.10866037 -0.17095384 0.12942675 -0.04569158 0.086426415 0.2238077 -0.11363021 -0.3326138 -0.23767847 -0.1227077 -0.0550135 0.05179854 0.108370155 0.039966587 0.055144817 -0.04959015 0.32295984 0.17088908 -0.22804436 -0.024108963 0.048373185 0.00083684636 0.15834118 -0.1528545 0.20100142 -0.16298337 0.13307796 -0.101531476 0.15823807 -0.074428014 -0.033580035 -0.069785014 -0.34986976 0.17524694 0.2142329 0.009437574 -0.08565627 0.2575961 0.3281332 -0.29910314 -0.16535996 0.011953195 -0.05087601 -0.3213489 0.29550734 0.12429732 -0.088316195 0.08168832 -0.21094824 -0.092287466 -0.034510702 -0.040082637 0.113385834 0.2495489 0.21937726 -0.061202325 0.022966564 0.14622568 0.029749947 0.2204772 0.03987309 0.09693488 0.2939564 -0.08537517 0.04996285 0.3496596 0.16106012 0.1575128 0.12666279 0.012028577 -0.018595342 -0.091339715 0.12196708 -0.10296943 0.006640493 -0.07530983 0.03604671 0.24265452 -0.30042034 -0.08164062 0.031140575 0.013354069 0.08416324 0.2195064 0.1184809 0.20758323 0.08038654 0.22378102 -0.12422663 -0.3008349 0.0911989 0.22042672 0.1506124 -0.03890845 0.057127714 -0.23210745 0.2082615 -0.23897947 0.047095686 -0.19661522 0.19172145 -0.15125462
67 0.024863692 -0.08529905 -0.351832 0.1599004 0.007819865 0.08198241 0.30446443 -0.15529191 0.029457109 -0.112685114 -0.24184413 0.24833053 0.3848917 -0.45207793 0.32602045 0.07628154 0.54476166 -0.127606 -0.32515898 0.012292969 -0.31339142 0.05711797 -0.09924453 0.0778462 -0.046520874 -0.006907778 -0.04743228 -0.09069849 0.12316665 0.010961475 0.14356586 0.14266145 -0.09074316 -0.34643057 -0.39895093 -0.10107191 -0.028767157 -0.083030626 0.05273056 0.058893166 0.00685597 -0.063325554 0.3678336 0.15527013 -0.0957547 -0.0072898073 0.015902288 0.022723535 0.1800164 -0.09979318 0.18587853 -0.2193959 0.20234472 0.047408503 0.11095204 0.046247672 0.007854134 0.11391589 -0.28247735 0.36164773 0.07002882 0.072439685 -0.25407985 0.26347134 0.30524904 -0.19776654 -0.10396617 -0.07468214 -0.11481106 -0.24823613 0.38668522 -0.019532785 0.040700596 -0.00374907 -0.06875861 0.07271635 0.049639847 -0.14142373 0.037714634 0.23897932 0.16300471 0.04284215 0.0032583813 0.062178366 0.074755214 0.33921754 -0.03495789 0.044588648 0.23250969 -0.15532315 -0.11389763 0.30587798 0.12320105 0.16120018 0.3242086 0.115136966 -0.070600085 -0.12766954 0.14975634 -0.0925289 -0.07933259 -0.09616442 0.12632425 0.22508496 -0.017064502 -0.1821415 -0.06290133 0.050023057 0.21367106 0.191667 -0.077479415 0.110029526 0.064818054 0.35697663 -0.32031137 -0.20321168 0.02972619 0.18474257 0.11258616 -0.00055229233 0.11398269 -0.14818445 0.017711848 -0.23135322 0.0981291 -0.09984167 0.2927664 -0.20267269
17 0.5863273 0.0109309135 0.5158999 0.063073784 0.16463454 -0.16446863 0.40455735 -0.14728594 -0.07077087 0.6186195 0.007454969 -0.33132896 -0.013834095 -0.33884892 1.1698295 0.15970735 0.2406439 0.2232573 -0.0982009 -0.16592665 -0.40372026 0.2257861 -0.23541814 0.13714108 -0.17838007 -0.34026057 0.5044443 0.10878869 0.11500377 0.28108743 -0.6512369 -0.198413 -0.18488039 -0.083780415 -0.48191318 0.08064811 -0.030225025 -0.10612575 0.47476515 0.10319375 -0.62309885 -0.33464158 0.051813405 0.110870175 0.057916652 -0.19365354 -0.33780885 0.118154466 0.23382176 -0.020579964 0.028932191 0.18574953 0.5480008 0.004787946 -0.18793504 0.27456206 0.070601925 0.36233586 0.30040988 0.24845216 -0.3124673 0.5947984 -0.890954 -0.119822614 0.31685814 -0.5282989 -0.3702279 -0.12343246 -0.13469298 -0.040400654 0.10897118 0.2455582 -0.20091553 -0.06654767 0.47514805 -0.22856042 -0.50636476 0.17421931 -0.1846669 0.6665626 -0.38832635 -0.26960495 0.08465112 0.6550918 -0.089549735 0.20207243 0.33407927 -0.31302956 -0.030960983 0.32484493 -0.1817481 -0.6031936 0.4363748 0.19204718 -0.13624121 0.51198137 -0.03576342 0.07039152 -0.20398213 -0.20870161 0.025911123 -0.49506387 0.20313159 0.08965178 -0.023471354 0.04244851 -0.123029634 -0.109981366 -0.25070998 0.0043537905 0.09759061 -0.12228692 0.3020885 -0.04302713 0.51521057 0.42270014 0.24166963 -0.13993749 -0.0331721 0.26097745 -0.07416211 0.31655496 -0.2582094 0.019581266 -0.026135389 -0.01940721 0.19278067 -0.1591721
52 0.74951124 0.0008694666 0.36655596 -0.017990053 0.02806575 -0.19555904 0.51962477 -0.14434777 -0.15890366 0.53498554 -0.06872508 -0.2580282 0.0067551285 -0.42880565 1.1577979 0.14096895 0.3512144 0.19194774 0.001303645 -0.24990383 -0.21327008 0.32310352 -0.16109978 0.05311652 -0.21840446 -0.25272137 0.31306118 0.063367225 0.30366117 0.18973635 -0.4756272 -0.17325477 -0.13886575 -0.08670369 -0.5956247 0.16107363 -0.065802775 -0.061431132 0.49114338 0.04583102 -0.57420355 -0.3476712 0.11019635 0.008957275 -0.00018239756 -0.13807906 -0.46158287 0.10231075 0.39625213 -0.02396909 0.1291406 0.14379424 0.48635432 -0.08260843 -0.20208013 0.21188855 0.0767247 0.40995884 0.15078765 0.060303926 -0.34888414 0.5375195 -0.80172414 -0.0833964 0.30063587 -0.42984527 -0.18912 -0.13156831 0.018980093 -0.103641726 0.25202495 0.37750515 -0.24421673 -0.12803748 0.43654048 -0.23498023 -0.45930734 0.21210968 -0.14062189 0.73011935 -0.32470757 -0.2217489 0.0818413 0.6096262 -0.13938574 0.12261747 0.22487757 -0.31896335 -0.108495675 0.3487265 -0.08292859 -0.6150261 0.44932476 0.3414333 -0.29717836 0.5172016 -0.17182802 0.105536856 -0.15270227 -0.22213036 0.13297732 -0.45527327 0.29476273 0.23676597 -0.03271114 0.19219553 -0.026338758 0.041488193 -0.41523042 0.028351912 0.01741428 -0.13015348 0.31082878 0.018638795 0.50554305 0.294696 0.18433866 -0.198848 0.038763177 0.29402074 -0.101676166 0.23810713 -0.22871666 -0.040238768 0.053387363 -0.088187195 0.16722837 -0.21639548
37 0.36605063 0.027626105 -0.30165267 0.07204879 0.27205598 0.41670713 0.22618446 -0.1549385 -0.20316705 -0.14174987 -0.02672807 0.27517304 0.37383315 -0.39416257 0.77718663 0.50932366 -0.3274739 -0.008770941 0.19902983 -0.2445776 -0.18817379 0.020794874 0.46549225 -0.29250127 0.1213819 0.13542113 -0.12708955 0.021693893 0.29483786 -0.071635425 0.16941081 -0.30641344 -0.08508734 -0.22306418 -0.25449607 -0.30576766 0.07975648 -0.2616059 -0.18241377 -0.07981909 0.008592618 -0.4604024 0.27318636 0.25418037 0.092071295 -0.013135587 -0.27493334 -0.23023507 -0.011567717 -0.00792267 -0.2236629 -0.003586149 0.5232281 0.21783403 -0.32438868 0.35034314 0.120862916 0.095768444 0.29192367 0.29739982 0.047143597 -0.26295823 -0.17348595 0.5264952 0.22040893 -0.18302748 -0.08066078 -0.27039465 -0.23159295 -0.58745396 0.37937614 -0.29950878 -0.29268795 -0.1041976 0.17238425 -1.1185218 -0.16193892 0.24814397 0.5163041 0.38092008 -0.103477575 -0.30857852 0.16133747 0.39351395 -0.025997225 -0.29165292 0.1381233 0.46854234 0.06273453 -0.020756083 0.03833545 0.043512996 0.30586419 0.1857105 -0.12119779 -0.45380464 -0.006308216 -0.033710282 -0.43317252 0.06766984 -0.05096364 0.39342508 -0.73689765 -0.2994075 -0.15860711 0.39701033 -0.14487615 0.21133684 -0.20107025 0.03710097 0.47580147 0.041832786 0.20989977 0.12420422 -0.016335946 -0.33864936 0.40421498 0.31401423 0.54041636 -0.7048551 -0.25295734 -0.056713145 -0.3287753 0.11441019 -0.41760632 -0.053240072 -0.05715669 -0.18176475
